{"learner":{"attributes":{"best_iteration":"32","best_score":"0.6930123813012067","scikit_learn":"{\"_estimator_type\": \"classifier\"}"},"feature_names":["engage_delta","catch_delta","range_delta","tankiness_delta","synergy_delta"],"feature_types":["float","float","float","float","float"],"gradient_booster":{"model":{"cats":{"enc":[],"feature_segments":[],"sorted_idx":[]},"gbtree_model_param":{"num_parallel_tree":"1","num_trees":"83"},"iteration_indptr":[0,1,2,3,4,5,6,7,8,9,10,11,12,13,14,15,16,17,18,19,20,21,22,23,24,25,26,27,28,29,30,31,32,33,34,35,36,37,38,39,40,41,42,43,44,45,46,47,48,49,50,51,52,53,54,55,56,57,58,59,60,61,62,63,64,65,66,67,68,69,70,71,72,73,74,75,76,77,78,79,80,81,82,83],"tree_info":[0,0,0,0,0,0,0,0,0,0,0,0,0,0,0,0,0,0,0,0,0,0,0,0,0,0,0,0,0,0,0,0,0,0,0,0,0,0,0,0,0,0,0,0,0,0,0,0,0,0,0,0,0,0,0,0,0,0,0,0,0,0,0,0,0,0,0,0,0,0,0,0,0,0,0,0,0,0,0,0,0,0,0],"trees":[{"base_weights":[4.328297E-2,1.4468327E-1,-1.1018499E-2,-3.2068635E-4,1.1959659E-2],"categories":[],"categories_nodes":[],"categories_segments":[],"categories_sizes":[],"default_left":[0,0,0,0,0],"id":0,"left_children":[1,3,-1,-1,-1],"loss_changes":[4.2637706E0,2.841482E0,0E0,0E0,0E0],"parents":[2147483647,0,0,1,1],"right_children":[2,4,-1,-1,-1],"split_conditions":[7.683937E-1,3.622504E-1,-1.1018499E-2,-3.2068635E-4,1.1959659E-2],"split_indices":[3,1,0,0,0],"split_type":[0,0,0,0,0],"sum_hessian":[1.1270665E2,8.871587E1,2.3990772E1,5.1230293E1,3.748558E1],"tree_param":{"num_deleted":"0","num_feature":"5","num_nodes":"5","size_leaf_vector":"1"}},{"base_weights":[-8.9097805E-2,-3.1632593E-1,1.4149411E-1,-1.5130244E-2,2.3623423E-3,8.6925635E-3,3.7311038E-4],"categories":[],"categories_nodes":[],"categories_segments":[],"categories_sizes":[],"default_left":[0,0,0,0,0,0,0],"id":1,"left_children":[1,3,5,-1,-1,-1,-1],"loss_changes":[6.2777314E0,2.9668112E0,8.778349E-1,0E0,0E0,0E0,0E0],"parents":[2147483647,0,0,1,1,2,2],"right_children":[2,4,6,-1,-1,-1,-1],"split_conditions":[3.622504E-1,8.341222E-1,-9.091826E-2,-1.5130244E-2,2.3623423E-3,8.6925635E-3,3.7311038E-4],"split_indices":[1,2,2,0,0,0,0],"split_type":[0,0,0,0,0,0,0],"sum_hessian":[1.1795675E2,5.9224445E1,5.87323E1,4.448033E1,1.4744116E1,3.0988567E1,2.7743732E1],"tree_param":{"num_deleted":"0","num_feature":"5","num_nodes":"7","size_leaf_vector":"1"}},{"base_weights":[6.868108E-2,3.351016E-1,-7.937453E-2,1.4624609E-2,6.020468E-3,-6.6236486E-3,8.914335E-3],"categories":[],"categories_nodes":[],"categories_segments":[],"categories_sizes":[],"default_left":[0,0,0,0,0,0,0],"id":2,"left_children":[1,3,5,-1,-1,-1,-1],"loss_changes":[4.8071327E0,5.6655693E-1,3.1165438E0,0E0,0E0,0E0,0E0],"parents":[2147483647,0,0,1,1,2,2],"right_children":[2,4,6,-1,-1,-1,-1],"split_conditions":[-4.1757047E-1,3.260642E-1,1.2252315E0,1.4624609E-2,6.020468E-3,-6.6236486E-3,8.914335E-3],"split_indices":[3,4,0,0,0,0,0],"split_type":[0,0,0,0,0,0,0],"sum_hessian":[1.2019477E2,4.248366E1,7.7711105E1,2.5740273E1,1.674339E1,5.847019E1,1.9240921E1],"tree_param":{"num_deleted":"0","num_feature":"5","num_nodes":"7","size_leaf_vector":"1"}},{"base_weights":[3.8443126E-2,-4.0722344E-2,1.2132559E-2,7.2710714E-3,-6.892904E-3],"categories":[],"categories_nodes":[],"categories_segments":[],"categories_sizes":[],"default_left":[0,0,0,0,0],"id":3,"left_children":[1,3,-1,-1,-1],"loss_changes":[3.071162E0,4.061575E0,0E0,0E0,0E0],"parents":[2147483647,0,0,1,1],"right_children":[2,4,-1,-1,-1],"split_conditions":[1.2252315E0,-1.0193065E-1,1.2132559E-2,7.2710714E-3,-6.892904E-3],"split_indices":[0,2,0,0,0],"split_type":[0,0,0,0,0],"sum_hessian":[1.2094403E2,9.7450584E1,2.3493444E1,3.7726112E1,5.9724472E1],"tree_param":{"num_deleted":"0","num_feature":"5","num_nodes":"5","size_leaf_vector":"1"}},{"base_weights":[-2.0129753E-2,1.5849237E-1,-3.7258092E-1,1.6275777E-2,3.4719845E-4,-2.1061448E-2,-5.4666614E-3],"categories":[],"categories_nodes":[],"categories_segments":[],"categories_sizes":[],"default_left":[0,0,0,0,0,0,0],"id":4,"left_children":[1,3,5,-1,-1,-1,-1],"loss_changes":[7.6731634E0,3.8124197E0,2.0253205E0,0E0,0E0,0E0,0E0],"parents":[2147483647,0,0,1,1,2,2],"right_children":[2,4,6,-1,-1,-1,-1],"split_conditions":[4.1987917E-1,8.193215E-3,5.218839E-1,1.6275777E-2,3.4719845E-4,-2.1061448E-2,-5.4666614E-3],"split_indices":[3,2,0,0,0,0,0],"split_type":[0,0,0,0,0,0,0],"sum_hessian":[1.19944214E2,7.9967186E1,3.9977028E1,2.4741098E1,5.522609E1,1.773642E1,2.2240608E1],"tree_param":{"num_deleted":"0","num_feature":"5","num_nodes":"7","size_leaf_vector":"1"}},{"base_weights":[-1.2843524E-2,1.6053908E-2,-1.2245067E-1,1.770016E-3,-1.1369223E-2],"categories":[],"categories_nodes":[],"categories_segments":[],"categories_sizes":[],"default_left":[0,0,0,0,0],"id":5,"left_children":[1,-1,3,-1,-1],"loss_changes":[6.4293785E0,0E0,3.642809E0,0E0,0E0],"parents":[2147483647,0,0,2,2],"right_children":[2,-1,4,-1,-1],"split_conditions":[-8.244773E-1,1.6053908E-2,8.193215E-3,1.770016E-3,-1.1369223E-2],"split_indices":[3,0,2,0,0],"split_type":[0,0,0,0,0],"sum_hessian":[1.1943802E2,2.1494545E1,9.7943474E1,5.397276E1,4.397071E1],"tree_param":{"num_deleted":"0","num_feature":"5","num_nodes":"5","size_leaf_vector":"1"}},{"base_weights":[-1.1236712E-1,-3.8051662E-1,1.6475335E-1,-5.2399565E-3,-2.8057806E-2,-3.040041E-3,1.9883214E-2],"categories":[],"categories_nodes":[],"categories_segments":[],"categories_sizes":[],"default_left":[0,0,0,0,0,0,0],"id":6,"left_children":[1,3,5,-1,-1,-1,-1],"loss_changes":[8.491901E0,5.6748056E0,6.02994E0,0E0,0E0,0E0,0E0],"parents":[2147483647,0,0,1,1,2,2],"right_children":[2,4,6,-1,-1,-1,-1],"split_conditions":[3.622504E-1,4.1839626E-1,3.9411953E-1,-5.2399565E-3,-2.8057806E-2,-3.040041E-3,1.9883214E-2],"split_indices":[1,4,4,0,0,0,0],"split_type":[0,0,0,0,0,0,0],"sum_hessian":[1.1243349E2,5.695202E1,5.548147E1,3.8468353E1,1.8483667E1,3.498781E1,2.049366E1],"tree_param":{"num_deleted":"0","num_feature":"5","num_nodes":"7","size_leaf_vector":"1"}},{"base_weights":[-7.9252005E-2,-3.6776102E-1,2.2036488E-1,-8.220377E-3,-2.3768757E-2,1.4224337E-2,-1.445352E-3],"categories":[],"categories_nodes":[],"categories_segments":[],"categories_sizes":[],"default_left":[0,0,0,0,0,0,0],"id":7,"left_children":[1,3,5,-1,-1,-1,-1],"loss_changes":[1.1245216E1,2.5918102E0,3.3103697E0,0E0,0E0,0E0,0E0],"parents":[2147483647,0,0,1,1,2,2],"right_children":[2,4,6,-1,-1,-1,-1],"split_conditions":[3.622504E-1,3.9383516E-1,1.1619201E0,-8.220377E-3,-2.3768757E-2,1.4224337E-2,-1.445352E-3],"split_indices":[1,3,1,0,0,0,0],"split_type":[0,0,0,0,0,0,0],"sum_hessian":[1.2815196E2,6.517031E1,6.2981647E1,4.8205162E1,1.6965147E1,3.573835E1,2.72433E1],"tree_param":{"num_deleted":"0","num_feature":"5","num_nodes":"7","size_leaf_vector":"1"}},{"base_weights":[5.2957637E-3,-9.2209205E-2,1.37076285E-2,3.0150882E-3,-1.157315E-2],"categories":[],"categories_nodes":[],"categories_segments":[],"categories_sizes":[],"default_left":[0,0,0,0,0],"id":8,"left_children":[1,3,-1,-1,-1],"loss_changes":[4.6354833E0,4.3178353E0,0E0,0E0,0E0],"parents":[2147483647,0,0,1,1],"right_children":[2,4,-1,-1,-1],"split_conditions":[8.341222E-1,-9.091826E-2,1.37076285E-2,3.0150882E-3,-1.157315E-2],"split_indices":[2,2,0,0,0],"split_type":[0,0,0,0,0],"sum_hessian":[1.1813183E2,9.540144E1,2.2730383E1,5.545035E1,3.9951096E1],"tree_param":{"num_deleted":"0","num_feature":"5","num_nodes":"5","size_leaf_vector":"1"}},{"base_weights":[-1.4536205E-2,-2.424247E-1,2.2115663E-1,-2.6322985E-3,-2.0203141E-2,1.6247481E-3,1.6710578E-2],"categories":[],"categories_nodes":[],"categories_segments":[],"categories_sizes":[],"default_left":[0,0,0,0,0,0,0],"id":9,"left_children":[1,3,5,-1,-1,-1,-1],"loss_changes":[6.277235E0,3.380831E0,2.6502495E0,0E0,0E0,0E0,0E0],"parents":[2147483647,0,0,1,1,2,2],"right_children":[2,4,6,-1,-1,-1,-1],"split_conditions":[3.622504E-1,4.2304024E-1,2.031155E-1,-2.6322985E-3,-2.0203141E-2,1.6247481E-3,1.6710578E-2],"split_indices":[1,4,4,0,0,0,0],"split_type":[0,0,0,0,0,0,0],"sum_hessian":[1.148709E2,5.8387848E1,5.648305E1,4.0437542E1,1.7950306E1,3.4987762E1,2.1495289E1],"tree_param":{"num_deleted":"0","num_feature":"5","num_nodes":"7","size_leaf_vector":"1"}},{"base_weights":[8.3815865E-2,1.780098E-1,-7.888914E-3,1.2887917E-2,-2.4105118E-4],"categories":[],"categories_nodes":[],"categories_segments":[],"categories_sizes":[],"default_left":[0,0,0,0,0],"id":10,"left_children":[1,3,-1,-1,-1],"loss_changes":[3.452856E0,3.288624E0,0E0,0E0,0E0],"parents":[2147483647,0,0,1,1],"right_children":[2,4,-1,-1,-1],"split_conditions":[7.7693033E-1,1.18317075E-1,-7.888914E-3,1.2887917E-2,-2.4105118E-4],"split_indices":[3,2,0,0,0],"split_type":[0,0,0,0,0],"sum_hessian":[1.1409695E2,8.81473E1,2.5949648E1,4.19553E1,4.6192E1],"tree_param":{"num_deleted":"0","num_feature":"5","num_nodes":"5","size_leaf_vector":"1"}},{"base_weights":[-6.2247284E-2,-1.6901003E-2,1.8744484E-2,1.1352085E-2,-3.5798573E-3],"categories":[],"categories_nodes":[],"categories_segments":[],"categories_sizes":[],"default_left":[0,0,0,0,0],"id":11,"left_children":[1,-1,3,-1,-1],"loss_changes":[4.3812904E0,0E0,4.143536E0,0E0,0E0],"parents":[2147483647,0,0,2,2],"right_children":[2,-1,4,-1,-1],"split_conditions":[-1.1487129E0,-1.6901003E-2,-6.770185E-1,1.1352085E-2,-3.5798573E-3],"split_indices":[4,0,3,0,0],"split_type":[0,0,0,0,0],"sum_hessian":[1.2384493E2,1.8732416E1,1.0511252E2,2.923118E1,7.588134E1],"tree_param":{"num_deleted":"0","num_feature":"5","num_nodes":"5","size_leaf_vector":"1"}},{"base_weights":[1.1705806E-2,-4.6115004E-2,1.1902604E-2,1.3746576E-3,-1.4043954E-2],"categories":[],"categories_nodes":[],"categories_segments":[],"categories_sizes":[],"default_left":[0,0,0,0,0],"id":12,"left_children":[1,3,-1,-1,-1],"loss_changes":[2.4555144E0,3.4143004E0,0E0,0E0,0E0],"parents":[2147483647,0,0,1,1],"right_children":[2,4,-1,-1,-1],"split_conditions":[1.1094319E0,5.588125E-1,1.1902604E-2,1.3746576E-3,-1.4043954E-2],"split_indices":[2,2,0,0,0],"split_type":[0,0,0,0,0],"sum_hessian":[1.2432596E2,1.0683858E2,1.7487383E1,8.711449E1,1.9724089E1],"tree_param":{"num_deleted":"0","num_feature":"5","num_nodes":"5","size_leaf_vector":"1"}},{"base_weights":[-9.137327E-2,1.859804E-1,-2.3967932E-1,-1.0778365E-3,1.6318802E-2,-1.573213E-2,-1.8628696E-3],"categories":[],"categories_nodes":[],"categories_segments":[],"categories_sizes":[],"default_left":[0,0,0,0,0,0,0],"id":13,"left_children":[1,3,5,-1,-1,-1,-1],"loss_changes":[4.932541E0,2.6770964E0,3.1575246E0,0E0,0E0,0E0,0E0],"parents":[2147483647,0,0,1,1,2,2],"right_children":[2,4,6,-1,-1,-1,-1],"split_conditions":[-3.7688187E-1,3.622504E-1,3.622504E-1,-1.0778365E-3,1.6318802E-2,-1.573213E-2,-1.8628696E-3],"split_indices":[3,1,1,0,0,0,0],"split_type":[0,0,0,0,0,0,0],"sum_hessian":[1.1783253E2,4.096606E1,7.686646E1,2.3974445E1,1.6991617E1,3.4385788E1,4.248068E1],"tree_param":{"num_deleted":"0","num_feature":"5","num_nodes":"7","size_leaf_vector":"1"}},{"base_weights":[-5.4451205E-2,2.1289499E-1,-2.9614082E-1,2.3116815E-4,1.690285E-2,-1.6114013E-2,6.7080874E-3],"categories":[],"categories_nodes":[],"categories_segments":[],"categories_sizes":[],"default_left":[0,0,0,0,0,0,0],"id":14,"left_children":[1,3,5,-1,-1,-1,-1],"loss_changes":[7.868564E0,3.3619957E0,5.610778E0,0E0,0E0,0E0,0E0],"parents":[2147483647,0,0,1,1,2,2],"right_children":[2,4,6,-1,-1,-1,-1],"split_conditions":[-5.984757E-2,-5.886239E-1,1.2252315E0,2.3116815E-4,1.690285E-2,-1.6114013E-2,6.7080874E-3],"split_indices":[3,3,0,0,0,0,0],"split_type":[0,0,0,0,0,0,0],"sum_hessian":[1.1980075E2,5.6937824E1,6.2862926E1,3.347496E1,2.3462866E1,4.638047E1,1.6482456E1],"tree_param":{"num_deleted":"0","num_feature":"5","num_nodes":"7","size_leaf_vector":"1"}},{"base_weights":[3.331693E-2,-3.5152476E-2,1.1657363E-2,2.5831403E-3,-7.952568E-3],"categories":[],"categories_nodes":[],"categories_segments":[],"categories_sizes":[],"default_left":[0,0,0,0,0],"id":15,"left_children":[1,3,-1,-1,-1],"loss_changes":[2.5470552E0,2.1904635E0,0E0,0E0,0E0],"parents":[2147483647,0,0,1,1],"right_children":[2,4,-1,-1,-1],"split_conditions":[8.341222E-1,5.224276E-2,1.1657363E-2,2.5831403E-3,-7.952568E-3],"split_indices":[2,2,0,0,0],"split_type":[0,0,0,0,0],"sum_hessian":[1.1926786E2,9.829246E1,2.0975399E1,6.3382996E1,3.4909466E1],"tree_param":{"num_deleted":"0","num_feature":"5","num_nodes":"5","size_leaf_vector":"1"}},{"base_weights":[1.0004527E-1,3.401407E-1,-1.3417776E-1,6.428072E-3,2.5980722E-2,-9.828809E-3,9.775933E-3],"categories":[],"categories_nodes":[],"categories_segments":[],"categories_sizes":[],"default_left":[0,0,0,0,0,0,0],"id":16,"left_children":[1,3,5,-1,-1,-1,-1],"loss_changes":[7.006196E0,3.7794104E0,4.169929E0,0E0,0E0,0E0,0E0],"parents":[2147483647,0,0,1,1,2,2],"right_children":[2,4,6,-1,-1,-1,-1],"split_conditions":[8.193215E-3,-2.120545E-1,6.966451E-1,6.428072E-3,2.5980722E-2,-9.828809E-3,9.775933E-3],"split_indices":[2,2,4,0,0,0,0],"split_type":[0,0,0,0,0,0,0],"sum_hessian":[1.2277429E2,6.0403824E1,6.237047E1,4.5420708E1,1.4983116E1,4.5918034E1,1.6452433E1],"tree_param":{"num_deleted":"0","num_feature":"5","num_nodes":"7","size_leaf_vector":"1"}},{"base_weights":[-1.7537568E-2,2.4478288E-1,-1.4358884E-1,-1.0310519E-3,1.7811118E-2,-1.4127003E-3,-2.0020295E-2],"categories":[],"categories_nodes":[],"categories_segments":[],"categories_sizes":[],"default_left":[0,0,0,0,0,0,0],"id":17,"left_children":[1,3,5,-1,-1,-1,-1],"loss_changes":[4.1190763E0,3.0912838E0,3.7771497E0,0E0,0E0,0E0,0E0],"parents":[2147483647,0,0,1,1,2,2],"right_children":[2,4,6,-1,-1,-1,-1],"split_conditions":[-4.1757047E-1,3.622504E-1,4.5970103E-1,-1.0310519E-3,1.7811118E-2,-1.4127003E-3,-2.0020295E-2],"split_indices":[3,1,2,0,0,0,0],"split_type":[0,0,0,0,0,0,0],"sum_hessian":[1.2250905E2,3.9456245E1,8.30528E1,2.0229406E1,1.9226837E1,6.8347855E1,1.4704945E1],"tree_param":{"num_deleted":"0","num_feature":"5","num_nodes":"7","size_leaf_vector":"1"}},{"base_weights":[3.395149E-2,-1.713098E-2,1.1538849E-1,1.1753181E-2,-3.415673E-3],"categories":[],"categories_nodes":[],"categories_segments":[],"categories_sizes":[],"default_left":[0,0,0,0,0],"id":18,"left_children":[1,-1,3,-1,-1],"loss_changes":[5.266342E0,0E0,5.1792064E0,0E0,0E0],"parents":[2147483647,0,0,2,2],"right_children":[2,-1,4,-1,-1],"split_conditions":[-1.217246E0,-1.713098E-2,-7.562901E-2,1.1753181E-2,-3.415673E-3],"split_indices":[4,0,3,0,0],"split_type":[0,0,0,0,0],"sum_hessian":[1.1847624E2,1.4962967E1,1.03513275E2,4.992425E1,5.3589024E1],"tree_param":{"num_deleted":"0","num_feature":"5","num_nodes":"5","size_leaf_vector":"1"}},{"base_weights":[4.9055833E-2,-1.122932E-2,1.6793941E-1,-5.07931E-3,9.8875575E-3],"categories":[],"categories_nodes":[],"categories_segments":[],"categories_sizes":[],"default_left":[0,0,0,0,0],"id":19,"left_children":[1,-1,3,-1,-1],"loss_changes":[5.1842756E0,0E0,3.4086301E0,0E0,0E0],"parents":[2147483647,0,0,2,2],"right_children":[2,-1,4,-1,-1],"split_conditions":[-6.716292E-1,-1.122932E-2,-1.8146367E-1,-5.07931E-3,9.8875575E-3],"split_indices":[4,0,0,0,0],"split_type":[0,0,0,0,0],"sum_hessian":[1.1322821E2,2.6684877E1,8.654333E1,2.3930248E1,6.2613083E1],"tree_param":{"num_deleted":"0","num_feature":"5","num_nodes":"5","size_leaf_vector":"1"}},{"base_weights":[-4.3991874E-3,8.429918E-2,-2.0609549E-1,8.68778E-3,-6.7338124E-3,2.1368272E-3,-1.2998478E-2],"categories":[],"categories_nodes":[],"categories_segments":[],"categories_sizes":[],"default_left":[0,0,0,0,0,0,0],"id":20,"left_children":[1,3,5,-1,-1,-1,-1],"loss_changes":[2.1768055E0,4.0933456E0,1.763889E0,0E0,0E0,0E0,0E0],"parents":[2147483647,0,0,1,1,2,2],"right_children":[2,4,6,-1,-1,-1,-1],"split_conditions":[5.588125E-1,5.263083E-1,-7.576413E-1,8.68778E-3,-6.7338124E-3,2.1368272E-3,-1.2998478E-2],"split_indices":[2,3,3,0,0,0,0],"split_type":[0,0,0,0,0,0,0],"sum_hessian":[1.1970519E2,8.3546616E1,3.6158577E1,5.2145187E1,3.1401428E1,1.44824095E1,2.1676167E1],"tree_param":{"num_deleted":"0","num_feature":"5","num_nodes":"7","size_leaf_vector":"1"}},{"base_weights":[7.968741E-2,2.4461645E-1,-1.210484E-1,2.1388596E-2,3.0453047E-3,-1.0718191E-2,5.1381737E-3],"categories":[],"categories_nodes":[],"categories_segments":[],"categories_sizes":[],"default_left":[0,0,0,0,0,0,0],"id":21,"left_children":[1,3,5,-1,-1,-1,-1],"loss_changes":[3.7862742E0,3.657468E0,2.7580953E0,0E0,0E0,0E0,0E0],"parents":[2147483647,0,0,1,1,2,2],"right_children":[2,4,6,-1,-1,-1,-1],"split_conditions":[1.18317075E-1,-4.766269E-2,5.218839E-1,2.1388596E-2,3.0453047E-3,-1.0718191E-2,5.1381737E-3],"split_indices":[2,3,0,0,0,0,0],"split_type":[0,0,0,0,0,0,0],"sum_hessian":[1.1246982E2,6.1621563E1,5.0848255E1,1.6971716E1,4.4649845E1,2.9649666E1,2.119859E1],"tree_param":{"num_deleted":"0","num_feature":"5","num_nodes":"7","size_leaf_vector":"1"}},{"base_weights":[7.082547E-2,1.6701056E-1,-1.0018569E-2,-2.6538868E-3,1.1292315E-2],"categories":[],"categories_nodes":[],"categories_segments":[],"categories_sizes":[],"default_left":[0,0,0,0,0],"id":22,"left_children":[1,3,-1,-1,-1],"loss_changes":[4.2047443E0,3.8063352E0,0E0,0E0,0E0],"parents":[2147483647,0,0,1,1],"right_children":[2,4,-1,-1,-1],"split_conditions":[7.5033855E-1,-3.4536418E-1,-1.0018569E-2,-2.6538868E-3,1.1292315E-2],"split_indices":[3,4,0,0,0],"split_type":[0,0,0,0,0],"sum_hessian":[1.1768706E2,9.35187E1,2.4168354E1,3.7666496E1,5.5852207E1],"tree_param":{"num_deleted":"0","num_feature":"5","num_nodes":"5","size_leaf_vector":"1"}},{"base_weights":[5.1701438E-2,-1.4895074E-1,2.6559865E-1,2.4654762E-5,-1.4792501E-2,1.632276E-2,-2.0608828E-4],"categories":[],"categories_nodes":[],"categories_segments":[],"categories_sizes":[],"default_left":[0,0,0,0,0,0,0],"id":23,"left_children":[1,3,5,-1,-1,-1,-1],"loss_changes":[5.207947E0,2.6684494E0,3.3818307E0,0E0,0E0,0E0,0E0],"parents":[2147483647,0,0,1,1,2,2],"right_children":[2,4,6,-1,-1,-1,-1],"split_conditions":[3.622504E-1,4.2304024E-1,1.1619201E0,2.4654762E-5,-1.4792501E-2,1.632276E-2,-2.0608828E-4],"split_indices":[1,4,1,0,0,0,0],"split_type":[0,0,0,0,0,0,0],"sum_hessian":[1.1942201E2,6.177547E1,5.7646545E1,4.11069E1,2.066857E1,3.1943714E1,2.5702831E1],"tree_param":{"num_deleted":"0","num_feature":"5","num_nodes":"7","size_leaf_vector":"1"}},{"base_weights":[-6.5350905E-2,1.2198811E-2,-1.4828217E-1,-8.782526E-3,8.154098E-3],"categories":[],"categories_nodes":[],"categories_segments":[],"categories_sizes":[],"default_left":[0,0,0,0,0],"id":24,"left_children":[1,-1,3,-1,-1],"loss_changes":[4.3578544E0,0E0,4.413788E0,0E0,0E0],"parents":[2147483647,0,0,2,2],"right_children":[2,-1,4,-1,-1],"split_conditions":[-9.1203487E-1,1.2198811E-2,1.2252315E0,-8.782526E-3,8.154098E-3],"split_indices":[3,0,0,0,0],"split_type":[0,0,0,0,0],"sum_hessian":[1.21901405E2,1.9464472E1,1.0243693E2,8.022432E1,2.2212608E1],"tree_param":{"num_deleted":"0","num_feature":"5","num_nodes":"5","size_leaf_vector":"1"}},{"base_weights":[-8.68138E-2,-3.022342E-1,1.4614823E-1,-1.6429063E-3,-1.6095418E-2,1.1212789E-2,1.595015E-3],"categories":[],"categories_nodes":[],"categories_segments":[],"categories_sizes":[],"default_left":[0,0,0,0,0,0,0],"id":25,"left_children":[1,3,5,-1,-1,-1,-1],"loss_changes":[6.0725765E0,2.6691942E0,1.0417172E0,0E0,0E0,0E0,0E0],"parents":[2147483647,0,0,1,1,2,2],"right_children":[2,4,6,-1,-1,-1,-1],"split_conditions":[3.622504E-1,8.193215E-3,-5.9748805E-1,-1.6429063E-3,-1.6095418E-2,1.1212789E-2,1.595015E-3],"split_indices":[1,2,2,0,0,0,0],"split_type":[0,0,0,0,0,0,0],"sum_hessian":[1.191242E2,6.17378E1,5.7386402E1,2.515418E1,3.658362E1,1.9466583E1,3.791982E1],"tree_param":{"num_deleted":"0","num_feature":"5","num_nodes":"7","size_leaf_vector":"1"}},{"base_weights":[-5.247005E-3,2.013657E-1,-1.7491508E-1,1.417638E-2,-3.1490505E-3,-1.4547777E-2,8.982387E-3],"categories":[],"categories_nodes":[],"categories_segments":[],"categories_sizes":[],"default_left":[0,0,0,0,0,0,0],"id":26,"left_children":[1,3,5,-1,-1,-1,-1],"loss_changes":[4.263634E0,3.4762208E0,7.4442406E0,0E0,0E0,0E0,0E0],"parents":[2147483647,0,0,1,1,2,2],"right_children":[2,4,6,-1,-1,-1,-1],"split_conditions":[-9.091826E-2,7.298237E-1,8.341222E-1,1.417638E-2,-3.1490505E-3,-1.4547777E-2,8.982387E-3],"split_indices":[2,3,2,0,0,0,0],"split_type":[0,0,0,0,0,0,0],"sum_hessian":[1.1962024E2,5.3853504E1,6.576674E1,3.0935797E1,2.2917707E1,4.182793E1,2.3938803E1],"tree_param":{"num_deleted":"0","num_feature":"5","num_nodes":"7","size_leaf_vector":"1"}},{"base_weights":[2.3241192E-2,1.0571896E-1,-9.462523E-3,1.8735135E-2,-6.1590236E-4],"categories":[],"categories_nodes":[],"categories_segments":[],"categories_sizes":[],"default_left":[0,0,0,0,0],"id":27,"left_children":[1,3,-1,-1,-1],"loss_changes":[3.0260077E0,5.2498784E0,0E0,0E0,0E0],"parents":[2147483647,0,0,1,1],"right_children":[2,4,-1,-1,-1],"split_conditions":[7.683937E-1,-5.424261E-1,-9.462523E-3,1.8735135E-2,-6.1590236E-4],"split_indices":[3,2,0,0,0],"split_type":[0,0,0,0,0],"sum_hessian":[1.20041885E2,9.467601E1,2.5365871E1,1.993702E1,7.473899E1],"tree_param":{"num_deleted":"0","num_feature":"5","num_nodes":"5","size_leaf_vector":"1"}},{"base_weights":[6.738724E-2,-3.8603873E-3,1.2049488E-1,2.0066882E-3,1.1306146E-2],"categories":[],"categories_nodes":[],"categories_segments":[],"categories_sizes":[],"default_left":[0,0,0,0,0],"id":28,"left_children":[1,-1,3,-1,-1],"loss_changes":[1.2182508E0,0E0,1.2494034E0,0E0,0E0],"parents":[2147483647,0,0,2,2],"right_children":[2,-1,4,-1,-1],"split_conditions":[-8.343261E-1,-3.8603873E-3,8.341222E-1,2.0066882E-3,1.1306146E-2],"split_indices":[4,0,2,0,0],"split_type":[0,0,0,0,0],"sum_hessian":[1.24759926E2,2.812226E1,9.6637665E1,7.5694885E1,2.0942783E1],"tree_param":{"num_deleted":"0","num_feature":"5","num_nodes":"5","size_leaf_vector":"1"}},{"base_weights":[-2.7675375E-2,-3.0152014E-1,2.708155E-1,2.2261096E-3,-1.7495591E-2,2.503202E-3,1.5344784E-2],"categories":[],"categories_nodes":[],"categories_segments":[],"categories_sizes":[],"default_left":[0,0,0,0,0,0,0],"id":29,"left_children":[1,3,5,-1,-1,-1,-1],"loss_changes":[9.791898E0,4.8521075E0,1.9874482E0,0E0,0E0,0E0,0E0],"parents":[2147483647,0,0,1,1,2,2],"right_children":[2,4,6,-1,-1,-1,-1],"split_conditions":[3.622504E-1,-4.3741933E-1,6.1639525E-2,2.2261096E-3,-1.7495591E-2,2.503202E-3,1.5344784E-2],"split_indices":[1,1,3,0,0,0,0],"split_type":[0,0,0,0,0,0,0],"sum_hessian":[1.1779401E2,6.142795E1,5.6366055E1,2.2656149E1,3.8771805E1,2.7406181E1,2.8959873E1],"tree_param":{"num_deleted":"0","num_feature":"5","num_nodes":"7","size_leaf_vector":"1"}},{"base_weights":[-2.843419E-2,1.300056E-2,-1.2009953E-1,-2.4006283E-4,-1.1634484E-2],"categories":[],"categories_nodes":[],"categories_segments":[],"categories_sizes":[],"default_left":[0,0,0,0,0],"id":30,"left_children":[1,-1,3,-1,-1],"loss_changes":[4.487392E0,0E0,2.4289236E0,0E0,0E0],"parents":[2147483647,0,0,2,2],"right_children":[2,-1,4,-1,-1],"split_conditions":[-9.1203487E-1,1.300056E-2,5.383588E-1,-2.4006283E-4,-1.1634484E-2],"split_indices":[3,0,3,0,0],"split_type":[0,0,0,0,0],"sum_hessian":[1.1749818E2,2.0939125E1,9.655905E1,6.449997E1,3.205908E1],"tree_param":{"num_deleted":"0","num_feature":"5","num_nodes":"5","size_leaf_vector":"1"}},{"base_weights":[-5.7212945E-2,-2.1450947E-1,1.3227321E-1,-2.1285217E-3,-1.13679925E-2,8.034909E-3,-2.6874265E-3],"categories":[],"categories_nodes":[],"categories_segments":[],"categories_sizes":[],"default_left":[0,0,0,0,0,0,0],"id":31,"left_children":[1,3,5,-1,-1,-1,-1],"loss_changes":[3.6407819E0,1.1775515E0,1.22486E0,0E0,0E0,0E0,0E0],"parents":[2147483647,0,0,1,1,2,2],"right_children":[2,4,6,-1,-1,-1,-1],"split_conditions":[3.622504E-1,5.224276E-2,5.182264E-1,-2.1285217E-3,-1.13679925E-2,8.034909E-3,-2.6874265E-3],"split_indices":[1,2,3,0,0,0,0],"split_type":[0,0,0,0,0,0,0],"sum_hessian":[1.2019932E2,6.560617E1,5.4593147E1,2.9343052E1,3.626312E1,3.661774E1,1.7975409E1],"tree_param":{"num_deleted":"0","num_feature":"5","num_nodes":"7","size_leaf_vector":"1"}},{"base_weights":[-4.75806E-2,-2.6173377E-1,1.7518948E-1,-4.3871338E-3,-1.8469557E-2,2.6009246E-3,1.5720464E-2],"categories":[],"categories_nodes":[],"categories_segments":[],"categories_sizes":[],"default_left":[0,0,0,0,0,0,0],"id":32,"left_children":[1,3,5,-1,-1,-1,-1],"loss_changes":[5.981117E0,2.3036098E0,1.70296E0,0E0,0E0,0E0,0E0],"parents":[2147483647,0,0,1,1,2,2],"right_children":[2,4,6,-1,-1,-1,-1],"split_conditions":[3.622504E-1,4.061278E-1,6.966451E-1,-4.3871338E-3,-1.8469557E-2,2.6009246E-3,1.5720464E-2],"split_indices":[1,4,4,0,0,0,0],"split_type":[0,0,0,0,0,0,0],"sum_hessian":[1.2341096E2,6.283324E1,6.0577713E1,4.349316E1,1.9340084E1,4.5887703E1,1.4690011E1],"tree_param":{"num_deleted":"0","num_feature":"5","num_nodes":"7","size_leaf_vector":"1"}},{"base_weights":[8.839111E-3,7.8569554E-2,-8.56134E-3,-7.268409E-4,9.541836E-3],"categories":[],"categories_nodes":[],"categories_segments":[],"categories_sizes":[],"default_left":[0,0,0,0,0],"id":33,"left_children":[1,3,-1,-1,-1],"loss_changes":[2.0583446E0,1.8010445E0,0E0,0E0,0E0],"parents":[2147483647,0,0,1,1],"right_children":[2,4,-1,-1,-1],"split_conditions":[7.7693033E-1,5.5180192E-2,-8.56134E-3,-7.268409E-4,9.541836E-3],"split_indices":[3,3,0,0,0],"split_type":[0,0,0,0,0],"sum_hessian":[1.11707756E2,8.859039E1,2.3117361E1,5.975578E1,2.8834614E1],"tree_param":{"num_deleted":"0","num_feature":"5","num_nodes":"5","size_leaf_vector":"1"}},{"base_weights":[-6.923008E-3,-1.1693266E-2,9.29738E-2,1.053721E-2,-3.3111598E-3],"categories":[],"categories_nodes":[],"categories_segments":[],"categories_sizes":[],"default_left":[0,0,0,0,0],"id":34,"left_children":[1,-1,3,-1,-1],"loss_changes":[4.0616064E0,0E0,3.8534296E0,0E0,0E0],"parents":[2147483647,0,0,2,2],"right_children":[2,-1,4,-1,-1],"split_conditions":[-7.840157E-1,-1.1693266E-2,8.193215E-3,1.053721E-2,-3.3111598E-3],"split_indices":[4,0,2,0,0],"split_type":[0,0,0,0,0],"sum_hessian":[1.19309784E2,2.683021E1,9.247957E1,4.303432E1,4.944525E1],"tree_param":{"num_deleted":"0","num_feature":"5","num_nodes":"5","size_leaf_vector":"1"}},{"base_weights":[8.693764E-2,1.485752E-2,1.3013369E-2,7.401263E-3,-6.0438695E-3],"categories":[],"categories_nodes":[],"categories_segments":[],"categories_sizes":[],"default_left":[0,0,0,0,0],"id":35,"left_children":[1,3,-1,-1,-1],"loss_changes":[2.3281763E0,3.5007658E0,0E0,0E0,0E0],"parents":[2147483647,0,0,1,1],"right_children":[2,4,-1,-1,-1],"split_conditions":[1.2252315E0,-7.562901E-2,1.3013369E-2,7.401263E-3,-6.0438695E-3],"split_indices":[0,3,0,0,0],"split_type":[0,0,0,0,0],"sum_hessian":[1.0916148E2,8.850668E1,2.0654799E1,4.306427E1,4.5442413E1],"tree_param":{"num_deleted":"0","num_feature":"5","num_nodes":"5","size_leaf_vector":"1"}},{"base_weights":[1.0336273E-2,-1.0038645E-1,1.3527444E-2,-4.072477E-4,-8.266001E-3],"categories":[],"categories_nodes":[],"categories_segments":[],"categories_sizes":[],"default_left":[0,0,0,0,0],"id":36,"left_children":[1,3,-1,-1,-1],"loss_changes":[5.145921E0,1.1705875E0,0E0,0E0,0E0],"parents":[2147483647,0,0,1,1],"right_children":[2,4,-1,-1,-1],"split_conditions":[8.341222E-1,8.193215E-3,1.3527444E-2,-4.072477E-4,-8.266001E-3],"split_indices":[2,2,0,0,0],"split_type":[0,0,0,0,0],"sum_hessian":[1.1860881E2,9.272151E1,2.5887302E1,5.7723682E1,3.499783E1],"tree_param":{"num_deleted":"0","num_feature":"5","num_nodes":"5","size_leaf_vector":"1"}},{"base_weights":[3.0074466E-2,-2.1322073E-1,2.822846E-1,2.4374237E-3,-1.4095384E-2,2.9260109E-3,1.7279914E-2],"categories":[],"categories_nodes":[],"categories_segments":[],"categories_sizes":[],"default_left":[0,0,0,0,0,0,0],"id":37,"left_children":[1,3,5,-1,-1,-1,-1],"loss_changes":[7.386194E0,3.5080996E0,2.5513663E0,0E0,0E0,0E0,0E0],"parents":[2147483647,0,0,1,1,2,2],"right_children":[2,4,6,-1,-1,-1,-1],"split_conditions":[3.622504E-1,8.193215E-3,2.1262251E-1,2.4374237E-3,-1.4095384E-2,2.9260109E-3,1.7279914E-2],"split_indices":[1,2,3,0,0,0,0],"split_type":[0,0,0,0,0,0,0],"sum_hessian":[1.18390884E2,6.033915E1,5.8051735E1,2.5118214E1,3.5220932E1,3.1612368E1,2.643937E1],"tree_param":{"num_deleted":"0","num_feature":"5","num_nodes":"7","size_leaf_vector":"1"}},{"base_weights":[-9.696882E-2,-2.3100021E-1,1.1088905E-2,5.9534125E-3,-1.8271813E-2],"categories":[],"categories_nodes":[],"categories_segments":[],"categories_sizes":[],"default_left":[0,0,0,0,0],"id":38,"left_children":[1,3,-1,-1,-1],"loss_changes":[6.6043334E0,1.0958994E1,0E0,0E0,0E0],"parents":[2147483647,0,0,1,1],"right_children":[2,4,-1,-1,-1],"split_conditions":[6.966451E-1,-9.091826E-2,1.1088905E-2,5.9534125E-3,-1.8271813E-2],"split_indices":[4,2,0,0,0],"split_type":[0,0,0,0,0],"sum_hessian":[1.1457543E2,8.727515E1,2.7300285E1,3.757393E1,4.970122E1],"tree_param":{"num_deleted":"0","num_feature":"5","num_nodes":"5","size_leaf_vector":"1"}},{"base_weights":[5.8502495E-2,1.6915777E-1,-1.0932699E-2,1.5862279E-2,-2.9161188E-3],"categories":[],"categories_nodes":[],"categories_segments":[],"categories_sizes":[],"default_left":[0,0,0,0,0],"id":39,"left_children":[1,3,-1,-1,-1],"loss_changes":[4.7677546E0,6.6289597E0,0E0,0E0,0E0],"parents":[2147483647,0,0,1,1],"right_children":[2,4,-1,-1,-1],"split_conditions":[7.607872E-1,1.18317075E-1,-1.0932699E-2,1.5862279E-2,-2.9161188E-3],"split_indices":[3,2,0,0,0],"split_type":[0,0,0,0,0],"sum_hessian":[1.1155362E2,8.674432E1,2.4809294E1,3.9788612E1,4.695571E1],"tree_param":{"num_deleted":"0","num_feature":"5","num_nodes":"5","size_leaf_vector":"1"}},{"base_weights":[-8.959402E-2,-1.8687037E-1,1.0974493E-2,-1.2301697E-2,-1.1170583E-3],"categories":[],"categories_nodes":[],"categories_segments":[],"categories_sizes":[],"default_left":[0,0,0,0,0],"id":40,"left_children":[1,3,-1,-1,-1],"loss_changes":[4.76394E0,2.546099E0,0E0,0E0,0E0],"parents":[2147483647,0,0,1,1],"right_children":[2,4,-1,-1,-1],"split_conditions":[8.341222E-1,3.622504E-1,1.0974493E-2,-1.2301697E-2,-1.1170583E-3],"split_indices":[2,1,0,0,0],"split_type":[0,0,0,0,0],"sum_hessian":[1.1671867E2,9.4811455E1,2.1907213E1,4.402837E1,5.078309E1],"tree_param":{"num_deleted":"0","num_feature":"5","num_nodes":"5","size_leaf_vector":"1"}},{"base_weights":[6.87758E-2,-2.2987677E-2,1.6202858E-2,-1.4468864E-2,1.6987416E-3],"categories":[],"categories_nodes":[],"categories_segments":[],"categories_sizes":[],"default_left":[0,0,0,0,0],"id":41,"left_children":[1,3,-1,-1,-1],"loss_changes":[4.414072E0,2.8587563E0,0E0,0E0,0E0],"parents":[2147483647,0,0,1,1],"right_children":[2,4,-1,-1,-1],"split_conditions":[1.2252315E0,-1.0640002E0,1.6202858E-2,-1.4468864E-2,1.6987416E-3],"split_indices":[0,4,0,0,0],"split_type":[0,0,0,0,0],"sum_hessian":[1.1735495E2,9.6464516E1,2.089044E1,1.4080804E1,8.2383705E1],"tree_param":{"num_deleted":"0","num_feature":"5","num_nodes":"5","size_leaf_vector":"1"}},{"base_weights":[-8.951488E-2,-1.9072121E-1,1.04608135E-2,-3.4755485E-3,-1.8134043E-2],"categories":[],"categories_nodes":[],"categories_segments":[],"categories_sizes":[],"default_left":[0,0,0,0,0],"id":42,"left_children":[1,3,-1,-1,-1],"loss_changes":[4.8207006E0,2.8305066E0,0E0,0E0,0E0],"parents":[2147483647,0,0,1,1],"right_children":[2,4,-1,-1,-1],"split_conditions":[1.2252315E0,7.298237E-1,1.04608135E-2,-3.4755485E-3,-1.8134043E-2],"split_indices":[0,3,0,0,0],"split_type":[0,0,0,0,0],"sum_hessian":[1.1792739E2,9.431958E1,2.360781E1,7.578087E1,1.8538712E1],"tree_param":{"num_deleted":"0","num_feature":"5","num_nodes":"5","size_leaf_vector":"1"}},{"base_weights":[1.0948932E-1,-1.7314796E-1,4.2082432E-1,3.7580098E-3,-1.197524E-2,8.3822245E-3,1.7854763E-2],"categories":[],"categories_nodes":[],"categories_segments":[],"categories_sizes":[],"default_left":[0,0,0,0,0,0,0],"id":43,"left_children":[1,3,5,-1,-1,-1,-1],"loss_changes":[1.0224416E1,3.1100593E0,8.5704803E-1,0E0,0E0,0E0,0E0],"parents":[2147483647,0,0,1,1,2,2],"right_children":[2,4,6,-1,-1,-1,-1],"split_conditions":[3.622504E-1,8.193215E-3,5.218839E-1,3.7580098E-3,-1.197524E-2,8.3822245E-3,1.7854763E-2],"split_indices":[1,2,0,0,0,0,0],"split_type":[0,0,0,0,0,0,0],"sum_hessian":[1.1436526E2,6.017805E1,5.4187206E1,2.3321192E1,3.6856857E1,2.1134281E1,3.3052925E1],"tree_param":{"num_deleted":"0","num_feature":"5","num_nodes":"7","size_leaf_vector":"1"}},{"base_weights":[2.612185E-2,-1.4907524E-1,1.7967182E-1,8.004527E-4,-1.0930187E-2,3.7647272E-3,1.3189492E-2],"categories":[],"categories_nodes":[],"categories_segments":[],"categories_sizes":[],"default_left":[0,0,0,0,0,0,0],"id":44,"left_children":[1,3,5,-1,-1,-1,-1],"loss_changes":[3.1683595E0,1.6308011E0,8.5634565E-1,0E0,0E0,0E0,0E0],"parents":[2147483647,0,0,1,1,2,2],"right_children":[2,4,6,-1,-1,-1,-1],"split_conditions":[-8.471544E-2,-9.091826E-2,7.239983E-1,8.004527E-4,-1.0930187E-2,3.7647272E-3,1.3189492E-2],"split_indices":[4,2,2,0,0,0,0],"split_type":[0,0,0,0,0,0,0],"sum_hessian":[1.1578062E2,5.4092E1,6.1688614E1,2.7342215E1,2.6749784E1,4.7294445E1,1.4394169E1],"tree_param":{"num_deleted":"0","num_feature":"5","num_nodes":"7","size_leaf_vector":"1"}},{"base_weights":[-1.015638E-1,5.9524863E-3,-3.9990842E-1,8.941279E-3,-2.5537333E-3,-1.785468E-2,-9.014242E-3],"categories":[],"categories_nodes":[],"categories_segments":[],"categories_sizes":[],"default_left":[0,0,0,0,0,0,0],"id":45,"left_children":[1,3,5,-1,-1,-1,-1],"loss_changes":[3.7185202E0,1.7971755E0,3.745985E-1,0E0,0E0,0E0,0E0],"parents":[2147483647,0,0,1,1,2,2],"right_children":[2,4,6,-1,-1,-1,-1],"split_conditions":[5.4653376E-1,-9.156727E-1,9.554662E-1,8.941279E-3,-2.5537333E-3,-1.785468E-2,-9.014242E-3],"split_indices":[3,3,3,0,0,0,0],"split_type":[0,0,0,0,0,0,0],"sum_hessian":[1.1485094E2,8.514629E1,2.9704643E1,1.9884682E1,6.526161E1,1.4131326E1,1.5573317E1],"tree_param":{"num_deleted":"0","num_feature":"5","num_nodes":"7","size_leaf_vector":"1"}},{"base_weights":[-2.456993E-2,8.592868E-2,-1.3914455E-2,1.5775783E-2,-4.7763484E-3],"categories":[],"categories_nodes":[],"categories_segments":[],"categories_sizes":[],"default_left":[0,0,0,0,0],"id":46,"left_children":[1,3,-1,-1,-1],"loss_changes":[5.2247386E0,8.212346E0,0E0,0E0,0E0],"parents":[2147483647,0,0,1,1],"right_children":[2,4,-1,-1,-1],"split_conditions":[7.298237E-1,8.193215E-3,-1.3914455E-2,1.5775783E-2,-4.7763484E-3],"split_indices":[3,2,0,0,0],"split_type":[0,0,0,0,0],"sum_hessian":[1.2173837E2,9.50628E1,2.6675575E1,3.528111E1,5.9781685E1],"tree_param":{"num_deleted":"0","num_feature":"5","num_nodes":"5","size_leaf_vector":"1"}},{"base_weights":[6.572045E-2,2.1504751E-1,-6.704717E-2,2.4001293E-2,3.9081165E-4,-8.916229E-3,8.632704E-3],"categories":[],"categories_nodes":[],"categories_segments":[],"categories_sizes":[],"default_left":[0,0,0,0,0,0,0],"id":47,"left_children":[1,3,5,-1,-1,-1,-1],"loss_changes":[2.4507904E0,5.7551384E0,4.1456285E0,0E0,0E0,0E0,0E0],"parents":[2147483647,0,0,1,1,2,2],"right_children":[2,4,6,-1,-1,-1,-1],"split_conditions":[8.193215E-3,-3.1932928E-2,8.341222E-1,2.4001293E-2,3.9081165E-4,-8.916229E-3,8.632704E-3],"split_indices":[2,3,2,0,0,0,0],"split_type":[0,0,0,0,0,0,0],"sum_hessian":[1.2188898E2,5.7075268E1,6.481371E1,1.609603E1,4.097924E1,4.0458775E1,2.4354935E1],"tree_param":{"num_deleted":"0","num_feature":"5","num_nodes":"7","size_leaf_vector":"1"}},{"base_weights":[-2.3436747E-2,-3.9998713E-1,9.434067E-2,-2.1256456E-2,-5.5367122E-3,9.965371E-3,-6.015963E-3],"categories":[],"categories_nodes":[],"categories_segments":[],"categories_sizes":[],"default_left":[0,0,0,0,0,0,0],"id":48,"left_children":[1,3,5,-1,-1,-1,-1],"loss_changes":[5.5744386E0,1.4813395E0,5.168405E0,0E0,0E0,0E0,0E0],"parents":[2147483647,0,0,1,1,2,2],"right_children":[2,4,6,-1,-1,-1,-1],"split_conditions":[-7.840157E-1,1.4669399E-4,4.2304024E-1,-2.1256456E-2,-5.5367122E-3,9.965371E-3,-6.015963E-3],"split_indices":[4,3,4,0,0,0,0],"split_type":[0,0,0,0,0,0,0],"sum_hessian":[1.2384357E2,2.893579E1,9.4907776E1,1.4130837E1,1.4804952E1,5.482472E1,4.008306E1],"tree_param":{"num_deleted":"0","num_feature":"5","num_nodes":"7","size_leaf_vector":"1"}},{"base_weights":[-3.312186E-2,-1.8091406E-1,8.916951E-2,-1.2775904E-2,-9.003482E-4,1.2002804E-2,-2.0614727E-3],"categories":[],"categories_nodes":[],"categories_segments":[],"categories_sizes":[],"default_left":[0,0,0,0,0,0,0],"id":49,"left_children":[1,3,5,-1,-1,-1,-1],"loss_changes":[2.1694758E0,1.6091927E0,2.6021876E0,0E0,0E0,0E0,0E0],"parents":[2147483647,0,0,1,1,2,2],"right_children":[2,4,6,-1,-1,-1,-1],"split_conditions":[-9.54789E-2,-2.4823266E-1,4.2304024E-1,-1.2775904E-2,-9.003482E-4,1.2002804E-2,-2.0614727E-3],"split_indices":[4,3,4,0,0,0,0],"split_type":[0,0,0,0,0,0,0],"sum_hessian":[1.1814232E2,5.3276707E1,6.486561E1,2.3062033E1,3.0214676E1,2.3069654E1,4.1795956E1],"tree_param":{"num_deleted":"0","num_feature":"5","num_nodes":"7","size_leaf_vector":"1"}},{"base_weights":[2.6130233E-2,1.5720515E-2,-3.988593E-2,-7.1105734E-3,3.8112488E-3],"categories":[],"categories_nodes":[],"categories_segments":[],"categories_sizes":[],"default_left":[0,0,0,0,0],"id":50,"left_children":[1,-1,3,-1,-1],"loss_changes":[3.4525898E0,0E0,2.6970246E0,0E0,0E0],"parents":[2147483647,0,0,2,2],"right_children":[2,-1,4,-1,-1],"split_conditions":[-1.0168724E0,1.5720515E-2,3.622504E-1,-7.1105734E-3,3.8112488E-3],"split_indices":[3,0,1,0,0],"split_type":[0,0,0,0,0],"sum_hessian":[1.18877464E2,1.4908455E1,1.0396901E2,4.907699E1,5.489202E1],"tree_param":{"num_deleted":"0","num_feature":"5","num_nodes":"5","size_leaf_vector":"1"}},{"base_weights":[-3.8574703E-2,1.5482547E-2,-1.4929849E-1,-7.998398E-3,5.76901E-3],"categories":[],"categories_nodes":[],"categories_segments":[],"categories_sizes":[],"default_left":[0,0,0,0,0],"id":51,"left_children":[1,-1,3,-1,-1],"loss_changes":[6.915002E0,0E0,2.8288076E0,0E0,0E0],"parents":[2147483647,0,0,2,2],"right_children":[2,-1,4,-1,-1],"split_conditions":[-9.1203487E-1,1.5482547E-2,1.2252315E0,-7.998398E-3,5.76901E-3],"split_indices":[3,0,0,0,0],"split_type":[0,0,0,0,0],"sum_hessian":[1.24772964E2,2.2364798E1,1.02408165E2,8.106728E1,2.1340878E1],"tree_param":{"num_deleted":"0","num_feature":"5","num_nodes":"5","size_leaf_vector":"1"}},{"base_weights":[-3.4652423E-2,4.8880287E-2,-2.2726575E-1,-2.9648787E-3,8.213267E-3,-1.9067006E-2,4.468145E-3],"categories":[],"categories_nodes":[],"categories_segments":[],"categories_sizes":[],"default_left":[0,0,0,0,0,0,0],"id":52,"left_children":[1,3,5,-1,-1,-1,-1],"loss_changes":[1.9064326E0,2.1765842E0,4.313716E0,0E0,0E0,0E0,0E0],"parents":[2147483647,0,0,1,1,2,2],"right_children":[2,4,6,-1,-1,-1,-1],"split_conditions":[5.263083E-1,5.218839E-1,1.0145613E0,-2.9648787E-3,8.213267E-3,-1.9067006E-2,4.468145E-3],"split_indices":[3,0,3,0,0,0,0],"split_type":[0,0,0,0,0,0,0],"sum_hessian":[1.1679872E2,8.198822E1,3.4810497E1,4.831159E1,3.3676632E1,1.780412E1,1.7006378E1],"tree_param":{"num_deleted":"0","num_feature":"5","num_nodes":"7","size_leaf_vector":"1"}},{"base_weights":[5.879815E-4,-2.168601E-1,9.457695E-2,2.7640024E-3,-1.47005385E-2,-1.7991222E-3,9.718265E-3],"categories":[],"categories_nodes":[],"categories_segments":[],"categories_sizes":[],"default_left":[0,0,0,0,0,0,0],"id":53,"left_children":[1,3,5,-1,-1,-1,-1],"loss_changes":[2.5081162E0,2.387816E0,2.4097757E0,0E0,0E0,0E0,0E0],"parents":[2147483647,0,0,1,1,2,2],"right_children":[2,4,6,-1,-1,-1,-1],"split_conditions":[-1.8146367E-1,-2.0336322E-1,1.1570832E-1,2.7640024E-3,-1.47005385E-2,-1.7991222E-3,9.718265E-3],"split_indices":[0,4,4,0,0,0,0],"split_type":[0,0,0,0,0,0,0],"sum_hessian":[1.20716415E2,3.6036625E1,8.4679794E1,1.5302898E1,2.0733725E1,4.8099297E1,3.6580494E1],"tree_param":{"num_deleted":"0","num_feature":"5","num_nodes":"7","size_leaf_vector":"1"}},{"base_weights":[-5.396761E-2,-1.0202839E-2,2.3779416E-2,5.475706E-3,-4.0832697E-3],"categories":[],"categories_nodes":[],"categories_segments":[],"categories_sizes":[],"default_left":[0,0,0,0,0],"id":54,"left_children":[1,-1,3,-1,-1],"loss_changes":[2.3039787E0,0E0,1.8292332E0,0E0,0E0],"parents":[2147483647,0,0,2,2],"right_children":[2,-1,4,-1,-1],"split_conditions":[-7.840157E-1,-1.0202839E-2,5.224276E-2,5.475706E-3,-4.0832697E-3],"split_indices":[4,0,2,0,0],"split_type":[0,0,0,0,0],"sum_hessian":[1.1976446E2,2.8198017E1,9.1566444E1,4.683658E1,4.4729866E1],"tree_param":{"num_deleted":"0","num_feature":"5","num_nodes":"5","size_leaf_vector":"1"}},{"base_weights":[7.692506E-2,1.0489979E-2,2.4743948E-2,-5.6700506E-3,3.9612604E-3],"categories":[],"categories_nodes":[],"categories_segments":[],"categories_sizes":[],"default_left":[0,0,0,0,0],"id":55,"left_children":[1,-1,3,-1,-1],"loss_changes":[1.3791112E0,0E0,1.6752625E0,0E0,0E0],"parents":[2147483647,0,0,2,2],"right_children":[2,-1,4,-1,-1],"split_conditions":[-8.8229483E-1,1.0489979E-2,-9.958323E-2,-5.6700506E-3,3.9612604E-3],"split_indices":[4,0,4,0,0],"split_type":[0,0,0,0,0],"sum_hessian":[1.1450331E2,2.02653E1,9.423801E1,3.022137E1,6.401664E1],"tree_param":{"num_deleted":"0","num_feature":"5","num_nodes":"5","size_leaf_vector":"1"}},{"base_weights":[1.1908509E-2,-4.5737617E-2,8.114976E-3,2.5335124E-3,-1.1094248E-2],"categories":[],"categories_nodes":[],"categories_segments":[],"categories_sizes":[],"default_left":[0,0,0,0,0],"id":56,"left_children":[1,3,-1,-1,-1],"loss_changes":[1.5677916E0,3.241044E0,0E0,0E0,0E0],"parents":[2147483647,0,0,1,1],"right_children":[2,4,-1,-1,-1],"split_conditions":[1.2252315E0,4.2304024E-1,8.114976E-3,2.5335124E-3,-1.1094248E-2],"split_indices":[0,4,0,0,0],"split_type":[0,0,0,0,0],"sum_hessian":[1.187245E2,9.519569E1,2.3528809E1,6.70947E1,2.8100986E1],"tree_param":{"num_deleted":"0","num_feature":"5","num_nodes":"5","size_leaf_vector":"1"}},{"base_weights":[-5.8062937E-2,-1.1275575E-1,6.879513E-3,-1.3952462E-3,-1.6369192E-2],"categories":[],"categories_nodes":[],"categories_segments":[],"categories_sizes":[],"default_left":[0,0,0,0,0],"id":57,"left_children":[1,3,-1,-1,-1],"loss_changes":[1.6711111E0,2.5253808E0,0E0,0E0,0E0],"parents":[2147483647,0,0,1,1],"right_children":[2,4,-1,-1,-1],"split_conditions":[9.4424605E-1,5.588125E-1,6.879513E-3,-1.3952462E-3,-1.6369192E-2],"split_indices":[2,2,0,0,0],"split_type":[0,0,0,0,0],"sum_hessian":[1.1518817E2,9.559751E1,1.9590664E1,8.083733E1,1.4760177E1],"tree_param":{"num_deleted":"0","num_feature":"5","num_nodes":"5","size_leaf_vector":"1"}},{"base_weights":[-3.527271E-3,1.0984301E-2,-6.1062265E-2,-1.572375E-2,1.1367135E-3],"categories":[],"categories_nodes":[],"categories_segments":[],"categories_sizes":[],"default_left":[0,0,0,0,0],"id":58,"left_children":[1,-1,3,-1,-1],"loss_changes":[2.22237E0,0E0,3.8149352E0,0E0,0E0],"parents":[2147483647,0,0,2,2],"right_children":[2,-1,4,-1,-1],"split_conditions":[-9.548318E-1,1.0984301E-2,-4.9983653E-1,-1.572375E-2,1.1367135E-3],"split_indices":[3,0,3,0,0],"split_type":[0,0,0,0,0],"sum_hessian":[1.1680124E2,1.6877537E1,9.9923706E1,1.836056E1,8.156315E1],"tree_param":{"num_deleted":"0","num_feature":"5","num_nodes":"5","size_leaf_vector":"1"}},{"base_weights":[3.2742366E-2,-1.1829932E-2,9.1339886E-2,6.311276E-3,-9.481501E-3],"categories":[],"categories_nodes":[],"categories_segments":[],"categories_sizes":[],"default_left":[0,0,0,0,0],"id":59,"left_children":[1,-1,3,-1,-1],"loss_changes":[2.7824883E0,0E0,3.7732024E0,0E0,0E0],"parents":[2147483647,0,0,2,2],"right_children":[2,-1,4,-1,-1],"split_conditions":[-1.1487129E0,-1.1829932E-2,9.1770107E-1,6.311276E-3,-9.481501E-3],"split_indices":[4,0,4,0,0],"split_type":[0,0,0,0,0],"sum_hessian":[1.2287799E2,1.5798355E1,1.07079636E2,8.584685E1,2.1232786E1],"tree_param":{"num_deleted":"0","num_feature":"5","num_nodes":"5","size_leaf_vector":"1"}},{"base_weights":[-5.8714006E-2,5.1945575E-2,-3.427883E-1,-8.928865E-3,5.3418116E-3,-1.8296506E-2,-5.460068E-3],"categories":[],"categories_nodes":[],"categories_segments":[],"categories_sizes":[],"default_left":[0,0,0,0,0,0,0],"id":60,"left_children":[1,3,5,-1,-1,-1,-1],"loss_changes":[3.803751E0,2.903561E0,1.109539E0,0E0,0E0,0E0,0E0],"parents":[2147483647,0,0,1,1,2,2],"right_children":[2,4,6,-1,-1,-1,-1],"split_conditions":[5.588125E-1,-7.325601E-1,-9.54789E-2,-8.928865E-3,5.3418116E-3,-1.8296506E-2,-5.460068E-3],"split_indices":[2,4,4,0,0,0,0],"split_type":[0,0,0,0,0,0,0],"sum_hessian":[1.1943515E2,8.6540794E1,3.289435E1,2.1254747E1,6.528605E1,1.5084541E1,1.7809809E1],"tree_param":{"num_deleted":"0","num_feature":"5","num_nodes":"7","size_leaf_vector":"1"}},{"base_weights":[-4.742497E-2,-1.4068225E-1,1.0827954E-2,1.488662E-3,-1.2152252E-2],"categories":[],"categories_nodes":[],"categories_segments":[],"categories_sizes":[],"default_left":[0,0,0,0,0],"id":61,"left_children":[1,3,-1,-1,-1],"loss_changes":[4.203992E0,3.9036703E0,0E0,0E0,0E0],"parents":[2147483647,0,0,1,1],"right_children":[2,4,-1,-1,-1],"split_conditions":[1.2252315E0,-4.2639915E-2,1.0827954E-2,1.488662E-3,-1.2152252E-2],"split_indices":[0,3,0,0,0],"split_type":[0,0,0,0,0],"sum_hessian":[1.214237E2,9.716551E1,2.4258186E1,5.2750614E1,4.4414894E1],"tree_param":{"num_deleted":"0","num_feature":"5","num_nodes":"5","size_leaf_vector":"1"}},{"base_weights":[-1.5219371E-2,-1.6423235E-2,6.1123893E-2,-6.214043E-4,1.1500763E-2],"categories":[],"categories_nodes":[],"categories_segments":[],"categories_sizes":[],"default_left":[0,0,0,0,0],"id":62,"left_children":[1,-1,3,-1,-1],"loss_changes":[4.162968E0,0E0,2.208887E0,0E0,0E0],"parents":[2147483647,0,0,2,2],"right_children":[2,-1,4,-1,-1],"split_conditions":[-1.078131E0,-1.6423235E-2,8.341222E-1,-6.214043E-4,1.1500763E-2],"split_indices":[4,0,2,0,0],"split_type":[0,0,0,0,0],"sum_hessian":[1.1533281E2,1.5505708E1,9.98271E1,7.823572E1,2.1591385E1],"tree_param":{"num_deleted":"0","num_feature":"5","num_nodes":"5","size_leaf_vector":"1"}},{"base_weights":[8.958669E-2,-5.862735E-2,2.912741E-1,1.9690352E-3,-1.2799418E-2,2.0319574E-4,1.8071933E-2],"categories":[],"categories_nodes":[],"categories_segments":[],"categories_sizes":[],"default_left":[0,0,0,0,0,0,0],"id":63,"left_children":[1,3,5,-1,-1,-1,-1],"loss_changes":[3.4882183E0,2.5107484E0,3.343141E0,0E0,0E0,0E0,0E0],"parents":[2147483647,0,0,1,1,2,2],"right_children":[2,4,6,-1,-1,-1,-1],"split_conditions":[1.1570832E-1,-2.1817783E-1,3.622504E-1,1.9690352E-3,-1.2799418E-2,2.0319574E-4,1.8071933E-2],"split_indices":[4,4,1,0,0,0,0],"split_type":[0,0,0,0,0,0,0],"sum_hessian":[1.1511923E2,6.676497E1,4.835426E1,4.9404926E1,1.736004E1,2.2437609E1,2.5916653E1],"tree_param":{"num_deleted":"0","num_feature":"5","num_nodes":"7","size_leaf_vector":"1"}},{"base_weights":[2.5039697E-2,-1.1601559E-1,1.7065303E-1,6.1208736E-3,-1.0330528E-2,1.0290279E-2,-3.9476086E-3],"categories":[],"categories_nodes":[],"categories_segments":[],"categories_sizes":[],"default_left":[0,0,0,0,0,0,0],"id":64,"left_children":[1,3,5,-1,-1,-1,-1],"loss_changes":[2.359649E0,3.2691002E0,2.143476E0,0E0,0E0,0E0,0E0],"parents":[2147483647,0,0,1,1,2,2],"right_children":[2,4,6,-1,-1,-1,-1],"split_conditions":[3.622504E-1,-4.3741933E-1,6.138451E-1,6.1208736E-3,-1.0330528E-2,1.0290279E-2,-3.9476086E-3],"split_indices":[1,1,3,0,0,0,0],"split_type":[0,0,0,0,0,0,0],"sum_hessian":[1.1291938E2,5.7460648E1,5.545873E1,2.2251205E1,3.5209446E1,3.8053295E1,1.7405434E1],"tree_param":{"num_deleted":"0","num_feature":"5","num_nodes":"7","size_leaf_vector":"1"}},{"base_weights":[-3.2382987E-2,-1.0157851E-1,8.375878E-3,-6.6550868E-3,1.6828324E-3],"categories":[],"categories_nodes":[],"categories_segments":[],"categories_sizes":[],"default_left":[0,0,0,0,0],"id":65,"left_children":[1,3,-1,-1,-1],"loss_changes":[2.2623408E0,1.3304328E0,0E0,0E0,0E0],"parents":[2147483647,0,0,1,1],"right_children":[2,4,-1,-1,-1],"split_conditions":[8.341222E-1,1.9638252E-1,8.375878E-3,-6.6550868E-3,1.6828324E-3],"split_indices":[2,4,0,0,0],"split_type":[0,0,0,0,0],"sum_hessian":[1.1551641E2,9.296941E1,2.2547E1,5.728416E1,3.5685253E1],"tree_param":{"num_deleted":"0","num_feature":"5","num_nodes":"5","size_leaf_vector":"1"}},{"base_weights":[4.5701973E-2,1.5496536E-1,-1.1025726E-2,1.8130908E-3,1.5694143E-2],"categories":[],"categories_nodes":[],"categories_segments":[],"categories_sizes":[],"default_left":[0,0,0,0,0],"id":66,"left_children":[1,3,-1,-1,-1],"loss_changes":[4.809658E0,2.825008E0,0E0,0E0,0E0],"parents":[2147483647,0,0,1,1],"right_children":[2,4,-1,-1,-1],"split_conditions":[7.5033855E-1,2.1262251E-1,-1.1025726E-2,1.8130908E-3,1.5694143E-2],"split_indices":[3,3,0,0,0],"split_type":[0,0,0,0,0],"sum_hessian":[1.17249176E2,9.087495E1,2.6374228E1,6.895982E1,2.1915125E1],"tree_param":{"num_deleted":"0","num_feature":"5","num_nodes":"5","size_leaf_vector":"1"}},{"base_weights":[3.223025E-2,1.5679206E-1,-1.9357131E-1,6.5882734E-5,1.8057952E-2,-1.5656473E-2,2.70016E-3],"categories":[],"categories_nodes":[],"categories_segments":[],"categories_sizes":[],"default_left":[0,0,0,0,0,0,0],"id":67,"left_children":[1,3,5,-1,-1,-1,-1],"loss_changes":[3.348099E0,4.4068327E0,3.0937886E0,0E0,0E0,0E0,0E0],"parents":[2147483647,0,0,1,1,2,2],"right_children":[2,4,6,-1,-1,-1,-1],"split_conditions":[4.2304024E-1,-9.958323E-2,3.622504E-1,6.5882734E-5,1.8057952E-2,-1.5656473E-2,2.70016E-3],"split_indices":[4,4,1,0,0,0,0],"split_type":[0,0,0,0,0,0,0],"sum_hessian":[1.1695915E2,7.557459E1,4.138456E1,5.405743E1,2.1517157E1,2.0653282E1,2.0731277E1],"tree_param":{"num_deleted":"0","num_feature":"5","num_nodes":"7","size_leaf_vector":"1"}},{"base_weights":[-7.9724036E-2,-2.4604517E-1,8.9677714E-2,-2.2521663E-2,-3.172372E-3,1.00336345E-2,-4.6694283E-3],"categories":[],"categories_nodes":[],"categories_segments":[],"categories_sizes":[],"default_left":[0,0,0,0,0,0,0],"id":68,"left_children":[1,3,5,-1,-1,-1,-1],"loss_changes":[3.3745027E0,3.7552593E0,2.7952986E0,0E0,0E0,0E0,0E0],"parents":[2147483647,0,0,1,1,2,2],"right_children":[2,4,6,-1,-1,-1,-1],"split_conditions":[3.622504E-1,-7.379946E-1,1.1619201E0,-2.2521663E-2,-3.172372E-3,1.00336345E-2,-4.6694283E-3],"split_indices":[1,3,1,0,0,0,0],"split_type":[0,0,0,0,0,0,0],"sum_hessian":[1.17985886E2,5.9305973E1,5.8679913E1,1.5151074E1,4.4154896E1,3.0708412E1,2.79715E1],"tree_param":{"num_deleted":"0","num_feature":"5","num_nodes":"7","size_leaf_vector":"1"}},{"base_weights":[-3.196364E-2,-1.6815117E-1,1.0283332E-1,3.2052414E-3,-1.1481658E-2,-5.8803585E-4,1.4187552E-2],"categories":[],"categories_nodes":[],"categories_segments":[],"categories_sizes":[],"default_left":[0,0,0,0,0,0,0],"id":69,"left_children":[1,3,5,-1,-1,-1,-1],"loss_changes":[2.2647846E0,2.7263603E0,2.3377028E0,0E0,0E0,0E0,0E0],"parents":[2147483647,0,0,1,1,2,2],"right_children":[2,4,6,-1,-1,-1,-1],"split_conditions":[3.622504E-1,-4.3741933E-1,1.2252315E0,3.2052414E-3,-1.1481658E-2,-5.8803585E-4,1.4187552E-2],"split_indices":[1,1,0,0,0,0,0],"split_type":[0,0,0,0,0,0,0],"sum_hessian":[1.2142805E2,6.027938E1,6.1148663E1,2.371508E1,3.65643E1,4.4856274E1,1.6292389E1],"tree_param":{"num_deleted":"0","num_feature":"5","num_nodes":"7","size_leaf_vector":"1"}},{"base_weights":[-2.6291411E-2,8.873221E-2,-2.8857255E-1,1.3018031E-2,6.916348E-4,-9.838201E-4,-1.5916089E-2],"categories":[],"categories_nodes":[],"categories_segments":[],"categories_sizes":[],"default_left":[0,0,0,0,0,0,0],"id":70,"left_children":[1,3,5,-1,-1,-1,-1],"loss_changes":[3.5064042E0,1.6130521E0,1.6168852E0,0E0,0E0,0E0,0E0],"parents":[2147483647,0,0,1,1,2,2],"right_children":[2,4,6,-1,-1,-1,-1],"split_conditions":[5.383588E-1,-1.0168724E0,-2.1817783E-1,1.3018031E-2,6.916348E-4,-9.838201E-4,-1.5916089E-2],"split_indices":[3,3,4,0,0,0,0],"split_type":[0,0,0,0,0,0,0],"sum_hessian":[1.1437846E2,7.9969475E1,3.4408993E1,1.4316448E1,6.565302E1,1.4426276E1,1.9982718E1],"tree_param":{"num_deleted":"0","num_feature":"5","num_nodes":"7","size_leaf_vector":"1"}},{"base_weights":[1.04515925E-1,3.101449E-2,1.9981064E-2,7.107923E-3,-5.697547E-3],"categories":[],"categories_nodes":[],"categories_segments":[],"categories_sizes":[],"default_left":[0,0,0,0,0],"id":71,"left_children":[1,3,-1,-1,-1],"loss_changes":[4.115226E0,3.626516E0,0E0,0E0,0E0],"parents":[2147483647,0,0,1,1],"right_children":[2,4,-1,-1,-1],"split_conditions":[1.1038758E0,-5.984757E-2,1.9981064E-2,7.107923E-3,-5.697547E-3],"split_indices":[3,3,0,0,0],"split_type":[0,0,0,0,0],"sum_hessian":[1.16093475E2,1.01607475E2,1.4486001E1,5.3589535E1,4.801794E1],"tree_param":{"num_deleted":"0","num_feature":"5","num_nodes":"5","size_leaf_vector":"1"}},{"base_weights":[3.79878E-2,1.4551866E-1,-1.2077591E-2,1.3766899E-2,2.2991817E-3],"categories":[],"categories_nodes":[],"categories_segments":[],"categories_sizes":[],"default_left":[0,0,0,0,0],"id":72,"left_children":[1,3,-1,-1,-1],"loss_changes":[5.174586E0,1.909703E0,0E0,0E0,0E0],"parents":[2147483647,0,0,1,1],"right_children":[2,4,-1,-1,-1],"split_conditions":[8.0252993E-1,-9.156727E-1,-1.2077591E-2,1.3766899E-2,2.2991817E-3],"split_indices":[3,3,0,0,0],"split_type":[0,0,0,0,0],"sum_hessian":[1.2070861E2,9.518896E1,2.5519653E1,2.1220306E1,7.396865E1],"tree_param":{"num_deleted":"0","num_feature":"5","num_nodes":"5","size_leaf_vector":"1"}},{"base_weights":[-7.329069E-2,7.823021E-3,-1.34922E-1,-9.4542373E-4,-8.776912E-3],"categories":[],"categories_nodes":[],"categories_segments":[],"categories_sizes":[],"default_left":[0,0,0,0,0],"id":73,"left_children":[1,-1,3,-1,-1],"loss_changes":[2.216597E0,0E0,1.2758539E0,0E0,0E0],"parents":[2147483647,0,0,2,2],"right_children":[2,-1,4,-1,-1],"split_conditions":[-9.1203487E-1,7.823021E-3,-9.091826E-2,-9.4542373E-4,-8.776912E-3],"split_indices":[3,0,2,0,0],"split_type":[0,0,0,0,0],"sum_hessian":[1.16336975E2,1.92448E1,9.709217E1,5.231115E1,4.4781025E1],"tree_param":{"num_deleted":"0","num_feature":"5","num_nodes":"5","size_leaf_vector":"1"}},{"base_weights":[1.3241948E-3,-7.614017E-3,5.710219E-2,-2.2248894E-3,1.22344075E-2],"categories":[],"categories_nodes":[],"categories_segments":[],"categories_sizes":[],"default_left":[0,0,0,0,0],"id":74,"left_children":[1,-1,3,-1,-1],"loss_changes":[1.4392059E0,0E0,3.4128706E0,0E0,0E0],"parents":[2147483647,0,0,2,2],"right_children":[2,-1,4,-1,-1],"split_conditions":[-7.626738E-1,-7.614017E-3,2.9347265E-1,-2.2248894E-3,1.22344075E-2],"split_indices":[2,0,3,0,0],"split_type":[0,0,0,0,0],"sum_hessian":[1.1308976E2,2.1936571E1,9.115319E1,6.538445E1,2.5768736E1],"tree_param":{"num_deleted":"0","num_feature":"5","num_nodes":"5","size_leaf_vector":"1"}},{"base_weights":[7.215887E-2,-1.3215423E-1,1.5287223E-1,-9.304568E-3,1.4281074E-3,8.004783E-3,-1.2379696E-3],"categories":[],"categories_nodes":[],"categories_segments":[],"categories_sizes":[],"default_left":[0,0,0,0,0,0,0],"id":75,"left_children":[1,3,5,-1,-1,-1,-1],"loss_changes":[1.9672035E0,8.395826E-1,1.3183535E0,0E0,0E0,0E0,0E0],"parents":[2147483647,0,0,1,1,2,2],"right_children":[2,4,6,-1,-1,-1,-1],"split_conditions":[-1.8146367E-1,1.18317075E-1,1.1619201E0,-9.304568E-3,1.4281074E-3,8.004783E-3,-1.2379696E-3],"split_indices":[0,2,1,0,0,0,0],"split_type":[0,0,0,0,0,0,0],"sum_hessian":[1.170659E2,3.297007E1,8.409583E1,1.79454E1,1.502467E1,5.862287E1,2.5472961E1],"tree_param":{"num_deleted":"0","num_feature":"5","num_nodes":"7","size_leaf_vector":"1"}},{"base_weights":[4.8549283E-2,-1.8979666E-1,1.852922E-1,-1.1008603E-2,-1.3442055E-3,1.0749553E-2,-7.2196545E-3],"categories":[],"categories_nodes":[],"categories_segments":[],"categories_sizes":[],"default_left":[0,0,0,0,0,0,0],"id":76,"left_children":[1,3,5,-1,-1,-1,-1],"loss_changes":[3.8997788E0,8.581909E-1,3.956375E0,0E0,0E0,0E0,0E0],"parents":[2147483647,0,0,1,1,2,2],"right_children":[2,4,6,-1,-1,-1,-1],"split_conditions":[-3.9306387E-1,3.622504E-1,6.878122E-1,-1.1008603E-2,-1.3442055E-3,1.0749553E-2,-7.2196545E-3],"split_indices":[4,1,3,0,0,0,0],"split_type":[0,0,0,0,0,0,0],"sum_hessian":[1.1757503E2,4.2721874E1,7.485316E1,2.2118544E1,2.0603329E1,5.6603893E1,1.824926E1],"tree_param":{"num_deleted":"0","num_feature":"5","num_nodes":"7","size_leaf_vector":"1"}},{"base_weights":[7.1552984E-2,1.1741116E-2,2.0621812E-2,-1.5418298E-3,6.8108877E-3],"categories":[],"categories_nodes":[],"categories_segments":[],"categories_sizes":[],"default_left":[0,0,0,0,0],"id":77,"left_children":[1,-1,3,-1,-1],"loss_changes":[1.6624343E0,0E0,1.2138877E0,0E0,0E0],"parents":[2147483647,0,0,2,2],"right_children":[2,-1,4,-1,-1],"split_conditions":[-1.0279992E0,1.1741116E-2,6.966451E-1,-1.5418298E-3,6.8108877E-3],"split_indices":[4,0,4,0,0],"split_type":[0,0,0,0,0],"sum_hessian":[1.1948459E2,1.7934446E1,1.0155014E2,7.478481E1,2.676533E1],"tree_param":{"num_deleted":"0","num_feature":"5","num_nodes":"5","size_leaf_vector":"1"}},{"base_weights":[-1.21632084E-1,-5.2755784E-2,-1.1684763E-2,-6.184418E-3,6.534025E-3],"categories":[],"categories_nodes":[],"categories_segments":[],"categories_sizes":[],"default_left":[0,0,0,0,0],"id":78,"left_children":[1,3,-1,-1,-1],"loss_changes":[1.758788E0,2.862467E0,0E0,0E0,0E0],"parents":[2147483647,0,0,1,1],"right_children":[2,4,-1,-1,-1],"split_conditions":[1.1619201E0,3.622504E-1,-1.1684763E-2,-6.184418E-3,6.534025E-3],"split_indices":[1,1,0,0,0],"split_type":[0,0,0,0,0],"sum_hessian":[1.160804E2,8.938025E1,2.6700142E1,5.87558E1,3.0624454E1],"tree_param":{"num_deleted":"0","num_feature":"5","num_nodes":"5","size_leaf_vector":"1"}},{"base_weights":[6.2898666E-2,-9.739601E-2,2.2545294E-1,3.1043633E-3,-1.6658995E-2,2.4623256E-3,2.1540241E-2],"categories":[],"categories_nodes":[],"categories_segments":[],"categories_sizes":[],"default_left":[0,0,0,0,0,0,0],"id":79,"left_children":[1,3,5,-1,-1,-1,-1],"loss_changes":[3.0749125E0,4.428409E0,3.5867636E0,0E0,0E0,0E0,0E0],"parents":[2147483647,0,0,1,1,2,2],"right_children":[2,4,6,-1,-1,-1,-1],"split_conditions":[3.622504E-1,4.2304024E-1,6.966451E-1,3.1043633E-3,-1.6658995E-2,2.4623256E-3,2.1540241E-2],"split_indices":[1,4,4,0,0,0,0],"split_type":[0,0,0,0,0,0,0],"sum_hessian":[1.1616632E2,5.86915E1,5.747482E1,4.0106956E1,1.8584545E1,4.253951E1,1.493531E1],"tree_param":{"num_deleted":"0","num_feature":"5","num_nodes":"7","size_leaf_vector":"1"}},{"base_weights":[-2.6608838E-2,1.1386302E-1,-1.0739816E-1,-3.981862E-3,1.3409118E-2,-1.0509608E-2,1.4649305E-3],"categories":[],"categories_nodes":[],"categories_segments":[],"categories_sizes":[],"default_left":[0,0,0,0,0,0,0],"id":80,"left_children":[1,3,5,-1,-1,-1,-1],"loss_changes":[1.3766984E0,2.8945441E0,2.3248308E0,0E0,0E0,0E0,0E0],"parents":[2147483647,0,0,1,1,2,2],"right_children":[2,4,6,-1,-1,-1,-1],"split_conditions":[-3.900899E-1,3.622504E-1,3.1723267E-1,-3.981862E-3,1.3409118E-2,-1.0509608E-2,1.4649305E-3],"split_indices":[3,1,3,0,0,0,0],"split_type":[0,0,0,0,0,0,0],"sum_hessian":[1.1923214E2,4.3385876E1,7.584627E1,2.4064617E1,1.9321257E1,3.20735E1,4.3772766E1],"tree_param":{"num_deleted":"0","num_feature":"5","num_nodes":"7","size_leaf_vector":"1"}},{"base_weights":[-1.3024546E-1,-3.1685367E-1,-1.5180061E-2,-6.3128496E-4,-1.5972389E-2,3.502842E-3,-9.707715E-3],"categories":[],"categories_nodes":[],"categories_segments":[],"categories_sizes":[],"default_left":[0,0,0,0,0,0,0],"id":81,"left_children":[1,3,5,-1,-1,-1,-1],"loss_changes":[2.4677682E0,1.9627833E0,2.3169618E0,0E0,0E0,0E0,0E0],"parents":[2147483647,0,0,1,1,2,2],"right_children":[2,4,6,-1,-1,-1,-1],"split_conditions":[-2.8622386E-1,-1.0305868E0,8.0252993E-1,-6.3128496E-4,-1.5972389E-2,3.502842E-3,-9.707715E-3],"split_indices":[3,3,3,0,0,0,0],"split_type":[0,0,0,0,0,0,0],"sum_hessian":[1.1415281E2,4.287167E1,7.1281136E1,1.4757014E1,2.8114655E1,5.0012325E1,2.1268812E1],"tree_param":{"num_deleted":"0","num_feature":"5","num_nodes":"7","size_leaf_vector":"1"}},{"base_weights":[1.3875694E-2,2.7571425E-1,-2.1417303E-1,2.1160213E-2,2.921927E-3,-9.912346E-3,-4.133468E-4],"categories":[],"categories_nodes":[],"categories_segments":[],"categories_sizes":[],"default_left":[0,0,0,0,0,0,0],"id":82,"left_children":[1,3,5,-1,-1,-1,-1],"loss_changes":[6.8016763E0,3.4105911E0,9.311223E-1,0E0,0E0,0E0,0E0],"parents":[2147483647,0,0,1,1,2,2],"right_children":[2,4,6,-1,-1,-1,-1],"split_conditions":[-5.984757E-2,1.18317075E-1,1.0145613E0,2.1160213E-2,2.921927E-3,-9.912346E-3,-4.133468E-4],"split_indices":[3,2,3,0,0,0,0],"split_type":[0,0,0,0,0,0,0],"sum_hessian":[1.11919205E2,5.2002506E1,5.99167E1,1.7726358E1,3.427615E1,4.3236046E1,1.6680653E1],"tree_param":{"num_deleted":"0","num_feature":"5","num_nodes":"7","size_leaf_vector":"1"}}]},"name":"gbtree"},"learner_model_param":{"base_score":"[4.9019608E-1]","boost_from_average":"1","num_class":"0","num_feature":"5","num_target":"1"},"objective":{"name":"binary:logistic","reg_loss_param":{"scale_pos_weight":"1"}}},"version":[3,2,0]}