{"learner":{"attributes":{"scikit_learn":"{\"_estimator_type\": \"regressor\"}"},"feature_names":["position","rank_tier","duration_bucket","a_dmg","a_role","a_cc","b_dmg","b_role","b_cc"],"feature_types":["c","c","c","c","c","int","c","c","int"],"gradient_booster":{"model":{"cats":{"enc":[{"offsets":[0,6,12,18,21,28],"values":[66,79,84,84,79,77,74,85,78,71,76,69,77,73,68,68,76,69,84,79,80,85,84,73,76,73,84,89]},{"offsets":[0,10,17,24,35,41,48],"values":[67,72,65,76,76,69,78,71,69,82,68,73,65,77,79,78,68,69,77,69,82,65,76,68,71,82,65,78,68,77,65,83,84,69,82,77,65,83,84,69,82,85,78,75,78,79,87,78]},{"offsets":[0,10,22,31],"values":[69,65,82,76,89,95,48,95,50,53,76,65,84,69,95,51,53,95,80,76,85,83,77,73,68,95,50,53,95,51,53]},{"offsets":[0,2,4],"values":[65,68,65,80]},{"offsets":[0,8,15,19,27,34,38],"values":[65,83,83,65,83,83,73,78,70,73,71,72,84,69,82,77,65,71,69,77,65,82,75,83,77,65,78,83,85,80,80,79,82,84,84,65,78,75]},{"offsets":[],"values":[]},{"offsets":[0,2,4],"values":[65,68,65,80]},{"offsets":[0,8,15,19,27,34,38],"values":[65,83,83,65,83,83,73,78,70,73,71,72,84,69,82,77,65,71,69,77,65,82,75,83,77,65,78,83,85,80,80,79,82,84,84,65,78,75]},{"offsets":[],"values":[]}],"feature_segments":[0,5,11,14,16,22,22,24,30,30],"sorted_idx":[0,1,2,3,4,0,1,2,3,4,5,0,1,2,0,1,0,1,2,3,4,5,0,1,0,1,2,3,4,5]},"gbtree_model_param":{"num_parallel_tree":"1","num_trees":"100"},"iteration_indptr":[0,1,2,3,4,5,6,7,8,9,10,11,12,13,14,15,16,17,18,19,20,21,22,23,24,25,26,27,28,29,30,31,32,33,34,35,36,37,38,39,40,41,42,43,44,45,46,47,48,49,50,51,52,53,54,55,56,57,58,59,60,61,62,63,64,65,66,67,68,69,70,71,72,73,74,75,76,77,78,79,80,81,82,83,84,85,86,87,88,89,90,91,92,93,94,95,96,97,98,99,100],"tree_info":[0,0,0,0,0,0,0,0,0,0,0,0,0,0,0,0,0,0,0,0,0,0,0,0,0,0,0,0,0,0,0,0,0,0,0,0,0,0,0,0,0,0,0,0,0,0,0,0,0,0,0,0,0,0,0,0,0,0,0,0,0,0,0,0,0,0,0,0,0,0,0,0,0,0,0,0,0,0,0,0,0,0,0,0,0,0,0,0,0,0,0,0,0,0,0,0,0,0,0,0],"trees":[{"base_weights":[1.5489299E-8,7.836367E-2,-1.0144216E-1,2.1118142E-1,3.527836E-2,-7.586999E-2,-2.341933E-1,3.002715E-1,-9.520889E-3,6.469058E-2,-1.6233696E-1,-1.5843354E-1,5.0804806E-3,2.9581703E-2,-4.852089E-1,3.5833067E-1,1.1721217E-1,1.0094908E-1,-1.9581611E-1,2.6840556E-2,2.3358253E-1,-3.043007E-1,2.9408845E-1,-1.02434084E-1,-3.9509952E-1,4.6158847E-1,-3.3181127E-2,1.9827233E-1,-3.8031858E-1,4.654528E-2,-4.8863187E-1,4.8314708E-1,2.9575676E-1,4.7236003E-2,5.061848E-2,1.7658252E-1,-2.0735408E-1,-4.8258662E-2,1.05106585E-1,1.1945339E-1,-5.0553545E-2,8.36983E-3,3.902912E-1,-1.1655153E-1,-4.825869E-1,4.7753575E-1,-4.9000606E-2,-6.2110055E-2,-4.033133E-1,5.0135057E-2,-4.6916455E-1,5.0320727E-1,-3.8402945E-1,-2.135478E-2,-4.1422844E-1,5.069477E-2,7.3952414E-2,5.02689E-2,-4.9161028E-2,-3.8661346E-1,-4.9016576E-2,5.03725E-2,8.49688E-3,3.682862E-2,1.3184047E-2,-4.8895177E-2,9.633859E-3,2.8327882E-2,-7.7637085E-3,-6.294977E-3,-4.8890743E-2,4.5466106E-2,-4.9016517E-2,5.21246E-3,2.4289563E-2,-1.9758044E-2,-1.4730702E-4,-4.567511E-2,2.3174528E-2,5.022927E-2,-4.9723308E-3,-3.004516E-3,-4.7394536E-2,-1.2238868E-2,-4.9196985E-2,4.184006E-2,5.0695427E-2,3.0203927E-3,-1.6578926E-2,2.2708943E-2,-4.2033218E-2,-3.463709E-2,-4.9202748E-2,5.073446E-2,-4.1019443E-2,-5.941779E-3,-4.8153263E-2,-5.574183E-3,2.8584765E-3,4.8568986E-2,-4.6107348E-2,2.119338E-2,-4.531951E-2,-3.454723E-3,-4.8022766E-2],"categories":[2,4,5,0,2,5,1,0,0,5,1,4,5,1,4,0,1,4,2,3,4,1,2,3,1,2,3,4,1,2,0,0,1,3,2,0,3,3,0,0,1,3,5,4,5,2,0,2,3,2,5,0,1,2,3,4,2,3,4,5,0,3,4,0,3,1,0,0,0,2,3,0,0,0,0,3,2,5,0,3,0,0,3,1,4],"categories_nodes":[0,1,2,3,4,6,8,10,11,12,13,14,15,16,18,19,20,21,22,23,24,25,26,27,28,30,31,32,35,36,38,39,40,41,43,44,45,47,48,50,51,52,53,54,59],"categories_segments":[0,3,6,7,8,10,13,15,16,18,21,24,28,30,31,32,34,35,37,38,39,43,45,46,49,51,56,60,63,64,65,66,67,68,69,71,72,73,74,76,78,79,80,81,83],"categories_sizes":[3,3,1,1,2,3,2,1,2,3,3,4,2,1,1,2,1,2,1,1,4,2,1,3,2,5,4,3,1,1,1,1,1,1,2,1,1,1,2,2,1,1,1,2,2],"default_left":[1,1,1,1,1,0,1,0,1,0,1,1,1,1,1,1,1,0,1,1,1,1,1,1,1,1,1,1,1,0,1,1,1,0,0,1,1,0,1,1,1,1,0,1,1,1,0,1,1,0,1,1,1,1,1,0,0,0,0,1,0,0,0,0,0,0,0,0,0,0,0,0,0,0,0,0,0,0,0,0,0,0,0,0,0,0,0,0,0,0,0,0,0,0,0,0,0,0,0,0,0,0,0,0,0],"id":0,"left_children":[1,3,5,7,9,11,13,15,17,19,21,23,25,27,29,31,33,35,37,39,41,43,45,47,49,51,53,55,57,-1,59,61,63,65,-1,67,69,-1,71,73,75,77,79,81,83,85,-1,87,89,-1,91,93,95,97,99,-1,101,-1,-1,103,-1,-1,-1,-1,-1,-1,-1,-1,-1,-1,-1,-1,-1,-1,-1,-1,-1,-1,-1,-1,-1,-1,-1,-1,-1,-1,-1,-1,-1,-1,-1,-1,-1,-1,-1,-1,-1,-1,-1,-1,-1,-1,-1,-1,-1],"loss_changes":[7.05738E2,2.866151E2,1.3133124E2,2.4122101E2,2.1983188E2,2.1684215E2,4.137709E2,9.284918E1,7.264668E1,2.1044337E2,3.1758917E2,2.1283188E2,2.8617273E2,2.1083344E2,1.0647034E1,5.16781E1,5.7298916E1,5.1709366E1,1.1344335E2,1.9278099E2,2.1270636E2,1.2506613E2,1.6751993E2,1.5757826E2,2.0426898E2,4.478357E1,6.8114365E1,8.2851425E1,8.76104E1,0E0,3.098755E-1,1.8097961E1,5.2523468E1,4.706928E1,0E0,4.8303226E1,1.7736557E1,0E0,1.3381015E2,1.0174985E2,1.0573073E2,2.5714603E2,1.7517426E2,5.6316246E1,6.4187317E0,1.4283752E0,0E0,1.0965083E2,1.6564056E1,0E0,7.7998657E0,4.773163E0,1.870429E0,2.5181974E1,1.9405235E1,0E0,1.1218306E2,0E0,0E0,1.6972461E0,0E0,0E0,0E0,0E0,0E0,0E0,0E0,0E0,0E0,0E0,0E0,0E0,0E0,0E0,0E0,0E0,0E0,0E0,0E0,0E0,0E0,0E0,0E0,0E0,0E0,0E0,0E0,0E0,0E0,0E0,0E0,0E0,0E0,0E0,0E0,0E0,0E0,0E0,0E0,0E0,0E0,0E0,0E0,0E0,0E0],"parents":[2147483647,0,0,1,1,2,2,3,3,4,4,5,5,6,6,7,7,8,8,9,9,10,10,11,11,12,12,13,13,14,14,15,15,16,16,17,17,18,18,19,19,20,20,21,21,22,22,23,23,24,24,25,25,26,26,27,27,28,28,30,30,31,31,32,32,33,33,35,35,36,36,38,38,39,39,40,40,41,41,42,42,43,43,44,44,45,45,47,47,48,48,50,50,51,51,52,52,53,53,54,54,56,56,59,59],"right_children":[2,4,6,8,10,12,14,16,18,20,22,24,26,28,30,32,34,36,38,40,42,44,46,48,50,52,54,56,58,-1,60,62,64,66,-1,68,70,-1,72,74,76,78,80,82,84,86,-1,88,90,-1,92,94,96,98,100,-1,102,-1,-1,104,-1,-1,-1,-1,-1,-1,-1,-1,-1,-1,-1,-1,-1,-1,-1,-1,-1,-1,-1,-1,-1,-1,-1,-1,-1,-1,-1,-1,-1,-1,-1,-1,-1,-1,-1,-1,-1,-1,-1,-1,-1,-1,-1,-1,-1],"split_conditions":[1E-45,1E-45,1E-45,1E-45,1E-45,3E0,1E-45,3E0,1E-45,3E0,1E-45,1E-45,1E-45,1E-45,1E-45,1E-45,1E-45,3E0,1E-45,1E-45,1E-45,1E-45,1E-45,1E-45,1E-45,1E-45,1E-45,1E-45,1E-45,4.654528E-2,1E-45,1E-45,1E-45,2E0,5.061848E-2,1E-45,1E-45,-4.8258662E-2,1E-45,1E-45,1E-45,1E-45,3E0,1E-45,1E-45,1E-45,-4.9000606E-2,1E-45,1E-45,5.0135057E-2,1E-45,1E-45,1E-45,1E-45,1E-45,5.069477E-2,3E0,5.02689E-2,-4.9161028E-2,1E-45,-4.9016576E-2,5.03725E-2,8.49688E-3,3.682862E-2,1.3184047E-2,-4.8895177E-2,9.633859E-3,2.8327882E-2,-7.7637085E-3,-6.294977E-3,-4.8890743E-2,4.5466106E-2,-4.9016517E-2,5.21246E-3,2.4289563E-2,-1.9758044E-2,-1.4730702E-4,-4.567511E-2,2.3174528E-2,5.022927E-2,-4.9723308E-3,-3.004516E-3,-4.7394536E-2,-1.2238868E-2,-4.9196985E-2,4.184006E-2,5.0695427E-2,3.0203927E-3,-1.6578926E-2,2.2708943E-2,-4.2033218E-2,-3.463709E-2,-4.9202748E-2,5.073446E-2,-4.1019443E-2,-5.941779E-3,-4.8153263E-2,-5.574183E-3,2.8584765E-3,4.8568986E-2,-4.6107348E-2,2.119338E-2,-4.531951E-2,-3.454723E-3,-4.8022766E-2],"split_indices":[4,1,2,0,7,8,7,5,1,8,2,0,0,1,0,7,2,5,6,0,2,4,0,3,1,7,0,0,4,0,1,4,0,8,0,6,7,0,2,2,6,6,5,0,1,6,0,2,1,0,4,3,1,2,1,0,8,0,0,7,0,0,0,0,0,0,0,0,0,0,0,0,0,0,0,0,0,0,0,0,0,0,0,0,0,0,0,0,0,0,0,0,0,0,0,0,0,0,0,0,0,0,0,0,0],"split_type":[1,1,1,1,1,0,1,0,1,0,1,1,1,1,1,1,1,0,1,1,1,1,1,1,1,1,1,1,1,0,1,1,1,0,0,1,1,0,1,1,1,1,0,1,1,1,0,1,1,0,1,1,1,1,1,0,0,0,0,1,0,0,0,0,0,0,0,0,0,0,0,0,0,0,0,0,0,0,0,0,0,0,0,0,0,0,0,0,0,0,0,0,0,0,0,0,0,0,0,0,0,0,0,0,0],"sum_hessian":[8.8777E4,5.0086E4,3.8691E4,1.2267E4,3.7819E4,3.2443E4,6.248E3,8.739E3,3.528E3,3.292E4,4.899E3,1.6061E4,1.6382E4,3.047E3,3.201E3,6.634E3,2.105E3,2.215E3,1.313E3,2.6894E4,6.026E3,3.737E3,1.162E3,1.2989E4,3.072E3,1.266E3,1.5116E4,2.159E3,8.88E2,1.1E1,3.19E3,2.213E3,4.421E3,1.785E3,3.2E2,1.779E3,4.36E2,6.72E2,6.41E2,1.2243E4,1.4651E4,2.473E3,3.553E3,1.821E3,1.916E3,9.42E2,2.2E2,1.1455E4,1.534E3,2.34E2,2.838E3,1.207E3,5.9E1,1.4662E4,4.54E2,6.19E2,1.54E3,9.9E1,7.89E2,5.1E1,3.139E3,2.104E3,1.09E2,3.064E3,1.357E3,1.49E2,1.636E3,1.253E3,5.26E2,2.89E2,1.47E2,4.04E2,2.37E2,7.923E3,4.32E3,3.666E3,1.0985E4,8.02E2,1.671E3,2.832E3,7.21E2,1.467E3,3.54E2,4.9E1,1.867E3,3.18E2,6.24E2,6.06E3,5.395E3,4E1,1.494E3,4.48E2,2.39E3,1.202E3,5E0,1.4E1,4.5E1,8.683E3,5.979E3,2.2E1,4.32E2,1.221E3,3.19E2,1.1E1,4E1],"tree_param":{"num_deleted":"0","num_feature":"9","num_nodes":"105","size_leaf_vector":"1"}},{"base_weights":[-1.5652594E-6,7.0527256E-2,-9.13015E-2,1.5827648E-1,1.584166E-2,-6.8286434E-2,-2.1077818E-1,1.8302158E-1,-4.9412083E-2,4.527369E-2,-1.3688815E-1,-1.4259435E-1,4.569705E-3,2.6632613E-2,-4.3670487E-1,3.6775163E-1,1.384479E-1,-1.5490875E-2,1.6685395E-1,-1.6595708E-1,5.250127E-2,-9.219322E-2,-3.5560054E-1,4.153946E-1,-2.9863033E-2,1.784574E-1,-3.4228545E-1,4.227863E-2,-4.398002E-1,4.6230796E-1,2.1701324E-1,3.1153053E-1,8.3415315E-2,-7.04055E-2,3.246977E-1,3.006616E-1,4.0060245E-3,-1.3859555E-1,-4.8401198E-1,-5.5900257E-2,-3.6299455E-1,4.5142885E-2,-4.2227766E-1,4.5289457E-1,-3.465281E-1,-1.9219492E-2,-3.7280017E-1,4.5633473E-2,6.65415E-2,4.529228E-2,-4.4251148E-2,-3.4894207E-1,-4.411648E-2,4.6861015E-2,1.9151438E-2,4.1982386E-2,-3.2707192E-2,3.6214974E-2,1.2402482E-2,-2.2530412E-2,1.2290368E-2,1.3967271E-2,-9.5916595E-3,4.56806E-2,-1.6041672E-2,4.76324E-2,1.9912092E-2,-2.2076614E-2,3.45308E-2,-2.4813355E-3,-1.8852064E-2,4.758525E-2,-5.0077286E-2,2.9815024E-2,-7.830458E-3,-2.3266125E-2,-4.309043E-2,-3.1181095E-2,-4.4284534E-2,4.566523E-2,-3.7601158E-2,-5.3872108E-3,-4.3442618E-2,-1.2624657E-4,-1.03041595E-2,4.392326E-2,-4.150726E-2,1.9075776E-2,-4.0801723E-2,-3.1380416E-3,-4.3337617E-2],"categories":[2,4,5,0,2,3,1,2,1,4,5,1,3,0,1,1,4,2,3,4,1,2,3,1,2,3,4,0,2,4,5,0,1,2,5,1,3,4,2,0,0,1,3,5,4,5,2,0,2,3,2,5,0,1,2,3,4,1,2,5,0,0,0,2,3,4,5,0,1,3,4,5,0,0,0,4,0,2,3,5,0,2,5,0,3,1,3,0,3,1,4],"categories_nodes":[0,1,2,3,6,7,9,10,11,12,13,14,15,16,18,19,21,22,23,24,25,26,28,29,30,32,33,34,35,36,37,38,39,40,42,43,44,45,46,51],"categories_segments":[0,3,6,7,8,11,13,14,15,17,20,23,27,31,35,38,39,40,44,46,47,50,52,57,60,61,62,67,68,72,73,74,76,80,81,83,84,85,87,89],"categories_sizes":[3,3,1,1,3,2,1,1,2,3,3,4,4,4,3,1,1,4,2,1,3,2,5,3,1,1,5,1,4,1,1,2,4,1,2,1,1,2,2,2],"default_left":[1,1,1,1,0,0,1,1,0,1,1,1,1,1,1,1,1,0,1,1,0,1,1,1,1,1,1,0,1,1,1,0,1,1,1,1,1,1,1,1,1,0,1,1,1,1,1,0,0,0,0,1,0,0,0,0,0,0,0,0,0,0,0,0,0,0,0,0,0,0,0,0,0,0,0,0,0,0,0,0,0,0,0,0,0,0,0,0,0,0,0],"id":1,"left_children":[1,3,5,7,9,11,13,15,-1,17,19,21,23,25,27,29,31,33,35,37,-1,39,41,43,45,47,49,-1,51,53,55,57,59,61,63,65,67,69,71,73,75,-1,77,79,81,83,85,-1,87,-1,-1,89,-1,-1,-1,-1,-1,-1,-1,-1,-1,-1,-1,-1,-1,-1,-1,-1,-1,-1,-1,-1,-1,-1,-1,-1,-1,-1,-1,-1,-1,-1,-1,-1,-1,-1,-1,-1,-1,-1,-1],"loss_changes":[5.716726E2,2.4034593E2,1.06379456E2,3.105324E2,1.387175E2,1.7564561E2,3.3519196E2,1.525105E2,0E0,1.9114641E2,9.6021515E1,1.7240482E2,2.3176347E2,1.7078232E2,8.704529E0,5.1225708E1,1.4216595E2,3.2231314E2,1.8787476E2,4.150461E1,0E0,1.27647835E2,1.6554999E2,3.6357758E1,5.5170883E1,6.7143234E1,7.10542E1,0E0,2.4163818E-1,3.6852112E0,1.5351862E2,3.4133575E1,1.3812537E2,7.9626175E1,1.5375542E2,8.432709E1,2.984983E2,2.4989906E1,6.3196106E0,9.0895325E1,1.3485855E1,0E0,6.3121643E0,3.9344025E0,1.520031E0,2.2070553E1,1.5800903E1,0E0,9.091655E1,0E0,0E0,1.3806787E0,0E0,0E0,0E0,0E0,0E0,0E0,0E0,0E0,0E0,0E0,0E0,0E0,0E0,0E0,0E0,0E0,0E0,0E0,0E0,0E0,0E0,0E0,0E0,0E0,0E0,0E0,0E0,0E0,0E0,0E0,0E0,0E0,0E0,0E0,0E0,0E0,0E0,0E0,0E0],"parents":[2147483647,0,0,1,1,2,2,3,3,4,4,5,5,6,6,7,7,9,9,10,10,11,11,12,12,13,13,14,14,15,15,16,16,17,17,18,18,19,19,21,21,22,22,23,23,24,24,25,25,26,26,28,28,29,29,30,30,31,31,32,32,33,33,34,34,35,35,36,36,37,37,38,38,39,39,40,40,42,42,43,43,44,44,45,45,46,46,48,48,51,51],"right_children":[2,4,6,8,10,12,14,16,-1,18,20,22,24,26,28,30,32,34,36,38,-1,40,42,44,46,48,50,-1,52,54,56,58,60,62,64,66,68,70,72,74,76,-1,78,80,82,84,86,-1,88,-1,-1,90,-1,-1,-1,-1,-1,-1,-1,-1,-1,-1,-1,-1,-1,-1,-1,-1,-1,-1,-1,-1,-1,-1,-1,-1,-1,-1,-1,-1,-1,-1,-1,-1,-1,-1,-1,-1,-1,-1,-1],"split_conditions":[1E-45,1E-45,1E-45,1E-45,3E0,3E0,1E-45,1E-45,-4.9412083E-2,1E-45,1E-45,1E-45,1E-45,1E-45,1E-45,1E-45,1E-45,3E0,1E-45,1E-45,5.250127E-2,1E-45,1E-45,1E-45,1E-45,1E-45,1E-45,4.227863E-2,1E-45,1E-45,1E-45,3E0,1E-45,1E-45,1E-45,1E-45,1E-45,1E-45,1E-45,1E-45,1E-45,4.5142885E-2,1E-45,1E-45,1E-45,1E-45,1E-45,4.5633473E-2,3E0,4.529228E-2,-4.4251148E-2,1E-45,-4.411648E-2,4.6861015E-2,1.9151438E-2,4.1982386E-2,-3.2707192E-2,3.6214974E-2,1.2402482E-2,-2.2530412E-2,1.2290368E-2,1.3967271E-2,-9.5916595E-3,4.56806E-2,-1.6041672E-2,4.76324E-2,1.9912092E-2,-2.2076614E-2,3.45308E-2,-2.4813355E-3,-1.8852064E-2,4.758525E-2,-5.0077286E-2,2.9815024E-2,-7.830458E-3,-2.3266125E-2,-4.309043E-2,-3.1181095E-2,-4.4284534E-2,4.566523E-2,-3.7601158E-2,-5.3872108E-3,-4.3442618E-2,-1.2624657E-4,-1.03041595E-2,4.392326E-2,-4.150726E-2,1.9075776E-2,-4.0801723E-2,-3.1380416E-3,-4.3337617E-2],"split_indices":[4,7,2,1,5,8,7,0,0,2,2,0,0,1,0,4,1,8,0,0,0,3,1,7,0,0,4,0,1,1,2,5,3,1,0,7,6,3,1,1,1,0,4,3,1,1,1,0,8,0,0,7,0,0,0,0,0,0,0,0,0,0,0,0,0,0,0,0,0,0,0,0,0,0,0,0,0,0,0,0,0,0,0,0,0,0,0,0,0,0,0],"split_type":[1,1,1,1,0,0,1,1,0,1,1,1,1,1,1,1,1,0,1,1,0,1,1,1,1,1,1,0,1,1,1,0,1,1,1,1,1,1,1,1,1,0,1,1,1,1,1,0,0,0,0,1,0,0,0,0,0,0,0,0,0,0,0,0,0,0,0,0,0,0,0,0,0,0,0,0,0,0,0,0,0,0,0,0,0,0,0,0,0,0,0],"sum_hessian":[8.8777E4,5.0086E4,3.8691E4,1.9229E4,3.0857E4,3.2443E4,6.248E3,1.8527E4,7.02E2,2.5872E4,4.985E3,1.6061E4,1.6382E4,3.047E3,3.201E3,3.6E3,1.4927E4,1.7251E4,8.621E3,4.776E3,2.09E2,1.2989E4,3.072E3,1.266E3,1.5116E4,2.159E3,8.88E2,1.1E1,3.19E3,2.211E3,1.389E3,3.6E3,1.1327E4,1.4854E4,2.397E3,4.732E3,3.889E3,4.399E3,3.77E2,1.1455E4,1.534E3,2.34E2,2.838E3,1.207E3,5.9E1,1.4662E4,4.54E2,6.19E2,1.54E3,9.9E1,7.89E2,5.1E1,3.139E3,2.16E3,5.1E1,1.012E3,3.77E2,2.834E3,7.66E2,1.284E3,1.0043E4,1.608E3,1.3246E4,1.884E3,5.13E2,1.732E3,3E3,2.345E3,1.544E3,1.342E3,3.057E3,6E0,3.71E2,6.81E2,1.0774E4,5.27E2,1.007E3,4.48E2,2.39E3,1.202E3,5E0,1.4E1,4.5E1,1.2076E4,2.586E3,2.2E1,4.32E2,1.221E3,3.19E2,1.1E1,4E1],"tree_param":{"num_deleted":"0","num_feature":"9","num_nodes":"91","size_leaf_vector":"1"}},{"base_weights":[-7.260869E-7,6.347867E-2,-8.217515E-2,1.7304859E-1,2.7934857E-2,-6.146159E-2,-1.897041E-1,2.4986328E-1,-1.7241428E-2,5.3906564E-2,-1.465636E-1,-1.2833956E-1,4.109757E-3,2.397754E-2,-3.9304948E-1,4.1209394E-1,2.0053247E-1,7.994284E-2,-1.8112506E-1,2.2753404E-2,1.9291607E-1,-2.622433E-1,2.2536871E-1,-8.297731E-2,-3.2005036E-1,3.73823E-1,-2.6877262E-2,1.6062273E-1,-3.0805576E-1,3.8403086E-2,-3.9584857E-1,4.3364385E-1,-5.0956476E-2,3.0462626E-1,8.397223E-2,1.4476348E-1,-1.842693E-1,-4.3620405E-1,8.6552955E-2,1.01514906E-1,-4.30655E-2,9.8990705E-3,3.2026303E-1,-9.0924844E-2,-4.2493498E-1,3.8940805E-1,-4.7560167E-2,-5.0308306E-2,-3.2673833E-1,4.064781E-2,-3.8007647E-1,4.0761182E-1,-3.1268913E-1,-1.7298255E-2,-3.3551487E-1,6.0702723E-2,4.3660256E-1,4.0808346E-2,-3.9831635E-2,-3.149416E-1,-3.970624E-2,4.543891E-2,3.9795913E-2,9.176018E-3,3.8524423E-2,1.32690435E-2,-5.155325E-2,2.4022076E-2,-8.265238E-3,-5.4203733E-3,-4.3788247E-2,-4.4651784E-2,-3.921966E-2,4.0473983E-2,-4.552632E-2,2.3747457E-3,1.9948775E-2,-2.9583802E-3,-4.462595E-2,-3.964055E-2,2.0502627E-2,4.1619245E-2,-5.659047E-3,-1.1657522E-3,-4.1845586E-2,-1.0718364E-2,-4.3321263E-2,3.353273E-2,4.163878E-2,3.1926264E-3,-1.426681E-2,2.2763303E-2,-3.4172326E-2,-2.8069928E-2,-3.985793E-2,4.1102506E-2,-3.446773E-2,-4.884405E-3,-3.9192796E-2,-4.771558E-3,2.687588E-3,3.9721902E-2,-3.736612E-2,4.101197E-2,-2.4782226E-3,4.6574004E-2,4.101069E-2,-2.8503875E-3,-3.9109554E-2],"categories":[2,4,5,0,2,5,1,0,0,5,1,4,5,0,1,2,1,4,0,1,4,2,3,4,1,2,3,1,2,3,4,3,1,2,4,5,0,1,3,2,0,3,3,0,0,1,3,5,4,5,2,0,2,5,0,1,2,3,4,0,1,2,4,5,0,1,0,3,1,0,2,0,2,3,0,0,0,0,3,2,5,0,3,0,0,3,0,2,1,3,4,1,4],"categories_nodes":[0,1,2,3,4,6,7,8,10,11,12,13,14,15,16,18,19,20,21,22,23,24,25,26,27,28,30,31,33,34,35,36,38,39,40,41,43,44,45,47,48,50,51,52,53,54,55,56,59],"categories_segments":[0,3,6,7,8,10,13,16,18,19,21,24,27,31,32,36,37,39,40,42,43,44,48,50,51,52,54,59,64,65,66,67,68,69,70,71,72,74,75,76,77,79,81,82,83,84,86,88,91],"categories_sizes":[3,3,1,1,2,3,3,2,1,2,3,3,4,1,4,1,2,1,2,1,1,4,2,1,1,2,5,5,1,1,1,1,1,1,1,1,2,1,1,1,2,2,1,1,1,2,2,3,2],"default_left":[1,1,1,1,1,0,1,1,1,0,1,1,1,1,1,1,1,0,1,1,1,1,1,1,1,1,1,1,1,0,1,1,0,1,1,1,1,0,1,1,1,1,0,1,1,1,0,1,1,0,1,1,1,1,1,1,1,0,0,1,0,0,0,0,0,0,0,0,0,0,0,0,0,0,0,0,0,0,0,0,0,0,0,0,0,0,0,0,0,0,0,0,0,0,0,0,0,0,0,0,0,0,0,0,0,0,0,0,0],"id":2,"left_children":[1,3,5,7,9,11,13,15,17,19,21,23,25,27,29,31,33,35,37,39,41,43,45,47,49,51,53,55,57,-1,59,61,-1,63,65,67,69,71,73,75,77,79,81,83,85,87,-1,89,91,-1,93,95,97,99,101,103,105,-1,-1,107,-1,-1,-1,-1,-1,-1,-1,-1,-1,-1,-1,-1,-1,-1,-1,-1,-1,-1,-1,-1,-1,-1,-1,-1,-1,-1,-1,-1,-1,-1,-1,-1,-1,-1,-1,-1,-1,-1,-1,-1,-1,-1,-1,-1,-1,-1,-1,-1,-1],"loss_changes":[4.631053E2,1.9506062E2,8.61673E1,1.7932654E2,1.7140898E2,1.422765E2,2.7153583E2,6.986328E1,5.6220547E1,1.425628E2,2.1088171E2,1.3965555E2,1.8769879E2,1.3833954E2,7.1167603E0,4.06792E1,8.131537E1,3.7978783E1,8.975642E1,1.3942793E2,1.4046606E2,1.0414725E2,1.3391476E2,1.0342851E2,1.3417007E2,2.951735E1,4.468672E1,5.9537453E1,5.7626747E1,0E0,1.8826294E-1,1.2930908E0,0E0,6.073114E1,9.247869E1,3.866098E1,1.43912945E1,1.3034058E-1,1.1086428E2,9.32835E1,7.963126E1,1.9622266E2,1.2850537E2,4.729881E1,4.995697E0,1.2362823E0,0E0,8.701479E1,1.2829361E1,0E0,5.1083984E0,3.2434998E0,1.2352633E0,1.9703352E1,1.2866184E1,4.741368E1,2.5213623E-1,0E0,0E0,1.1231465E0,0E0,0E0,0E0,0E0,0E0,0E0,0E0,0E0,0E0,0E0,0E0,0E0,0E0,0E0,0E0,0E0,0E0,0E0,0E0,0E0,0E0,0E0,0E0,0E0,0E0,0E0,0E0,0E0,0E0,0E0,0E0,0E0,0E0,0E0,0E0,0E0,0E0,0E0,0E0,0E0,0E0,0E0,0E0,0E0,0E0,0E0,0E0,0E0,0E0],"parents":[2147483647,0,0,1,1,2,2,3,3,4,4,5,5,6,6,7,7,8,8,9,9,10,10,11,11,12,12,13,13,14,14,15,15,16,16,17,17,18,18,19,19,20,20,21,21,22,22,23,23,24,24,25,25,26,26,27,27,28,28,30,30,31,31,33,33,34,34,35,35,36,36,37,37,38,38,39,39,40,40,41,41,42,42,43,43,44,44,45,45,47,47,48,48,50,50,51,51,52,52,53,53,54,54,55,55,56,56,59,59],"right_children":[2,4,6,8,10,12,14,16,18,20,22,24,26,28,30,32,34,36,38,40,42,44,46,48,50,52,54,56,58,-1,60,62,-1,64,66,68,70,72,74,76,78,80,82,84,86,88,-1,90,92,-1,94,96,98,100,102,104,106,-1,-1,108,-1,-1,-1,-1,-1,-1,-1,-1,-1,-1,-1,-1,-1,-1,-1,-1,-1,-1,-1,-1,-1,-1,-1,-1,-1,-1,-1,-1,-1,-1,-1,-1,-1,-1,-1,-1,-1,-1,-1,-1,-1,-1,-1,-1,-1,-1,-1,-1,-1],"split_conditions":[1E-45,1E-45,1E-45,1E-45,1E-45,3E0,1E-45,1E-45,1E-45,3E0,1E-45,1E-45,1E-45,1E-45,1E-45,1E-45,1E-45,3E0,1E-45,1E-45,1E-45,1E-45,1E-45,1E-45,1E-45,1E-45,1E-45,1E-45,1E-45,3.8403086E-2,1E-45,1E-45,-5.0956476E-2,1E-45,1E-45,1E-45,1E-45,3E0,1E-45,1E-45,1E-45,1E-45,3E0,1E-45,1E-45,1E-45,-4.7560167E-2,1E-45,1E-45,4.064781E-2,1E-45,1E-45,1E-45,1E-45,1E-45,1E-45,1E-45,4.0808346E-2,-3.9831635E-2,1E-45,-3.970624E-2,4.543891E-2,3.9795913E-2,9.176018E-3,3.8524423E-2,1.32690435E-2,-5.155325E-2,2.4022076E-2,-8.265238E-3,-5.4203733E-3,-4.3788247E-2,-4.4651784E-2,-3.921966E-2,4.0473983E-2,-4.552632E-2,2.3747457E-3,1.9948775E-2,-2.9583802E-3,-4.462595E-2,-3.964055E-2,2.0502627E-2,4.1619245E-2,-5.659047E-3,-1.1657522E-3,-4.1845586E-2,-1.0718364E-2,-4.3321263E-2,3.353273E-2,4.163878E-2,3.1926264E-3,-1.426681E-2,2.2763303E-2,-3.4172326E-2,-2.8069928E-2,-3.985793E-2,4.1102506E-2,-3.446773E-2,-4.884405E-3,-3.9192796E-2,-4.771558E-3,2.687588E-3,3.9721902E-2,-3.736612E-2,4.101197E-2,-2.4782226E-3,4.6574004E-2,4.101069E-2,-2.8503875E-3,-3.9109554E-2],"split_indices":[4,1,2,0,7,8,7,7,1,8,2,0,0,1,0,4,4,5,6,0,2,4,0,3,1,7,0,6,4,0,1,7,0,6,2,6,7,8,2,6,1,6,5,0,1,6,0,2,1,0,4,3,1,2,1,0,0,0,0,7,0,0,0,0,0,0,0,0,0,0,0,0,0,0,0,0,0,0,0,0,0,0,0,0,0,0,0,0,0,0,0,0,0,0,0,0,0,0,0,0,0,0,0,0,0,0,0,0,0],"split_type":[1,1,1,1,1,0,1,1,1,0,1,1,1,1,1,1,1,0,1,1,1,1,1,1,1,1,1,1,1,0,1,1,0,1,1,1,1,0,1,1,1,1,0,1,1,1,0,1,1,0,1,1,1,1,1,1,1,0,0,1,0,0,0,0,0,0,0,0,0,0,0,0,0,0,0,0,0,0,0,0,0,0,0,0,0,0,0,0,0,0,0,0,0,0,0,0,0,0,0,0,0,0,0,0,0,0,0,0,0],"sum_hessian":[8.8777E4,5.0086E4,3.8691E4,1.2267E4,3.7819E4,3.2443E4,6.248E3,8.739E3,3.528E3,3.292E4,4.899E3,1.6061E4,1.6382E4,3.047E3,3.201E3,2.036E3,6.703E3,2.215E3,1.313E3,2.6894E4,6.026E3,3.737E3,1.162E3,1.2989E4,3.072E3,1.266E3,1.5116E4,2.159E3,8.88E2,1.1E1,3.19E3,1.99E3,4.6E1,3.54E3,3.163E3,1.779E3,4.36E2,6.72E2,6.41E2,1.2243E4,1.4651E4,2.473E3,3.553E3,1.821E3,1.916E3,9.42E2,2.2E2,1.1455E4,1.534E3,2.34E2,2.838E3,1.207E3,5.9E1,1.4662E4,4.54E2,1.586E3,5.73E2,9.9E1,7.89E2,5.1E1,3.139E3,1.251E3,7.39E2,9.73E2,2.567E3,2.926E3,2.37E2,1.253E3,5.26E2,2.89E2,1.47E2,5.37E2,1.35E2,4.04E2,2.37E2,6.826E3,5.417E3,1.4178E4,4.73E2,8.02E2,1.671E3,2.832E3,7.21E2,1.467E3,3.54E2,4.9E1,1.867E3,3.18E2,6.24E2,6.06E3,5.395E3,4E1,1.494E3,4.48E2,2.39E3,1.202E3,5E0,1.4E1,4.5E1,8.683E3,5.979E3,2.2E1,4.32E2,3.11E2,1.275E3,2.65E2,3.08E2,1.1E1,4E1],"tree_param":{"num_deleted":"0","num_feature":"9","num_nodes":"109","size_leaf_vector":"1"}},{"base_weights":[-2.4527992E-6,5.7127673E-2,-7.3957704E-2,1.3117453E-1,1.0981511E-2,7.075339E-2,-8.6594716E-2,1.5224424E-1,-4.243171E-1,3.6687415E-2,-1.2241196E-1,3.2161772E-1,-6.2244475E-2,-4.4668987E-2,-1.412935E-1,3.0403706E-1,1.1561788E-1,-3.9696638E-2,-4.5300983E-2,-1.6023936E-2,1.4215477E-1,-1.4867997E-1,4.757057E-2,4.2525905E-1,4.0217943E-2,9.489478E-2,-3.304073E-1,-7.380452E-2,2.9891813E-1,4.8651537E-3,-2.1968156E-1,3.8934967E-1,1.6805464E-1,2.5372097E-1,7.170679E-2,-6.1299793E-2,2.6445517E-1,2.605433E-1,-1.9262068E-3,-1.2367173E-1,-4.393879E-1,4.8032457E-1,1.2696256E-2,1.4725162E-1,-2.0436692E-1,2.977557E-1,-2.0294705E-1,-1.0630122E-1,-4.6416795E-1,-2.8244177E-1,-1.2795019E-2,4.9884996E-1,-1.7714546E-3,1.3701922E-1,-1.3289729E-1,-5.0529987E-2,-2.8099674E-1,2.9591365E-2,4.0318217E-2,3.493268E-2,-3.1818014E-2,3.7206866E-2,1.7631738E-2,-2.045242E-2,1.0703984E-2,-5.152625E-3,-4.7839236E-2,3.7607558E-2,-1.4540652E-2,4.1247E-2,1.7272275E-2,-1.9802837E-2,2.958457E-2,-2.1431993E-3,-1.6853252E-2,4.7093276E-2,-4.5533642E-2,4.857957E-2,4.1353893E-2,2.5090043E-2,-1.3621973E-2,-1.569397E-2,-4.4723134E-2,3.6183506E-2,-2.2452697E-2,5.6593954E-3,-3.133182E-2,-2.1866042E-2,3.2208458E-2,-3.7174422E-2,-5.003037E-2,2.7027294E-2,-3.2992795E-2,2.1130515E-2,-8.9447005E-3,5.2094854E-2,4.1891914E-2,-3.5758782E-2,2.7486825E-2,7.828116E-3,5.0458413E-2,-2.603657E-2,1.5336524E-2,1.1232452E-2,-2.7535174E-2,-2.1059891E-2,-3.894562E-2],"categories":[2,4,5,0,2,3,0,1,2,3,2,1,2,4,1,3,5,1,3,0,1,0,1,2,3,5,1,2,3,0,0,2,4,5,0,1,2,5,1,3,4,2,0,1,3,4,4,5,5,4,0,1,3,4,1,2,4,0,1,0,0,1,2,4,0,2,0,1,3,4,5,0,0,0,4,1,0,0,1,1,4,2,2,3,4,4,5,1,1,2,2,4,2],"categories_nodes":[0,1,2,3,5,6,7,9,10,11,12,13,15,16,20,21,23,24,25,26,28,29,30,32,33,34,35,36,37,38,39,40,41,43,44,45,46,48,49,50,51,52,54,55,56],"categories_segments":[0,3,6,10,11,14,17,19,20,21,26,29,30,34,38,41,42,46,48,49,50,54,57,59,60,64,65,66,67,71,72,73,75,76,77,79,80,81,82,85,87,88,89,90,92],"categories_sizes":[3,3,4,1,3,3,2,1,1,5,3,1,4,4,3,1,4,2,1,1,4,3,2,1,4,1,1,1,4,1,1,2,1,1,2,1,1,1,3,2,1,1,1,2,1],"default_left":[1,1,1,1,0,1,1,1,0,1,1,1,1,1,0,1,1,0,0,0,1,1,0,1,1,1,1,0,1,1,1,0,1,1,1,1,1,1,1,1,1,1,0,1,1,1,1,0,1,1,1,1,1,0,1,1,1,0,0,0,0,0,0,0,0,0,0,0,0,0,0,0,0,0,0,0,0,0,0,0,0,0,0,0,0,0,0,0,0,0,0,0,0,0,0,0,0,0,0,0,0,0,0,0,0,0,0],"id":3,"left_children":[1,3,5,7,9,11,13,15,17,19,21,23,25,27,29,31,33,-1,-1,35,37,39,-1,41,43,45,47,49,51,53,55,57,59,61,63,65,67,69,71,73,75,77,-1,79,81,83,85,87,89,91,93,95,97,99,101,103,105,-1,-1,-1,-1,-1,-1,-1,-1,-1,-1,-1,-1,-1,-1,-1,-1,-1,-1,-1,-1,-1,-1,-1,-1,-1,-1,-1,-1,-1,-1,-1,-1,-1,-1,-1,-1,-1,-1,-1,-1,-1,-1,-1,-1,-1,-1,-1,-1,-1,-1],"loss_changes":[3.7509772E2,1.7114476E2,7.076282E1,2.2513333E2,1.0581657E2,1.0371664E2,8.160028E1,1.0297348E2,3.7186432E-1,1.4383876E2,7.840759E1,3.1393211E1,8.5657616E1,2.0169545E2,1.7689856E2,4.170987E1,9.050906E1,0E0,0E0,2.1909819E2,1.4707056E2,3.467489E1,0E0,1.2866165E1,7.64813E0,7.751946E1,2.2463066E1,2.3639667E2,9.468582E1,9.816602E1,1.0421994E2,2.739563E0,1.2262689E2,3.292151E1,1.105841E2,6.0531345E1,1.09760605E2,6.307779E1,2.2721013E2,2.0177238E1,5.702347E0,4.171753E-2,0E0,5.9986153E0,9.549477E-1,2.561699E1,1.4913561E1,1.3643958E1,1.383728E0,1.1037619E2,2.4687993E2,1.4527435E0,6.211104E1,5.937631E1,9.637202E1,9.797134E1,5.6236023E1,0E0,0E0,0E0,0E0,0E0,0E0,0E0,0E0,0E0,0E0,0E0,0E0,0E0,0E0,0E0,0E0,0E0,0E0,0E0,0E0,0E0,0E0,0E0,0E0,0E0,0E0,0E0,0E0,0E0,0E0,0E0,0E0,0E0,0E0,0E0,0E0,0E0,0E0,0E0,0E0,0E0,0E0,0E0,0E0,0E0,0E0,0E0,0E0,0E0,0E0],"parents":[2147483647,0,0,1,1,2,2,3,3,4,4,5,5,6,6,7,7,8,8,9,9,10,10,11,11,12,12,13,13,14,14,15,15,16,16,19,19,20,20,21,21,23,23,24,24,25,25,26,26,27,27,28,28,29,29,30,30,31,31,32,32,33,33,34,34,35,35,36,36,37,37,38,38,39,39,40,40,41,41,43,43,44,44,45,45,46,46,47,47,48,48,49,49,50,50,51,51,52,52,53,53,54,54,55,55,56,56],"right_children":[2,4,6,8,10,12,14,16,18,20,22,24,26,28,30,32,34,-1,-1,36,38,40,-1,42,44,46,48,50,52,54,56,58,60,62,64,66,68,70,72,74,76,78,-1,80,82,84,86,88,90,92,94,96,98,100,102,104,106,-1,-1,-1,-1,-1,-1,-1,-1,-1,-1,-1,-1,-1,-1,-1,-1,-1,-1,-1,-1,-1,-1,-1,-1,-1,-1,-1,-1,-1,-1,-1,-1,-1,-1,-1,-1,-1,-1,-1,-1,-1,-1,-1,-1,-1,-1,-1,-1,-1,-1],"split_conditions":[1E-45,1E-45,1E-45,1E-45,3E0,1E-45,1E-45,1E-45,3E0,1E-45,1E-45,1E-45,1E-45,1E-45,3E0,1E-45,1E-45,-3.9696638E-2,-4.5300983E-2,3E0,1E-45,1E-45,4.757057E-2,1E-45,1E-45,1E-45,1E-45,3E0,1E-45,1E-45,1E-45,2E0,1E-45,1E-45,1E-45,1E-45,1E-45,1E-45,1E-45,1E-45,1E-45,1E-45,1.2696256E-2,1E-45,1E-45,1E-45,1E-45,3E0,1E-45,1E-45,1E-45,1E-45,1E-45,3E0,1E-45,1E-45,1E-45,2.9591365E-2,4.0318217E-2,3.493268E-2,-3.1818014E-2,3.7206866E-2,1.7631738E-2,-2.045242E-2,1.0703984E-2,-5.152625E-3,-4.7839236E-2,3.7607558E-2,-1.4540652E-2,4.1247E-2,1.7272275E-2,-1.9802837E-2,2.958457E-2,-2.1431993E-3,-1.6853252E-2,4.7093276E-2,-4.5533642E-2,4.857957E-2,4.1353893E-2,2.5090043E-2,-1.3621973E-2,-1.569397E-2,-4.4723134E-2,3.6183506E-2,-2.2452697E-2,5.6593954E-3,-3.133182E-2,-2.1866042E-2,3.2208458E-2,-3.7174422E-2,-5.003037E-2,2.7027294E-2,-3.2992795E-2,2.1130515E-2,-8.9447005E-3,5.2094854E-2,4.1891914E-2,-3.5758782E-2,2.7486825E-2,7.828116E-3,5.0458413E-2,-2.603657E-2,1.5336524E-2,1.1232452E-2,-2.7535174E-2,-2.1059891E-2,-3.894562E-2],"split_indices":[4,7,1,1,5,7,7,0,8,2,2,1,0,6,5,4,1,0,0,8,0,0,0,4,4,4,1,5,0,0,1,5,2,0,3,1,0,7,6,3,1,2,0,2,0,2,1,8,4,0,4,2,2,8,2,0,4,0,0,0,0,0,0,0,0,0,0,0,0,0,0,0,0,0,0,0,0,0,0,0,0,0,0,0,0,0,0,0,0,0,0,0,0,0,0,0,0,0,0,0,0,0,0,0,0,0,0],"split_type":[1,1,1,1,0,1,1,1,0,1,1,1,1,1,0,1,1,0,0,0,1,1,0,1,1,1,1,0,1,1,1,0,1,1,1,1,1,1,1,1,1,1,0,1,1,1,1,0,1,1,1,1,1,0,1,1,1,0,0,0,0,0,0,0,0,0,0,0,0,0,0,0,0,0,0,0,0,0,0,0,0,0,0,0,0,0,0,0,0,0,0,0,0,0,0,0,0,0,0,0,0,0,0,0,0,0,0],"sum_hessian":[8.8777E4,5.0086E4,3.8691E4,1.9229E4,3.0857E4,3.107E3,3.5584E4,1.8527E4,7.02E2,2.5872E4,4.985E3,1.076E3,2.031E3,2.0145E4,1.5439E4,3.6E3,1.4927E4,3.67E2,3.35E2,1.7251E4,8.621E3,4.776E3,2.09E2,7.86E2,2.9E2,1.281E3,7.5E2,1.8571E4,1.574E3,5.39E3,1.0049E4,2.211E3,1.389E3,3.6E3,1.1327E4,1.4854E4,2.397E3,4.732E3,3.889E3,4.399E3,3.77E2,6.63E2,1.23E2,2.02E2,8.8E1,7.62E2,5.19E2,2.81E2,4.69E2,4.201E3,1.437E4,9.45E2,6.29E2,2.751E3,2.639E3,2.674E3,7.375E3,2.88E2,1.923E3,1.012E3,3.77E2,1.422E3,2.178E3,1.284E3,1.0043E4,1.4515E4,3.39E2,1.884E3,5.13E2,1.732E3,3E3,2.345E3,1.544E3,1.342E3,3.057E3,6E0,3.71E2,6.07E2,5.6E1,1.48E2,5.4E1,7.5E1,1.3E1,6.79E2,8.3E1,1.55E2,3.64E2,2.23E2,5.8E1,1.35E2,3.34E2,3.32E2,3.869E3,3.662E3,1.0708E4,7.36E2,2.09E2,2.75E2,3.54E2,2.373E3,3.78E2,1.826E3,8.13E2,1.551E3,1.123E3,4.474E3,2.901E3],"tree_param":{"num_deleted":"0","num_feature":"9","num_nodes":"107","size_leaf_vector":"1"}},{"base_weights":[-7.491854E-7,5.1416934E-2,-6.6561215E-2,1.438453E-1,2.1433786E-2,-4.891108E-2,-1.5818778E-1,2.0987307E-1,-1.9721279E-2,4.4630352E-2,-1.3441838E-1,-1.0620906E-1,7.267228E-3,2.7799498E-2,-3.351806E-1,3.4397185E-1,1.5533671E-1,6.1911605E-2,-1.5737633E-1,7.3982455E-2,-6.328665E-2,-2.2076622E-2,-3.9200443E-1,-4.2855617E-2,-2.109885E-1,3.1552285E-1,-1.8569058E-2,1.5464848E-1,-2.3175547E-1,3.456383E-2,-3.3763584E-1,3.9886054E-1,2.589735E-1,1.924635E-1,-2.3919162E-1,1.1729438E-1,-1.6381666E-1,-3.8647932E-1,8.303437E-2,4.9845275E-2,1.845883E-1,-3.645287E-1,-3.070614E-2,-1.5094604E-1,3.1563112E-1,4.5455687E-2,-3.9516515E-1,2.4025325E-1,-6.3122876E-2,3.5989165E-2,-2.3482893E-1,3.4583798E-1,-3.0008054E-1,-1.0700708E-2,-2.720966E-1,3.6076173E-1,6.511393E-2,3.7653845E-2,-2.9893687E-1,-3.2948205E-1,-3.4876832E-1,4.178357E-2,3.500041E-2,3.65899E-2,-1.41957225E-2,2.7362315E-2,4.8688236E-3,-4.5957707E-2,3.919753E-2,2.0273648E-2,-8.623823E-3,-4.666622E-3,-3.9226137E-2,-3.9680604E-2,-3.4278627E-2,3.695057E-2,-4.0479716E-2,-2.873299E-3,9.7779175E-3,-7.521841E-3,3.2562654E-2,4.3482494E-2,-4.1069932E-2,7.52228E-4,-1.9174835E-2,-1.6495083E-4,-3.7166964E-2,2.6614059E-2,3.4038614E-2,-3.8390864E-2,-4.5770742E-2,4.321703E-2,-4.5627568E-2,-3.9512964E-4,-1.3557895E-2,3.8602778E-3,-2.6533386E-2,3.489851E-2,-3.427946E-2,-3.4906354E-3,-3.8002692E-2,4.185227E-4,-8.018921E-3,3.3027306E-2,-3.0346474E-2,3.7835408E-2,3.418311E-2,1.802385E-2,-3.344279E-2,-4.976774E-3,-3.3419915E-2,-2.2730565E-2,-3.3126008E-2,-3.25345E-2,-3.5549592E-2],"categories":[2,4,5,0,2,5,1,0,0,5,1,4,5,0,1,4,3,3,4,5,2,3,4,1,2,3,4,1,2,3,4,0,2,3,5,2,4,0,0,0,1,3,0,2,3,5,0,1,3,5,4,5,2,0,2,3,2,5,4,1,5,2,0,1,2,4,5,0,3,1,0,2,0,2,3,2,3,0,0,2,0,1,2,3,0,3,1,3,0,3,0,1,2,3,1,2,3,0,1,2,4,4],"categories_nodes":[0,1,2,3,4,6,7,8,9,10,11,12,13,14,15,16,18,20,21,22,23,24,25,26,27,28,30,31,32,33,35,36,38,39,40,41,42,43,44,46,47,48,50,51,52,53,54,55,58,59,60],"categories_segments":[0,3,6,7,8,10,13,14,16,17,18,20,23,27,31,35,37,38,39,40,42,46,50,52,53,56,58,59,61,62,67,68,69,70,71,72,74,75,77,78,79,80,81,84,85,86,88,90,94,97,101],"categories_sizes":[3,3,1,1,2,3,1,2,1,1,2,3,4,4,4,2,1,1,1,2,4,4,2,1,3,2,1,2,1,5,1,1,1,1,1,2,1,2,1,1,1,1,3,1,1,2,2,4,3,4,1],"default_left":[1,1,1,1,1,0,1,1,1,1,1,1,1,1,1,1,1,0,1,0,1,1,1,1,1,1,1,1,1,0,1,1,1,1,0,1,1,0,1,1,1,1,1,1,1,0,1,1,1,0,1,1,1,1,1,1,0,0,1,1,1,0,0,0,0,0,0,0,0,0,0,0,0,0,0,0,0,0,0,0,0,0,0,0,0,0,0,0,0,0,0,0,0,0,0,0,0,0,0,0,0,0,0,0,0,0,0,0,0,0,0,0,0,0,0],"id":4,"left_children":[1,3,5,7,9,11,13,15,17,19,21,23,25,27,29,31,33,35,37,39,41,43,45,47,49,51,53,55,57,-1,59,61,63,65,67,69,71,73,75,77,79,81,83,85,87,-1,89,91,93,-1,95,97,99,101,103,105,107,-1,109,111,113,-1,-1,-1,-1,-1,-1,-1,-1,-1,-1,-1,-1,-1,-1,-1,-1,-1,-1,-1,-1,-1,-1,-1,-1,-1,-1,-1,-1,-1,-1,-1,-1,-1,-1,-1,-1,-1,-1,-1,-1,-1,-1,-1,-1,-1,-1,-1,-1,-1,-1,-1,-1,-1,-1],"loss_changes":[3.038359E2,1.3880269E2,6.256578E1,1.3249773E2,1.367342E2,1.044349E2,2.0571652E2,6.386447E1,3.966575E1,1.0428493E2,1.4178593E2,1.066127E2,1.3048302E2,1.0038906E2,5.469055E0,1.168161E1,9.10807E1,2.7722446E1,7.240564E1,6.908832E1,6.908372E1,1.4858209E2,4.161133E0,5.7456684E1,8.245242E1,2.3748657E1,3.0153131E1,3.7770824E1,4.1019474E1,0E0,1.7474365E-1,1.2749176E0,4.266442E1,6.6276855E1,7.459863E1,3.0972134E1,1.1676863E1,1.6764832E-1,8.9868904E1,8.0030975E1,1.6989998E2,2.5533463E1,3.911914E1,8.1426926E1,1.0647049E0,0E0,8.683319E-1,8.962627E1,4.0056084E1,0E0,4.8471527E1,2.7375946E0,1.2587171E0,1.5167761E1,8.697552E0,7.714844E-2,6.579011E1,0E0,7.908577E0,2.6261902E-1,9.423828E-2,0E0,0E0,0E0,0E0,0E0,0E0,0E0,0E0,0E0,0E0,0E0,0E0,0E0,0E0,0E0,0E0,0E0,0E0,0E0,0E0,0E0,0E0,0E0,0E0,0E0,0E0,0E0,0E0,0E0,0E0,0E0,0E0,0E0,0E0,0E0,0E0,0E0,0E0,0E0,0E0,0E0,0E0,0E0,0E0,0E0,0E0,0E0,0E0,0E0,0E0,0E0,0E0,0E0,0E0],"parents":[2147483647,0,0,1,1,2,2,3,3,4,4,5,5,6,6,7,7,8,8,9,9,10,10,11,11,12,12,13,13,14,14,15,15,16,16,17,17,18,18,19,19,20,20,21,21,22,22,23,23,24,24,25,25,26,26,27,27,28,28,30,30,31,31,32,32,33,33,34,34,35,35,36,36,37,37,38,38,39,39,40,40,41,41,42,42,43,43,44,44,46,46,47,47,48,48,50,50,51,51,52,52,53,53,54,54,55,55,56,56,58,58,59,59,60,60],"right_children":[2,4,6,8,10,12,14,16,18,20,22,24,26,28,30,32,34,36,38,40,42,44,46,48,50,52,54,56,58,-1,60,62,64,66,68,70,72,74,76,78,80,82,84,86,88,-1,90,92,94,-1,96,98,100,102,104,106,108,-1,110,112,114,-1,-1,-1,-1,-1,-1,-1,-1,-1,-1,-1,-1,-1,-1,-1,-1,-1,-1,-1,-1,-1,-1,-1,-1,-1,-1,-1,-1,-1,-1,-1,-1,-1,-1,-1,-1,-1,-1,-1,-1,-1,-1,-1,-1,-1,-1,-1,-1,-1,-1,-1,-1,-1,-1],"split_conditions":[1E-45,1E-45,1E-45,1E-45,1E-45,3E0,1E-45,1E-45,1E-45,1E-45,1E-45,1E-45,1E-45,1E-45,1E-45,1E-45,1E-45,3E0,1E-45,3E0,1E-45,1E-45,1E-45,1E-45,1E-45,1E-45,1E-45,1E-45,1E-45,3.456383E-2,1E-45,1E-45,1E-45,1E-45,3E0,1E-45,1E-45,3E0,1E-45,1E-45,1E-45,1E-45,1E-45,1E-45,1E-45,4.5455687E-2,1E-45,1E-45,1E-45,3.5989165E-2,1E-45,1E-45,1E-45,1E-45,1E-45,1E-45,3E0,3.7653845E-2,1E-45,1E-45,1E-45,4.178357E-2,3.500041E-2,3.65899E-2,-1.41957225E-2,2.7362315E-2,4.8688236E-3,-4.5957707E-2,3.919753E-2,2.0273648E-2,-8.623823E-3,-4.666622E-3,-3.9226137E-2,-3.9680604E-2,-3.4278627E-2,3.695057E-2,-4.0479716E-2,-2.873299E-3,9.7779175E-3,-7.521841E-3,3.2562654E-2,4.3482494E-2,-4.1069932E-2,7.52228E-4,-1.9174835E-2,-1.6495083E-4,-3.7166964E-2,2.6614059E-2,3.4038614E-2,-3.8390864E-2,-4.5770742E-2,4.321703E-2,-4.5627568E-2,-3.9512964E-4,-1.3557895E-2,3.8602778E-3,-2.6533386E-2,3.489851E-2,-3.427946E-2,-3.4906354E-3,-3.8002692E-2,4.185227E-4,-8.018921E-3,3.3027306E-2,-3.0346474E-2,3.7835408E-2,3.418311E-2,1.802385E-2,-3.344279E-2,-4.976774E-3,-3.3419915E-2,-2.2730565E-2,-3.3126008E-2,-3.25345E-2,-3.5549592E-2],"split_indices":[4,1,2,0,7,8,7,3,1,0,4,4,0,1,0,1,7,5,6,8,3,2,0,1,1,7,0,0,4,0,7,7,7,1,8,6,7,8,2,6,2,1,7,0,6,0,2,7,2,0,7,3,1,1,1,0,8,0,1,1,0,0,0,0,0,0,0,0,0,0,0,0,0,0,0,0,0,0,0,0,0,0,0,0,0,0,0,0,0,0,0,0,0,0,0,0,0,0,0,0,0,0,0,0,0,0,0,0,0,0,0,0,0,0,0],"split_type":[1,1,1,1,1,0,1,1,1,1,1,1,1,1,1,1,1,0,1,0,1,1,1,1,1,1,1,1,1,0,1,1,1,1,0,1,1,0,1,1,1,1,1,1,1,0,1,1,1,0,1,1,1,1,1,1,0,0,1,1,1,0,0,0,0,0,0,0,0,0,0,0,0,0,0,0,0,0,0,0,0,0,0,0,0,0,0,0,0,0,0,0,0,0,0,0,0,0,0,0,0,0,0,0,0,0,0,0,0,0,0,0,0,0,0],"sum_hessian":[8.8777E4,5.0086E4,3.8691E4,1.2267E4,3.7819E4,3.2443E4,6.248E3,8.739E3,3.528E3,3.292E4,4.899E3,1.6061E4,1.6382E4,3.047E3,3.201E3,2.525E3,6.214E3,2.215E3,1.313E3,2.5881E4,7.039E3,3.412E3,1.487E3,1.001E4,6.051E3,1.266E3,1.5116E4,2.047E3,1E3,1.1E1,3.19E3,1.532E3,9.93E2,5.68E3,5.34E2,1.779E3,4.36E2,6.72E2,6.41E2,2.1246E4,4.635E3,6.86E2,6.353E3,2.47E3,9.42E2,5E0,1.482E3,6.68E2,9.342E3,2.42E2,5.809E3,1.207E3,5.9E1,1.4662E4,4.54E2,6.19E2,1.428E3,9.9E1,9.01E2,1.859E3,1.331E3,1.098E3,4.34E2,7.84E2,2.09E2,3.63E3,2.05E3,3.96E2,1.38E2,1.253E3,5.26E2,2.89E2,1.47E2,5.37E2,1.35E2,4.04E2,2.37E2,8.05E3,1.3196E4,1.631E3,3.004E3,3.7E1,6.49E2,5.135E3,1.218E3,1.474E3,9.96E2,3.18E2,6.24E2,1.262E3,2.2E2,5.24E2,1.44E2,5.143E3,4.199E3,5.83E2,5.226E3,1.202E3,5E0,1.4E1,4.5E1,1.2076E4,2.586E3,2.2E1,4.32E2,3.11E2,3.08E2,1.109E3,3.19E2,1.12E2,7.89E2,3.4E1,1.825E3,3.08E2,1.023E3],"tree_param":{"num_deleted":"0","num_feature":"9","num_nodes":"115","size_leaf_vector":"1"}},{"base_weights":[-1.4249285E-6,4.6275556E-2,-5.9907224E-2,5.4405224E-2,-2.5718245E-1,-4.4021476E-2,-1.4237437E-1,1.2553532E-1,1.0842292E-2,8.720404E-2,-3.9377922E-1,-9.558835E-2,6.537711E-3,2.5037875E-2,-3.016905E-1,2.5515616E-1,9.425919E-2,3.4302384E-2,-1.080554E-1,2.6841989E-2,-3.6411013E-2,-3.686025E-1,-4.6773415E-2,-5.788297E-2,-2.5494316E-1,2.839383E-1,-1.6712476E-2,1.3921127E-1,-2.0858066E-1,3.1395476E-2,-3.0391112E-1,3.3250362E-1,1.3188443E-1,2.0412707E-1,5.932553E-2,-6.912688E-3,1.17709845E-1,-1.3173974E-1,4.3122128E-2,-3.3164802E-1,-4.0797945E-2,9.379485E-2,-9.57932E-2,3.1898256E-2,-3.0236045E-1,3.1125468E-1,-2.7076405E-1,-9.631155E-3,-2.4488103E-1,3.2480174E-1,5.8591753E-2,3.3926114E-2,-2.6908576E-1,-2.965639E-1,-3.139426E-1,3.6447093E-2,2.7427277E-2,2.9379934E-2,-3.0237934E-2,3.0986775E-2,1.3497925E-2,-1.7552268E-2,8.936542E-3,-4.2860517E-3,2.10696E-2,2.2651259E-2,-7.2897266E-4,-5.6382334E-3,-2.2028303E-2,-3.159256E-2,-3.564436E-2,4.4079777E-2,-8.882899E-3,-1.8066565E-3,-1.8709667E-2,-2.1374797E-2,-3.188743E-2,3.1411555E-2,-3.1422835E-2,-3.1648446E-3,-3.428504E-2,-3.478457E-3,2.6897588E-3,2.9868174E-2,-2.7318835E-2,3.4063995E-2,3.0775864E-2,1.622309E-2,-3.0108962E-2,-4.483502E-3,-3.0082151E-2,-2.0522453E-2,-2.9815221E-2,-2.9291576E-2,-3.1998105E-2],"categories":[2,4,5,2,1,0,2,3,0,1,4,5,1,3,1,0,1,4,2,3,4,1,2,3,4,1,2,3,4,0,2,4,5,0,1,2,5,0,1,0,1,3,5,4,5,2,0,2,3,2,5,4,0,0,1,2,4,0,1,3,4,1,2,0,3,0,2,5,0,3,0,0,3,0,1,2,3,1,2,3,0,1,2,4,4],"categories_nodes":[0,1,2,3,4,6,7,9,10,11,12,13,14,15,16,17,18,24,25,26,27,28,30,32,33,34,36,37,39,41,42,44,45,46,47,48,49,52,53,54],"categories_segments":[0,3,4,5,8,9,12,14,15,16,18,21,25,29,33,37,38,39,43,45,46,49,51,52,53,57,58,61,63,64,65,66,68,69,70,71,73,77,80,84],"categories_sizes":[3,1,1,3,1,3,2,1,1,2,3,4,4,4,4,1,1,4,2,1,3,2,1,1,4,1,3,2,1,1,1,2,1,1,1,2,4,3,4,1],"default_left":[1,1,1,1,1,0,1,1,0,1,1,1,1,1,1,1,1,1,1,0,0,0,0,0,1,1,1,1,1,0,1,0,1,1,1,0,1,1,0,1,0,1,1,0,1,1,1,1,1,1,0,0,1,1,1,0,0,0,0,0,0,0,0,0,0,0,0,0,0,0,0,0,0,0,0,0,0,0,0,0,0,0,0,0,0,0,0,0,0,0,0,0,0,0,0],"id":5,"left_children":[1,3,5,7,9,11,13,15,17,19,21,23,25,27,29,31,33,35,37,-1,-1,39,-1,41,43,45,47,49,51,-1,53,55,57,59,61,63,65,67,-1,69,-1,71,73,-1,75,77,79,81,83,85,87,-1,89,91,93,-1,-1,-1,-1,-1,-1,-1,-1,-1,-1,-1,-1,-1,-1,-1,-1,-1,-1,-1,-1,-1,-1,-1,-1,-1,-1,-1,-1,-1,-1,-1,-1,-1,-1,-1,-1,-1,-1,-1,-1],"loss_changes":[2.4611841E2,1.2357926E2,5.0682266E1,1.5115321E2,6.151834E1,8.458796E1,1.6667754E2,7.508917E1,8.439273E1,3.052186E1,1.5703583E0,9.649432E1,1.056688E2,8.132841E1,4.472931E0,3.4290787E1,5.7282852E1,8.686665E1,6.3740025E1,0E0,0E0,8.876724E-1,0E0,7.470334E1,8.372502E1,1.9282448E1,2.4422707E1,3.0623585E1,3.327166E1,0E0,1.4208984E-1,4.017624E0,9.782501E1,2.6287735E1,7.99326E1,1.3231195E2,1.1365932E2,3.1861595E1,0E0,3.0853271E-2,0E0,1.6467703E2,7.375274E1,0E0,4.086273E0,2.2603302E0,1.0233674E0,1.3473632E1,7.08259E0,6.252289E-2,5.331778E1,0E0,6.4058304E0,2.0866394E-1,7.5408936E-2,0E0,0E0,0E0,0E0,0E0,0E0,0E0,0E0,0E0,0E0,0E0,0E0,0E0,0E0,0E0,0E0,0E0,0E0,0E0,0E0,0E0,0E0,0E0,0E0,0E0,0E0,0E0,0E0,0E0,0E0,0E0,0E0,0E0,0E0,0E0,0E0,0E0,0E0,0E0,0E0],"parents":[2147483647,0,0,1,1,2,2,3,3,4,4,5,5,6,6,7,7,8,8,9,9,10,10,11,11,12,12,13,13,14,14,15,15,16,16,17,17,18,18,21,21,23,23,24,24,25,25,26,26,27,27,28,28,30,30,31,31,32,32,33,33,34,34,35,35,36,36,37,37,39,39,41,41,42,42,44,44,45,45,46,46,47,47,48,48,49,49,50,50,52,52,53,53,54,54],"right_children":[2,4,6,8,10,12,14,16,18,20,22,24,26,28,30,32,34,36,38,-1,-1,40,-1,42,44,46,48,50,52,-1,54,56,58,60,62,64,66,68,-1,70,-1,72,74,-1,76,78,80,82,84,86,88,-1,90,92,94,-1,-1,-1,-1,-1,-1,-1,-1,-1,-1,-1,-1,-1,-1,-1,-1,-1,-1,-1,-1,-1,-1,-1,-1,-1,-1,-1,-1,-1,-1,-1,-1,-1,-1,-1,-1,-1,-1,-1,-1],"split_conditions":[1E-45,1E-45,1E-45,1E-45,1E-45,3E0,1E-45,1E-45,3E0,1E-45,1E-45,1E-45,1E-45,1E-45,1E-45,1E-45,1E-45,1E-45,1E-45,2.6841989E-2,-3.6411013E-2,3E0,-4.6773415E-2,2E0,1E-45,1E-45,1E-45,1E-45,1E-45,3.1395476E-2,1E-45,3E0,1E-45,1E-45,1E-45,3E0,1E-45,1E-45,4.3122128E-2,1E-45,-4.0797945E-2,1E-45,1E-45,3.1898256E-2,1E-45,1E-45,1E-45,1E-45,1E-45,1E-45,3E0,3.3926114E-2,1E-45,1E-45,1E-45,3.6447093E-2,2.7427277E-2,2.9379934E-2,-3.0237934E-2,3.0986775E-2,1.3497925E-2,-1.7552268E-2,8.936542E-3,-4.2860517E-3,2.10696E-2,2.2651259E-2,-7.2897266E-4,-5.6382334E-3,-2.2028303E-2,-3.159256E-2,-3.564436E-2,4.4079777E-2,-8.882899E-3,-1.8066565E-3,-1.8709667E-2,-2.1374797E-2,-3.188743E-2,3.1411555E-2,-3.1422835E-2,-3.1648446E-3,-3.428504E-2,-3.478457E-3,2.6897588E-3,2.9868174E-2,-2.7318835E-2,3.4063995E-2,3.0775864E-2,1.622309E-2,-3.0108962E-2,-4.483502E-3,-3.0082151E-2,-2.0522453E-2,-2.9815221E-2,-2.9291576E-2,-3.1998105E-2],"split_indices":[4,1,2,7,6,8,7,0,5,0,0,0,0,1,0,4,1,2,2,0,0,8,0,8,1,7,0,0,4,0,7,8,2,0,3,8,0,0,0,2,0,7,2,0,4,3,1,2,1,0,8,0,1,1,0,0,0,0,0,0,0,0,0,0,0,0,0,0,0,0,0,0,0,0,0,0,0,0,0,0,0,0,0,0,0,0,0,0,0,0,0,0,0,0,0],"split_type":[1,1,1,1,1,0,1,1,0,1,1,1,1,1,1,1,1,1,1,0,0,0,0,0,1,1,1,1,1,0,1,0,1,1,1,0,1,1,0,1,0,1,1,0,1,1,1,1,1,1,0,0,1,1,1,0,0,0,0,0,0,0,0,0,0,0,0,0,0,0,0,0,0,0,0,0,0,0,0,0,0,0,0,0,0,0,0,0,0,0,0,0,0,0,0],"sum_hessian":[8.8777E4,5.0086E4,3.8691E4,4.878E4,1.306E3,3.2443E4,6.248E3,1.8527E4,3.0253E4,3.71E2,9.35E2,1.6061E4,1.6382E4,3.047E3,3.201E3,3.6E3,1.4927E4,2.5268E4,4.985E3,2.65E2,1.06E2,7.02E2,2.33E2,1.2989E4,3.072E3,1.266E3,1.5116E4,2.047E3,1E3,1.1E1,3.19E3,2.211E3,1.389E3,3.6E3,1.1327E4,1.6912E4,8.356E3,4.776E3,2.09E2,3.67E2,3.35E2,2.597E3,1.0392E4,2.34E2,2.838E3,1.207E3,5.9E1,1.4662E4,4.54E2,6.19E2,1.428E3,9.9E1,9.01E2,1.859E3,1.331E3,1.424E3,7.87E2,1.012E3,3.77E2,1.422E3,2.178E3,1.284E3,1.0043E4,1.4515E4,2.397E3,4.467E3,3.889E3,2.581E3,2.195E3,2.33E2,1.34E2,8.95E2,1.702E3,5.614E3,4.778E3,4.48E2,2.39E3,1.202E3,5E0,1.4E1,4.5E1,8.683E3,5.979E3,2.2E1,4.32E2,3.11E2,3.08E2,1.109E3,3.19E2,1.12E2,7.89E2,3.4E1,1.825E3,3.08E2,1.023E3],"tree_param":{"num_deleted":"0","num_feature":"9","num_nodes":"95","size_leaf_vector":"1"}},{"base_weights":[-2.2233057E-6,4.1647777E-2,-5.391837E-2,4.8967842E-2,-2.3158996E-1,6.0657706E-2,-6.392395E-2,1.1298714E-1,9.759854E-3,7.845791E-2,-3.545667E-1,2.6841673E-1,-4.9488515E-2,-3.2670844E-2,-1.04698636E-1,2.2965805E-1,8.483568E-2,3.0873677E-2,-9.724676E-2,2.416788E-2,-3.2803945E-2,-3.3189592E-1,-4.211606E-2,3.5326794E-1,3.8016994E-2,8.24196E-2,-2.7459732E-1,-5.5548143E-2,2.371132E-1,2.0341704E-2,-1.717621E-1,2.9928213E-1,1.1869538E-1,1.837267E-1,5.3392228E-2,-6.220425E-3,1.0594148E-1,-1.1857155E-1,3.883045E-2,-2.986659E-1,-3.6730292E-1,3.9678282E-1,1.1740394E-2,1.290792E-1,-1.7011382E-1,2.605579E-1,-1.7912261E-1,-7.895425E-2,-3.913989E-1,-2.3124072E-1,-4.172747E-3,4.055531E-1,-1.6190428E-2,1.9410752E-1,-5.729189E-2,-1.19849466E-1,-3.0653596E-1,3.280494E-2,2.4688032E-2,2.6444843E-2,-2.722214E-2,2.7890274E-2,1.214875E-2,-1.5798409E-2,8.042978E-3,-3.857476E-3,1.8963518E-2,2.0386642E-2,-6.5609504E-4,-7.3544006E-3,-2.4542494E-2,-2.84468E-2,-3.2106325E-2,-3.5082784E-2,-3.9753776E-2,4.6902593E-2,3.78824E-2,2.1703368E-2,-1.1154441E-2,-1.2750811E-2,-3.8925093E-2,3.1214401E-2,-1.6014572E-2,-8.2216645E-3,-4.441511E-2,-1.7622745E-2,2.9169232E-2,-3.093394E-2,-4.2354427E-2,1.2148792E-3,-3.001367E-2,2.8235113E-2,-5.181401E-3,4.22786E-2,3.4314286E-2,-2.9333917E-2,1.9932855E-2,4.7367223E-2,6.2782536E-3,-2.5754708E-3,-4.9207743E-2,-9.223335E-3,-4.028038E-2,-7.588075E-3,-3.52793E-2],"categories":[2,4,5,2,0,1,2,3,0,2,3,0,1,2,4,1,3,5,1,3,1,0,0,1,2,3,5,1,2,3,0,0,2,4,5,0,1,2,5,0,1,0,1,3,4,4,5,5,4,0,1,3,4,0,1,2,4,3,0,0,1,2,4,0,1,3,4,2,0,3,0,1,2,3,0,0,1,1,0,2,2,4,3,4,1,1,0,4,2,2,5],"categories_nodes":[0,1,2,3,4,5,6,7,9,10,11,12,13,15,16,17,18,23,24,25,26,28,29,30,32,33,34,36,37,39,40,41,43,44,45,46,48,49,50,51,52,53,54,55,56],"categories_segments":[0,3,4,8,11,12,15,18,20,21,22,27,30,31,35,39,40,41,45,47,48,49,53,57,58,59,63,64,67,68,69,70,74,75,77,78,79,80,82,84,85,86,87,88,89],"categories_sizes":[3,1,4,3,1,3,3,2,1,1,5,3,1,4,4,1,1,4,2,1,1,4,4,1,1,4,1,3,1,1,1,4,1,2,1,1,1,2,2,1,1,1,1,1,2],"default_left":[1,1,1,1,1,1,1,1,0,1,1,1,1,1,0,1,1,1,1,0,0,0,0,1,1,1,1,0,1,1,1,0,1,1,1,0,1,1,0,1,1,1,0,1,1,1,1,0,1,1,1,1,1,1,1,1,1,0,0,0,0,0,0,0,0,0,0,0,0,0,0,0,0,0,0,0,0,0,0,0,0,0,0,0,0,0,0,0,0,0,0,0,0,0,0,0,0,0,0,0,0,0,0,0,0],"id":6,"left_children":[1,3,5,7,9,11,13,15,17,19,21,23,25,27,29,31,33,35,37,-1,-1,39,-1,41,43,45,47,49,51,53,55,57,59,61,63,65,67,69,-1,71,73,75,-1,77,79,81,83,85,87,89,91,93,95,97,99,101,103,-1,-1,-1,-1,-1,-1,-1,-1,-1,-1,-1,-1,-1,-1,-1,-1,-1,-1,-1,-1,-1,-1,-1,-1,-1,-1,-1,-1,-1,-1,-1,-1,-1,-1,-1,-1,-1,-1,-1,-1,-1,-1,-1,-1,-1,-1,-1,-1],"loss_changes":[1.993628E2,1.00191246E2,4.4360374E1,1.22442505E2,4.9862E1,7.113636E1,4.5343826E1,6.0834915E1,6.835643E1,2.4761053E1,1.2733307E0,2.1041588E1,6.036018E1,1.2435287E2,1.294777E2,2.7784622E1,4.640844E1,7.036403E1,5.1672474E1,0E0,0E0,7.174225E-1,0E0,8.030861E0,5.537237E0,5.9775932E1,1.7130516E1,1.6763504E2,6.7206215E1,7.273606E1,7.027777E1,3.2535095E0,7.927045E1,2.1297302E1,6.475333E1,1.0718122E2,9.2068665E1,2.7267677E1,0E0,2.5691986E-2,2.790451E-2,6.8379974E-1,0E0,4.320485E0,7.8131485E-1,1.6608963E1,1.3318562E1,1.0218625E1,1.1087646E0,7.046509E1,1.9618394E2,8.72345E-1,3.768888E1,6.1098785E1,5.1091614E1,5.666977E1,2.97836E1,0E0,0E0,0E0,0E0,0E0,0E0,0E0,0E0,0E0,0E0,0E0,0E0,0E0,0E0,0E0,0E0,0E0,0E0,0E0,0E0,0E0,0E0,0E0,0E0,0E0,0E0,0E0,0E0,0E0,0E0,0E0,0E0,0E0,0E0,0E0,0E0,0E0,0E0,0E0,0E0,0E0,0E0,0E0,0E0,0E0,0E0,0E0,0E0],"parents":[2147483647,0,0,1,1,2,2,3,3,4,4,5,5,6,6,7,7,8,8,9,9,10,10,11,11,12,12,13,13,14,14,15,15,16,16,17,17,18,18,21,21,23,23,24,24,25,25,26,26,27,27,28,28,29,29,30,30,31,31,32,32,33,33,34,34,35,35,36,36,37,37,39,39,40,40,41,41,43,43,44,44,45,45,46,46,47,47,48,48,49,49,50,50,51,51,52,52,53,53,54,54,55,55,56,56],"right_children":[2,4,6,8,10,12,14,16,18,20,22,24,26,28,30,32,34,36,38,-1,-1,40,-1,42,44,46,48,50,52,54,56,58,60,62,64,66,68,70,-1,72,74,76,-1,78,80,82,84,86,88,90,92,94,96,98,100,102,104,-1,-1,-1,-1,-1,-1,-1,-1,-1,-1,-1,-1,-1,-1,-1,-1,-1,-1,-1,-1,-1,-1,-1,-1,-1,-1,-1,-1,-1,-1,-1,-1,-1,-1,-1,-1,-1,-1,-1,-1,-1,-1,-1,-1,-1,-1,-1,-1],"split_conditions":[1E-45,1E-45,1E-45,1E-45,1E-45,1E-45,1E-45,1E-45,3E0,1E-45,1E-45,1E-45,1E-45,1E-45,3E0,1E-45,1E-45,1E-45,1E-45,2.416788E-2,-3.2803945E-2,3E0,-4.211606E-2,1E-45,1E-45,1E-45,1E-45,3E0,1E-45,1E-45,1E-45,3E0,1E-45,1E-45,1E-45,3E0,1E-45,1E-45,3.883045E-2,1E-45,1E-45,1E-45,1.1740394E-2,1E-45,1E-45,1E-45,1E-45,3E0,1E-45,1E-45,1E-45,1E-45,1E-45,1E-45,1E-45,1E-45,1E-45,3.280494E-2,2.4688032E-2,2.6444843E-2,-2.722214E-2,2.7890274E-2,1.214875E-2,-1.5798409E-2,8.042978E-3,-3.857476E-3,1.8963518E-2,2.0386642E-2,-6.5609504E-4,-7.3544006E-3,-2.4542494E-2,-2.84468E-2,-3.2106325E-2,-3.5082784E-2,-3.9753776E-2,4.6902593E-2,3.78824E-2,2.1703368E-2,-1.1154441E-2,-1.2750811E-2,-3.8925093E-2,3.1214401E-2,-1.6014572E-2,-8.2216645E-3,-4.441511E-2,-1.7622745E-2,2.9169232E-2,-3.093394E-2,-4.2354427E-2,1.2148792E-3,-3.001367E-2,2.8235113E-2,-5.181401E-3,4.22786E-2,3.4314286E-2,-2.9333917E-2,1.9932855E-2,4.7367223E-2,6.2782536E-3,-2.5754708E-3,-4.9207743E-2,-9.223335E-3,-4.028038E-2,-7.588075E-3,-3.52793E-2],"split_indices":[4,1,1,7,6,7,7,0,5,0,0,1,0,6,5,4,1,2,2,0,0,8,0,4,4,4,1,5,0,0,7,8,2,0,3,8,0,7,0,2,0,0,0,2,0,2,3,8,4,0,0,2,2,2,0,0,4,0,0,0,0,0,0,0,0,0,0,0,0,0,0,0,0,0,0,0,0,0,0,0,0,0,0,0,0,0,0,0,0,0,0,0,0,0,0,0,0,0,0,0,0,0,0,0,0],"split_type":[1,1,1,1,1,1,1,1,0,1,1,1,1,1,0,1,1,1,1,0,0,0,0,1,1,1,1,0,1,1,1,0,1,1,1,0,1,1,0,1,1,1,0,1,1,1,1,0,1,1,1,1,1,1,1,1,1,0,0,0,0,0,0,0,0,0,0,0,0,0,0,0,0,0,0,0,0,0,0,0,0,0,0,0,0,0,0,0,0,0,0,0,0,0,0,0,0,0,0,0,0,0,0,0,0],"sum_hessian":[8.8777E4,5.0086E4,3.8691E4,4.878E4,1.306E3,3.107E3,3.5584E4,1.8527E4,3.0253E4,3.71E2,9.35E2,1.076E3,2.031E3,2.0145E4,1.5439E4,3.6E3,1.4927E4,2.5268E4,4.985E3,2.65E2,1.06E2,7.02E2,2.33E2,7.86E2,2.9E2,1.281E3,7.5E2,1.8571E4,1.574E3,5.39E3,1.0049E4,2.211E3,1.389E3,3.6E3,1.1327E4,1.6912E4,8.356E3,4.776E3,2.09E2,3.67E2,3.35E2,6.63E2,1.23E2,2.02E2,8.8E1,7.62E2,5.19E2,2.81E2,4.69E2,4.201E3,1.437E4,9.45E2,6.29E2,1.664E3,3.726E3,7.256E3,2.793E3,1.424E3,7.87E2,1.012E3,3.77E2,1.422E3,2.178E3,1.284E3,1.0043E4,1.4515E4,2.397E3,4.467E3,3.889E3,3.526E3,1.25E3,2.33E2,1.34E2,2.25E2,1.1E2,1.27E2,5.36E2,1.48E2,5.4E1,7.5E1,1.3E1,6.79E2,8.3E1,3.81E2,1.38E2,2.23E2,5.8E1,1.35E2,3.34E2,9.27E2,3.274E3,2.048E3,1.2322E4,7.36E2,2.09E2,2.75E2,3.54E2,5.31E2,1.133E3,3.475E3,2.51E2,6.612E3,6.44E2,4.67E2,2.326E3],"tree_param":{"num_deleted":"0","num_feature":"9","num_nodes":"105","size_leaf_vector":"1"}},{"base_weights":[-3.44513E-6,3.748189E-2,-4.852841E-2,1.11445285E-1,1.3488755E-2,-3.4546494E-2,-1.2111295E-1,1.6705763E-1,-2.6317062E-2,3.288779E-2,-1.1684781E-1,-8.073597E-2,1.0740073E-2,2.5991796E-2,-2.6110488E-1,2.9733786E-1,1.0820692E-1,-2.4468082E-3,-3.5637822E-2,5.665012E-2,-5.447719E-2,-1.7042434E-2,-3.4569117E-1,-2.9995298E-2,-1.6465601E-1,2.4839562E-1,-9.179244E-3,1.2542304E-1,-1.7746593E-1,2.8099662E-2,-2.6306167E-1,3.2971925E-1,1.392565E-1,1.9048263E-1,1.6751524E-2,1.10359915E-1,-7.734604E-2,9.340816E-3,9.35881E-2,-2.861373E-1,-2.9421322E-2,-1.2197042E-1,2.5792482E-1,4.2346336E-2,-3.4856996E-1,2.5508252E-3,-1.5553835E-1,-3.16565E-1,-1.0431718E-1,2.7260473E-1,-2.431544E-1,-3.4682779E-3,-1.9320278E-1,2.853223E-1,5.595981E-2,3.1080384E-2,-2.3140109E-1,-2.414035E-2,-2.6863554E-1,3.46591E-2,-2.9970207E-3,3.619261E-2,-2.5522048E-2,3.343425E-2,1.0729271E-2,6.3450164E-3,-4.9661145E-2,1.6692413E-2,-3.5038352E-2,2.9422307E-2,-1.1491458E-2,5.2156565E-3,-2.6238589E-2,4.0407786E-3,1.9083252E-2,4.1738894E-2,-3.2682635E-2,2.3036066E-4,-1.630635E-2,1.6571943E-3,-3.2681298E-2,2.0060612E-2,2.8676761E-2,-3.374111E-2,-4.10765E-2,2.2293633E-2,-1.7100389E-3,9.975275E-3,-3.39525E-2,-3.4109354E-2,-2.722745E-2,2.6524393E-2,-1.3108707E-2,2.7529562E-2,-3.1235037E-2,-2.0420298E-3,-3.1049913E-2,-1.2954352E-3,8.252079E-3,2.4415877E-2,-2.1598827E-2,3.1224582E-2,2.5721401E-2,1.422039E-2,-2.4337424E-2,-1.0996521E-2,-2.8847286E-2,-2.5929958E-2,-2.821036E-2],"categories":[2,4,5,0,2,5,1,0,0,5,1,4,5,1,2,1,3,3,4,5,2,3,4,1,2,3,4,1,2,3,4,0,2,4,5,1,2,4,5,0,0,0,1,3,2,3,0,4,5,2,0,2,3,2,5,1,3,4,3,0,2,1,4,2,3,0,0,2,3,2,3,0,0,1,2,3,4,5,0,0,0,1,3,0,3,0,0,3,0,1,2,3,2,4,4],"categories_nodes":[0,1,2,3,4,6,7,8,9,10,11,12,13,14,15,16,19,20,21,22,23,24,25,26,27,28,30,31,32,33,34,35,36,38,39,40,41,42,44,45,46,47,48,49,50,51,52,53,56,58],"categories_segments":[0,3,6,7,8,10,13,15,16,17,18,20,23,27,31,35,39,40,41,42,44,46,47,49,50,53,55,58,59,60,61,62,63,65,66,68,69,71,72,73,78,79,80,83,84,85,86,88,92,94],"categories_sizes":[3,3,1,1,2,3,2,1,1,1,2,3,4,4,4,4,1,1,1,2,2,1,2,1,3,2,3,1,1,1,1,1,2,1,2,1,2,1,1,5,1,1,3,1,1,1,2,4,2,1],"default_left":[1,1,1,1,1,0,1,1,1,1,1,1,1,1,1,1,1,0,0,1,1,1,1,1,1,1,1,1,1,0,1,1,1,1,1,1,1,0,1,1,1,1,1,0,1,1,1,1,1,1,1,1,1,1,0,0,1,0,1,0,0,0,0,0,0,0,0,0,0,0,0,0,0,0,0,0,0,0,0,0,0,0,0,0,0,0,0,0,0,0,0,0,0,0,0,0,0,0,0,0,0,0,0,0,0,0,0,0,0],"id":7,"left_children":[1,3,5,7,9,11,13,15,17,19,21,23,25,27,29,31,33,35,-1,37,39,41,43,45,47,49,51,53,55,-1,57,59,61,63,65,67,69,71,73,75,77,79,81,-1,83,85,87,89,91,93,95,97,99,101,103,-1,105,-1,107,-1,-1,-1,-1,-1,-1,-1,-1,-1,-1,-1,-1,-1,-1,-1,-1,-1,-1,-1,-1,-1,-1,-1,-1,-1,-1,-1,-1,-1,-1,-1,-1,-1,-1,-1,-1,-1,-1,-1,-1,-1,-1,-1,-1,-1,-1,-1,-1,-1,-1],"loss_changes":[1.6148676E2,8.888357E1,3.92632E1,9.399306E1,9.5628075E1,6.7866005E1,1.2869543E2,6.6978165E1,2.780286E1,6.8346924E1,1.1190912E2,6.838962E1,7.755836E1,6.1683468E1,3.4705353E0,1.3872345E1,4.53097E1,2.7823093E1,0E0,4.5228188E1,4.0854874E1,9.850252E1,3.4423828E0,4.090474E1,5.5439682E1,1.5143578E1,1.5886573E1,2.2731415E1,2.6433165E1,0E0,3.2035828E-1,1.3701111E1,4.0849216E1,3.7901695E1,6.842748E1,3.4303425E1,2.765928E1,1.3205002E2,7.515472E1,1.9802334E1,2.6939993E1,7.0130844E1,1.5014687E0,0E0,8.906555E-1,3.4438343E1,9.683934E1,1.7756958E0,4.29016E1,1.9874268E0,8.936572E-1,1.19616585E1,4.587034E0,3.888855E-1,3.692537E1,0E0,6.2196465E0,0E0,2.4484253E-1,0E0,0E0,0E0,0E0,0E0,0E0,0E0,0E0,0E0,0E0,0E0,0E0,0E0,0E0,0E0,0E0,0E0,0E0,0E0,0E0,0E0,0E0,0E0,0E0,0E0,0E0,0E0,0E0,0E0,0E0,0E0,0E0,0E0,0E0,0E0,0E0,0E0,0E0,0E0,0E0,0E0,0E0,0E0,0E0,0E0,0E0,0E0,0E0,0E0,0E0],"parents":[2147483647,0,0,1,1,2,2,3,3,4,4,5,5,6,6,7,7,8,8,9,9,10,10,11,11,12,12,13,13,14,14,15,15,16,16,17,17,19,19,20,20,21,21,22,22,23,23,24,24,25,25,26,26,27,27,28,28,30,30,31,31,32,32,33,33,34,34,35,35,36,36,37,37,38,38,39,39,40,40,41,41,42,42,44,44,45,45,46,46,47,47,48,48,49,49,50,50,51,51,52,52,53,53,54,54,56,56,58,58],"right_children":[2,4,6,8,10,12,14,16,18,20,22,24,26,28,30,32,34,36,-1,38,40,42,44,46,48,50,52,54,56,-1,58,60,62,64,66,68,70,72,74,76,78,80,82,-1,84,86,88,90,92,94,96,98,100,102,104,-1,106,-1,108,-1,-1,-1,-1,-1,-1,-1,-1,-1,-1,-1,-1,-1,-1,-1,-1,-1,-1,-1,-1,-1,-1,-1,-1,-1,-1,-1,-1,-1,-1,-1,-1,-1,-1,-1,-1,-1,-1,-1,-1,-1,-1,-1,-1,-1,-1,-1,-1,-1,-1],"split_conditions":[1E-45,1E-45,1E-45,1E-45,1E-45,3E0,1E-45,1E-45,1E-45,1E-45,1E-45,1E-45,1E-45,1E-45,1E-45,1E-45,1E-45,2E0,-3.5637822E-2,1E-45,1E-45,1E-45,1E-45,1E-45,1E-45,1E-45,1E-45,1E-45,1E-45,2.8099662E-2,1E-45,1E-45,1E-45,1E-45,1E-45,1E-45,1E-45,3E0,1E-45,1E-45,1E-45,1E-45,1E-45,4.2346336E-2,1E-45,1E-45,1E-45,1E-45,1E-45,1E-45,1E-45,1E-45,1E-45,1E-45,3E0,3.1080384E-2,1E-45,-2.414035E-2,1E-45,3.46591E-2,-2.9970207E-3,3.619261E-2,-2.5522048E-2,3.343425E-2,1.0729271E-2,6.3450164E-3,-4.9661145E-2,1.6692413E-2,-3.5038352E-2,2.9422307E-2,-1.1491458E-2,5.2156565E-3,-2.6238589E-2,4.0407786E-3,1.9083252E-2,4.1738894E-2,-3.2682635E-2,2.3036066E-4,-1.630635E-2,1.6571943E-3,-3.2681298E-2,2.0060612E-2,2.8676761E-2,-3.374111E-2,-4.10765E-2,2.2293633E-2,-1.7100389E-3,9.975275E-3,-3.39525E-2,-3.4109354E-2,-2.722745E-2,2.6524393E-2,-1.3108707E-2,2.7529562E-2,-3.1235037E-2,-2.0420298E-3,-3.1049913E-2,-1.2954352E-3,8.252079E-3,2.4415877E-2,-2.1598827E-2,3.1224582E-2,2.5721401E-2,1.422039E-2,-2.4337424E-2,-1.0996521E-2,-2.8847286E-2,-2.5929958E-2,-2.821036E-2],"split_indices":[4,1,2,0,7,8,7,7,2,0,4,4,0,1,0,1,4,5,0,6,3,2,0,1,6,7,0,0,4,0,0,4,7,2,2,1,7,5,2,1,7,0,6,0,2,7,2,3,1,3,1,6,1,0,8,0,0,0,7,0,0,0,0,0,0,0,0,0,0,0,0,0,0,0,0,0,0,0,0,0,0,0,0,0,0,0,0,0,0,0,0,0,0,0,0,0,0,0,0,0,0,0,0,0,0,0,0,0,0],"split_type":[1,1,1,1,1,0,1,1,1,1,1,1,1,1,1,1,1,0,0,1,1,1,1,1,1,1,1,1,1,0,1,1,1,1,1,1,1,0,1,1,1,1,1,0,1,1,1,1,1,1,1,1,1,1,0,0,1,0,1,0,0,0,0,0,0,0,0,0,0,0,0,0,0,0,0,0,0,0,0,0,0,0,0,0,0,0,0,0,0,0,0,0,0,0,0,0,0,0,0,0,0,0,0,0,0,0,0,0,0],"sum_hessian":[8.8777E4,5.0086E4,3.8691E4,1.2267E4,3.7819E4,3.2443E4,6.248E3,8.739E3,3.528E3,3.292E4,4.899E3,1.6061E4,1.6382E4,3.047E3,3.201E3,2.718E3,6.021E3,3.291E3,2.37E2,2.5881E4,7.039E3,3.412E3,1.487E3,1.001E4,6.051E3,1.266E3,1.5116E4,2.047E3,1E3,1.1E1,3.19E3,2.255E3,4.63E2,3.169E3,2.852E3,1.313E3,1.978E3,1.1348E4,1.4533E4,6.86E2,6.353E3,2.47E3,9.42E2,5E0,1.482E3,7.95E3,2.06E3,1.719E3,4.332E3,1.207E3,5.9E1,1.4662E4,4.54E2,6.19E2,1.428E3,9.9E1,9.01E2,6.62E2,2.528E3,2.154E3,1.01E2,2.96E2,1.67E2,1.16E3,2.009E3,2.615E3,2.37E2,1.17E3,1.43E2,1.81E2,1.797E3,9.804E3,1.544E3,9.396E3,5.137E3,3.7E1,6.49E2,5.135E3,1.218E3,1.474E3,9.96E2,3.18E2,6.24E2,1.262E3,2.2E2,6.5E2,7.3E3,8.63E2,1.197E3,1.102E3,6.17E2,2.92E2,4.04E3,1.202E3,5E0,1.4E1,4.5E1,1.3206E4,1.456E3,2.2E1,4.32E2,3.11E2,3.08E2,1.109E3,3.19E2,2.89E2,6.12E2,1.505E3,1.023E3],"tree_param":{"num_deleted":"0","num_feature":"9","num_nodes":"109","size_leaf_vector":"1"}},{"base_weights":[-4.2599027E-6,3.373345E-2,-4.3677904E-2,4.0136594E-2,-2.0527616E-1,-3.1094253E-2,-1.090036E-1,9.4127946E-2,7.0701605E-3,6.5387264E-2,-3.126282E-1,-7.2665565E-2,9.664428E-3,2.340509E-2,-2.3501007E-1,1.9198465E-1,7.05162E-2,2.4761679E-2,-8.2591705E-2,2.1240572E-2,-3.0070895E-2,-2.7034575E-1,-3.5257596E-1,-4.2021733E-2,-2.0217767E-1,2.2352703E-1,-8.260662E-3,1.06085196E-1,-1.7750879E-1,2.5523862E-2,-2.3678003E-1,2.5543284E-1,9.08772E-2,3.4501817E-2,1.4275558E-1,9.102773E-2,-9.036082E-3,-1.027244E-1,3.7577257E-2,-2.2359984E-2,-3.1755015E-2,-3.7633475E-2,-2.8942345E-2,-1.9611606E-2,-2.0924543E-1,2.6999269E-2,-2.4119066E-1,2.4534121E-1,-2.1939051E-1,5.9983237E-3,-7.098706E-2,4.750522E-2,2.678628E-1,2.8003428E-2,-2.3520094E-1,-2.172996E-2,-2.417934E-1,1.4517573E-2,2.7186159E-2,2.2448136E-2,-2.6740823E-2,-3.4021366E-2,4.7333627E-3,-3.9756387E-2,1.8494623E-2,1.4889938E-2,-2.1069555E-2,9.725919E-3,-5.549271E-3,-3.0189569E-3,-1.879622E-2,1.1874364E-3,-1.4475401E-2,2.6786625E-2,-2.2219013E-2,-1.5928833E-2,-2.5647003E-2,2.4778895E-2,-2.8632114E-2,-1.8514395E-3,-2.8012423E-2,1.138561E-2,-1.5130016E-4,-1.19209755E-2,5.5314213E-2,2.8112132E-2,-9.654439E-4,3.0900871E-2,2.3157584E-2,-2.0621886E-2,-2.8963655E-2,-1.995676E-2,-2.4450412E-2],"categories":[2,4,5,2,1,0,2,3,0,1,4,5,1,3,1,0,1,4,2,3,4,1,2,3,1,2,3,4,0,2,4,5,0,1,1,0,0,1,3,5,4,5,1,3,0,2,5,1,3,4,0,0,0,2,3,0,1,3,1,2,2,3,0,3,2,5,0,3,0,1,3,4,0,0,1,2,3,1,3,4,0,0,1,2,3],"categories_nodes":[0,1,2,3,4,6,7,9,10,11,12,13,14,15,16,18,21,23,24,25,26,27,28,30,32,33,34,35,36,37,43,44,46,47,48,49,50,51,52,54,56],"categories_segments":[0,3,4,5,8,9,12,14,15,16,18,21,24,28,32,33,34,35,36,40,42,44,45,47,50,51,52,53,55,58,60,62,64,66,67,68,72,73,77,80,81],"categories_sizes":[3,1,1,3,1,3,2,1,1,2,3,3,4,4,1,1,1,1,4,2,2,1,2,3,1,1,1,2,3,2,2,2,2,1,1,4,1,4,3,1,4],"default_left":[1,1,1,1,1,0,1,1,0,1,1,1,1,1,1,1,1,0,1,0,0,1,0,1,1,1,1,1,1,0,1,0,1,1,1,1,1,1,0,0,0,0,0,1,1,0,1,1,1,1,1,1,1,0,1,0,1,0,0,0,0,0,0,0,0,0,0,0,0,0,0,0,0,0,0,0,0,0,0,0,0,0,0,0,0,0,0,0,0,0,0,0,0],"id":8,"left_children":[1,3,5,7,9,11,13,15,17,19,21,23,25,27,29,31,33,35,37,-1,-1,39,41,43,45,47,49,51,53,-1,55,57,59,61,63,65,67,69,-1,-1,-1,-1,-1,71,73,-1,75,77,79,81,83,85,87,-1,89,-1,91,-1,-1,-1,-1,-1,-1,-1,-1,-1,-1,-1,-1,-1,-1,-1,-1,-1,-1,-1,-1,-1,-1,-1,-1,-1,-1,-1,-1,-1,-1,-1,-1,-1,-1,-1,-1],"loss_changes":[1.3081131E2,7.666205E1,3.1802826E1,8.708813E1,3.799699E1,5.497355E1,1.0426602E2,4.279666E1,4.799259E1,2.0085989E1,1.485672E0,6.3737526E1,6.2806183E1,5.065093E1,2.8388824E0,2.3077515E1,3.883261E1,5.659439E1,4.604996E1,0E0,0E0,9.418335E-1,6.082802E-1,4.8675972E1,5.667215E1,1.2295433E1,1.3521295E1,2.0457443E1,2.3532476E1,0E0,2.5909424E-1,3.9673004E0,6.659714E1,4.792096E1,1.1328055E2,1.4906291E2,8.264484E1,2.9529133E1,0E0,0E0,0E0,0E0,0E0,4.514099E1,9.539787E0,0E0,3.511917E0,1.6430054E0,7.2681093E-1,9.979659E0,8.4338066E1,2.1194584E1,7.854576E-1,0E0,1.1866188E0,0E0,2.4069214E-1,0E0,0E0,0E0,0E0,0E0,0E0,0E0,0E0,0E0,0E0,0E0,0E0,0E0,0E0,0E0,0E0,0E0,0E0,0E0,0E0,0E0,0E0,0E0,0E0,0E0,0E0,0E0,0E0,0E0,0E0,0E0,0E0,0E0,0E0,0E0,0E0],"parents":[2147483647,0,0,1,1,2,2,3,3,4,4,5,5,6,6,7,7,8,8,9,9,10,10,11,11,12,12,13,13,14,14,15,15,16,16,17,17,18,18,21,21,22,22,23,23,24,24,25,25,26,26,27,27,28,28,30,30,31,31,32,32,33,33,34,34,35,35,36,36,37,37,43,43,44,44,46,46,47,47,48,48,49,49,50,50,51,51,52,52,54,54,56,56],"right_children":[2,4,6,8,10,12,14,16,18,20,22,24,26,28,30,32,34,36,38,-1,-1,40,42,44,46,48,50,52,54,-1,56,58,60,62,64,66,68,70,-1,-1,-1,-1,-1,72,74,-1,76,78,80,82,84,86,88,-1,90,-1,92,-1,-1,-1,-1,-1,-1,-1,-1,-1,-1,-1,-1,-1,-1,-1,-1,-1,-1,-1,-1,-1,-1,-1,-1,-1,-1,-1,-1,-1,-1,-1,-1,-1,-1,-1,-1],"split_conditions":[1E-45,1E-45,1E-45,1E-45,1E-45,3E0,1E-45,1E-45,3E0,1E-45,1E-45,1E-45,1E-45,1E-45,1E-45,1E-45,1E-45,2E0,1E-45,2.1240572E-2,-3.0070895E-2,1E-45,3E0,1E-45,1E-45,1E-45,1E-45,1E-45,1E-45,2.5523862E-2,1E-45,2E0,1E-45,1E-45,1E-45,1E-45,1E-45,1E-45,3.7577257E-2,-2.2359984E-2,-3.1755015E-2,-3.7633475E-2,-2.8942345E-2,1E-45,1E-45,2.6999269E-2,1E-45,1E-45,1E-45,1E-45,1E-45,1E-45,1E-45,2.8003428E-2,1E-45,-2.172996E-2,1E-45,1.4517573E-2,2.7186159E-2,2.2448136E-2,-2.6740823E-2,-3.4021366E-2,4.7333627E-3,-3.9756387E-2,1.8494623E-2,1.4889938E-2,-2.1069555E-2,9.725919E-3,-5.549271E-3,-3.0189569E-3,-1.879622E-2,1.1874364E-3,-1.4475401E-2,2.6786625E-2,-2.2219013E-2,-1.5928833E-2,-2.5647003E-2,2.4778895E-2,-2.8632114E-2,-1.8514395E-3,-2.8012423E-2,1.138561E-2,-1.5130016E-4,-1.19209755E-2,5.5314213E-2,2.8112132E-2,-9.654439E-4,3.0900871E-2,2.3157584E-2,-2.0621886E-2,-2.8963655E-2,-1.995676E-2,-2.4450412E-2],"split_indices":[4,1,2,7,6,8,7,0,5,0,3,0,0,1,0,4,2,8,2,0,0,0,5,3,1,7,1,6,4,0,0,5,2,3,6,0,0,0,0,0,0,0,0,1,1,0,4,3,1,1,3,0,0,0,7,0,1,0,0,0,0,0,0,0,0,0,0,0,0,0,0,0,0,0,0,0,0,0,0,0,0,0,0,0,0,0,0,0,0,0,0,0,0],"split_type":[1,1,1,1,1,0,1,1,0,1,1,1,1,1,1,1,1,0,1,0,0,1,0,1,1,1,1,1,1,0,1,0,1,1,1,1,1,1,0,0,0,0,0,1,1,0,1,1,1,1,1,1,1,0,1,0,1,0,0,0,0,0,0,0,0,0,0,0,0,0,0,0,0,0,0,0,0,0,0,0,0,0,0,0,0,0,0,0,0,0,0,0,0],"sum_hessian":[8.8777E4,5.0086E4,3.8691E4,4.878E4,1.306E3,3.2443E4,6.248E3,1.8527E4,3.0253E4,3.71E2,9.35E2,1.6061E4,1.6382E4,3.047E3,3.201E3,3.6E3,1.4927E4,2.5268E4,4.985E3,2.65E2,1.06E2,4.58E2,4.77E2,1.2989E4,3.072E3,1.266E3,1.5116E4,2.159E3,8.88E2,1.1E1,3.19E3,2.211E3,1.389E3,9.962E3,4.965E3,8.534E3,1.6734E4,4.776E3,2.09E2,2.33E2,2.25E2,3.43E2,1.34E2,1.1455E4,1.534E3,2.34E2,2.838E3,1.207E3,5.9E1,1.2317E4,2.799E3,1.586E3,5.73E2,9.9E1,7.89E2,6.62E2,2.528E3,2.88E2,1.923E3,1.012E3,3.77E2,3.29E2,9.633E3,3.59E2,4.606E3,7.161E3,1.373E3,5.089E3,1.1645E4,2.581E3,2.195E3,9.153E3,2.302E3,4E1,1.494E3,4.48E2,2.39E3,1.202E3,5E0,1.4E1,4.5E1,8.01E2,1.1516E4,2.599E3,2E2,3.11E2,1.275E3,2.65E2,3.08E2,5.18E2,2.71E2,1.57E2,2.371E3],"tree_param":{"num_deleted":"0","num_feature":"9","num_nodes":"93","size_leaf_vector":"1"}},{"base_weights":[-5.1025972E-6,3.0357528E-2,-3.9309688E-2,9.433765E-2,9.602941E-3,5.0568864E-2,-4.715859E-2,1.433167E-1,-2.6991695E-2,2.6439514E-2,-1.03516735E-1,2.3444135E-1,-4.6912063E-2,-2.2101775E-2,-7.984949E-2,2.6333544E-1,8.910311E-2,-4.663708E-3,-3.357175E-2,6.692632E-3,1.1455399E-1,2.64626E-2,-2.3489366E-1,3.1005955E-1,2.9128818E-2,6.8805516E-2,-2.4438614E-1,-4.1204285E-2,2.031642E-1,2.6396094E-2,-1.3683358E-1,3.4141135E-1,2.0615064E-1,1.6364062E-1,6.252422E-3,9.363989E-2,-6.9932155E-2,6.3199855E-2,-4.0528305E-2,4.287206E-3,1.9128034E-1,-3.1990424E-1,7.572495E-2,-2.965726E-1,-7.497519E-3,3.4747726E-1,1.0719325E-2,1.0731901E-1,-1.495424E-1,2.2632726E-1,-1.6245967E-1,-7.2095856E-2,-3.4724033E-1,-1.9355883E-1,3.3461978E-3,3.5089788E-1,-1.8993294E-2,4.9336687E-2,-4.4162393E-2,-1.0009156E-1,-2.8457794E-1,3.900483E-2,1.9207206E-2,2.5882551E-2,-7.476376E-3,2.896536E-2,9.07726E-3,4.7929585E-3,-4.5187246E-2,1.4336291E-2,-3.113552E-2,-2.6277425E-3,-3.2512322E-2,9.2388917E-4,1.311822E-2,-1.3714413E-2,-8.275369E-4,-3.180597E-2,1.5909597E-2,2.6623592E-2,-1.0309698E-2,4.578596E-2,-3.5309415E-2,1.1951376E-2,-2.8831279E-2,3.817578E-2,-2.9890213E-2,2.4319176E-2,-3.489001E-2,3.707376E-2,2.8836463E-2,-7.0456206E-3,2.0556537E-2,-1.0866283E-2,-3.607785E-2,2.6823068E-2,-1.1558514E-2,5.6727557E-3,-2.556946E-2,-1.5798334E-2,2.552074E-2,-1.7925674E-2,-3.6952976E-2,1.5763287E-2,-2.2372764E-2,1.8339379E-2,-5.8239168E-3,3.75158E-2,2.6408551E-2,-2.2925993E-2,1.4453511E-2,1.9313974E-2,-1.2118679E-3,-6.6620815E-3,-2.539455E-2,-5.4538944E-3,-3.5457384E-2],"categories":[2,4,5,0,2,5,0,1,2,3,0,0,5,1,2,4,1,3,5,1,2,1,0,3,0,1,2,3,5,1,2,3,0,0,1,2,4,5,1,3,2,0,0,0,1,3,4,4,5,5,4,0,1,3,4,4,0,2,1,2,5,2,1,4,1,0,0,0,0,1,0,3,1,2,2,0,1,1,4,2,3,2,3,4,4,5,1,1,0,3,2,5],"categories_nodes":[0,1,2,3,4,5,6,7,8,10,11,12,13,15,16,19,20,21,22,23,24,25,26,28,29,30,31,33,34,35,36,37,38,39,41,42,43,44,45,47,48,49,50,52,53,54,55,56,57,59,60],"categories_segments":[0,3,6,10,11,13,16,19,21,22,24,29,32,33,34,38,40,41,42,43,47,49,50,51,55,56,58,61,62,63,64,65,66,67,68,69,70,71,72,74,75,77,78,79,81,84,86,87,88,89,90],"categories_sizes":[3,3,4,1,2,3,3,2,1,2,5,3,1,1,4,2,1,1,1,4,2,1,1,4,1,2,3,1,1,1,1,1,1,1,1,1,1,1,2,1,2,1,1,2,3,2,1,1,1,1,2],"default_left":[1,1,1,1,1,1,1,1,1,0,1,1,1,1,0,1,1,0,0,1,1,1,1,1,1,1,1,0,1,1,1,1,0,1,1,1,1,1,1,1,0,1,1,1,1,1,0,1,1,1,1,0,1,1,1,1,1,1,0,1,1,0,0,0,0,0,0,0,0,0,0,0,0,0,0,0,0,0,0,0,0,0,0,0,0,0,0,0,0,0,0,0,0,0,0,0,0,0,0,0,0,0,0,0,0,0,0,0,0,0,0,0,0,0,0,0,0],"id":9,"left_children":[1,3,5,7,9,11,13,15,17,19,21,23,25,27,29,31,33,35,-1,37,39,41,43,45,47,49,51,53,55,57,59,61,63,65,67,69,71,73,75,77,79,81,83,85,87,89,-1,91,93,95,97,99,101,103,105,107,109,111,-1,113,115,-1,-1,-1,-1,-1,-1,-1,-1,-1,-1,-1,-1,-1,-1,-1,-1,-1,-1,-1,-1,-1,-1,-1,-1,-1,-1,-1,-1,-1,-1,-1,-1,-1,-1,-1,-1,-1,-1,-1,-1,-1,-1,-1,-1,-1,-1,-1,-1,-1,-1,-1,-1,-1,-1,-1,-1],"loss_changes":[1.0594803E2,6.650867E1,2.7297585E1,7.290764E1,7.203273E1,5.571898E1,2.9146965E1,5.6844635E1,2.4324629E1,5.728132E1,8.368002E1,1.671178E1,4.6450497E1,8.669954E1,9.348212E1,1.206929E1,3.718774E1,2.1128426E1,0E0,7.1767136E1,5.0989815E1,4.2067074E1,3.4178024E1,5.936714E0,4.081417E0,4.6739124E1,1.3283272E1,1.2605752E2,5.1698395E1,5.7903107E1,5.452719E1,8.2634735E0,2.3280441E1,2.908165E1,5.4494972E1,2.6505415E1,2.2038105E1,4.4914585E1,4.565661E1,1.2350846E2,7.844725E1,8.08654E0,3.4434654E1,3.143341E0,4.467514E1,8.0607605E-1,0E0,3.560034E0,7.293329E-1,1.096273E1,1.0641175E1,7.9676905E0,1.6935577E0,4.4555588E1,1.5936057E2,1.89328E0,2.1695414E1,4.542693E1,0E0,4.1437416E1,3.2200333E1,0E0,0E0,0E0,0E0,0E0,0E0,0E0,0E0,0E0,0E0,0E0,0E0,0E0,0E0,0E0,0E0,0E0,0E0,0E0,0E0,0E0,0E0,0E0,0E0,0E0,0E0,0E0,0E0,0E0,0E0,0E0,0E0,0E0,0E0,0E0,0E0,0E0,0E0,0E0,0E0,0E0,0E0,0E0,0E0,0E0,0E0,0E0,0E0,0E0,0E0,0E0,0E0,0E0,0E0,0E0,0E0],"parents":[2147483647,0,0,1,1,2,2,3,3,4,4,5,5,6,6,7,7,8,8,9,9,10,10,11,11,12,12,13,13,14,14,15,15,16,16,17,17,19,19,20,20,21,21,22,22,23,23,24,24,25,25,26,26,27,27,28,28,29,29,30,30,31,31,32,32,33,33,34,34,35,35,36,36,37,37,38,38,39,39,40,40,41,41,42,42,43,43,44,44,45,45,47,47,48,48,49,49,50,50,51,51,52,52,53,53,54,54,55,55,56,56,57,57,59,59,60,60],"right_children":[2,4,6,8,10,12,14,16,18,20,22,24,26,28,30,32,34,36,-1,38,40,42,44,46,48,50,52,54,56,58,60,62,64,66,68,70,72,74,76,78,80,82,84,86,88,90,-1,92,94,96,98,100,102,104,106,108,110,112,-1,114,116,-1,-1,-1,-1,-1,-1,-1,-1,-1,-1,-1,-1,-1,-1,-1,-1,-1,-1,-1,-1,-1,-1,-1,-1,-1,-1,-1,-1,-1,-1,-1,-1,-1,-1,-1,-1,-1,-1,-1,-1,-1,-1,-1,-1,-1,-1,-1,-1,-1,-1,-1,-1,-1,-1,-1,-1],"split_conditions":[1E-45,1E-45,1E-45,1E-45,1E-45,1E-45,1E-45,1E-45,1E-45,3E0,1E-45,1E-45,1E-45,1E-45,3E0,1E-45,1E-45,2E0,-3.357175E-2,1E-45,1E-45,1E-45,1E-45,1E-45,1E-45,1E-45,1E-45,3E0,1E-45,1E-45,1E-45,1E-45,3E0,1E-45,1E-45,1E-45,1E-45,1E-45,1E-45,1E-45,3E0,1E-45,1E-45,1E-45,1E-45,1E-45,1.0719325E-2,1E-45,1E-45,1E-45,1E-45,3E0,1E-45,1E-45,1E-45,1E-45,1E-45,1E-45,-4.4162393E-2,1E-45,1E-45,3.900483E-2,1.9207206E-2,2.5882551E-2,-7.476376E-3,2.896536E-2,9.07726E-3,4.7929585E-3,-4.5187246E-2,1.4336291E-2,-3.113552E-2,-2.6277425E-3,-3.2512322E-2,9.2388917E-4,1.311822E-2,-1.3714413E-2,-8.275369E-4,-3.180597E-2,1.5909597E-2,2.6623592E-2,-1.0309698E-2,4.578596E-2,-3.5309415E-2,1.1951376E-2,-2.8831279E-2,3.817578E-2,-2.9890213E-2,2.4319176E-2,-3.489001E-2,3.707376E-2,2.8836463E-2,-7.0456206E-3,2.0556537E-2,-1.0866283E-2,-3.607785E-2,2.6823068E-2,-1.1558514E-2,5.6727557E-3,-2.556946E-2,-1.5798334E-2,2.552074E-2,-1.7925674E-2,-3.6952976E-2,1.5763287E-2,-2.2372764E-2,1.8339379E-2,-5.8239168E-3,3.75158E-2,2.6408551E-2,-2.2925993E-2,1.4453511E-2,1.9313974E-2,-1.2118679E-3,-6.6620815E-3,-2.539455E-2,-5.4538944E-3,-3.5457384E-2],"split_indices":[4,1,1,0,7,7,7,7,2,8,4,1,0,6,5,6,4,5,0,0,2,6,2,4,4,4,1,5,0,0,0,7,5,2,2,1,1,6,6,6,5,1,2,7,0,0,0,2,0,2,1,8,0,0,4,2,2,6,0,7,4,0,0,0,0,0,0,0,0,0,0,0,0,0,0,0,0,0,0,0,0,0,0,0,0,0,0,0,0,0,0,0,0,0,0,0,0,0,0,0,0,0,0,0,0,0,0,0,0,0,0,0,0,0,0,0,0],"split_type":[1,1,1,1,1,1,1,1,1,0,1,1,1,1,0,1,1,0,0,1,1,1,1,1,1,1,1,0,1,1,1,1,0,1,1,1,1,1,1,1,0,1,1,1,1,1,0,1,1,1,1,0,1,1,1,1,1,1,0,1,1,0,0,0,0,0,0,0,0,0,0,0,0,0,0,0,0,0,0,0,0,0,0,0,0,0,0,0,0,0,0,0,0,0,0,0,0,0,0,0,0,0,0,0,0,0,0,0,0,0,0,0,0,0,0,0,0],"sum_hessian":[8.8777E4,5.0086E4,3.8691E4,1.2267E4,3.7819E4,3.107E3,3.5584E4,8.739E3,3.528E3,3.292E4,4.899E3,1.076E3,2.031E3,2.0145E4,1.5439E4,2.718E3,6.021E3,3.291E3,2.37E2,2.6894E4,6.026E3,2.463E3,2.436E3,7.86E2,2.9E2,1.281E3,7.5E2,1.8571E4,1.574E3,5.39E3,1.0049E4,1.147E3,1.571E3,3.169E3,2.852E3,1.313E3,1.978E3,1.2243E4,1.4651E4,2.473E3,3.553E3,3.06E2,2.157E3,1.916E3,5.2E2,6.63E2,1.23E2,2.02E2,8.8E1,7.62E2,5.19E2,2.81E2,4.69E2,4.201E3,1.437E4,9.45E2,6.29E2,5.139E3,2.51E2,8.049E3,2E3,8.64E2,2.83E2,1.323E3,2.48E2,1.16E3,2.009E3,2.615E3,2.37E2,1.17E3,1.43E2,1.69E3,2.88E2,6.826E3,5.417E3,3.666E3,1.0985E4,8.02E2,1.671E3,2.832E3,7.21E2,1.2E1,2.94E2,1.926E3,2.31E2,6E0,1.91E3,3E2,2.2E2,4.72E2,1.91E2,7.2E1,1.3E2,7.5E1,1.3E1,6.79E2,8.3E1,1.55E2,3.64E2,2.23E2,5.8E1,5.6E1,4.13E2,3.32E2,3.869E3,3.662E3,1.0708E4,7.36E2,2.09E2,2.75E2,3.54E2,1.538E3,3.601E3,6.612E3,1.437E3,4.67E2,1.533E3],"tree_param":{"num_deleted":"0","num_feature":"9","num_nodes":"117","size_leaf_vector":"1"}},{"base_weights":[-5.3149274E-6,2.7321378E-2,-3.5379864E-2,3.2940052E-2,-1.8240462E-1,-2.4310386E-2,-9.284551E-2,7.856282E-2,4.9989037E-3,6.2074512E-2,-2.793745E-1,-6.0605966E-2,1.1275523E-2,2.5598766E-2,-2.0556422E-1,1.5279576E-1,5.5384755E-2,2.0667976E-2,-7.441281E-2,1.9032458E-2,-2.5733287E-2,-2.2887601E-1,-3.272813E-1,-3.4527592E-2,-1.7082316E-1,1.3580686E-1,-1.1403292E-2,1.01551354E-1,-1.2982231E-1,2.4018062E-2,-2.0717606E-1,2.2160228E-1,8.230869E-2,2.0737361E-2,1.3302451E-1,-9.802276E-3,8.2331575E-2,-9.3143634E-2,3.5202336E-2,-2.0051142E-2,-2.5723195E-2,-3.527833E-2,-2.5987405E-2,-1.5820997E-2,-1.7411603E-1,2.4974199E-2,-2.0557554E-1,4.923303E-2,2.9805207E-1,-2.5215346E-1,2.6804055E-3,1.5617836E-1,-2.7782684E-2,2.5807653E-2,-1.7268269E-1,-1.7905809E-1,-2.1446551E-1,2.7673513E-2,2.0173635E-2,1.4911659E-2,-6.1784934E-2,-3.6642995E-2,3.8740993E-3,2.0394674E-2,5.1773743E-5,-3.5306686E-3,1.4458964E-2,1.6468888E-2,-1.2284028E-3,-3.1136523E-3,-1.6600758E-2,-7.875498E-4,-3.9683167E-2,2.5654448E-2,-1.8581033E-2,-1.796936E-2,-2.4614792E-2,3.0279515E-2,-3.0474067E-3,4.336856E-2,2.2101672E-2,-1.5631035E-2,-3.8382437E-2,2.4099795E-3,-9.660202E-3,-3.164749E-3,2.6724849E-2,3.9628606E-2,-4.6877798E-2,-6.707595E-3,-2.2236176E-2,-1.4590665E-2,-1.849648E-2,-2.0308955E-2,-2.3098676E-2],"categories":[2,4,5,2,1,0,2,3,0,1,4,5,0,1,2,5,1,0,1,4,2,4,1,2,3,4,1,2,3,4,1,4,0,1,1,0,0,1,3,5,0,0,2,5,1,3,4,0,0,3,1,3,4,1,2,2,0,3,4,0,1,4,5,0,1,2,4,4,1,3,2,4,0,5,4],"categories_nodes":[0,1,2,3,4,6,7,9,10,11,12,13,14,15,17,18,21,23,24,25,27,28,30,31,33,34,36,37,43,44,46,47,48,49,50,54,55,56],"categories_segments":[0,3,4,5,8,9,12,16,17,18,20,22,26,30,32,33,34,35,36,40,41,42,44,47,48,49,50,53,55,56,58,59,63,67,68,70,72,74],"categories_sizes":[3,1,1,3,1,3,4,1,1,2,2,4,4,2,1,1,1,1,4,1,1,2,3,1,1,1,3,2,1,2,1,4,4,1,2,2,2,1],"default_left":[1,1,1,1,1,0,1,1,0,1,1,1,1,1,1,1,0,1,1,0,0,1,0,1,1,1,0,1,1,0,1,1,0,1,1,0,1,1,0,0,0,0,0,1,1,0,1,1,1,1,1,0,0,0,1,1,1,0,0,0,0,0,0,0,0,0,0,0,0,0,0,0,0,0,0,0,0,0,0,0,0,0,0,0,0,0,0,0,0,0,0,0,0,0,0],"id":10,"left_children":[1,3,5,7,9,11,13,15,17,19,21,23,25,27,29,31,33,35,37,-1,-1,39,41,43,45,47,49,51,53,-1,55,57,59,61,63,65,67,69,-1,-1,-1,-1,-1,71,73,-1,75,77,79,81,83,85,87,-1,89,91,93,-1,-1,-1,-1,-1,-1,-1,-1,-1,-1,-1,-1,-1,-1,-1,-1,-1,-1,-1,-1,-1,-1,-1,-1,-1,-1,-1,-1,-1,-1,-1,-1,-1,-1,-1,-1,-1,-1],"loss_changes":[8.5819954E1,5.9027622E1,2.4610294E1,6.218331E1,3.1002552E1,4.190572E1,8.343495E1,3.1870354E1,3.7646828E1,1.528759E1,2.1894836E0,4.6160866E1,4.6270798E1,3.5993706E1,2.350296E0,2.1360428E1,3.7982952E1,4.7478867E1,3.9858475E1,0E0,0E0,3.1759644E-1,7.300148E-1,3.3917053E1,4.4965202E1,3.5437912E1,4.6995117E1,1.4473728E1,1.6686678E1,0E0,6.1564636E-1,2.3866196E0,1.0201723E2,6.808032E1,4.0945564E1,6.660299E1,6.512215E1,2.1577713E1,0E0,0E0,0E0,0E0,0E0,3.467785E1,7.778343E0,0E0,2.9369736E0,3.329625E1,9.077995E0,9.606731E0,2.7849749E1,3.0049503E1,1.1407627E2,0E0,4.7173805E0,1.0283661E-1,4.2840576E-1,0E0,0E0,0E0,0E0,0E0,0E0,0E0,0E0,0E0,0E0,0E0,0E0,0E0,0E0,0E0,0E0,0E0,0E0,0E0,0E0,0E0,0E0,0E0,0E0,0E0,0E0,0E0,0E0,0E0,0E0,0E0,0E0,0E0,0E0,0E0,0E0,0E0,0E0],"parents":[2147483647,0,0,1,1,2,2,3,3,4,4,5,5,6,6,7,7,8,8,9,9,10,10,11,11,12,12,13,13,14,14,15,15,16,16,17,17,18,18,21,21,22,22,23,23,24,24,25,25,26,26,27,27,28,28,30,30,31,31,32,32,33,33,34,34,35,35,36,36,37,37,43,43,44,44,46,46,47,47,48,48,49,49,50,50,51,51,52,52,54,54,55,55,56,56],"right_children":[2,4,6,8,10,12,14,16,18,20,22,24,26,28,30,32,34,36,38,-1,-1,40,42,44,46,48,50,52,54,-1,56,58,60,62,64,66,68,70,-1,-1,-1,-1,-1,72,74,-1,76,78,80,82,84,86,88,-1,90,92,94,-1,-1,-1,-1,-1,-1,-1,-1,-1,-1,-1,-1,-1,-1,-1,-1,-1,-1,-1,-1,-1,-1,-1,-1,-1,-1,-1,-1,-1,-1,-1,-1,-1,-1,-1,-1,-1,-1],"split_conditions":[1E-45,1E-45,1E-45,1E-45,1E-45,3E0,1E-45,1E-45,3E0,1E-45,1E-45,1E-45,1E-45,1E-45,1E-45,1E-45,3E0,1E-45,1E-45,1.9032458E-2,-2.5733287E-2,1E-45,3E0,1E-45,1E-45,1E-45,3E0,1E-45,1E-45,2.4018062E-2,1E-45,1E-45,3E0,1E-45,1E-45,3E0,1E-45,1E-45,3.5202336E-2,-2.0051142E-2,-2.5723195E-2,-3.527833E-2,-2.5987405E-2,1E-45,1E-45,2.4974199E-2,1E-45,1E-45,1E-45,1E-45,1E-45,3E0,3E0,2.5807653E-2,1E-45,1E-45,1E-45,2.7673513E-2,2.0173635E-2,1.4911659E-2,-6.1784934E-2,-3.6642995E-2,3.8740993E-3,2.0394674E-2,5.1773743E-5,-3.5306686E-3,1.4458964E-2,1.6468888E-2,-1.2284028E-3,-3.1136523E-3,-1.6600758E-2,-7.875498E-4,-3.9683167E-2,2.5654448E-2,-1.8581033E-2,-1.796936E-2,-2.4614792E-2,3.0279515E-2,-3.0474067E-3,4.336856E-2,2.2101672E-2,-1.5631035E-2,-3.8382437E-2,2.4099795E-3,-9.660202E-3,-3.164749E-3,2.6724849E-2,3.9628606E-2,-4.6877798E-2,-6.707595E-3,-2.2236176E-2,-1.4590665E-2,-1.849648E-2,-2.0308955E-2,-2.3098676E-2],"split_indices":[4,1,2,7,6,8,7,1,5,0,3,0,0,1,0,0,8,2,2,0,0,0,5,3,1,2,5,0,4,0,0,3,8,6,0,8,0,0,0,0,0,0,0,1,1,0,0,1,0,0,1,5,5,0,0,1,7,0,0,0,0,0,0,0,0,0,0,0,0,0,0,0,0,0,0,0,0,0,0,0,0,0,0,0,0,0,0,0,0,0,0,0,0,0,0],"split_type":[1,1,1,1,1,0,1,1,0,1,1,1,1,1,1,1,0,1,1,0,0,1,0,1,1,1,0,1,1,0,1,1,0,1,1,0,1,1,0,0,0,0,0,1,1,0,1,1,1,1,1,0,0,0,1,1,1,0,0,0,0,0,0,0,0,0,0,0,0,0,0,0,0,0,0,0,0,0,0,0,0,0,0,0,0,0,0,0,0,0,0,0,0,0,0],"sum_hessian":[8.8777E4,5.0086E4,3.8691E4,4.878E4,1.306E3,3.2443E4,6.248E3,1.8527E4,3.0253E4,3.71E2,9.35E2,1.6061E4,1.6382E4,3.047E3,3.201E3,4.407E3,1.412E4,2.5268E4,4.985E3,2.65E2,1.06E2,4.58E2,4.77E2,1.2989E4,3.072E3,2.523E3,1.3859E4,2.047E3,1E3,1.1E1,3.19E3,2.229E3,2.178E3,9.764E3,4.356E3,1.6912E4,8.356E3,4.776E3,2.09E2,2.33E2,2.25E2,3.43E2,1.34E2,1.1455E4,1.534E3,2.34E2,2.838E3,1.646E3,8.77E2,7.65E2,1.3094E4,1.439E3,6.08E2,9.9E1,9.01E2,6.62E2,2.528E3,5.87E2,1.642E3,1.989E3,1.89E2,4.33E2,9.331E3,2.837E3,1.519E3,1.4515E4,2.397E3,4.467E3,3.889E3,2.581E3,2.195E3,1.1222E4,2.33E2,4E1,1.494E3,1.736E3,1.102E3,3.93E2,1.253E3,3.16E2,5.61E2,4.44E2,3.21E2,1.0771E4,2.323E3,5.35E2,9.04E2,3.1E2,2.98E2,2.89E2,6.12E2,1.04E2,5.58E2,1.505E3,1.023E3],"tree_param":{"num_deleted":"0","num_feature":"9","num_nodes":"95","size_leaf_vector":"1"}},{"base_weights":[-6.3858697E-6,2.4587575E-2,-3.1843398E-2,2.9646669E-2,-1.642512E-1,4.6272263E-2,-3.866514E-2,7.070591E-2,4.5003965E-3,5.5849038E-2,-2.5155145E-1,2.1116777E-1,-4.1148376E-2,-1.7557206E-2,-6.6204116E-2,1.3751642E-1,4.984539E-2,-1.8568449E-2,4.8970103E-2,1.7136363E-2,-2.3184007E-2,-2.0608814E-1,-2.9468134E-1,2.79343E-1,2.6064377E-2,6.1574902E-2,-2.164481E-1,-3.4499373E-2,1.8223171E-1,2.359976E-2,-1.1436994E-1,1.9946353E-1,7.405632E-2,1.866025E-2,1.1972675E-1,-4.1052993E-2,1.1706761E-1,1.00800075E-1,-5.204207E-2,-1.8054595E-2,-2.3162259E-2,-3.176076E-2,-2.3407914E-2,3.1350285E-1,9.416985E-3,9.6940145E-2,-1.3588895E-1,2.044097E-1,-1.4812611E-1,-6.646078E-2,-3.0597997E-1,-1.6812241E-1,4.573655E-3,3.1718758E-1,-2.0705562E-2,1.6987947E-1,-4.1755572E-2,-8.133851E-2,-2.4719784E-1,2.5728082E-2,1.833736E-2,1.3421244E-2,-5.5638958E-2,-3.298714E-2,3.4867288E-3,1.8355926E-2,4.6598754E-5,1.7653432E-3,-8.057939E-3,2.2656675E-2,-1.2984842E-2,1.9629048E-2,3.2987413E-3,8.130184E-3,-3.40586E-2,3.3437047E-2,2.6046177E-2,-6.5487805E-3,1.8671343E-2,-1.7204847E-2,1.1047205E-2,2.404868E-2,-9.007648E-3,-6.4956876E-3,-3.7562627E-2,-1.422689E-2,2.2247955E-2,-1.4169288E-2,-3.278601E-2,-1.13651775E-4,-2.15388E-2,2.3761582E-2,-3.4175671E-3,3.3847954E-2,2.4095243E-2,-1.8851276E-2,1.0981696E-2,4.122647E-2,5.6018084E-3,-1.8714768E-3,-3.594067E-2,1.803299E-2,-9.620082E-3,-1.05802305E-2,-3.3462647E-2],"categories":[2,4,5,2,0,1,2,3,0,2,3,0,1,2,4,1,3,5,0,1,2,5,0,1,0,0,1,2,3,5,1,2,3,0,1,4,2,1,0,1,3,4,4,5,5,4,1,4,0,1,2,4,0,2,1,2,3,4,5,0,3,1,2,3,0,0,3,4,1,1,2,2,1,1,0,2,3,2,4,3,4,1,1,0,4,0,1,3],"categories_nodes":[0,1,2,3,4,5,6,7,8,9,10,11,12,13,15,18,21,23,24,25,26,28,29,30,31,33,34,35,36,37,38,43,45,46,47,48,50,51,52,53,54,55,56,57],"categories_segments":[0,3,4,8,11,12,15,18,22,23,24,25,30,33,34,36,37,38,42,44,45,46,48,52,54,59,60,61,64,65,68,69,71,72,73,74,75,77,79,81,82,83,84,85],"categories_sizes":[3,1,4,3,1,3,3,4,1,1,1,5,3,1,2,1,1,4,2,1,1,2,4,2,5,1,1,3,1,3,1,2,1,1,1,1,2,2,2,1,1,1,1,3],"default_left":[1,1,1,1,1,1,1,1,1,1,1,1,1,1,0,1,0,0,1,0,0,1,0,1,1,1,1,0,1,1,1,1,0,1,1,1,1,1,1,0,0,0,0,1,0,1,1,1,1,0,1,1,1,1,1,1,1,1,0,0,0,0,0,0,0,0,0,0,0,0,0,0,0,0,0,0,0,0,0,0,0,0,0,0,0,0,0,0,0,0,0,0,0,0,0,0,0,0,0,0,0,0,0,0,0],"id":11,"left_children":[1,3,5,7,9,11,13,15,17,19,21,23,25,27,29,31,33,35,37,-1,-1,39,41,43,45,47,49,51,53,55,57,59,61,63,65,67,69,71,73,-1,-1,-1,-1,75,-1,77,79,81,83,85,87,89,91,93,95,97,99,101,103,-1,-1,-1,-1,-1,-1,-1,-1,-1,-1,-1,-1,-1,-1,-1,-1,-1,-1,-1,-1,-1,-1,-1,-1,-1,-1,-1,-1,-1,-1,-1,-1,-1,-1,-1,-1,-1,-1,-1,-1,-1,-1,-1,-1,-1,-1],"loss_changes":[6.95138E1,4.7855644E1,2.062017E1,5.0365433E1,2.51278E1,4.4811348E1,2.0684074E1,2.5815659E1,3.1037422E1,1.2402142E1,1.7746086E0,1.3583889E1,3.6604286E1,6.819763E1,6.678808E1,1.7313828E1,3.07711E1,6.075818E1,5.4108463E1,0E0,0E0,2.5754166E-1,5.897751E-1,4.9486275E0,3.3534358E0,3.8429512E1,1.0064575E1,9.696624E1,4.3142E1,5.1545914E1,4.407422E1,2.0273361E0,8.271363E1,5.5170715E1,3.31685E1,3.965564E1,7.66255E1,4.4220917E1,1.3488458E2,0E0,0E0,0E0,0E0,6.4785767E-1,0E0,2.9723105E0,8.1184494E-1,8.127928E0,9.814528E0,6.2085867E0,1.6430206E0,3.3164818E1,1.2978151E2,1.4539948E0,1.3819351E1,4.5928104E1,2.7270947E1,3.1323772E1,2.4700989E1,0E0,0E0,0E0,0E0,0E0,0E0,0E0,0E0,0E0,0E0,0E0,0E0,0E0,0E0,0E0,0E0,0E0,0E0,0E0,0E0,0E0,0E0,0E0,0E0,0E0,0E0,0E0,0E0,0E0,0E0,0E0,0E0,0E0,0E0,0E0,0E0,0E0,0E0,0E0,0E0,0E0,0E0,0E0,0E0,0E0,0E0],"parents":[2147483647,0,0,1,1,2,2,3,3,4,4,5,5,6,6,7,7,8,8,9,9,10,10,11,11,12,12,13,13,14,14,15,15,16,16,17,17,18,18,21,21,22,22,23,23,24,24,25,25,26,26,27,27,28,28,29,29,30,30,31,31,32,32,33,33,34,34,35,35,36,36,37,37,38,38,43,43,45,45,46,46,47,47,48,48,49,49,50,50,51,51,52,52,53,53,54,54,55,55,56,56,57,57,58,58],"right_children":[2,4,6,8,10,12,14,16,18,20,22,24,26,28,30,32,34,36,38,-1,-1,40,42,44,46,48,50,52,54,56,58,60,62,64,66,68,70,72,74,-1,-1,-1,-1,76,-1,78,80,82,84,86,88,90,92,94,96,98,100,102,104,-1,-1,-1,-1,-1,-1,-1,-1,-1,-1,-1,-1,-1,-1,-1,-1,-1,-1,-1,-1,-1,-1,-1,-1,-1,-1,-1,-1,-1,-1,-1,-1,-1,-1,-1,-1,-1,-1,-1,-1,-1,-1,-1,-1,-1,-1],"split_conditions":[1E-45,1E-45,1E-45,1E-45,1E-45,1E-45,1E-45,1E-45,1E-45,1E-45,1E-45,1E-45,1E-45,1E-45,3E0,1E-45,3E0,3E0,1E-45,1.7136363E-2,-2.3184007E-2,1E-45,3E0,1E-45,1E-45,1E-45,1E-45,3E0,1E-45,1E-45,1E-45,1E-45,3E0,1E-45,1E-45,1E-45,1E-45,1E-45,1E-45,-1.8054595E-2,-2.3162259E-2,-3.176076E-2,-2.3407914E-2,1E-45,9.416985E-3,1E-45,1E-45,1E-45,1E-45,3E0,1E-45,1E-45,1E-45,1E-45,1E-45,1E-45,1E-45,1E-45,2E0,2.5728082E-2,1.833736E-2,1.3421244E-2,-5.5638958E-2,-3.298714E-2,3.4867288E-3,1.8355926E-2,4.6598754E-5,1.7653432E-3,-8.057939E-3,2.2656675E-2,-1.2984842E-2,1.9629048E-2,3.2987413E-3,8.130184E-3,-3.40586E-2,3.3437047E-2,2.6046177E-2,-6.5487805E-3,1.8671343E-2,-1.7204847E-2,1.1047205E-2,2.404868E-2,-9.007648E-3,-6.4956876E-3,-3.7562627E-2,-1.422689E-2,2.2247955E-2,-1.4169288E-2,-3.278601E-2,-1.13651775E-4,-2.15388E-2,2.3761582E-2,-3.4175671E-3,3.3847954E-2,2.4095243E-2,-1.8851276E-2,1.0981696E-2,4.122647E-2,5.6018084E-3,-1.8714768E-3,-3.594067E-2,1.803299E-2,-9.620082E-3,-1.05802305E-2,-3.3462647E-2],"split_indices":[4,1,1,7,6,7,7,1,2,0,3,1,0,6,5,0,8,8,7,0,0,0,5,4,4,4,1,5,0,0,0,4,8,6,0,0,0,0,0,0,0,0,0,0,0,2,2,2,3,8,0,0,0,2,2,2,0,1,8,0,0,0,0,0,0,0,0,0,0,0,0,0,0,0,0,0,0,0,0,0,0,0,0,0,0,0,0,0,0,0,0,0,0,0,0,0,0,0,0,0,0,0,0,0,0],"split_type":[1,1,1,1,1,1,1,1,1,1,1,1,1,1,0,1,0,0,1,0,0,1,0,1,1,1,1,0,1,1,1,1,0,1,1,1,1,1,1,0,0,0,0,1,0,1,1,1,1,0,1,1,1,1,1,1,1,1,0,0,0,0,0,0,0,0,0,0,0,0,0,0,0,0,0,0,0,0,0,0,0,0,0,0,0,0,0,0,0,0,0,0,0,0,0,0,0,0,0,0,0,0,0,0,0],"sum_hessian":[8.8777E4,5.0086E4,3.8691E4,4.878E4,1.306E3,3.107E3,3.5584E4,1.8527E4,3.0253E4,3.71E2,9.35E2,1.076E3,2.031E3,2.0145E4,1.5439E4,4.407E3,1.412E4,1.992E4,1.0333E4,2.65E2,1.06E2,4.58E2,4.77E2,7.86E2,2.9E2,1.281E3,7.5E2,1.8571E4,1.574E3,5.39E3,1.0049E4,2.229E3,2.178E3,9.764E3,4.356E3,1.7088E4,2.832E3,6.829E3,3.504E3,2.33E2,2.25E2,3.43E2,1.34E2,6.63E2,1.23E2,2.02E2,8.8E1,7.62E2,5.19E2,2.81E2,4.69E2,4.201E3,1.437E4,9.45E2,6.29E2,1.664E3,3.726E3,8.049E3,2E3,4.82E2,1.747E3,1.989E3,1.89E2,4.33E2,9.331E3,2.837E3,1.519E3,6.876E3,1.0212E4,1.962E3,8.7E2,2.835E3,3.994E3,2.397E3,1.107E3,4.72E2,1.91E2,7.2E1,1.3E2,7.7E1,1.1E1,6.79E2,8.3E1,3.81E2,1.38E2,2.23E2,5.8E1,5.6E1,4.13E2,9.27E2,3.274E3,2.048E3,1.2322E4,7.36E2,2.09E2,2.75E2,3.54E2,5.31E2,1.133E3,3.475E3,2.51E2,4.32E2,7.617E3,7.65E2,1.235E3],"tree_param":{"num_deleted":"0","num_feature":"9","num_nodes":"105","size_leaf_vector":"1"}},{"base_weights":[-6.676549E-6,2.212659E-2,-2.8658308E-2,1.6060523E-3,6.1508756E-2,-1.9006882E-2,-7.876268E-2,-2.1627605E-2,8.861821E-2,8.931887E-2,-4.684526E-2,-5.2437853E-2,1.3770223E-2,2.4976667E-2,-1.7748809E-1,5.5760857E-2,-4.353614E-2,1.22628644E-1,-4.0574547E-2,1.5432318E-1,4.9934283E-2,7.317506E-2,-3.0655813E-1,-3.0099599E-2,-1.4684771E-1,1.7742555E-1,5.2879794E-5,9.279045E-2,-1.1379216E-1,2.2519164E-2,-1.7894678E-1,9.317008E-2,-1.5815903E-1,-2.2000097E-2,-1.4364919E-1,2.0207189E-1,9.624442E-3,7.522889E-2,-3.366699E-1,3.6205804E-1,9.664661E-2,1.20660655E-1,2.061447E-2,1.4433143E-1,-3.147474E-2,-2.3633797E-1,-3.7338324E-2,1.4841693E-2,-8.0333106E-2,2.069178E-2,-1.7607914E-1,1.976651E-1,-2.3302099E-1,-5.152008E-3,1.479364E-1,1.9670948E-1,4.7638174E-2,2.359103E-2,-1.5243568E-1,-1.4512968E-1,-1.8774147E-1,1.5557039E-2,-4.081743E-3,-3.5211165E-2,3.5723727E-2,2.467523E-3,-6.667302E-3,-2.1762436E-3,-2.5289102E-2,2.5075186E-2,1.7620575E-2,5.691006E-3,-3.8485114E-2,2.1221748E-2,-1.48371E-3,-2.0856282E-2,-4.9389813E-2,4.715398E-2,2.1901079E-2,-5.4183036E-2,1.3362713E-2,-1.5587442E-2,1.88594E-2,9.718388E-3,-9.533664E-3,3.0511603E-2,-6.2657925E-3,-2.8607612E-2,-1.8894484E-2,2.0029584E-2,-3.5233672E-3,-1.1900921E-3,-2.747382E-2,-1.5063579E-2,-2.1598762E-2,2.3818811E-2,1.663779E-2,-1.9286236E-3,-2.9765144E-2,1.3061027E-3,-8.9245215E-3,5.0216444E-2,-3.470234E-2,2.3589997E-2,1.5650189E-2,1.11681E-2,-1.7465925E-2,-1.067908E-2,-2.5776464E-2,-9.8311E-3,-1.5366428E-2,-1.34797115E-2,-1.9118898E-2],"categories":[2,4,5,0,1,2,1,4,5,0,2,4,2,3,0,2,3,4,1,1,4,2,3,4,1,2,3,4,1,2,3,4,2,0,0,3,1,1,2,3,4,5,0,1,2,0,0,0,1,3,5,4,5,0,0,2,3,2,5,1,3,4,0,1,1,3,0,3,0,2,3,5,1,2,5,3,1,2,3,4,0,3,3,0,2,5,3,4,0,2,3,4,3,1,3,4,5,0,1,2,3,0,0,5,0,1,2,3],"categories_nodes":[0,1,2,4,6,7,8,9,10,11,12,13,14,15,16,17,18,19,20,22,23,24,25,26,27,28,30,31,32,33,34,35,36,37,38,39,40,42,43,47,48,50,51,52,53,54,55,58,59,60],"categories_segments":[0,3,4,5,6,9,12,14,18,19,21,24,28,32,33,34,36,37,42,45,46,47,51,53,54,57,59,62,63,64,66,68,72,73,75,76,80,81,82,83,86,87,88,92,93,95,97,101,102,104],"categories_sizes":[3,1,1,1,3,3,2,4,1,2,3,4,4,1,1,2,1,5,3,1,1,4,2,1,3,2,3,1,1,2,2,4,1,2,1,4,1,1,1,3,1,1,4,1,2,2,4,1,2,4],"default_left":[1,1,1,0,1,0,1,1,1,1,1,1,1,1,1,1,1,1,1,1,1,0,1,1,1,1,1,1,1,0,1,1,1,1,1,1,1,1,1,1,1,0,1,1,0,0,0,1,1,0,1,1,1,1,1,1,0,0,1,1,1,0,0,0,0,0,0,0,0,0,0,0,0,0,0,0,0,0,0,0,0,0,0,0,0,0,0,0,0,0,0,0,0,0,0,0,0,0,0,0,0,0,0,0,0,0,0,0,0,0,0,0,0],"id":12,"left_children":[1,3,5,7,9,11,13,15,17,19,21,23,25,27,29,31,33,35,37,39,41,43,45,47,49,51,53,55,57,-1,59,61,63,65,67,69,71,73,75,77,79,81,83,85,-1,87,-1,89,91,-1,93,95,97,99,101,103,105,-1,107,109,111,-1,-1,-1,-1,-1,-1,-1,-1,-1,-1,-1,-1,-1,-1,-1,-1,-1,-1,-1,-1,-1,-1,-1,-1,-1,-1,-1,-1,-1,-1,-1,-1,-1,-1,-1,-1,-1,-1,-1,-1,-1,-1,-1,-1,-1,-1,-1,-1,-1,-1,-1,-1],"loss_changes":[5.629958E1,4.0477364E1,1.8709126E1,6.657356E1,5.170704E1,3.55519E1,6.4004875E1,4.4069332E1,3.0498657E1,3.494883E1,1.0927616E2,3.386956E1,3.6778454E1,2.8693575E1,1.9211044E0,4.590951E1,4.3671722E1,4.932E1,4.9641308E1,6.1681374E1,1.7632126E1,6.623779E1,5.1110077E0,2.9326881E1,3.1814552E1,1.0571346E1,1.1636577E1,9.600216E0,1.3563209E1,0E0,9.217911E-1,4.082409E1,8.549371E1,3.4764824E1,4.774256E1,4.017868E0,4.2345604E1,1.284702E1,8.0948105E0,1.7421463E1,9.529645E1,4.684398E1,5.3394535E1,6.7479095E1,0E0,1.2259331E0,0E0,6.368585E1,8.16008E1,0E0,2.8502045E0,1.4919319E0,8.230858E-1,2.2368542E1,9.029318E1,9.400501E-1,2.0363544E1,0E0,4.309042E0,2.4981308E-1,4.3584442E-1,0E0,0E0,0E0,0E0,0E0,0E0,0E0,0E0,0E0,0E0,0E0,0E0,0E0,0E0,0E0,0E0,0E0,0E0,0E0,0E0,0E0,0E0,0E0,0E0,0E0,0E0,0E0,0E0,0E0,0E0,0E0,0E0,0E0,0E0,0E0,0E0,0E0,0E0,0E0,0E0,0E0,0E0,0E0,0E0,0E0,0E0,0E0,0E0,0E0,0E0,0E0,0E0],"parents":[2147483647,0,0,1,1,2,2,3,3,4,4,5,5,6,6,7,7,8,8,9,9,10,10,11,11,12,12,13,13,14,14,15,15,16,16,17,17,18,18,19,19,20,20,21,21,22,22,23,23,24,24,25,25,26,26,27,27,28,28,30,30,31,31,32,32,33,33,34,34,35,35,36,36,37,37,38,38,39,39,40,40,41,41,42,42,43,43,45,45,47,47,48,48,50,50,51,51,52,52,53,53,54,54,55,55,56,56,58,58,59,59,60,60],"right_children":[2,4,6,8,10,12,14,16,18,20,22,24,26,28,30,32,34,36,38,40,42,44,46,48,50,52,54,56,58,-1,60,62,64,66,68,70,72,74,76,78,80,82,84,86,-1,88,-1,90,92,-1,94,96,98,100,102,104,106,-1,108,110,112,-1,-1,-1,-1,-1,-1,-1,-1,-1,-1,-1,-1,-1,-1,-1,-1,-1,-1,-1,-1,-1,-1,-1,-1,-1,-1,-1,-1,-1,-1,-1,-1,-1,-1,-1,-1,-1,-1,-1,-1,-1,-1,-1,-1,-1,-1,-1,-1,-1,-1,-1,-1],"split_conditions":[1E-45,1E-45,1E-45,3E0,1E-45,3E0,1E-45,1E-45,1E-45,1E-45,1E-45,1E-45,1E-45,1E-45,1E-45,1E-45,1E-45,1E-45,1E-45,1E-45,1E-45,3E0,1E-45,1E-45,1E-45,1E-45,1E-45,1E-45,1E-45,2.2519164E-2,1E-45,1E-45,1E-45,1E-45,1E-45,1E-45,1E-45,1E-45,1E-45,1E-45,1E-45,2E0,1E-45,1E-45,-3.147474E-2,3E0,-3.7338324E-2,1E-45,1E-45,2.069178E-2,1E-45,1E-45,1E-45,1E-45,1E-45,1E-45,3E0,2.359103E-2,1E-45,1E-45,1E-45,1.5557039E-2,-4.081743E-3,-3.5211165E-2,3.5723727E-2,2.467523E-3,-6.667302E-3,-2.1762436E-3,-2.5289102E-2,2.5075186E-2,1.7620575E-2,5.691006E-3,-3.8485114E-2,2.1221748E-2,-1.48371E-3,-2.0856282E-2,-4.9389813E-2,4.715398E-2,2.1901079E-2,-5.4183036E-2,1.3362713E-2,-1.5587442E-2,1.88594E-2,9.718388E-3,-9.533664E-3,3.0511603E-2,-6.2657925E-3,-2.8607612E-2,-1.8894484E-2,2.0029584E-2,-3.5233672E-3,-1.1900921E-3,-2.747382E-2,-1.5063579E-2,-2.1598762E-2,2.3818811E-2,1.663779E-2,-1.9286236E-3,-2.9765144E-2,1.3061027E-3,-8.9245215E-3,5.0216444E-2,-3.470234E-2,2.3589997E-2,1.5650189E-2,1.11681E-2,-1.7465925E-2,-1.067908E-2,-2.5776464E-2,-9.8311E-3,-1.5366428E-2,-1.34797115E-2,-1.9118898E-2],"split_indices":[4,2,2,8,7,8,7,1,1,0,0,0,0,1,0,7,7,0,0,4,1,5,4,2,1,7,3,0,4,0,0,0,2,0,4,7,1,7,1,1,3,8,0,0,0,5,0,1,1,0,0,0,1,1,1,0,8,0,7,1,1,0,0,0,0,0,0,0,0,0,0,0,0,0,0,0,0,0,0,0,0,0,0,0,0,0,0,0,0,0,0,0,0,0,0,0,0,0,0,0,0,0,0,0,0,0,0,0,0,0,0,0,0],"split_type":[1,1,1,0,1,0,1,1,1,1,1,1,1,1,1,1,1,1,1,1,1,0,1,1,1,1,1,1,1,0,1,1,1,1,1,1,1,1,1,1,1,0,1,1,0,0,0,1,1,0,1,1,1,1,1,1,0,0,1,1,1,0,0,0,0,0,0,0,0,0,0,0,0,0,0,0,0,0,0,0,0,0,0,0,0,0,0,0,0,0,0,0,0,0,0,0,0,0,0,0,0,0,0,0,0,0,0,0,0,0,0,0,0],"sum_hessian":[8.8777E4,5.0086E4,3.8691E4,3.2929E4,1.7157E4,3.2443E4,6.248E3,2.599E4,6.939E3,1.3653E4,3.504E3,1.6061E4,1.6382E4,3.047E3,3.201E3,5.734E3,2.0256E4,5.493E3,1.446E3,5.15E3,8.503E3,2.397E3,1.107E3,1.2989E4,3.072E3,1.266E3,1.5116E4,2.047E3,1E3,1.1E1,3.19E3,4.881E3,8.53E2,1.6671E4,3.585E3,3.225E3,2.268E3,1.04E3,4.06E2,1.118E3,4.032E3,2.491E3,6.012E3,2.026E3,3.71E2,5.42E2,5.65E2,6.856E3,6.133E3,2.34E2,2.838E3,1.207E3,5.9E1,1.4603E4,5.13E2,6.19E2,1.428E3,9.9E1,9.01E2,6.62E2,2.528E3,3.33E3,1.551E3,6.2E2,2.33E2,8.153E3,8.518E3,1.695E3,1.89E3,1.116E3,2.109E3,2.026E3,2.42E2,4.12E2,6.28E2,2.25E2,1.81E2,6.32E2,4.86E2,2.2E2,3.812E3,4.91E2,2E3,3.621E3,2.391E3,1.14E3,8.86E2,2.62E2,2.8E2,1.457E3,5.399E3,4.537E3,1.596E3,1.736E3,1.102E3,5.23E2,6.84E2,1.4E1,4.5E1,1.2004E4,2.599E3,2.99E2,2.14E2,3.11E2,3.08E2,1.109E3,3.19E2,6.3E2,2.71E2,1.04E2,5.58E2,1.57E2,2.371E3],"tree_param":{"num_deleted":"0","num_feature":"9","num_nodes":"113","size_leaf_vector":"1"}},{"base_weights":[-7.6665E-6,1.9911526E-2,-2.5793167E-2,2.428181E-2,-1.4321524E-1,5.6075536E-2,-3.0590218E-2,5.7758994E-2,3.77908E-3,4.5224655E-2,-2.1795501E-1,2.4188982E-1,-5.1809363E-2,-1.2700324E-2,-5.407209E-2,1.2413793E-1,4.1742895E-2,1.6955128E-2,-6.2997766E-2,1.4460986E-2,-2.0226775E-2,-1.7196096E-1,-2.6166487E-1,2.7109817E-1,8.353322E-3,3.4453373E-2,-1.16689056E-1,-2.7061047E-2,1.5835835E-1,2.6083522E-2,-9.7322434E-2,5.5683844E-2,2.1530008E-1,1.4257723E-1,2.5261339E-2,7.1631044E-2,-1.0931091E-2,-8.033328E-2,3.316438E-2,-1.5592972E-2,-1.8779881E-2,-2.845619E-1,-2.0138158E-2,2.9876617E-1,2.2378494E-1,-2.0262137E-2,-2.917924E-1,-1.402532E-1,6.1687003E-3,2.7169922E-1,-1.784124E-2,1.5755007E-1,-3.1912148E-2,-6.742788E-2,-2.1587011E-1,1.6883664E-2,-7.6983282E-3,2.31062E-2,-4.329239E-2,2.307116E-2,-3.780005E-2,-2.1194613E-2,4.2403652E-3,1.20708095E-2,-1.8423608E-2,6.736158E-3,-4.5148744E-3,-2.2668878E-3,-1.48097E-2,-2.6095932E-2,-2.9454192E-2,3.4080517E-2,2.7911304E-2,2.481552E-2,1.988087E-2,1.9526673E-2,-1.906917E-2,-2.2334954E-2,-3.0726595E-2,5.29015E-4,-1.819864E-2,1.5092388E-2,-4.310185E-3,2.811268E-2,-6.7908544E-4,8.182696E-3,-1.7584844E-2,6.062578E-3,3.6662757E-2,-1.135921E-3,-3.2490954E-2,-3.99618E-3,-1.9547416E-2,-8.253644E-3,-3.008551E-2],"categories":[2,4,5,2,0,1,2,3,5,0,2,3,0,1,2,4,1,3,5,1,3,1,0,0,1,3,4,2,5,0,0,1,2,3,4,5,1,1,1,2,3,2,3,0,1,3,4,0,1,2,4,0,2,0,1,0,2,3,0,1,3,1,2,0,0,1,2,3,0,5,2,2,4,4,5,5,1,3,2,4,3],"categories_nodes":[0,1,2,3,4,5,6,7,9,10,11,12,13,15,16,18,21,23,26,28,29,30,31,33,34,35,36,37,41,43,44,45,46,47,48,49,50,51,52,53],"categories_segments":[0,3,4,9,12,13,16,19,21,22,23,27,29,30,31,36,37,38,41,43,47,51,53,54,55,56,58,61,63,64,68,69,70,71,73,75,76,78,79,80],"categories_sizes":[3,1,5,3,1,3,3,2,1,1,4,2,1,1,5,1,1,3,2,4,4,2,1,1,1,2,3,2,1,4,1,1,1,2,2,1,2,1,1,1],"default_left":[1,1,1,1,1,1,1,1,0,1,1,1,1,1,0,1,1,0,1,0,0,1,0,1,0,0,1,0,1,1,1,1,0,1,1,1,1,1,0,0,0,1,0,1,1,1,1,1,1,1,1,1,1,1,0,0,0,0,0,0,0,0,0,0,0,0,0,0,0,0,0,0,0,0,0,0,0,0,0,0,0,0,0,0,0,0,0,0,0,0,0,0,0,0,0],"id":13,"left_children":[1,3,5,7,9,11,13,15,17,19,21,23,25,27,29,31,33,35,37,-1,-1,39,41,43,-1,-1,45,47,49,51,53,55,57,59,61,63,65,67,-1,-1,-1,69,-1,71,73,75,77,79,81,83,85,87,89,91,93,-1,-1,-1,-1,-1,-1,-1,-1,-1,-1,-1,-1,-1,-1,-1,-1,-1,-1,-1,-1,-1,-1,-1,-1,-1,-1,-1,-1,-1,-1,-1,-1,-1,-1,-1,-1,-1,-1,-1,-1],"loss_changes":[4.5599236E1,3.571101E1,1.5197159E1,3.3481773E1,1.8417587E1,4.2952255E1,1.5353954E1,1.969252E1,2.6620201E1,9.179364E0,1.8367348E0,3.6174889E0,3.490923E1,5.096983E1,5.479465E1,2.2459766E1,2.4805346E1,3.8528545E1,3.413742E1,0E0,0E0,8.7257385E-2,6.0248184E-1,8.023567E-1,0E0,0E0,1.9681618E1,7.19968E1,3.2097637E1,4.2244705E1,3.636743E1,3.0906986E1,1.5875481E1,9.629921E1,5.2187546E1,1.0719797E2,4.4835957E1,1.8663029E1,0E0,0E0,0E0,4.1656494E-3,0E0,2.4857712E-1,1.0222435E-1,2.7696804E1,3.6982346E-1,2.638636E1,1.0554832E2,2.5696182E0,9.935814E0,3.4346687E1,2.3150732E1,2.8831013E1,2.3397095E1,0E0,0E0,0E0,0E0,0E0,0E0,0E0,0E0,0E0,0E0,0E0,0E0,0E0,0E0,0E0,0E0,0E0,0E0,0E0,0E0,0E0,0E0,0E0,0E0,0E0,0E0,0E0,0E0,0E0,0E0,0E0,0E0,0E0,0E0,0E0,0E0,0E0,0E0,0E0,0E0],"parents":[2147483647,0,0,1,1,2,2,3,3,4,4,5,5,6,6,7,7,8,8,9,9,10,10,11,11,12,12,13,13,14,14,15,15,16,16,17,17,18,18,21,21,22,22,23,23,26,26,27,27,28,28,29,29,30,30,31,31,32,32,33,33,34,34,35,35,36,36,37,37,41,41,43,43,44,44,45,45,46,46,47,47,48,48,49,49,50,50,51,51,52,52,53,53,54,54],"right_children":[2,4,6,8,10,12,14,16,18,20,22,24,26,28,30,32,34,36,38,-1,-1,40,42,44,-1,-1,46,48,50,52,54,56,58,60,62,64,66,68,-1,-1,-1,70,-1,72,74,76,78,80,82,84,86,88,90,92,94,-1,-1,-1,-1,-1,-1,-1,-1,-1,-1,-1,-1,-1,-1,-1,-1,-1,-1,-1,-1,-1,-1,-1,-1,-1,-1,-1,-1,-1,-1,-1,-1,-1,-1,-1,-1,-1,-1,-1,-1],"split_conditions":[1E-45,1E-45,1E-45,1E-45,1E-45,1E-45,1E-45,1E-45,3E0,1E-45,1E-45,1E-45,1E-45,1E-45,3E0,1E-45,1E-45,2E0,1E-45,1.4460986E-2,-2.0226775E-2,1E-45,3E0,1E-45,8.353322E-3,3.4453373E-2,1E-45,3E0,1E-45,1E-45,1E-45,1E-45,3E0,1E-45,1E-45,1E-45,1E-45,1E-45,3.316438E-2,-1.5592972E-2,-1.8779881E-2,1E-45,-2.0138158E-2,1E-45,1E-45,1E-45,1E-45,1E-45,1E-45,1E-45,1E-45,1E-45,1E-45,1E-45,2E0,1.6883664E-2,-7.6983282E-3,2.31062E-2,-4.329239E-2,2.307116E-2,-3.780005E-2,-2.1194613E-2,4.2403652E-3,1.20708095E-2,-1.8423608E-2,6.736158E-3,-4.5148744E-3,-2.2668878E-3,-1.48097E-2,-2.6095932E-2,-2.9454192E-2,3.4080517E-2,2.7911304E-2,2.481552E-2,1.988087E-2,1.9526673E-2,-1.906917E-2,-2.2334954E-2,-3.0726595E-2,5.29015E-4,-1.819864E-2,1.5092388E-2,-4.310185E-3,2.811268E-2,-6.7908544E-4,8.182696E-3,-1.7584844E-2,6.062578E-3,3.6662757E-2,-1.135921E-3,-3.2490954E-2,-3.99618E-3,-1.9547416E-2,-8.253644E-3,-3.008551E-2],"split_indices":[4,1,1,7,6,7,7,0,5,0,3,4,4,6,5,3,4,8,2,0,0,0,5,0,0,0,0,5,0,0,0,4,8,2,3,0,0,0,0,0,0,0,0,0,6,4,4,0,4,1,1,2,0,7,8,0,0,0,0,0,0,0,0,0,0,0,0,0,0,0,0,0,0,0,0,0,0,0,0,0,0,0,0,0,0,0,0,0,0,0,0,0,0,0,0],"split_type":[1,1,1,1,1,1,1,1,0,1,1,1,1,1,0,1,1,0,1,0,0,1,0,1,0,0,1,0,1,1,1,1,0,1,1,1,1,1,0,0,0,1,0,1,1,1,1,1,1,1,1,1,1,1,0,0,0,0,0,0,0,0,0,0,0,0,0,0,0,0,0,0,0,0,0,0,0,0,0,0,0,0,0,0,0,0,0,0,0,0,0,0,0,0,0],"sum_hessian":[8.8777E4,5.0086E4,3.8691E4,4.878E4,1.306E3,2.141E3,3.655E4,1.8527E4,3.0253E4,3.71E2,9.35E2,7.86E2,1.355E3,2.0746E4,1.5804E4,3.6E3,1.4927E4,2.5268E4,4.985E3,2.65E2,1.06E2,4.58E2,4.77E2,6.63E2,1.23E2,1.9E2,1.165E3,1.914E4,1.606E3,5.539E3,1.0265E4,2.057E3,1.543E3,2.096E3,1.2831E4,8.534E3,1.6734E4,4.776E3,2.09E2,2.33E2,2.25E2,3.43E2,1.34E2,4.15E2,2.48E2,7.52E2,4.13E2,4.343E3,1.4797E4,9.77E2,6.29E2,1.695E3,3.844E3,8.199E3,2.066E3,1.11E3,9.47E2,1.507E3,3.6E1,1.793E3,3.03E2,8.64E2,1.1967E4,7.161E3,1.373E3,5.089E3,1.1645E4,2.581E3,2.195E3,1.1E2,2.33E2,1.27E2,2.88E2,1.21E2,1.27E2,3.32E2,4.2E2,7.9E1,3.34E2,9.68E2,3.375E3,3.757E3,1.104E4,9.45E2,3.2E1,3.86E2,2.43E2,1.159E3,5.36E2,3.593E3,2.51E2,6.752E3,1.447E3,8.05E2,1.261E3],"tree_param":{"num_deleted":"0","num_feature":"9","num_nodes":"95","size_leaf_vector":"1"}},{"base_weights":[-7.931594E-6,1.791744E-2,-2.321242E-2,-1.1692642E-3,5.4548007E-2,-1.4804335E-2,-6.68624E-2,-2.1939825E-2,7.6618746E-2,-5.3485003E-3,9.425507E-2,-4.4274103E-2,1.4088921E-2,2.6839077E-2,-1.5603642E-1,4.611524E-2,-4.1205946E-2,1.0717706E-1,-3.9458625E-2,6.303691E-2,-2.6415727E-1,1.4430952E-1,1.9495273E-2,-3.351098E-2,-1.902143E-1,1.1154434E-1,-3.6593887E-3,8.057102E-2,-1.03743404E-1,-1.1149447E-1,-1.6784553E-1,7.938966E-2,-1.4415623E-1,-2.2349022E-2,-1.2886392E-1,1.80485E-1,2.902659E-3,6.0362957E-2,-2.9467928E-1,8.7826364E-2,-2.6360902E-1,4.166528E-2,-2.8861514E-1,-8.13773E-3,2.0057565E-1,-2.1313056E-1,8.754114E-2,1.6943398E-3,-7.712537E-2,-1.7014705E-1,-2.2734506E-2,3.510103E-2,2.5481382E-1,-1.774694E-1,6.508013E-3,1.7504244E-1,4.2509463E-2,2.1682227E-2,-1.4419001E-1,2.0489663E-2,-1.1705284E-1,-1.5377302E-1,-1.8837811E-1,2.5375275E-2,3.8293656E-3,1.5363581E-2,-4.2078417E-2,1.9207655E-3,-6.2122564E-3,-2.1525417E-3,-2.2506552E-2,2.2167526E-2,1.58594E-2,4.5275753E-3,-3.5056718E-2,2.0765485E-2,-4.1224086E-4,-1.6910205E-2,-4.4899676E-2,2.560628E-2,3.0649172E-3,1.1953528E-3,-2.7104873E-2,-3.4249138E-2,-2.0304067E-2,2.7410785E-2,-1.708614E-2,2.8756363E-2,1.622203E-2,7.5768004E-3,-3.2478485E-2,1.183661E-2,-2.4505561E-2,1.3405039E-2,-3.0822454E-3,6.427966E-2,-8.916162E-3,-1.6644586E-2,-1.9331057E-2,2.7404508E-2,-4.0001883E-3,3.772409E-2,1.8530456E-2,-9.8835165E-3,-2.8558979E-2,2.4183483E-3,-7.542257E-3,2.1637104E-2,1.327461E-2,9.003359E-3,-1.3910614E-2,-1.0127601E-2,-2.2554362E-2,-5.877454E-3,-1.2779017E-2,-8.187213E-3,-1.5796276E-2,-1.6903147E-2,-2.2183232E-2],"categories":[2,4,5,0,1,0,1,4,5,0,2,4,2,3,1,2,3,4,4,2,4,1,2,3,1,3,4,2,0,0,3,1,0,5,0,0,4,0,0,2,3,2,5,2,4,0,1,4,3,1,3,0,3,0,2,3,5,1,1,3,3,0,1,3,4,0,4,3,1,2,4,5,0,1,2,0,1,2,5,2,5,0,0,1,4,5,0,1,2,4,4,1,3,0,1,2,3,0,0,5,0,1,2,2],"categories_nodes":[0,1,2,4,6,7,8,9,10,11,12,13,14,15,16,17,18,20,22,23,24,25,27,28,29,30,31,32,33,34,35,36,37,38,39,40,43,44,45,46,47,48,49,51,52,53,54,55,58,60,61,62],"categories_segments":[0,3,4,5,6,9,12,14,15,18,19,21,24,27,28,29,31,32,34,35,36,37,38,41,43,44,45,48,49,51,53,57,58,60,61,65,67,68,72,73,75,79,81,82,86,90,91,93,97,98,100,103],"categories_sizes":[3,1,1,1,3,3,2,1,3,1,2,3,3,1,1,2,1,2,1,1,1,1,3,2,1,1,3,1,2,2,4,1,2,1,4,2,1,4,1,2,4,2,1,4,4,1,2,4,1,2,3,1],"default_left":[1,1,1,0,1,0,1,1,1,1,1,1,1,1,1,1,1,1,1,0,1,0,1,1,1,1,0,1,1,1,1,1,1,1,1,1,1,1,1,1,1,0,0,1,1,1,1,1,1,1,0,1,1,1,1,1,0,0,1,0,1,1,1,0,0,0,0,0,0,0,0,0,0,0,0,0,0,0,0,0,0,0,0,0,0,0,0,0,0,0,0,0,0,0,0,0,0,0,0,0,0,0,0,0,0,0,0,0,0,0,0,0,0,0,0,0,0,0,0],"id":14,"left_children":[1,3,5,7,9,11,13,15,17,19,21,23,25,27,29,31,33,35,37,39,41,43,45,47,49,51,53,55,57,59,61,63,65,67,69,71,73,75,77,79,81,-1,83,85,87,89,91,93,95,97,-1,99,101,103,105,107,109,-1,111,-1,113,115,117,-1,-1,-1,-1,-1,-1,-1,-1,-1,-1,-1,-1,-1,-1,-1,-1,-1,-1,-1,-1,-1,-1,-1,-1,-1,-1,-1,-1,-1,-1,-1,-1,-1,-1,-1,-1,-1,-1,-1,-1,-1,-1,-1,-1,-1,-1,-1,-1,-1,-1,-1,-1,-1,-1,-1,-1],"loss_changes":[3.6927547E1,3.501873E1,1.4199465E1,5.3206707E1,4.0807613E1,2.7625961E1,5.22192E1,3.408019E1,2.4621292E1,1.21093765E2,3.8607765E1,2.5223373E1,2.8337576E1,2.13945E1,1.665535E0,3.6320724E1,3.348112E1,4.199639E1,3.6882328E1,4.3846123E1,2.3931435E1,5.3011307E1,6.553583E1,2.297059E1,7.831764E-1,2.7633886E1,2.4494495E1,7.7593336E0,1.1557856E1,1.2092924E0,7.017746E-1,3.497287E1,7.041511E1,2.7557615E1,3.7024673E1,2.873726E0,3.400007E1,9.888452E0,7.8112297E0,4.8386787E1,7.863827E-1,0E0,6.2974625E0,7.660888E1,1.5014099E1,3.0249195E1,3.286706E1,3.5635242E1,5.7957928E1,2.955246E-2,0E0,2.9567024E1,7.4017143E0,6.484276E0,1.89655E1,1.055069E0,1.3313085E1,0E0,2.7352123E0,0E0,4.073639E-1,4.407425E-1,6.252632E-1,0E0,0E0,0E0,0E0,0E0,0E0,0E0,0E0,0E0,0E0,0E0,0E0,0E0,0E0,0E0,0E0,0E0,0E0,0E0,0E0,0E0,0E0,0E0,0E0,0E0,0E0,0E0,0E0,0E0,0E0,0E0,0E0,0E0,0E0,0E0,0E0,0E0,0E0,0E0,0E0,0E0,0E0,0E0,0E0,0E0,0E0,0E0,0E0,0E0,0E0,0E0,0E0,0E0,0E0,0E0,0E0],"parents":[2147483647,0,0,1,1,2,2,3,3,4,4,5,5,6,6,7,7,8,8,9,9,10,10,11,11,12,12,13,13,14,14,15,15,16,16,17,17,18,18,19,19,20,20,21,21,22,22,23,23,24,24,25,25,26,26,27,27,28,28,29,29,30,30,31,31,32,32,33,33,34,34,35,35,36,36,37,37,38,38,39,39,40,40,42,42,43,43,44,44,45,45,46,46,47,47,48,48,49,49,51,51,52,52,53,53,54,54,55,55,56,56,58,58,60,60,61,61,62,62],"right_children":[2,4,6,8,10,12,14,16,18,20,22,24,26,28,30,32,34,36,38,40,42,44,46,48,50,52,54,56,58,60,62,64,66,68,70,72,74,76,78,80,82,-1,84,86,88,90,92,94,96,98,-1,100,102,104,106,108,110,-1,112,-1,114,116,118,-1,-1,-1,-1,-1,-1,-1,-1,-1,-1,-1,-1,-1,-1,-1,-1,-1,-1,-1,-1,-1,-1,-1,-1,-1,-1,-1,-1,-1,-1,-1,-1,-1,-1,-1,-1,-1,-1,-1,-1,-1,-1,-1,-1,-1,-1,-1,-1,-1,-1,-1,-1,-1,-1,-1,-1],"split_conditions":[1E-45,1E-45,1E-45,3E0,1E-45,3E0,1E-45,1E-45,1E-45,1E-45,1E-45,1E-45,1E-45,1E-45,1E-45,1E-45,1E-45,1E-45,1E-45,3E0,1E-45,2E0,1E-45,1E-45,1E-45,1E-45,3E0,1E-45,1E-45,1E-45,1E-45,1E-45,1E-45,1E-45,1E-45,1E-45,1E-45,1E-45,1E-45,1E-45,1E-45,4.166528E-2,3E0,1E-45,1E-45,1E-45,1E-45,1E-45,1E-45,1E-45,-2.2734506E-2,1E-45,1E-45,1E-45,1E-45,1E-45,3E0,2.1682227E-2,1E-45,2.0489663E-2,1E-45,1E-45,1E-45,2.5375275E-2,3.8293656E-3,1.5363581E-2,-4.2078417E-2,1.9207655E-3,-6.2122564E-3,-2.1525417E-3,-2.2506552E-2,2.2167526E-2,1.58594E-2,4.5275753E-3,-3.5056718E-2,2.0765485E-2,-4.1224086E-4,-1.6910205E-2,-4.4899676E-2,2.560628E-2,3.0649172E-3,1.1953528E-3,-2.7104873E-2,-3.4249138E-2,-2.0304067E-2,2.7410785E-2,-1.708614E-2,2.8756363E-2,1.622203E-2,7.5768004E-3,-3.2478485E-2,1.183661E-2,-2.4505561E-2,1.3405039E-2,-3.0822454E-3,6.427966E-2,-8.916162E-3,-1.6644586E-2,-1.9331057E-2,2.7404508E-2,-4.0001883E-3,3.772409E-2,1.8530456E-2,-9.8835165E-3,-2.8558979E-2,2.4183483E-3,-7.542257E-3,2.1637104E-2,1.327461E-2,9.003359E-3,-1.3910614E-2,-1.0127601E-2,-2.2554362E-2,-5.877454E-3,-1.2779017E-2,-8.187213E-3,-1.5796276E-2,-1.6903147E-2,-2.2183232E-2],"split_indices":[4,2,2,8,6,8,7,1,1,0,0,0,0,1,0,7,7,0,0,5,1,5,3,2,4,2,5,0,4,0,7,0,1,0,4,7,1,4,1,0,1,0,8,4,4,1,1,1,4,7,0,1,0,0,1,0,8,0,7,0,1,1,4,0,0,0,0,0,0,0,0,0,0,0,0,0,0,0,0,0,0,0,0,0,0,0,0,0,0,0,0,0,0,0,0,0,0,0,0,0,0,0,0,0,0,0,0,0,0,0,0,0,0,0,0,0,0,0,0],"split_type":[1,1,1,0,1,0,1,1,1,1,1,1,1,1,1,1,1,1,1,0,1,0,1,1,1,1,0,1,1,1,1,1,1,1,1,1,1,1,1,1,1,0,0,1,1,1,1,1,1,1,0,1,1,1,1,1,0,0,1,0,1,1,1,0,0,0,0,0,0,0,0,0,0,0,0,0,0,0,0,0,0,0,0,0,0,0,0,0,0,0,0,0,0,0,0,0,0,0,0,0,0,0,0,0,0,0,0,0,0,0,0,0,0,0,0,0,0,0,0],"sum_hessian":[8.8777E4,5.0086E4,3.8691E4,3.2929E4,1.7157E4,3.2443E4,6.248E3,2.599E4,6.939E3,6.84E3,1.0317E4,1.6061E4,1.6382E4,3.047E3,3.201E3,5.734E3,2.0256E4,5.493E3,1.446E3,5.411E3,1.429E3,6.179E3,4.138E3,1.4959E4,1.102E3,2.523E3,1.3859E4,2.159E3,8.88E2,6.73E2,2.528E3,4.881E3,8.53E2,1.6671E4,3.585E3,3.225E3,2.268E3,1.04E3,4.06E2,5.03E3,3.81E2,4.9E1,1.38E3,1.666E3,4.513E3,9.36E2,3.202E3,8.278E3,6.681E3,7.19E2,3.83E2,1.646E3,8.77E2,7.65E2,1.3094E4,6.19E2,1.54E3,9.9E1,7.89E2,1.1E1,6.62E2,1.505E3,1.023E3,9.3E2,3.951E3,4.11E2,4.42E2,8.153E3,8.518E3,1.695E3,1.89E3,1.116E3,2.109E3,2.026E3,2.42E2,3.16E2,7.24E2,2.25E2,1.81E2,1.275E3,3.755E3,1E1,3.71E2,8.45E2,5.35E2,6.09E2,1.057E3,1.379E3,3.134E3,2.61E2,6.75E2,2.931E3,2.71E2,1.632E3,6.646E3,1.09E2,6.572E3,6.27E2,9.2E1,3.93E2,1.253E3,3.16E2,5.61E2,4.44E2,3.21E2,1.0771E4,2.323E3,3.11E2,3.08E2,1.221E3,3.19E2,5.18E2,2.71E2,1.04E2,5.58E2,8.4E1,1.421E3,6.52E2,3.71E2],"tree_param":{"num_deleted":"0","num_feature":"9","num_nodes":"119","size_leaf_vector":"1"}},{"base_weights":[-7.724188E-6,1.6124638E-2,-2.0891152E-2,-1.054175E-3,4.9093645E-2,-1.332257E-2,-6.018291E-2,-1.9746862E-2,6.895198E-2,-4.815137E-3,8.4831275E-2,-3.9846268E-2,1.2682246E-2,2.4161413E-2,-1.4045191E-1,4.7786932E-2,-3.587935E-2,9.646071E-2,-3.554142E-2,5.6733727E-2,-2.3775055E-1,1.4440161E-1,3.2417804E-2,-2.1811707E-2,-1.160679E-1,1.4858711E-1,1.2908239E-3,7.739063E-2,-8.476726E-2,-1.003423E-1,-1.5108591E-1,9.588683E-2,-1.2236889E-1,-1.9090306E-2,-1.1566697E-1,1.6244827E-1,2.5989409E-3,5.4346204E-2,-2.6536322E-1,7.9049416E-2,-2.3731595E-1,3.758208E-2,-2.5979313E-1,1.8072087E-1,-1.23553686E-1,5.792082E-2,-3.867442E-1,-5.565195E-4,-9.951864E-2,1.9336239E-2,-1.416403E-1,1.6740657E-1,-2.3278807E-1,3.6057588E-2,-2.2123199E-2,1.1543568E-1,-1.2695189E-2,1.9535689E-2,-1.15729176E-1,1.8611444E-2,-1.0537569E-1,-1.3841164E-1,-1.6957846E-1,2.2773331E-2,-2.1052298E-3,1.6531468E-3,-5.9994012E-2,2.0580809E-3,-5.666921E-3,-1.9769794E-3,-2.0059567E-2,1.9952761E-2,1.427421E-2,4.0750415E-3,-3.156547E-2,1.8695487E-2,-3.7107526E-4,-1.5226665E-2,-4.043438E-2,2.304766E-2,2.7585062E-3,1.086688E-3,-2.4401674E-2,-3.0828273E-2,-1.827745E-2,2.7782401E-2,1.4600343E-2,1.4872531E-2,-1.2619375E-2,-1.3704832E-2,1.0263283E-2,-4.0610064E-2,1.8511517E-2,8.279238E-3,-3.883899E-3,1.4793918E-2,-2.0619174E-2,-6.4254287E-3,-1.561132E-2,2.0988338E-2,1.3466899E-2,-2.3849313E-3,-2.9585967E-2,9.963744E-3,-2.5961924E-2,1.6356867E-3,-1.7699424E-2,-1.5208008E-3,1.9268384E-2,3.3978127E-2,-3.792754E-2,