{"learner":{"attributes":{"scikit_learn":"{\"_estimator_type\": \"regressor\"}"},"feature_names":["position","rank_tier","duration_bucket","a_dmg","a_role","a_cc","a_utility","a_range","b_dmg","b_role","b_cc","b_utility","b_range"],"feature_types":["c","c","c","c","c","c","c","c","c","c","c","c","c"],"gradient_booster":{"model":{"cats":{"enc":[{"offsets":[0,6,12,18,21,28],"values":[66,79,84,84,79,77,74,85,78,71,76,69,77,73,68,68,76,69,84,79,80,85,84,73,76,73,84,89]},{"offsets":[0,10,17,24,35,41,48],"values":[67,72,65,76,76,69,78,71,69,82,68,73,65,77,79,78,68,69,77,69,82,65,76,68,71,82,65,78,68,77,65,83,84,69,82,77,65,83,84,69,82,85,78,75,78,79,87,78]},{"offsets":[0,10,22,31],"values":[69,65,82,76,89,95,48,95,50,53,76,65,84,69,95,51,53,95,80,76,85,83,77,73,68,95,50,53,95,51,53]},{"offsets":[0,2,4],"values":[65,68,65,80]},{"offsets":[0,8,15,19,27,34,38],"values":[65,83,83,65,83,83,73,78,70,73,71,72,84,69,82,77,65,71,69,77,65,82,75,83,77,65,78,83,85,80,80,79,82,84,84,65,78,75]},{"type":15,"values":[1,2,3]},{"type":15,"values":[1,2,3]},{"type":15,"values":[1,2,3]},{"offsets":[0,2,4],"values":[65,68,65,80]},{"offsets":[0,8,15,19,27,34,38],"values":[65,83,83,65,83,83,73,78,70,73,71,72,84,69,82,77,65,71,69,77,65,82,75,83,77,65,78,83,85,80,80,79,82,84,84,65,78,75]},{"type":15,"values":[1,2,3]},{"type":15,"values":[1,2,3]},{"type":15,"values":[1,2,3]}],"feature_segments":[0,5,11,14,16,22,25,28,31,33,39,42,45,48],"sorted_idx":[0,1,2,3,4,0,1,2,3,4,5,0,1,2,0,1,0,1,2,3,4,5,0,1,2,0,1,2,0,1,2,0,1,0,1,2,3,4,5,0,1,2,0,1,2,0,1,2]},"gbtree_model_param":{"num_parallel_tree":"1","num_trees":"100"},"iteration_indptr":[0,1,2,3,4,5,6,7,8,9,10,11,12,13,14,15,16,17,18,19,20,21,22,23,24,25,26,27,28,29,30,31,32,33,34,35,36,37,38,39,40,41,42,43,44,45,46,47,48,49,50,51,52,53,54,55,56,57,58,59,60,61,62,63,64,65,66,67,68,69,70,71,72,73,74,75,76,77,78,79,80,81,82,83,84,85,86,87,88,89,90,91,92,93,94,95,96,97,98,99,100],"tree_info":[0,0,0,0,0,0,0,0,0,0,0,0,0,0,0,0,0,0,0,0,0,0,0,0,0,0,0,0,0,0,0,0,0,0,0,0,0,0,0,0,0,0,0,0,0,0,0,0,0,0,0,0,0,0,0,0,0,0,0,0,0,0,0,0,0,0,0,0,0,0,0,0,0,0,0,0,0,0,0,0,0,0,0,0,0,0,0,0,0,0,0,0,0,0,0,0,0,0,0,0],"trees":[{"base_weights":[3.4483454E-9,2.117322E-2,-2.320385E-2,1.3513269E-1,1.3447156E-2,-1.4075405E-2,-1.8611261E-1,1.8933715E-1,-1.3828996E-1,9.474236E-2,7.13805E-3,9.252816E-4,-5.436816E-2,-5.473526E-2,-2.8570634E-1,2.7999848E-1,1.1907444E-1,-6.3485794E-2,-3.3192727E-1,1.6902792E-1,-1.6109546E-1,-4.186724E-3,5.0074834E-2,2.4335537E-2,-4.813326E-2,2.8989892E-2,-8.143392E-2,1.14011735E-1,-2.2502904E-1,-3.3047202E-1,3.049142E-1,3.4404957E-1,6.018112E-2,8.5451454E-2,2.218214E-1,-1.5120478E-1,2.6131028E-1,2.5192171E-2,-4.178876E-2,1.2501986E-1,3.744387E-1,1.5982746E-1,-2.5479883E-1,1.0744363E-2,-4.445913E-2,1.13813736E-1,-1.6828306E-2,3.651935E-2,-4.6609934E-2,-3.900643E-2,-1.8975718E-1,5.3789224E-2,-3.704552E-1,-1.1948726E-1,1.3586605E-2,-3.4904893E-2,2.1990706E-1,-3.0405637E-2,-3.0715987E-1,-2.2025126E-1,-4.554552E-1,3.0750412E-2,7.7471957E-3,4.028098E-2,6.5958366E-4,3.7544444E-2,-4.0361892E-2,2.4087762E-2,-5.268703E-4,4.5170266E-2,-1.1061196E-2,-2.775892E-2,1.3031556E-2,2.7825324E-2,-1.8177213E-2,3.027456E-2,-9.135586E-3,-2.9003108E-2,1.562667E-2,4.2110886E-2,2.8584697E-3,3.9467566E-2,-3.2661647E-2,-1.3451079E-2,-3.9456908E-2,4.1662734E-3,-1.4411354E-3,-2.3843062E-3,-2.6928863E-2,2.3322267E-2,3.7305423E-3,5.2526155E-3,-1.2706796E-2,4.4655222E-3,-1.0129864E-2,5.8516683E-3,-2.4719993E-2,-4.9846093E-3,4.9067005E-3,5.248107E-4,-2.6039783E-2,8.7823E-3,-1.3663306E-2,-4.4926677E-2,3.2618627E-2,-8.556384E-3,-2.0418156E-2,1.3805565E-2,-2.0832002E-2,7.6290923E-3,-2.8293068E-2,3.1829875E-2,1.3279607E-2,-2.377954E-2,3.891842E-2,-2.0029875E-2,-4.6207055E-2,4.114422E-2,-2.6467526E-2,-1.1772974E-2,-4.644595E-2],"categories":[0,1,2,3,4,5,2,2,2,3,4,5,2,4,2,3,4,5,0,1,4,2,5,2,1,4,0,2,3,4,0,3,1,1,2,1,1,2,4,2,0,2,3,2,3,0,1,4,5,1,0,0,1,2,1,4,1,3,4,2,3,4,5,2,3,5,0,4,5,0,1,2,4,5,1,2,3,4,5,2,3,0,0,3,4,5,1,0,2,3,4,1,2,3,4,5,0,2,3,1,1,3,5,3,2,1,1,1,0,2,3,4,5,0,0,2,3,4,0,1,2],"categories_nodes":[0,1,2,3,4,5,6,7,8,9,10,11,12,13,14,15,16,17,18,19,20,21,22,23,24,25,26,27,28,29,30,31,32,33,34,35,36,37,39,40,41,42,43,44,45,46,47,48,49,50,51,52,53,54,55,56,57,58,59,60],"categories_segments":[0,1,6,7,8,12,14,18,19,21,23,24,26,30,32,33,34,35,36,39,40,43,45,49,50,51,52,53,54,56,59,63,66,69,74,79,80,81,82,83,86,87,88,89,91,96,97,98,99,100,103,104,105,106,107,108,113,114,115,118],"categories_sizes":[1,5,1,1,4,2,4,1,2,2,1,2,4,2,1,1,1,1,3,1,3,2,4,1,1,1,1,1,2,3,4,3,3,5,5,1,1,1,1,3,1,1,1,2,5,1,1,1,1,3,1,1,1,1,1,5,1,1,3,3],"default_left":[1,1,1,1,1,1,1,1,1,1,1,1,1,1,1,1,1,1,1,1,1,1,1,1,1,1,1,1,1,1,1,1,1,1,1,1,1,1,0,1,1,1,1,1,1,1,1,1,1,1,1,1,1,1,1,1,1,1,1,1,1,0,0,0,0,0,0,0,0,0,0,0,0,0,0,0,0,0,0,0,0,0,0,0,0,0,0,0,0,0,0,0,0,0,0,0,0,0,0,0,0,0,0,0,0,0,0,0,0,0,0,0,0,0,0,0,0,0,0,0,0],"id":0,"left_children":[1,3,5,7,9,11,13,15,17,19,21,23,25,27,29,31,33,35,37,39,41,43,45,47,49,51,53,55,57,59,61,63,65,67,69,71,73,75,-1,77,79,81,83,85,87,89,91,93,95,97,99,101,103,105,107,109,111,113,115,117,119,-1,-1,-1,-1,-1,-1,-1,-1,-1,-1,-1,-1,-1,-1,-1,-1,-1,-1,-1,-1,-1,-1,-1,-1,-1,-1,-1,-1,-1,-1,-1,-1,-1,-1,-1,-1,-1,-1,-1,-1,-1,-1,-1,-1,-1,-1,-1,-1,-1,-1,-1,-1,-1,-1,-1,-1,-1,-1,-1,-1],"loss_changes":[2.4333804E2,2.2801834E2,3.5142233E2,2.4372339E2,1.2439656E2,1.3525513E2,1.6404916E2,8.73837E1,3.939228E1,3.3198856E2,1.0944084E2,1.8728152E2,1.3697093E2,1.5543298E2,1.8866748E2,8.4329834E1,2.6695923E1,5.5995415E1,2.3279686E1,1.22324066E2,1.1825203E2,1.0709273E2,2.0031465E2,9.5423035E1,6.8083E1,1.474307E2,1.6571234E2,4.285362E1,4.302118E1,9.123285E1,2.7247238E-1,9.19834E1,1.9798604E2,8.2177734E1,1.4570688E2,5.507809E1,3.1885548E0,4.8152075E0,0E0,1.4465E2,3.8532776E1,1.0168869E2,5.110794E1,1.010552E2,2.2327097E2,2.1976154E2,1.7523642E2,1.0564269E2,3.412077E2,4.7249855E1,4.3930786E1,9.082083E1,4.7912506E1,9.400253E1,3.6202313E2,3.1186338E1,1.3568474E1,6.970745E1,3.1244034E1,9.902864E1,9.390625E0,0E0,0E0,0E0,0E0,0E0,0E0,0E0,0E0,0E0,0E0,0E0,0E0,0E0,0E0,0E0,0E0,0E0,0E0,0E0,0E0,0E0,0E0,0E0,0E0,0E0,0E0,0E0,0E0,0E0,0E0,0E0,0E0,0E0,0E0,0E0,0E0,0E0,0E0,0E0,0E0,0E0,0E0,0E0,0E0,0E0,0E0,0E0,0E0,0E0,0E0,0E0,0E0,0E0,0E0,0E0,0E0,0E0,0E0,0E0,0E0],"parents":[2147483647,0,0,1,1,2,2,3,3,4,4,5,5,6,6,7,7,8,8,9,9,10,10,11,11,12,12,13,13,14,14,15,15,16,16,17,17,18,18,19,19,20,20,21,21,22,22,23,23,24,24,25,25,26,26,27,27,28,28,29,29,30,30,31,31,32,32,33,33,34,34,35,35,36,36,37,37,39,39,40,40,41,41,42,42,43,43,44,44,45,45,46,46,47,47,48,48,49,49,50,50,51,51,52,52,53,53,54,54,55,55,56,56,57,57,58,58,59,59,60,60],"right_children":[2,4,6,8,10,12,14,16,18,20,22,24,26,28,30,32,34,36,38,40,42,44,46,48,50,52,54,56,58,60,62,64,66,68,70,72,74,76,-1,78,80,82,84,86,88,90,92,94,96,98,100,102,104,106,108,110,112,114,116,118,120,-1,-1,-1,-1,-1,-1,-1,-1,-1,-1,-1,-1,-1,-1,-1,-1,-1,-1,-1,-1,-1,-1,-1,-1,-1,-1,-1,-1,-1,-1,-1,-1,-1,-1,-1,-1,-1,-1,-1,-1,-1,-1,-1,-1,-1,-1,-1,-1,-1,-1,-1,-1,-1,-1,-1,-1,-1,-1,-1,-1],"split_conditions":[1E-45,1E-45,1E-45,1E-45,1E-45,1E-45,1E-45,1E-45,1E-45,1E-45,1E-45,1E-45,1E-45,1E-45,1E-45,1E-45,1E-45,1E-45,1E-45,1E-45,1E-45,1E-45,1E-45,1E-45,1E-45,1E-45,1E-45,1E-45,1E-45,1E-45,1E-45,1E-45,1E-45,1E-45,1E-45,1E-45,1E-45,1E-45,-4.178876E-2,1E-45,1E-45,1E-45,1E-45,1E-45,1E-45,1E-45,1E-45,1E-45,1E-45,1E-45,1E-45,1E-45,1E-45,1E-45,1E-45,1E-45,1E-45,1E-45,1E-45,1E-45,1E-45,3.0750412E-2,7.7471957E-3,4.028098E-2,6.5958366E-4,3.7544444E-2,-4.0361892E-2,2.4087762E-2,-5.268703E-4,4.5170266E-2,-1.1061196E-2,-2.775892E-2,1.3031556E-2,2.7825324E-2,-1.8177213E-2,3.027456E-2,-9.135586E-3,-2.9003108E-2,1.562667E-2,4.2110886E-2,2.8584697E-3,3.9467566E-2,-3.2661647E-2,-1.3451079E-2,-3.9456908E-2,4.1662734E-3,-1.4411354E-3,-2.3843062E-3,-2.6928863E-2,2.3322267E-2,3.7305423E-3,5.2526155E-3,-1.2706796E-2,4.4655222E-3,-1.0129864E-2,5.8516683E-3,-2.4719993E-2,-4.9846093E-3,4.9067005E-3,5.248107E-4,-2.6039783E-2,8.7823E-3,-1.3663306E-2,-4.4926677E-2,3.2618627E-2,-8.556384E-3,-2.0418156E-2,1.3805565E-2,-2.0832002E-2,7.6290923E-3,-2.8293068E-2,3.1829875E-2,1.3279607E-2,-2.377954E-2,3.891842E-2,-2.0029875E-2,-4.6207055E-2,4.114422E-2,-2.6467526E-2,-1.1772974E-2,-4.644595E-2],"split_indices":[12,4,9,1,9,4,4,3,0,4,11,1,1,1,2,7,11,12,9,7,1,0,4,2,10,7,7,2,0,0,1,1,1,1,1,10,0,2,0,3,1,7,6,2,4,1,2,11,0,6,4,0,11,11,10,0,1,2,1,4,1,0,0,0,0,0,0,0,0,0,0,0,0,0,0,0,0,0,0,0,0,0,0,0,0,0,0,0,0,0,0,0,0,0,0,0,0,0,0,0,0,0,0,0,0,0,0,0,0,0,0,0,0,0,0,0,0,0,0,0,0],"split_type":[1,1,1,1,1,1,1,1,1,1,1,1,1,1,1,1,1,1,1,1,1,1,1,1,1,1,1,1,1,1,1,1,1,1,1,1,1,1,0,1,1,1,1,1,1,1,1,1,1,1,1,1,1,1,1,1,1,1,1,1,1,0,0,0,0,0,0,0,0,0,0,0,0,0,0,0,0,0,0,0,0,0,0,0,0,0,0,0,0,0,0,0,0,0,0,0,0,0,0,0,0,0,0,0,0,0,0,0,0,0,0,0,0,0,0,0,0,0,0,0,0],"sum_hessian":[4.95292E5,2.58978E5,2.36314E5,1.6442E4,2.42536E5,2.23776E5,1.2538E4,1.3722E4,2.72E3,1.7466E4,2.2507E5,1.63068E5,6.0708E4,5.407E3,7.131E3,5.99E3,7.732E3,1.963E3,7.57E2,1.3536E4,3.93E3,1.78097E5,4.6973E4,1.10391E5,5.2677E4,1.488E4,4.5828E4,2.716E3,2.691E3,6.629E3,5.02E2,4.638E3,1.352E3,5.827E3,1.905E3,1.546E3,4.17E2,1.47E2,6.1E2,1.1149E4,2.387E3,8.88E2,3.042E3,1.29927E5,4.817E4,2.4055E4,2.2918E4,9.4212E4,1.6179E4,4.9489E4,3.188E3,1.4011E4,8.69E2,3.2723E4,1.3105E4,1.129E3,1.587E3,7.99E2,1.892E3,3.524E3,3.105E3,4.96E2,6E0,3.95E3,6.88E2,8.05E2,5.47E2,2.147E3,3.68E3,1.126E3,7.79E2,1.067E3,4.79E2,4.02E2,1.5E1,4.3E1,1.04E2,7.8E2,1.0369E4,2.103E3,2.84E2,5.99E2,2.89E2,1.636E3,1.406E3,5.8287E4,7.164E4,4.4125E4,4.045E3,9.393E3,1.4662E4,1.4068E4,8.85E3,8.8961E4,5.251E3,1.0616E4,5.563E3,4.4066E4,5.423E3,8.48E2,2.34E3,1.1887E4,2.124E3,7.81E2,8.8E1,2.3366E4,9.357E3,8.396E3,4.709E3,7.8E2,3.49E2,7.44E2,8.43E2,5.35E2,2.64E2,1.121E3,7.71E2,2.31E2,3.293E3,8.1E1,3.024E3],"tree_param":{"num_deleted":"0","num_feature":"13","num_nodes":"121","size_leaf_vector":"1"}},{"base_weights":[-1.6949379E-7,1.9056087E-2,-2.0884035E-2,1.21623665E-1,1.2102354E-2,-1.2668324E-2,-1.6750386E-1,1.704104E-1,-1.2447041E-1,4.532679E-3,6.8107784E-2,-3.385142E-3,-6.662672E-2,-4.9266662E-2,-2.571364E-1,2.52005E-1,1.07174434E-1,-5.7139788E-2,-2.9876179E-1,2.1276921E-2,-3.2396413E-2,2.9161665E-1,2.5308345E-2,1.9102821E-2,-2.9515684E-2,-3.0858372E-4,-1.4615873E-1,1.0261955E-1,-2.025451E-1,-2.9743138E-1,2.7449936E-1,3.0965343E-1,5.4160926E-2,7.6910324E-2,1.9965716E-1,-1.3609381E-1,2.3520236E-1,2.2815783E-2,-3.7616724E-1,5.445228E-2,-6.9720624E-3,8.6203076E-2,-5.936712E-2,3.215292E-1,-3.0808914E-1,-6.493335E-2,1.2719165E-1,6.267237E-2,-2.072001E-2,-1.1148003E-2,-7.827376E-2,1.1019635E-1,-1.0296022E-1,-7.7193074E-2,-3.3974567E-1,-3.1432692E-2,1.9794475E-1,-2.7346147E-2,-2.764789E-1,-1.9822197E-1,-4.099284E-1,2.768156E-1,7.0831524E-3,3.7735432E-2,6.4476915E-3,3.379466E-2,-3.633307E-2,1.5305518E-2,-7.815589E-3,4.065725E-2,-9.956496E-3,-2.4985626E-2,1.1731116E-2,2.50497E-2,-1.64731E-2,2.7315909E-2,-8.230728E-3,-3.579544E-2,-3.9049245E-2,7.875221E-3,-2.9843736E-3,-4.3368745E-3,1.03438655E-2,5.227967E-3,3.9424036E-2,-3.116996E-3,-1.5077035E-2,3.8915325E-2,1.6903928E-2,7.5562038E-3,-3.9589614E-2,9.793019E-4,-2.1107215E-2,9.65649E-3,3.914795E-2,-1.1029555E-2,8.826681E-3,5.311183E-3,-3.443566E-3,1.8511367E-3,-8.045032E-3,1.1716437E-3,-1.4370272E-2,3.1892054E-2,-4.720722E-3,-1.7661741E-2,1.5424855E-2,8.117037E-3,-1.2307976E-2,-4.3089934E-2,3.4070987E-2,6.8671587E-3,-2.5471846E-2,3.8408305E-2,1.5797785E-2,-2.1406021E-2,3.5041265E-2,-3.0005956E-2,3.7066087E-2,3.704753E-2,-2.3821576E-2,-1.0610036E-2,-4.180289E-2,2.8212706E-2,2.481513E-2],"categories":[0,1,2,3,4,5,2,2,1,1,2,3,4,5,0,1,4,0,0,1,2,2,4,5,3,4,0,3,1,1,2,1,1,2,4,2,5,2,3,4,0,1,2,4,5,3,4,1,0,2,1,4,1,3,4,2,3,4,5,2,3,4,5,0,4,5,0,2,5,1,2,3,4,5,2,3,0,1,4,3,4,5,2,1,3,4,0,1,0,2,0,0,2,1,4,3,5,0,0,1,2,3,4,2,1,0,1,2,4,0,1,2,3,4,0,1,2,0,2,3,4],"categories_nodes":[0,1,2,3,4,5,6,7,8,9,10,11,12,13,14,15,16,17,18,19,20,21,22,23,24,25,26,27,28,29,30,31,32,33,34,35,36,37,38,39,40,41,42,43,44,45,46,47,48,49,50,51,52,53,54,55,56,57,58,59,60,61],"categories_segments":[0,1,6,7,8,9,10,14,15,17,18,21,24,26,28,29,30,31,32,35,37,39,40,41,45,47,48,49,50,52,55,59,63,66,69,74,75,76,77,79,82,83,84,86,87,88,89,90,91,92,93,95,97,98,103,104,105,109,110,111,114,117],"categories_sizes":[1,5,1,1,1,1,4,1,2,1,3,3,2,2,1,1,1,1,3,2,2,1,1,4,2,1,1,1,2,3,4,4,3,3,5,1,1,1,2,3,1,1,2,1,1,1,1,1,1,1,2,2,1,5,1,1,4,1,1,3,3,4],"default_left":[1,1,1,1,1,1,1,1,1,1,1,1,1,1,1,1,1,1,1,1,1,1,1,1,1,1,1,1,1,1,1,1,1,1,1,1,1,1,1,1,1,1,1,1,1,1,1,1,1,1,1,1,1,1,1,1,1,1,1,1,1,1,0,0,0,0,0,0,0,0,0,0,0,0,0,0,0,0,0,0,0,0,0,0,0,0,0,0,0,0,0,0,0,0,0,0,0,0,0,0,0,0,0,0,0,0,0,0,0,0,0,0,0,0,0,0,0,0,0,0,0,0,0,0,0],"id":1,"left_children":[1,3,5,7,9,11,13,15,17,19,21,23,25,27,29,31,33,35,37,39,41,43,45,47,49,51,53,55,57,59,61,63,65,67,69,71,73,75,77,79,81,83,85,87,89,91,93,95,97,99,101,103,105,107,109,111,113,115,117,119,121,123,-1,-1,-1,-1,-1,-1,-1,-1,-1,-1,-1,-1,-1,-1,-1,-1,-1,-1,-1,-1,-1,-1,-1,-1,-1,-1,-1,-1,-1,-1,-1,-1,-1,-1,-1,-1,-1,-1,-1,-1,-1,-1,-1,-1,-1,-1,-1,-1,-1,-1,-1,-1,-1,-1,-1,-1,-1,-1,-1,-1,-1,-1,-1],"loss_changes":[1.9711131E2,1.8470949E2,2.8465964E2,1.9743793E2,1.0282153E2,1.1209091E2,1.3287439E2,7.0779785E1,3.1914268E1,1.3211728E2,2.7624115E2,1.1219536E2,1.7325394E2,1.2592379E2,1.5286517E2,6.831293E1,2.1628601E1,4.5364254E1,1.8876602E1,1.3777002E2,2.1321527E2,8.335269E1,2.2285541E2,1.7804996E2,7.908983E1,2.0320769E2,1.9938208E2,3.472556E1,3.4862236E1,7.391455E1,2.1768188E-1,7.69769E1,1.604237E2,6.882605E1,1.18047874E2,4.4626175E1,2.5981007E0,3.9173777E0,1.9638062E-2,1.3848969E2,3.1907605E2,1.2903287E2,1.3995877E2,4.552353E1,7.474798E0,1.4037317E2,9.2115585E1,2.1695131E2,5.4295135E1,1.3185739E2,1.4228433E2,2.8344592E2,1.7597195E2,8.0046234E1,2.4347482E2,2.5275093E1,1.1753048E1,5.6501305E1,2.8998383E1,8.026213E1,7.5999756E0,5.6533813E-3,0E0,0E0,0E0,0E0,0E0,0E0,0E0,0E0,0E0,0E0,0E0,0E0,0E0,0E0,0E0,0E0,0E0,0E0,0E0,0E0,0E0,0E0,0E0,0E0,0E0,0E0,0E0,0E0,0E0,0E0,0E0,0E0,0E0,0E0,0E0,0E0,0E0,0E0,0E0,0E0,0E0,0E0,0E0,0E0,0E0,0E0,0E0,0E0,0E0,0E0,0E0,0E0,0E0,0E0,0E0,0E0,0E0,0E0,0E0,0E0,0E0,0E0,0E0],"parents":[2147483647,0,0,1,1,2,2,3,3,4,4,5,5,6,6,7,7,8,8,9,9,10,10,11,11,12,12,13,13,14,14,15,15,16,16,17,17,18,18,19,19,20,20,21,21,22,22,23,23,24,24,25,25,26,26,27,27,28,28,29,29,30,30,31,31,32,32,33,33,34,34,35,35,36,36,37,37,38,38,39,39,40,40,41,41,42,42,43,43,44,44,45,45,46,46,47,47,48,48,49,49,50,50,51,51,52,52,53,53,54,54,55,55,56,56,57,57,58,58,59,59,60,60,61,61],"right_children":[2,4,6,8,10,12,14,16,18,20,22,24,26,28,30,32,34,36,38,40,42,44,46,48,50,52,54,56,58,60,62,64,66,68,70,72,74,76,78,80,82,84,86,88,90,92,94,96,98,100,102,104,106,108,110,112,114,116,118,120,122,124,-1,-1,-1,-1,-1,-1,-1,-1,-1,-1,-1,-1,-1,-1,-1,-1,-1,-1,-1,-1,-1,-1,-1,-1,-1,-1,-1,-1,-1,-1,-1,-1,-1,-1,-1,-1,-1,-1,-1,-1,-1,-1,-1,-1,-1,-1,-1,-1,-1,-1,-1,-1,-1,-1,-1,-1,-1,-1,-1,-1,-1,-1,-1],"split_conditions":[1E-45,1E-45,1E-45,1E-45,1E-45,1E-45,1E-45,1E-45,1E-45,1E-45,1E-45,1E-45,1E-45,1E-45,1E-45,1E-45,1E-45,1E-45,1E-45,1E-45,1E-45,1E-45,1E-45,1E-45,1E-45,1E-45,1E-45,1E-45,1E-45,1E-45,1E-45,1E-45,1E-45,1E-45,1E-45,1E-45,1E-45,1E-45,1E-45,1E-45,1E-45,1E-45,1E-45,1E-45,1E-45,1E-45,1E-45,1E-45,1E-45,1E-45,1E-45,1E-45,1E-45,1E-45,1E-45,1E-45,1E-45,1E-45,1E-45,1E-45,1E-45,1E-45,7.0831524E-3,3.7735432E-2,6.4476915E-3,3.379466E-2,-3.633307E-2,1.5305518E-2,-7.815589E-3,4.065725E-2,-9.956496E-3,-2.4985626E-2,1.1731116E-2,2.50497E-2,-1.64731E-2,2.7315909E-2,-8.230728E-3,-3.579544E-2,-3.9049245E-2,7.875221E-3,-2.9843736E-3,-4.3368745E-3,1.03438655E-2,5.227967E-3,3.9424036E-2,-3.116996E-3,-1.5077035E-2,3.8915325E-2,1.6903928E-2,7.5562038E-3,-3.9589614E-2,9.793019E-4,-2.1107215E-2,9.65649E-3,3.914795E-2,-1.1029555E-2,8.826681E-3,5.311183E-3,-3.443566E-3,1.8511367E-3,-8.045032E-3,1.1716437E-3,-1.4370272E-2,3.1892054E-2,-4.720722E-3,-1.7661741E-2,1.5424855E-2,8.117037E-3,-1.2307976E-2,-4.3089934E-2,3.4070987E-2,6.8671587E-3,-2.5471846E-2,3.8408305E-2,1.5797785E-2,-2.1406021E-2,3.5041265E-2,-3.0005956E-2,3.7066087E-2,3.704753E-2,-2.3821576E-2,-1.0610036E-2,-4.180289E-2,2.8212706E-2,2.481513E-2],"split_indices":[12,4,9,1,7,2,4,3,0,3,0,4,0,1,2,7,11,12,9,4,9,1,3,1,1,5,1,2,0,0,1,1,1,1,1,10,0,2,9,1,11,2,0,8,11,1,11,8,3,6,9,4,10,4,11,0,0,2,2,4,1,0,0,0,0,0,0,0,0,0,0,0,0,0,0,0,0,0,0,0,0,0,0,0,0,0,0,0,0,0,0,0,0,0,0,0,0,0,0,0,0,0,0,0,0,0,0,0,0,0,0,0,0,0,0,0,0,0,0,0,0,0,0,0,0],"split_type":[1,1,1,1,1,1,1,1,1,1,1,1,1,1,1,1,1,1,1,1,1,1,1,1,1,1,1,1,1,1,1,1,1,1,1,1,1,1,1,1,1,1,1,1,1,1,1,1,1,1,1,1,1,1,1,1,1,1,1,1,1,1,0,0,0,0,0,0,0,0,0,0,0,0,0,0,0,0,0,0,0,0,0,0,0,0,0,0,0,0,0,0,0,0,0,0,0,0,0,0,0,0,0,0,0,0,0,0,0,0,0,0,0,0,0,0,0,0,0,0,0,0,0,0,0],"sum_hessian":[4.95292E5,2.58978E5,2.36314E5,1.6442E4,2.42536E5,2.23776E5,1.2538E4,1.3722E4,2.72E3,2.13659E5,2.8877E4,1.90929E5,3.2847E4,5.407E3,7.131E3,5.99E3,7.732E3,1.963E3,7.57E2,1.47005E5,6.6654E4,4.64E3,2.4237E4,1.02617E5,8.8312E4,1.7912E4,1.4935E4,2.716E3,2.691E3,6.629E3,5.02E2,4.638E3,1.352E3,5.827E3,1.905E3,1.546E3,4.17E2,1.47E2,6.1E2,6.7607E4,7.9398E4,1.2349E4,5.4305E4,4.42E3,2.2E2,1.2853E4,1.1384E4,4.9003E4,5.3614E4,6.4148E4,2.4164E4,8.626E3,9.286E3,1.1013E4,3.922E3,1.129E3,1.587E3,7.99E2,1.892E3,3.524E3,3.105E3,4.96E2,6E0,3.634E3,1.004E3,8.05E2,5.47E2,3.908E3,1.919E3,1.126E3,7.79E2,1.067E3,4.79E2,4.02E2,1.5E1,4.3E1,1.04E2,2.8E2,3.3E2,5.2479E4,1.5128E4,5.9714E4,1.9684E4,1.1125E4,1.224E3,4.1503E4,1.2802E4,3.061E3,1.359E3,4.1E1,1.79E2,8.505E3,4.348E3,1.0203E4,1.181E3,6.316E3,4.2687E4,8.399E3,4.5215E4,4.4923E4,1.9225E4,1.0173E4,1.3991E4,3.708E3,4.918E3,7.219E3,2.067E3,2.474E3,8.539E3,3.459E3,4.63E2,7.8E2,3.49E2,2.79E2,1.308E3,5.35E2,2.64E2,1.826E3,6.6E1,2.31E2,3.293E3,8.1E1,3.024E3,4.11E2,8.5E1],"tree_param":{"num_deleted":"0","num_feature":"13","num_nodes":"125","size_leaf_vector":"1"}},{"base_weights":[2.1006042E-7,1.7150909E-2,-1.8795341E-2,1.0946248E-1,1.0892497E-2,-1.140153E-2,-1.5074733E-1,1.5337518E-1,-1.1204557E-1,7.841186E-2,5.652499E-3,1.0694413E-3,-4.4899322E-2,-8.185386E-2,-2.803312E-1,2.2681144E-1,9.646194E-2,-5.1428173E-2,-2.689592E-1,1.4389087E-1,-1.470951E-1,-5.9301604E-4,5.4816533E-2,2.1024887E-2,-4.0749203E-2,1.260337E-1,-5.6793977E-2,-1.7319323E-1,-2.5821295E-2,-3.361183E-1,2.5398282E-2,2.7869758E-1,4.874298E-2,6.922058E-2,1.7970756E-1,-1.22492984E-1,2.1170266E-1,2.0663138E-2,-3.38673E-1,1.93401E-1,-8.895898E-3,-4.633951E-2,-3.813851E-1,1.7691087E-2,-4.5098588E-2,3.0410367E-1,1.4428891E-2,3.4951542E-3,6.0771503E-2,-3.2263834E-2,-1.7242064E-1,3.6494195E-1,-1.4179587E-1,-4.577012E-2,-3.6712006E-1,-1.3428814E-4,-2.6656967E-1,9.658739E-2,-1.6041967E-1,-1.6256005E-1,-3.8891906E-1,3.2731544E-2,-5.0109906E-5,3.0419389E-2,-3.270639E-2,2.0150267E-2,-7.989725E-4,3.6595132E-2,-8.96212E-3,-2.2489402E-2,1.0560451E-2,3.0345216E-2,1.5362756E-2,2.46464E-2,-7.4154967E-3,-3.222863E-2,-3.515612E-2,3.8532294E-2,1.4774938E-2,1.0786177E-2,-1.9055208E-2,3.5288747E-2,-1.5320796E-2,3.262194E-2,-4.1032527E-2,3.448612E-2,1.4465242E-3,-1.8033701E-3,-1.3429922E-2,3.422604E-2,-2.92963E-2,-6.0066828E-3,1.1596403E-2,2.6482882E-3,-4.7047283E-3,1.2111065E-2,6.38782E-4,5.397475E-3,-4.073503E-3,1.8143814E-5,-2.3494381E-2,4.2331066E-2,-4.5260764E-3,3.5779003E-2,-3.4280162E-2,1.7077829E-3,-9.881669E-3,-3.9746627E-2,-2.3670534E-2,8.727165E-3,-3.7424795E-2,1.2953318E-2,-2.9837787E-2,-2.8177274E-3,1.8684374E-2,9.90929E-3,-2.3018332E-2,3.3560317E-2,-3.3370283E-2,-2.9880067E-2,-3.9136324E-2],"categories":[0,1,2,3,4,5,2,2,2,3,4,5,2,4,3,4,5,0,1,4,2,5,1,1,4,0,2,3,4,0,1,1,2,1,1,2,4,0,1,0,0,1,2,0,0,2,0,1,2,3,4,0,3,5,0,2,3,2,3,5,0,4,5,0,1,2,4,5,1,2,3,4,5,2,2,0,1,4,0,1,4,0,2,3,5,1,0,2,3,4,5,3,4,4,0,0,5,1,2,3,4,5,1,4,5,1,3,5,2,1,0,3,2,0,0,2,2,3,4,0,3],"categories_nodes":[0,1,2,3,4,5,6,7,8,9,10,11,12,13,14,15,16,17,18,19,20,21,22,23,24,25,26,27,28,29,31,32,33,34,35,36,37,38,39,40,41,42,43,44,45,46,47,48,49,50,51,52,53,54,55,56,57,58,59,60],"categories_segments":[0,1,6,7,8,12,14,17,18,20,22,23,25,29,30,31,32,33,34,37,38,39,40,43,44,45,46,47,51,54,57,60,63,68,73,74,75,76,78,79,81,85,86,91,93,94,95,97,102,105,108,109,110,112,113,114,115,116,117,119],"categories_sizes":[1,5,1,1,4,2,3,1,2,2,1,2,4,1,1,1,1,1,3,1,1,1,3,1,1,1,1,4,3,3,3,3,5,5,1,1,1,2,1,2,4,1,5,2,1,1,2,5,3,3,1,1,2,1,1,1,1,1,2,2],"default_left":[1,1,1,1,1,1,1,1,1,1,1,1,1,1,1,1,1,1,1,1,1,1,1,1,1,1,1,1,1,1,0,1,1,1,1,1,1,1,1,1,1,1,1,1,1,1,1,1,1,1,1,1,1,1,1,1,1,1,1,1,1,0,0,0,0,0,0,0,0,0,0,0,0,0,0,0,0,0,0,0,0,0,0,0,0,0,0,0,0,0,0,0,0,0,0,0,0,0,0,0,0,0,0,0,0,0,0,0,0,0,0,0,0,0,0,0,0,0,0,0,0],"id":2,"left_children":[1,3,5,7,9,11,13,15,17,19,21,23,25,27,29,31,33,35,37,39,41,43,45,47,49,51,53,55,57,59,-1,61,63,65,67,69,71,73,75,77,79,81,83,85,87,89,91,93,95,97,99,101,103,105,107,109,111,113,115,117,119,-1,-1,-1,-1,-1,-1,-1,-1,-1,-1,-1,-1,-1,-1,-1,-1,-1,-1,-1,-1,-1,-1,-1,-1,-1,-1,-1,-1,-1,-1,-1,-1,-1,-1,-1,-1,-1,-1,-1,-1,-1,-1,-1,-1,-1,-1,-1,-1,-1,-1,-1,-1,-1,-1,-1,-1,-1,-1,-1,-1],"loss_changes":[1.596614E2,1.4961713E2,2.3055383E2,1.599585E2,8.580948E1,9.3482895E1,1.1191873E2,5.7333344E1,2.5867493E1,2.5793842E2,6.9109146E1,1.3608351E2,1.2344002E2,4.1901543E1,1.2980908E2,5.533899E1,1.7523865E1,3.6751442E1,1.5311535E1,1.0240228E2,9.277762E1,1.6250801E2,2.5541373E2,7.691513E1,5.8850555E1,2.5279916E2,1.9415862E2,5.030488E1,8.364772E1,3.6052124E1,0E0,6.2970184E1,1.2998776E2,5.9526115E1,9.563928E1,3.615767E1,2.1806355E0,3.1869576E0,1.573944E-2,8.952112E1,7.030967E1,1.17382195E2,2.433908E1,1.4938795E2,1.4039084E2,8.068057E1,1.6515031E2,8.900752E1,1.108668E2,3.6156822E1,3.4414536E1,5.0012146E1,1.8720445E2,1.8274434E2,7.6113586E0,3.5740795E1,2.551448E1,2.994774E1,4.3799603E1,7.863371E1,5.4849243E-1,0E0,0E0,0E0,0E0,0E0,0E0,0E0,0E0,0E0,0E0,0E0,0E0,0E0,0E0,0E0,0E0,0E0,0E0,0E0,0E0,0E0,0E0,0E0,0E0,0E0,0E0,0E0,0E0,0E0,0E0,0E0,0E0,0E0,0E0,0E0,0E0,0E0,0E0,0E0,0E0,0E0,0E0,0E0,0E0,0E0,0E0,0E0,0E0,0E0,0E0,0E0,0E0,0E0,0E0,0E0,0E0,0E0,0E0,0E0,0E0],"parents":[2147483647,0,0,1,1,2,2,3,3,4,4,5,5,6,6,7,7,8,8,9,9,10,10,11,11,12,12,13,13,14,14,15,15,16,16,17,17,18,18,19,19,20,20,21,21,22,22,23,23,24,24,25,25,26,26,27,27,28,28,29,29,31,31,32,32,33,33,34,34,35,35,36,36,37,37,38,38,39,39,40,40,41,41,42,42,43,43,44,44,45,45,46,46,47,47,48,48,49,49,50,50,51,51,52,52,53,53,54,54,55,55,56,56,57,57,58,58,59,59,60,60],"right_children":[2,4,6,8,10,12,14,16,18,20,22,24,26,28,30,32,34,36,38,40,42,44,46,48,50,52,54,56,58,60,-1,62,64,66,68,70,72,74,76,78,80,82,84,86,88,90,92,94,96,98,100,102,104,106,108,110,112,114,116,118,120,-1,-1,-1,-1,-1,-1,-1,-1,-1,-1,-1,-1,-1,-1,-1,-1,-1,-1,-1,-1,-1,-1,-1,-1,-1,-1,-1,-1,-1,-1,-1,-1,-1,-1,-1,-1,-1,-1,-1,-1,-1,-1,-1,-1,-1,-1,-1,-1,-1,-1,-1,-1,-1,-1,-1,-1,-1,-1,-1,-1],"split_conditions":[1E-45,1E-45,1E-45,1E-45,1E-45,1E-45,1E-45,1E-45,1E-45,1E-45,1E-45,1E-45,1E-45,1E-45,1E-45,1E-45,1E-45,1E-45,1E-45,1E-45,1E-45,1E-45,1E-45,1E-45,1E-45,1E-45,1E-45,1E-45,1E-45,1E-45,2.5398282E-2,1E-45,1E-45,1E-45,1E-45,1E-45,1E-45,1E-45,1E-45,1E-45,1E-45,1E-45,1E-45,1E-45,1E-45,1E-45,1E-45,1E-45,1E-45,1E-45,1E-45,1E-45,1E-45,1E-45,1E-45,1E-45,1E-45,1E-45,1E-45,1E-45,1E-45,3.2731544E-2,-5.0109906E-5,3.0419389E-2,-3.270639E-2,2.0150267E-2,-7.989725E-4,3.6595132E-2,-8.96212E-3,-2.2489402E-2,1.0560451E-2,3.0345216E-2,1.5362756E-2,2.46464E-2,-7.4154967E-3,-3.222863E-2,-3.515612E-2,3.8532294E-2,1.4774938E-2,1.0786177E-2,-1.9055208E-2,3.5288747E-2,-1.5320796E-2,3.262194E-2,-4.1032527E-2,3.448612E-2,1.4465242E-3,-1.8033701E-3,-1.3429922E-2,3.422604E-2,-2.92963E-2,-6.0066828E-3,1.1596403E-2,2.6482882E-3,-4.7047283E-3,1.2111065E-2,6.38782E-4,5.397475E-3,-4.073503E-3,1.8143814E-5,-2.3494381E-2,4.2331066E-2,-4.5260764E-3,3.5779003E-2,-3.4280162E-2,1.7077829E-3,-9.881669E-3,-3.9746627E-2,-2.3670534E-2,8.727165E-3,-3.7424795E-2,1.2953318E-2,-2.9837787E-2,-2.8177274E-3,1.8684374E-2,9.90929E-3,-2.3018332E-2,3.3560317E-2,-3.3370283E-2,-2.9880067E-2,-3.9136324E-2],"split_indices":[12,4,9,1,9,4,4,3,0,4,7,1,0,7,2,7,11,12,9,2,5,3,0,2,10,7,7,1,1,1,0,1,1,1,1,10,2,2,9,3,0,1,10,4,0,1,3,9,1,9,4,1,10,1,11,4,6,2,2,4,1,0,0,0,0,0,0,0,0,0,0,0,0,0,0,0,0,0,0,0,0,0,0,0,0,0,0,0,0,0,0,0,0,0,0,0,0,0,0,0,0,0,0,0,0,0,0,0,0,0,0,0,0,0,0,0,0,0,0,0,0],"split_type":[1,1,1,1,1,1,1,1,1,1,1,1,1,1,1,1,1,1,1,1,1,1,1,1,1,1,1,1,1,1,0,1,1,1,1,1,1,1,1,1,1,1,1,1,1,1,1,1,1,1,1,1,1,1,1,1,1,1,1,1,1,0,0,0,0,0,0,0,0,0,0,0,0,0,0,0,0,0,0,0,0,0,0,0,0,0,0,0,0,0,0,0,0,0,0,0,0,0,0,0,0,0,0,0,0,0,0,0,0,0,0,0,0,0,0,0,0,0,0,0,0],"sum_hessian":[4.95292E5,2.58978E5,2.36314E5,1.6442E4,2.42536E5,2.23776E5,1.2538E4,1.3722E4,2.72E3,1.7466E4,2.2507E5,1.63068E5,6.0708E4,8.187E3,4.351E3,5.99E3,7.732E3,1.963E3,7.57E2,1.3536E4,3.93E3,1.99702E5,2.5368E4,1.10391E5,5.2677E4,3.949E3,5.6759E4,3.112E3,5.075E3,3.94E3,4.11E2,4.638E3,1.352E3,5.827E3,1.905E3,1.546E3,4.17E2,1.47E2,6.1E2,1.0223E4,3.313E3,2.749E3,1.181E3,1.4155E5,5.8152E4,3.536E3,2.1832E4,7.6606E4,3.3785E4,4.9489E4,3.188E3,2.087E3,1.862E3,5.4813E4,1.946E3,1.091E3,2.021E3,2.658E3,2.417E3,9.2E2,3.02E3,3.95E3,6.88E2,8.05E2,5.47E2,2.147E3,3.68E3,1.126E3,7.79E2,1.067E3,4.79E2,1.6E2,2.57E2,4.3E1,1.04E2,2.8E2,3.3E2,1.963E3,8.26E3,2.017E3,1.296E3,5.8E2,2.169E3,4.6E1,1.135E3,1.381E3,1.40169E5,4.4616E4,1.3536E4,3.324E3,2.12E2,1.2593E4,9.239E3,5.2657E4,2.3949E4,1.6015E4,1.777E4,4.426E3,4.5063E4,8.48E2,2.34E3,1.827E3,2.6E2,5.34E2,1.328E3,2.5089E4,2.9724E4,1.577E3,3.69E2,8.85E2,2.06E2,1.5E2,1.871E3,1.116E3,1.542E3,5.12E2,1.905E3,2.35E2,6.85E2,8.3E1,2.937E3],"tree_param":{"num_deleted":"0","num_feature":"13","num_nodes":"121","size_leaf_vector":"1"}},{"base_weights":[2.237621E-7,1.5436389E-2,-1.691636E-2,9.851995E-2,9.803605E-3,-1.0261576E-2,-1.3567947E-1,1.3804331E-1,-1.0084703E-1,3.5437571E-3,5.6118075E-2,-2.1691213E-3,-5.7298902E-2,-7.36737E-2,-2.5230807E-1,2.0413537E-1,8.682184E-2,-4.5280457E-2,-2.4081908E-1,1.1112302E-2,-5.1717225E-2,2.395729E-1,2.0988528E-2,1.679E-2,-2.419923E-2,6.0662262E-2,-9.556905E-2,-5.8268994E-2,-3.4677124E-1,-3.0252394E-1,2.286462E-2,3.0522737E-1,1.277384E-1,6.2301863E-2,1.6175133E-1,-1.1025139E-1,2.0423646E-1,1.8713262E-2,-3.0179346E-1,4.4634443E-2,-6.871803E-3,1.6211268E-3,-2.1973072E-1,2.6469767E-1,-2.3904708E-1,3.5814073E-2,-4.3642953E-1,5.2923646E-2,-1.6236389E-2,-2.181698E-4,-5.4580282E-2,1.4584963E-1,-2.2061138E-1,-3.8412035E-2,-2.326263E-1,9.6714005E-2,-1.10731594E-1,9.6672915E-2,-3.7736565E-2,-1.4630383E-1,-3.5005E-1,3.2633584E-2,1.047005E-2,-2.941338E-3,2.3885941E-2,1.270461E-2,-6.9545805E-3,3.293887E-2,-8.0670575E-3,-2.0242566E-2,9.506605E-3,1.5736498E-2,2.911639E-2,2.2237774E-2,-6.6810073E-3,-1.6369006E-2,-3.04916E-2,3.1680666E-2,3.4608876E-3,-2.0595943E-3,4.6081017E-3,3.0447572E-2,-4.357291E-3,-3.1576199E-3,-3.1590924E-2,3.0159315E-2,5.234148E-3,7.560109E-3,-3.1726975E-2,9.10849E-3,-4.815755E-3,-3.6564924E-2,-4.566325E-2,-1.036641E-2,7.6094368E-3,4.980575E-3,-2.8505004E-3,3.5043068E-3,-8.18714E-3,1.4437037E-4,-9.498574E-3,2.2142086E-2,-2.1875342E-2,1.2070447E-3,-3.721836E-2,-7.012892E-3,1.8468637E-2,-1.0714823E-2,-4.0534336E-2,3.308981E-2,-2.8699618E-3,6.7965277E-3,-1.7512543E-2,1.6619477E-2,-1.0659629E-2,3.177267E-2,-2.9677022E-2,-2.692763E-2,-3.5224028E-2],"categories":[0,1,2,3,4,5,2,2,1,1,3,4,5,0,1,3,4,0,0,1,2,2,4,5,1,4,5,1,1,2,2,1,1,2,4,1,2,5,1,4,5,2,1,2,4,5,2,3,4,1,4,5,2,0,2,0,0,2,3,2,3,4,5,0,0,2,5,1,2,3,4,5,2,0,0,1,4,2,3,4,5,2,1,2,3,4,5,0,1,3,4,1,1,0,4,5,0,0,0,2,1,4,1,1,4,0,0,0,1,4,1,5,1,3,4,0,3],"categories_nodes":[0,1,2,3,4,5,6,7,8,9,10,11,12,13,14,15,16,17,18,19,20,21,22,23,24,25,26,27,28,29,31,32,33,34,35,36,37,38,39,40,41,42,43,44,45,46,47,48,49,50,51,52,53,54,55,56,57,59,60],"categories_segments":[0,1,6,7,8,9,10,13,14,17,18,21,24,27,28,29,30,31,32,35,38,39,41,42,46,49,52,53,55,56,59,63,64,67,72,73,74,75,77,81,82,87,91,92,93,96,97,98,99,100,102,103,105,106,107,110,111,112,115],"categories_sizes":[1,5,1,1,1,1,3,1,3,1,3,3,3,1,1,1,1,1,3,3,1,2,1,4,3,3,1,2,1,3,4,1,3,5,1,1,1,2,4,1,5,4,1,1,3,1,1,1,1,2,1,2,1,1,3,1,1,3,2],"default_left":[1,1,1,1,1,1,1,1,1,1,1,1,1,1,1,1,1,1,1,1,1,1,1,1,1,1,1,1,1,1,0,1,1,1,1,1,1,1,1,1,1,1,1,1,1,1,1,1,1,1,1,1,1,1,1,1,1,1,0,1,1,0,0,0,0,0,0,0,0,0,0,0,0,0,0,0,0,0,0,0,0,0,0,0,0,0,0,0,0,0,0,0,0,0,0,0,0,0,0,0,0,0,0,0,0,0,0,0,0,0,0,0,0,0,0,0,0,0,0],"id":3,"left_children":[1,3,5,7,9,11,13,15,17,19,21,23,25,27,29,31,33,35,37,39,41,43,45,47,49,51,53,55,57,59,-1,61,63,65,67,69,71,73,75,77,79,81,83,85,87,89,91,93,95,97,99,101,103,105,107,109,111,113,-1,115,117,-1,-1,-1,-1,-1,-1,-1,-1,-1,-1,-1,-1,-1,-1,-1,-1,-1,-1,-1,-1,-1,-1,-1,-1,-1,-1,-1,-1,-1,-1,-1,-1,-1,-1,-1,-1,-1,-1,-1,-1,-1,-1,-1,-1,-1,-1,-1,-1,-1,-1,-1,-1,-1,-1,-1,-1,-1,-1],"loss_changes":[1.2933472E2,1.2119908E2,1.867685E2,1.2957903E2,7.03165E1,8.5180016E1,9.065901E1,4.643921E1,2.1152403E1,8.936285E1,1.8610458E2,7.974643E1,1.4829453E2,3.4426605E1,1.0517667E2,4.623024E1,1.4197521E1,3.1618437E1,1.2238232E1,1.1329263E2,2.3065305E2,5.5872345E1,1.6438495E2,1.2246146E2,6.434217E1,1.9284601E2,1.9428456E2,6.3040764E1,5.9652176E0,2.9208862E1,0E0,1.08780365E1,5.9625256E1,4.975883E1,7.748445E1,2.9296198E1,1.5961704E0,2.5927305E0,2.2004318E-1,1.7903415E2,8.888606E1,2.6742053E2,1.1222403E2,3.453647E1,5.734112E0,1.0897004E2,9.212494E-1,1.7780673E2,4.3442738E1,1.4210837E2,8.818836E1,1.7024638E2,6.599109E1,1.2387102E2,1.5814197E2,5.7603813E1,6.666032E1,4.2753363E-1,0E0,6.439942E1,4.3963623E-1,0E0,0E0,0E0,0E0,0E0,0E0,0E0,0E0,0E0,0E0,0E0,0E0,0E0,0E0,0E0,0E0,0E0,0E0,0E0,0E0,0E0,0E0,0E0,0E0,0E0,0E0,0E0,0E0,0E0,0E0,0E0,0E0,0E0,0E0,0E0,0E0,0E0,0E0,0E0,0E0,0E0,0E0,0E0,0E0,0E0,0E0,0E0,0E0,0E0,0E0,0E0,0E0,0E0,0E0,0E0,0E0,0E0,0E0],"parents":[2147483647,0,0,1,1,2,2,3,3,4,4,5,5,6,6,7,7,8,8,9,9,10,10,11,11,12,12,13,13,14,14,15,15,16,16,17,17,18,18,19,19,20,20,21,21,22,22,23,23,24,24,25,25,26,26,27,27,28,28,29,29,31,31,32,32,33,33,34,34,35,35,36,36,37,37,38,38,39,39,40,40,41,41,42,42,43,43,44,44,45,45,46,46,47,47,48,48,49,49,50,50,51,51,52,52,53,53,54,54,55,55,56,56,57,57,59,59,60,60],"right_children":[2,4,6,8,10,12,14,16,18,20,22,24,26,28,30,32,34,36,38,40,42,44,46,48,50,52,54,56,58,60,-1,62,64,66,68,70,72,74,76,78,80,82,84,86,88,90,92,94,96,98,100,102,104,106,108,110,112,114,-1,116,118,-1,-1,-1,-1,-1,-1,-1,-1,-1,-1,-1,-1,-1,-1,-1,-1,-1,-1,-1,-1,-1,-1,-1,-1,-1,-1,-1,-1,-1,-1,-1,-1,-1,-1,-1,-1,-1,-1,-1,-1,-1,-1,-1,-1,-1,-1,-1,-1,-1,-1,-1,-1,-1,-1,-1,-1,-1,-1],"split_conditions":[1E-45,1E-45,1E-45,1E-45,1E-45,1E-45,1E-45,1E-45,1E-45,1E-45,1E-45,1E-45,1E-45,1E-45,1E-45,1E-45,1E-45,1E-45,1E-45,1E-45,1E-45,1E-45,1E-45,1E-45,1E-45,1E-45,1E-45,1E-45,1E-45,1E-45,2.286462E-2,1E-45,1E-45,1E-45,1E-45,1E-45,1E-45,1E-45,1E-45,1E-45,1E-45,1E-45,1E-45,1E-45,1E-45,1E-45,1E-45,1E-45,1E-45,1E-45,1E-45,1E-45,1E-45,1E-45,1E-45,1E-45,1E-45,1E-45,-3.7736565E-2,1E-45,1E-45,3.2633584E-2,1.047005E-2,-2.941338E-3,2.3885941E-2,1.270461E-2,-6.9545805E-3,3.293887E-2,-8.0670575E-3,-2.0242566E-2,9.506605E-3,1.5736498E-2,2.911639E-2,2.2237774E-2,-6.6810073E-3,-1.6369006E-2,-3.04916E-2,3.1680666E-2,3.4608876E-3,-2.0595943E-3,4.6081017E-3,3.0447572E-2,-4.357291E-3,-3.1576199E-3,-3.1590924E-2,3.0159315E-2,5.234148E-3,7.560109E-3,-3.1726975E-2,9.10849E-3,-4.815755E-3,-3.6564924E-2,-4.566325E-2,-1.036641E-2,7.6094368E-3,4.980575E-3,-2.8505004E-3,3.5043068E-3,-8.18714E-3,1.4437037E-4,-9.498574E-3,2.2142086E-2,-2.1875342E-2,1.2070447E-3,-3.721836E-2,-7.012892E-3,1.8468637E-2,-1.0714823E-2,-4.0534336E-2,3.308981E-2,-2.8699618E-3,6.7965277E-3,-1.7512543E-2,1.6619477E-2,-1.0659629E-2,3.177267E-2,-2.9677022E-2,-2.692763E-2,-3.5224028E-2],"split_indices":[12,4,9,1,7,2,4,3,0,5,0,4,9,6,2,2,11,12,9,4,12,1,5,1,1,1,7,4,1,1,0,1,7,1,1,10,3,2,0,9,11,1,1,2,11,1,1,8,3,6,9,7,0,5,1,0,5,1,0,0,1,0,0,0,0,0,0,0,0,0,0,0,0,0,0,0,0,0,0,0,0,0,0,0,0,0,0,0,0,0,0,0,0,0,0,0,0,0,0,0,0,0,0,0,0,0,0,0,0,0,0,0,0,0,0,0,0,0,0],"split_type":[1,1,1,1,1,1,1,1,1,1,1,1,1,1,1,1,1,1,1,1,1,1,1,1,1,1,1,1,1,1,0,1,1,1,1,1,1,1,1,1,1,1,1,1,1,1,1,1,1,1,1,1,1,1,1,1,1,1,0,1,1,0,0,0,0,0,0,0,0,0,0,0,0,0,0,0,0,0,0,0,0,0,0,0,0,0,0,0,0,0,0,0,0,0,0,0,0,0,0,0,0,0,0,0,0,0,0,0,0,0,0,0,0,0,0,0,0,0,0],"sum_hessian":[4.95292E5,2.58978E5,2.36314E5,1.6442E4,2.42536E5,2.23776E5,1.2538E4,1.3722E4,2.72E3,2.13659E5,2.8877E4,1.90929E5,3.2847E4,8.187E3,4.351E3,5.99E3,7.732E3,1.948E3,7.72E2,1.87922E5,2.5737E4,4.64E3,2.4237E4,1.02617E5,8.8312E4,8.046E3,2.4801E4,7.751E3,4.36E2,3.94E3,4.11E2,2.577E3,3.413E3,5.827E3,1.905E3,1.546E3,4.02E2,1.47E2,6.25E2,6.5615E4,1.22307E5,1.9536E4,6.201E3,4.409E3,2.31E2,2.3477E4,7.6E2,4.9003E4,5.3614E4,4.9355E4,3.8957E4,6.176E3,1.87E3,1.7503E4,7.298E3,1.96E3,5.791E3,2.8E1,4.08E2,9.2E2,3.02E3,2.331E3,2.46E2,1.414E3,1.999E3,3.908E3,1.919E3,1.126E3,7.79E2,1.067E3,4.79E2,2.63E2,1.39E2,4.3E1,1.04E2,1.5E1,6.1E2,2.33E3,6.3285E4,9.7133E4,2.5174E4,2.536E3,1.7E4,2.098E3,4.103E3,3.756E3,6.53E2,4.6E1,1.85E2,1.4158E4,9.319E3,1.73E2,5.87E2,6.316E3,4.2687E4,8.399E3,4.5215E4,3.447E4,1.4885E4,1.6324E4,2.2633E4,5.116E3,1.06E3,7.38E2,1.132E3,1.5325E4,2.178E3,4.228E3,3.07E3,6.83E2,1.277E3,1.534E3,4.257E3,2.1E1,7E0,2.25E2,6.95E2,8.3E1,2.937E3],"tree_param":{"num_deleted":"0","num_feature":"13","num_nodes":"119","size_leaf_vector":"1"}},{"base_weights":[4.0174076E-8,1.3892983E-2,-1.5225317E-2,8.8673875E-2,8.823092E-3,-9.2358235E-3,-1.2211548E-1,1.2424586E-1,-9.076129E-2,6.682384E-2,4.321811E-3,-4.3397956E-3,-7.534064E-2,-6.630784E-2,-2.270858E-1,1.8373251E-1,7.814361E-2,-4.0734906E-2,-2.1677768E-1,1.24152295E-1,-1.3061248E-1,-3.5392586E-3,3.4126308E-2,-2.0589234E-2,3.036332E-2,3.6169702E-1,-8.9546785E-2,-5.243959E-2,-3.1216684E-1,-2.722868E-1,2.0583704E-2,2.2741531E-1,3.3822503E-2,-3.5486985E-2,9.4044395E-2,-9.923319E-2,1.839241E-1,1.6947037E-2,-2.71689E-1,1.6763818E-1,-1.0043216E-2,-3.8171392E-2,-3.4557217E-1,5.1804382E-2,-1.0193326E-2,8.9850135E-2,-2.4363436E-2,-2.81382E-2,4.7707807E-2,7.1023926E-2,8.140998E-3,3.7890196E-1,1.9680811E-1,-1.7067887E-1,4.9555604E-4,8.705801E-2,-9.96603E-2,1.5033069E-2,-3.3587545E-1,-1.3167116E-1,-3.1506556E-1,2.807486E-2,3.4286974E-3,2.5482882E-2,-2.9632473E-2,-2.7557924E-2,2.0926837E-2,1.4016432E-2,2.3973628E-3,-1.8220207E-2,8.557928E-3,2.5765667E-2,1.3431559E-2,2.0064536E-2,-6.019271E-3,-1.48344105E-2,-2.744743E-2,2.0521266E-2,1.4080509E-3,6.0796184E-3,-3.0554166E-2,3.1971555E-2,-1.3397514E-2,2.8916879E-2,-3.7152927E-2,7.501947E-3,-2.1525621E-2,1.925465E-3,-3.6865603E-3,1.9748455E-2,2.0886934E-3,9.098596E-3,-8.122507E-3,-3.8448812E-3,5.1020733E-3,1.3933169E-2,-5.340621E-3,1.5368401E-2,-2.6230265E-3,3.4900277E-3,-1.223839E-2,3.8221084E-2,7.641025E-3,2.9754853E-2,-1.3020883E-2,-2.4179094E-2,1.896658E-3,2.0701118E-2,-1.0796304E-2,1.3888508E-2,-3.725309E-2,6.1173174E-3,-1.5761701E-2,-9.726911E-3,-3.3972137E-2,2.7497346E-2,-2.7137447E-2,-2.4266927E-2,-3.170282E-2],"categories":[0,1,2,3,4,5,2,2,2,3,4,5,4,3,4,5,0,1,3,4,2,5,2,0,1,4,5,1,1,1,0,1,1,2,4,0,1,0,1,2,3,5,1,4,5,0,1,3,0,3,4,2,0,2,0,5,0,2,3,2,3,4,5,0,4,1,0,2,2,0,1,4,1,4,5,3,4,0,2,3,5,1,4,2,1,2,3,4,5,2,1,1,3,1,5,2,1,2,0,2,3,4,5,4,1,0,3,4,0,3],"categories_nodes":[0,1,2,3,4,5,6,7,8,9,10,11,12,13,14,15,16,17,18,19,20,21,22,23,24,25,26,27,28,29,31,32,33,34,35,36,37,38,39,40,41,42,43,44,45,46,47,48,49,50,51,52,53,54,55,56,58,59,60],"categories_segments":[0,1,6,7,8,12,13,16,17,20,22,23,24,27,28,29,30,31,32,35,36,37,42,45,46,48,51,52,54,56,59,63,65,66,67,68,69,70,72,75,77,81,82,83,84,89,90,91,93,94,95,96,97,98,103,104,105,106,108],"categories_sizes":[1,5,1,1,4,1,3,1,3,2,1,1,3,1,1,1,1,1,3,1,1,5,3,1,2,3,1,2,2,3,4,2,1,1,1,1,1,2,3,2,4,1,1,1,5,1,1,2,1,1,1,1,1,5,1,1,1,2,2],"default_left":[1,1,1,1,1,1,1,1,1,1,1,1,1,1,1,1,1,1,1,1,1,1,1,1,1,1,1,1,1,1,0,1,1,1,1,1,1,1,1,1,1,1,1,1,1,1,1,1,1,1,1,1,1,1,1,1,1,0,1,1,1,0,0,0,0,0,0,0,0,0,0,0,0,0,0,0,0,0,0,0,0,0,0,0,0,0,0,0,0,0,0,0,0,0,0,0,0,0,0,0,0,0,0,0,0,0,0,0,0,0,0,0,0,0,0,0,0,0,0],"id":4,"left_children":[1,3,5,7,9,11,13,15,17,19,21,23,25,27,29,31,33,35,37,39,41,43,45,47,49,51,53,55,57,59,-1,61,63,65,67,69,71,73,75,77,79,81,83,85,87,89,91,93,95,97,99,101,103,105,107,109,111,-1,113,115,117,-1,-1,-1,-1,-1,-1,-1,-1,-1,-1,-1,-1,-1,-1,-1,-1,-1,-1,-1,-1,-1,-1,-1,-1,-1,-1,-1,-1,-1,-1,-1,-1,-1,-1,-1,-1,-1,-1,-1,-1,-1,-1,-1,-1,-1,-1,-1,-1,-1,-1,-1,-1,-1,-1,-1,-1,-1,-1],"loss_changes":[1.04767075E2,9.8186165E1,1.5129198E2,1.0496474E2,6.33207E1,7.242534E1,7.3440216E1,3.7620544E1,1.7144747E1,1.9772025E2,5.273318E1,1.1748878E2,9.583758E1,2.7901718E1,8.521837E1,3.9224274E1,1.3975445E1,2.5632332E1,9.925388E0,7.899835E1,7.810013E1,6.558694E1,1.5310326E2,7.316256E1,6.003733E1,1.3041611E0,1.0918543E2,5.1072464E1,4.8422737E0,2.366507E1,0E0,4.777292E1,9.879664E1,5.5883335E1,2.1920204E1,2.3736797E1,1.4394712E0,2.1093028E0,1.7435074E-1,5.8988068E1,6.9390305E1,9.433182E1,1.9582092E1,1.18526024E2,1.24873825E2,1.7855907E2,1.5033208E2,1.0429305E2,1.3085864E2,1.887687E2,1.5007037E2,4.101944E-1,1.6200471E0,1.06032166E2,1.5871497E2,4.6761086E1,5.3999077E1,0E0,3.4870148E-1,5.2396255E1,3.5229492E-1,0E0,0E0,0E0,0E0,0E0,0E0,0E0,0E0,0E0,0E0,0E0,0E0,0E0,0E0,0E0,0E0,0E0,0E0,0E0,0E0,0E0,0E0,0E0,0E0,0E0,0E0,0E0,0E0,0E0,0E0,0E0,0E0,0E0,0E0,0E0,0E0,0E0,0E0,0E0,0E0,0E0,0E0,0E0,0E0,0E0,0E0,0E0,0E0,0E0,0E0,0E0,0E0,0E0,0E0,0E0,0E0,0E0,0E0],"parents":[2147483647,0,0,1,1,2,2,3,3,4,4,5,5,6,6,7,7,8,8,9,9,10,10,11,11,12,12,13,13,14,14,15,15,16,16,17,17,18,18,19,19,20,20,21,21,22,22,23,23,24,24,25,25,26,26,27,27,28,28,29,29,31,31,32,32,33,33,34,34,35,35,36,36,37,37,38,38,39,39,40,40,41,41,42,42,43,43,44,44,45,45,46,46,47,47,48,48,49,49,50,50,51,51,52,52,53,53,54,54,55,55,56,56,58,58,59,59,60,60],"right_children":[2,4,6,8,10,12,14,16,18,20,22,24,26,28,30,32,34,36,38,40,42,44,46,48,50,52,54,56,58,60,-1,62,64,66,68,70,72,74,76,78,80,82,84,86,88,90,92,94,96,98,100,102,104,106,108,110,112,-1,114,116,118,-1,-1,-1,-1,-1,-1,-1,-1,-1,-1,-1,-1,-1,-1,-1,-1,-1,-1,-1,-1,-1,-1,-1,-1,-1,-1,-1,-1,-1,-1,-1,-1,-1,-1,-1,-1,-1,-1,-1,-1,-1,-1,-1,-1,-1,-1,-1,-1,-1,-1,-1,-1,-1,-1,-1,-1,-1,-1],"split_conditions":[1E-45,1E-45,1E-45,1E-45,1E-45,1E-45,1E-45,1E-45,1E-45,1E-45,1E-45,1E-45,1E-45,1E-45,1E-45,1E-45,1E-45,1E-45,1E-45,1E-45,1E-45,1E-45,1E-45,1E-45,1E-45,1E-45,1E-45,1E-45,1E-45,1E-45,2.0583704E-2,1E-45,1E-45,1E-45,1E-45,1E-45,1E-45,1E-45,1E-45,1E-45,1E-45,1E-45,1E-45,1E-45,1E-45,1E-45,1E-45,1E-45,1E-45,1E-45,1E-45,1E-45,1E-45,1E-45,1E-45,1E-45,1E-45,1.5033069E-2,1E-45,1E-45,1E-45,2.807486E-2,3.4286974E-3,2.5482882E-2,-2.9632473E-2,-2.7557924E-2,2.0926837E-2,1.4016432E-2,2.3973628E-3,-1.8220207E-2,8.557928E-3,2.5765667E-2,1.3431559E-2,2.0064536E-2,-6.019271E-3,-1.48344105E-2,-2.744743E-2,2.0521266E-2,1.4080509E-3,6.0796184E-3,-3.0554166E-2,3.1971555E-2,-1.3397514E-2,2.8916879E-2,-3.7152927E-2,7.501947E-3,-2.1525621E-2,1.925465E-3,-3.6865603E-3,1.9748455E-2,2.0886934E-3,9.098596E-3,-8.122507E-3,-3.8448812E-3,5.1020733E-3,1.3933169E-2,-5.340621E-3,1.5368401E-2,-2.6230265E-3,3.4900277E-3,-1.223839E-2,3.8221084E-2,7.641025E-3,2.9754853E-2,-1.3020883E-2,-2.4179094E-2,1.896658E-3,2.0701118E-2,-1.0796304E-2,1.3888508E-2,-3.725309E-2,6.1173174E-3,-1.5761701E-2,-9.726911E-3,-3.3972137E-2,2.7497346E-2,-2.7137447E-2,-2.4266927E-2,-3.170282E-2],"split_indices":[12,4,9,1,9,4,4,3,0,4,11,2,9,6,2,7,5,12,9,2,5,4,4,10,0,0,2,4,1,1,0,1,1,12,8,10,2,2,0,1,1,1,10,1,2,1,9,6,0,5,4,2,6,11,1,0,5,0,1,4,1,0,0,0,0,0,0,0,0,0,0,0,0,0,0,0,0,0,0,0,0,0,0,0,0,0,0,0,0,0,0,0,0,0,0,0,0,0,0,0,0,0,0,0,0,0,0,0,0,0,0,0,0,0,0,0,0,0,0],"split_type":[1,1,1,1,1,1,1,1,1,1,1,1,1,1,1,1,1,1,1,1,1,1,1,1,1,1,1,1,1,1,0,1,1,1,1,1,1,1,1,1,1,1,1,1,1,1,1,1,1,1,1,1,1,1,1,1,1,0,1,1,1,0,0,0,0,0,0,0,0,0,0,0,0,0,0,0,0,0,0,0,0,0,0,0,0,0,0,0,0,0,0,0,0,0,0,0,0,0,0,0,0,0,0,0,0,0,0,0,0,0,0,0,0,0,0,0,0,0,0],"sum_hessian":[4.95292E5,2.58978E5,2.36314E5,1.6442E4,2.42536E5,2.23776E5,1.2538E4,1.3722E4,2.72E3,1.7466E4,2.2507E5,2.08346E5,1.543E4,8.187E3,4.351E3,5.99E3,7.732E3,1.948E3,7.72E2,1.3536E4,3.93E3,1.78097E5,4.6973E4,1.41902E5,6.6444E4,4.85E2,1.4945E4,7.751E3,4.36E2,3.94E3,4.11E2,4.638E3,1.352E3,9.49E2,6.783E3,1.546E3,4.02E2,1.47E2,6.25E2,1.0223E4,3.313E3,2.749E3,1.181E3,1.9114E4,1.58983E5,2.4055E4,2.2918E4,1.27779E5,1.4123E4,2.348E4,4.2964E4,4.38E2,4.7E1,7.861E3,7.084E3,1.96E3,5.791E3,2.1E1,4.15E2,9.2E2,3.02E3,3.634E3,1.004E3,8.1E2,5.42E2,4.79E2,4.7E2,4.09E3,2.693E3,1.067E3,4.79E2,1.6E2,2.42E2,4.3E1,1.04E2,1.5E1,6.1E2,8.213E3,2.01E3,2.673E3,6.4E2,5.8E2,2.169E3,4.6E1,1.135E3,1.7586E4,1.528E3,7.556E4,8.3423E4,9.393E3,1.4662E4,7.567E3,1.5351E4,1.13054E5,1.4725E4,7.409E3,6.714E3,1.2692E4,1.0788E4,3.5655E4,7.309E3,4.33E2,5E0,3.6E1,1.1E1,5.717E3,2.144E3,2.439E3,4.645E3,1.762E3,1.98E2,1.534E3,4.257E3,7E0,4.08E2,2.35E2,6.85E2,8.3E1,2.937E3],"tree_param":{"num_deleted":"0","num_feature":"13","num_nodes":"119","size_leaf_vector":"1"}},{"base_weights":[7.310596E-8,1.2503886E-2,-1.3702929E-2,4.9312383E-2,4.0984615E-3,-8.31196E-3,-1.0991164E-1,9.198907E-2,-1.6293034E-2,1.7293522E-2,-2.0000175E-2,-1.2835921E-3,-4.916431E-2,-5.9684593E-2,-2.0438527E-1,1.2154333E-1,-2.8391494E-3,3.9486703E-2,-1.5171918E-1,4.8051614E-2,-2.199201E-2,3.2819882E-2,-6.389712E-2,1.5881041E-2,-2.122855E-2,4.476445E-3,-1.1349329E-1,-4.7199894E-2,-2.8101575E-1,-2.4507222E-1,1.8530333E-2,1.3508391E-1,-1.823702E-1,5.276312E-2,-5.142274E-2,1.8993971E-1,1.2331139E-2,-2.7101213E-1,1.7996174E-1,3.1456657E-2,1.3653116E-1,4.3726638E-2,-7.524196E-2,7.51371E-2,-2.6253467E-2,-1.1515984E-1,3.785341E-3,4.8214663E-2,-1.367212E-2,-8.351345E-3,-6.9952354E-2,4.373124E-2,-1.9114347E-1,-5.47497E-2,-2.7838966E-1,7.8340285E-2,-8.969594E-2,1.3598095E-2,-3.0239293E-1,-1.18503645E-1,-2.8357753E-1,1.974764E-2,5.3126584E-3,2.9920245E-2,-3.4399256E-2,1.04823625E-2,-1.7587041E-2,-1.8086551E-3,-2.3752753E-2,2.4005307E-2,-2.7606208E-2,3.08897E-3,-4.606387E-2,2.7312571E-2,-3.797919E-2,3.3709787E-2,-8.13078E-3,1.5160453E-3,1.8178694E-2,2.058093E-2,-8.56701E-3,1.2923169E-2,-2.9489396E-3,-1.2383786E-2,-3.255747E-3,2.2567766E-2,3.532134E-3,2.6356352E-3,-1.2046599E-2,-1.5904391E-2,-2.598786E-3,9.573449E-3,-5.653172E-3,-9.337856E-3,6.9166603E-3,1.3758335E-3,-4.079074E-3,1.6026255E-3,-6.481999E-3,-1.3068813E-2,7.390479E-3,1.7081847E-2,-2.957383E-3,3.1354725E-2,-3.4643423E-2,8.218324E-3,-9.442819E-3,-3.584583E-2,3.1927403E-2,2.839884E-2,-3.1786207E-3,5.505983E-3,-1.4185903E-2,-8.875805E-3,-3.0583227E-2,2.6041118E-2,-2.4137182E-2,-2.1869121E-2,-2.853362E-2],"categories":[0,1,2,3,5,2,1,2,4,1,3,4,5,2,4,5,0,1,2,4,0,3,2,4,5,3,4,1,1,3,0,1,2,4,5,1,2,2,2,2,1,2,4,5,3,1,0,0,2,0,5,0,2,3,3,4,5,1,4,1,4,4,5,1,0,1,3,4,5,1,4,1,2,2,4,0,2,3,5,2,2,0,3,4,0,0,1,4,2,2,1,2,3,4,5,0,3,4,5,0,1,2,3,4,2,0,1,4,1,0,1,3,4,0,3],"categories_nodes":[0,1,2,3,4,5,6,7,8,9,10,11,12,13,14,15,16,17,18,19,20,21,22,23,24,25,26,27,28,29,31,32,33,34,35,36,37,38,39,40,41,42,43,44,45,46,47,48,49,50,51,52,53,54,55,56,58,59,60],"categories_segments":[0,1,5,6,7,9,10,13,16,17,20,22,25,27,28,29,30,31,35,36,37,38,39,40,44,45,46,47,49,51,54,57,58,59,61,63,64,69,71,72,73,75,76,79,80,81,84,85,88,89,90,95,99,104,105,108,109,110,113],"categories_sizes":[1,4,1,1,2,1,3,3,1,3,2,3,2,1,1,1,1,4,1,1,1,1,1,4,1,1,1,2,2,3,3,1,1,2,2,1,5,2,1,1,2,1,3,1,1,3,1,3,1,1,5,4,5,1,3,1,1,3,2],"default_left":[1,1,1,1,1,1,1,1,1,1,1,1,1,1,1,1,1,1,1,1,1,1,1,1,1,1,1,1,1,1,0,1,1,1,1,1,1,1,1,1,1,1,1,1,1,1,1,1,1,1,1,1,1,1,1,1,1,0,1,1,1,0,0,0,0,0,0,0,0,0,0,0,0,0,0,0,0,0,0,0,0,0,0,0,0,0,0,0,0,0,0,0,0,0,0,0,0,0,0,0,0,0,0,0,0,0,0,0,0,0,0,0,0,0,0,0,0,0,0],"id":5,"left_children":[1,3,5,7,9,11,13,15,17,19,21,23,25,27,29,31,33,35,37,39,41,43,45,47,49,51,53,55,57,59,-1,61,63,65,67,69,71,73,75,77,79,81,83,85,87,89,91,93,95,97,99,101,103,105,107,109,111,-1,113,115,117,-1,-1,-1,-1,-1,-1,-1,-1,-1,-1,-1,-1,-1,-1,-1,-1,-1,-1,-1,-1,-1,-1,-1,-1,-1,-1,-1,-1,-1,-1,-1,-1,-1,-1,-1,-1,-1,-1,-1,-1,-1,-1,-1,-1,-1,-1,-1,-1,-1,-1,-1,-1,-1,-1,-1,-1,-1,-1],"loss_changes":[8.4863556E1,8.012557E1,1.22565796E2,1.3479895E2,6.7042274E1,6.425198E1,5.9487E1,8.1751526E1,1.4335136E2,1.6462518E2,1.729656E2,6.536482E1,1.1334763E2,2.2612251E1,6.904744E1,9.154178E1,1.8728527E1,5.491269E1,2.1909274E2,1.1219397E2,2.0936876E2,8.464087E1,1.4135141E2,9.8058395E1,5.5409325E1,1.3756262E2,1.4466386E2,4.136364E1,3.936634E0,1.9173111E1,0E0,1.0886148E2,7.3966354E1,3.850011E1,2.2950596E1,4.805652E1,9.99652E1,2.4113025E2,6.0172813E1,1.5763293E2,1.8578867E2,1.6764946E2,6.854921E1,1.1823342E2,7.004849E1,9.071234E1,9.738943E1,1.4538428E2,3.988348E1,9.615859E1,1.6130849E2,1.3900183E2,2.347598E2,5.985003E1,1.8784622E2,4.4420387E1,4.3742664E1,0E0,2.7851486E-1,4.294146E1,2.8231812E-1,0E0,0E0,0E0,0E0,0E0,0E0,0E0,0E0,0E0,0E0,0E0,0E0,0E0,0E0,0E0,0E0,0E0,0E0,0E0,0E0,0E0,0E0,0E0,0E0,0E0,0E0,0E0,0E0,0E0,0E0,0E0,0E0,0E0,0E0,0E0,0E0,0E0,0E0,0E0,0E0,0E0,0E0,0E0,0E0,0E0,0E0,0E0,0E0,0E0,0E0,0E0,0E0,0E0,0E0,0E0,0E0,0E0,0E0],"parents":[2147483647,0,0,1,1,2,2,3,3,4,4,5,5,6,6,7,7,8,8,9,9,10,10,11,11,12,12,13,13,14,14,15,15,16,16,17,17,18,18,19,19,20,20,21,21,22,22,23,23,24,24,25,25,26,26,27,27,28,28,29,29,31,31,32,32,33,33,34,34,35,35,36,36,37,37,38,38,39,39,40,40,41,41,42,42,43,43,44,44,45,45,46,46,47,47,48,48,49,49,50,50,51,51,52,52,53,53,54,54,55,55,56,56,58,58,59,59,60,60],"right_children":[2,4,6,8,10,12,14,16,18,20,22,24,26,28,30,32,34,36,38,40,42,44,46,48,50,52,54,56,58,60,-1,62,64,66,68,70,72,74,76,78,80,82,84,86,88,90,92,94,96,98,100,102,104,106,108,110,112,-1,114,116,118,-1,-1,-1,-1,-1,-1,-1,-1,-1,-1,-1,-1,-1,-1,-1,-1,-1,-1,-1,-1,-1,-1,-1,-1,-1,-1,-1,-1,-1,-1,-1,-1,-1,-1,-1,-1,-1,-1,-1,-1,-1,-1,-1,-1,-1,-1,-1,-1,-1,-1,-1,-1,-1,-1,-1,-1,-1,-1],"split_conditions":[1E-45,1E-45,1E-45,1E-45,1E-45,1E-45,1E-45,1E-45,1E-45,1E-45,1E-45,1E-45,1E-45,1E-45,1E-45,1E-45,1E-45,1E-45,1E-45,1E-45,1E-45,1E-45,1E-45,1E-45,1E-45,1E-45,1E-45,1E-45,1E-45,1E-45,1.8530333E-2,1E-45,1E-45,1E-45,1E-45,1E-45,1E-45,1E-45,1E-45,1E-45,1E-45,1E-45,1E-45,1E-45,1E-45,1E-45,1E-45,1E-45,1E-45,1E-45,1E-45,1E-45,1E-45,1E-45,1E-45,1E-45,1E-45,1.3598095E-2,1E-45,1E-45,1E-45,1.974764E-2,5.3126584E-3,2.9920245E-2,-3.4399256E-2,1.04823625E-2,-1.7587041E-2,-1.8086551E-3,-2.3752753E-2,2.4005307E-2,-2.7606208E-2,3.08897E-3,-4.606387E-2,2.7312571E-2,-3.797919E-2,3.3709787E-2,-8.13078E-3,1.5160453E-3,1.8178694E-2,2.058093E-2,-8.56701E-3,1.2923169E-2,-2.9489396E-3,-1.2383786E-2,-3.255747E-3,2.2567766E-2,3.532134E-3,2.6356352E-3,-1.2046599E-2,-1.5904391E-2,-2.598786E-3,9.573449E-3,-5.653172E-3,-9.337856E-3,6.9166603E-3,1.3758335E-3,-4.079074E-3,1.6026255E-3,-6.481999E-3,-1.3068813E-2,7.390479E-3,1.7081847E-2,-2.957383E-3,3.1354725E-2,-3.4643423E-2,8.218324E-3,-9.442819E-3,-3.584583E-2,3.1927403E-2,2.839884E-2,-3.1786207E-3,5.505983E-3,-1.4185903E-2,-8.875805E-3,-3.0583227E-2,2.6041118E-2,-2.4137182E-2,-2.1869121E-2,-2.853362E-2],"split_indices":[12,4,9,6,0,2,4,1,2,1,1,4,0,6,2,0,4,9,12,10,2,6,6,1,1,7,1,4,1,1,0,9,10,1,9,1,10,1,1,2,5,1,8,9,1,11,9,8,0,6,6,1,1,4,11,0,5,0,1,0,1,0,0,0,0,0,0,0,0,0,0,0,0,0,0,0,0,0,0,0,0,0,0,0,0,0,0,0,0,0,0,0,0,0,0,0,0,0,0,0,0,0,0,0,0,0,0,0,0,0,0,0,0,0,0,0,0,0,0],"split_type":[1,1,1,1,1,1,1,1,1,1,1,1,1,1,1,1,1,1,1,1,1,1,1,1,1,1,1,1,1,1,0,1,1,1,1,1,1,1,1,1,1,1,1,1,1,1,1,1,1,1,1,1,1,1,1,1,1,0,1,1,1,0,0,0,0,0,0,0,0,0,0,0,0,0,0,0,0,0,0,0,0,0,0,0,0,0,0,0,0,0,0,0,0,0,0,0,0,0,0,0,0,0,0,0,0,0,0,0,0,0,0,0,0,0,0,0,0,0,0],"sum_hessian":[4.95292E5,2.58978E5,2.36314E5,4.8144E4,2.10834E5,2.23776E5,1.2538E4,2.9169E4,1.8975E4,1.36238E5,7.4596E4,1.90929E5,3.2847E4,8.187E3,4.351E3,2.2238E4,6.931E3,1.344E4,5.535E3,7.6412E4,5.9826E4,3.3857E4,4.0739E4,1.02617E5,8.8312E4,1.7912E4,1.4935E4,7.751E3,4.36E2,3.94E3,4.11E2,2.129E4,9.48E2,3.232E3,3.699E3,2.054E3,1.1386E4,4.071E3,1.464E3,6.4345E4,1.2067E4,2.6778E4,3.3048E4,1.9726E4,1.4131E4,2.3181E4,1.7558E4,4.9003E4,5.3614E4,6.9852E4,1.846E4,1.4919E4,2.993E3,1.1013E4,3.922E3,1.96E3,5.791E3,2.1E1,4.15E2,9.2E2,3.02E3,1.2087E4,9.203E3,2.38E2,7.1E2,2.633E3,5.99E2,3.138E3,5.61E2,1.855E3,1.99E2,1.0957E4,4.29E2,6.78E2,3.393E3,9.14E2,5.5E2,5.8053E4,6.292E3,9.199E3,2.868E3,1.2352E4,1.4426E4,1.5453E4,1.7595E4,4.125E3,1.5601E4,9.068E3,5.063E3,1.5535E4,7.646E3,6.955E3,1.0603E4,6.316E3,4.2687E4,2.6654E4,2.696E4,4.879E4,2.1062E4,1.298E4,5.48E3,5.457E3,9.462E3,7.04E2,2.289E3,2.474E3,8.539E3,3.459E3,4.63E2,6.83E2,1.277E3,1.534E3,4.257E3,7E0,4.08E2,2.25E2,6.95E2,8.3E1,2.937E3],"tree_param":{"num_deleted":"0","num_feature":"13","num_nodes":"119","size_leaf_vector":"1"}},{"base_weights":[-6.521867E-8,1.1253436E-2,-1.2332844E-2,4.438024E-2,3.6887466E-3,-7.480808E-3,-9.8923616E-2,8.278975E-2,-1.4665384E-2,-2.821157E-3,4.6220124E-2,-3.27925E-3,-6.420911E-2,-5.3717267E-2,-1.8395363E-1,1.0938993E-1,-2.5599524E-3,3.5534587E-2,-1.3654457E-1,1.343914E-2,-3.323212E-2,3.2647076E-1,2.6348282E-2,-1.7672565E-2,2.7459824E-2,3.135964E-1,-7.648994E-2,-1.713208E-2,-1.163183E-1,-2.2057731E-1,1.66818E-2,1.215767E-1,-1.6413788E-1,5.267859E-2,-4.666415E-2,1.7094399E-1,1.1094271E-2,-2.4391353E-1,1.6198304E-1,5.9450135E-2,-2.0701325E-2,2.236827E-2,-6.658314E-2,3.4059316E-1,-3.758773E-2,8.264621E-2,-5.5490203E-2,-1.2991409E-2,-1.2077286E-1,4.5685284E-2,-1.9200936E-2,3.28044E-1,1.74928E-1,6.842023E-3,-1.4705473E-1,2.556311E-1,-5.8717653E-2,-1.5997614E-1,1.9971502E-1,-1.06651224E-1,-2.5523648E-1,1.777304E-2,4.781448E-3,2.6940743E-2,-3.0964166E-2,2.2052177E-3,2.5825782E-2,-4.9334293E-4,-1.8327821E-2,2.160607E-2,-2.485939E-2,2.7801031E-3,-4.1468196E-2,2.4585335E-2,-3.4182392E-2,3.6247384E-2,-5.588074E-4,1.3347727E-2,-1.7128472E-3,-1.5614297E-3,-3.7727423E-2,3.5077967E-2,1.4295779E-3,-7.704849E-3,2.9470054E-3,3.760281E-2,2.5934113E-2,1.11846365E-2,-7.42635E-3,4.4325725E-3,-2.9657958E-2,-2.2679002E-3,8.023431E-3,-8.721969E-3,-4.19003E-2,1.1035397E-2,9.2113495E-4,1.4893276E-3,-2.266055E-2,3.307803E-2,7.5444407E-3,2.614071E-2,-1.0629329E-2,1.1144324E-2,-1.3178885E-2,-1.6529974E-2,1.7065955E-2,2.0230487E-2,3.3185076E-2,7.823933E-3,-1.050743E-2,-8.583023E-3,-2.9486043E-2,3.186355E-2,-3.7918136E-2,2.2527639E-2,-2.2068659E-2,-2.4931194E-2,-2.7238224E-2],"categories":[0,1,2,3,5,2,1,1,4,3,4,5,2,4,5,0,2,3,0,2,3,4,5,0,1,4,5,1,4,1,3,1,2,1,2,4,5,1,1,2,3,4,0,4,4,0,4,5,2,3,4,0,3,4,0,2,3,0,2,3,4,5,0,0,2,3,3,4,5,1,0,1,4,5,1,0,1,3,4,5,1,2,4,5,1,2,3,4,5,0,1,2,3,4,5,1,2,3,4,5,2,0,1,3,1,3,1,2,1,0,0,0,1,2,3,4,5,0,2,5,3,4,2],"categories_nodes":[0,1,2,3,4,5,6,7,8,9,10,11,12,13,14,15,16,17,18,19,20,21,22,23,24,25,26,27,28,29,31,32,33,34,35,36,37,38,39,40,41,42,43,45,46,47,48,49,50,51,52,53,54,55,56,57,58,59,60],"categories_segments":[0,1,5,6,7,8,9,12,15,16,18,23,24,27,29,30,31,33,37,38,42,44,45,48,49,51,54,57,62,63,66,69,70,71,72,74,75,80,84,89,90,95,96,100,101,102,103,104,106,107,108,109,110,111,112,117,118,120,122],"categories_sizes":[1,4,1,1,1,1,3,3,1,2,5,1,3,2,1,1,2,4,1,4,2,1,3,1,2,3,3,5,1,3,3,1,1,1,2,1,5,4,5,1,5,1,4,1,1,1,1,2,1,1,1,1,1,1,5,1,2,2,1],"default_left":[1,1,1,1,1,1,1,1,1,1,1,1,1,1,1,1,1,1,1,1,1,1,1,1,1,1,1,1,1,1,0,1,1,1,1,1,1,1,1,1,1,1,1,1,0,1,1,1,1,1,1,1,1,1,1,1,1,1,1,1,1,0,0,0,0,0,0,0,0,0,0,0,0,0,0,0,0,0,0,0,0,0,0,0,0,0,0,0,0,0,0,0,0,0,0,0,0,0,0,0,0,0,0,0,0,0,0,0,0,0,0,0,0,0,0,0,0,0,0],"id":6,"left_children":[1,3,5,7,9,11,13,15,17,19,21,23,25,27,29,31,33,35,37,39,41,43,45,47,49,51,53,55,57,59,-1,61,63,65,67,69,71,73,75,77,79,81,83,85,-1,87,89,91,93,95,97,99,101,103,105,107,109,111,113,115,117,-1,-1,-1,-1,-1,-1,-1,-1,-1,-1,-1,-1,-1,-1,-1,-1,-1,-1,-1,-1,-1,-1,-1,-1,-1,-1,-1,-1,-1,-1,-1,-1,-1,-1,-1,-1,-1,-1,-1,-1,-1,-1,-1,-1,-1,-1,-1,-1,-1,-1,-1,-1,-1,-1,-1,-1,-1,-1],"loss_changes":[6.874034E1,6.489841E1,9.9285E1,1.0918992E2,5.837511E1,5.3336426E1,4.8188744E1,6.622545E1,1.1610631E2,9.041769E1,1.558537E2,9.218095E1,7.16202E1,1.8750742E1,5.5944992E1,7.4151886E1,1.6890554E1,4.44804E1,1.7748268E2,1.8715857E2,1.1813157E2,1.850763E1,1.2041736E2,6.848488E1,5.6506622E1,9.1628265E-1,8.7888E1,5.8647045E1,4.1699894E1,1.5534134E1,0E0,8.817932E1,5.9948696E1,1.9373867E1,2.197646E1,3.8951115E1,8.101114E1,1.9534972E2,4.922084E1,2.8769873E2,1.24057396E2,6.3319122E1,4.0030518E1,5.133911E0,0E0,7.095269E1,2.5634882E2,1.22593956E2,6.163392E1,1.1270339E2,1.3198201E2,2.7847672E-1,1.1951344E0,9.940426E1,4.6940903E1,2.7129898E0,2.8489231E1,2.6517662E1,2.5386074E1,3.4910934E1,2.3895264E-1,0E0,0E0,0E0,0E0,0E0,0E0,0E0,0E0,0E0,0E0,0E0,0E0,0E0,0E0,0E0,0E0,0E0,0E0,0E0,0E0,0E0,0E0,0E0,0E0,0E0,0E0,0E0,0E0,0E0,0E0,0E0,0E0,0E0,0E0,0E0,0E0,0E0,0E0,0E0,0E0,0E0,0E0,0E0,0E0,0E0,0E0,0E0,0E0,0E0,0E0,0E0,0E0,0E0,0E0,0E0,0E0,0E0,0E0],"parents":[2147483647,0,0,1,1,2,2,3,3,4,4,5,5,6,6,7,7,8,8,9,9,10,10,11,11,12,12,13,13,14,14,15,15,16,16,17,17,18,18,19,19,20,20,21,21,22,22,23,23,24,24,25,25,26,26,27,27,28,28,29,29,31,31,32,32,33,33,34,34,35,35,36,36,37,37,38,38,39,39,40,40,41,41,42,42,43,43,45,45,46,46,47,47,48,48,49,49,50,50,51,51,52,52,53,53,54,54,55,55,56,56,57,57,58,58,59,59,60,60],"right_children":[2,4,6,8,10,12,14,16,18,20,22,24,26,28,30,32,34,36,38,40,42,44,46,48,50,52,54,56,58,60,-1,62,64,66,68,70,72,74,76,78,80,82,84,86,-1,88,90,92,94,96,98,100,102,104,106,108,110,112,114,116,118,-1,-1,-1,-1,-1,-1,-1,-1,-1,-1,-1,-1,-1,-1,-1,-1,-1,-1,-1,-1,-1,-1,-1,-1,-1,-1,-1,-1,-1,-1,-1,-1,-1,-1,-1,-1,-1,-1,-1,-1,-1,-1,-1,-1,-1,-1,-1,-1,-1,-1,-1,-1,-1,-1,-1,-1,-1,-1],"split_conditions":[1E-45,1E-45,1E-45,1E-45,1E-45,1E-45,1E-45,1E-45,1E-45,1E-45,1E-45,1E-45,1E-45,1E-45,1E-45,1E-45,1E-45,1E-45,1E-45,1E-45,1E-45,1E-45,1E-45,1E-45,1E-45,1E-45,1E-45,1E-45,1E-45,1E-45,1.66818E-2,1E-45,1E-45,1E-45,1E-45,1E-45,1E-45,1E-45,1E-45,1E-45,1E-45,1E-45,1E-45,1E-45,-3.758773E-2,1E-45,1E-45,1E-45,1E-45,1E-45,1E-45,1E-45,1E-45,1E-45,1E-45,1E-45,1E-45,1E-45,1E-45,1E-45,1E-45,1.777304E-2,4.781448E-3,2.6940743E-2,-3.0964166E-2,2.2052177E-3,2.5825782E-2,-4.9334293E-4,-1.8327821E-2,2.160607E-2,-2.485939E-2,2.7801031E-3,-4.1468196E-2,2.4585335E-2,-3.4182392E-2,3.6247384E-2,-5.588074E-4,1.3347727E-2,-1.7128472E-3,-1.5614297E-3,-3.7727423E-2,3.5077967E-2,1.4295779E-3,-7.704849E-3,2.9470054E-3,3.760281E-2,2.5934113E-2,1.11846365E-2,-7.42635E-3,4.4325725E-3,-2.9657958E-2,-2.2679002E-3,8.023431E-3,-8.721969E-3,-4.19003E-2,1.1035397E-2,9.2113495E-4,1.4893276E-3,-2.266055E-2,3.307803E-2,7.5444407E-3,2.614071E-2,-1.0629329E-2,1.1144324E-2,-1.3178885E-2,-1.6529974E-2,1.7065955E-2,2.0230487E-2,3.3185076E-2,7.823933E-3,-1.050743E-2,-8.583023E-3,-2.9486043E-2,3.186355E-2,-3.7918136E-2,2.2527639E-2,-2.2068659E-2,-2.4931194E-2,-2.7238224E-2],"split_indices":[12,4,9,6,7,4,4,1,2,1,4,2,9,0,2,0,9,9,12,0,0,9,1,11,1,0,1,4,5,1,0,9,10,7,2,1,10,1,1,1,5,9,6,1,0,11,10,6,0,0,6,2,6,2,11,2,1,4,1,4,0,0,0,0,0,0,0,0,0,0,0,0,0,0,0,0,0,0,0,0,0,0,0,0,0,0,0,0,0,0,0,0,0,0,0,0,0,0,0,0,0,0,0,0,0,0,0,0,0,0,0,0,0,0,0,0,0,0,0],"split_type":[1,1,1,1,1,1,1,1,1,1,1,1,1,1,1,1,1,1,1,1,1,1,1,1,1,1,1,1,1,1,0,1,1,1,1,1,1,1,1,1,1,1,1,1,0,1,1,1,1,1,1,1,1,1,1,1,1,1,1,1,1,0,0,0,0,0,0,0,0,0,0,0,0,0,0,0,0,0,0,0,0,0,0,0,0,0,0,0,0,0,0,0,0,0,0,0,0,0,0,0,0,0,0,0,0,0,0,0,0,0,0,0,0,0,0,0,0,0,0],"sum_hessian":[4.95292E5,2.58978E5,2.36314E5,4.8144E4,2.10834E5,2.23776E5,1.2538E4,2.9169E4,1.8975E4,1.82848E5,2.7986E4,2.08346E5,1.543E4,8.187E3,4.351E3,2.2238E4,6.931E3,1.344E4,5.535E3,1.19144E5,6.3704E4,1.852E3,2.6134E4,1.41902E5,6.6444E4,4.85E2,1.4945E4,5.168E3,3.019E3,3.94E3,4.11E2,2.129E4,9.48E2,3.077E3,3.854E3,2.054E3,1.1386E4,4.071E3,1.464E3,5.0749E4,6.8395E4,2.3885E4,3.9819E4,1.816E3,3.6E1,1.5483E4,1.0651E4,1.3574E5,6.162E3,4.7781E4,1.8663E4,4.38E2,4.7E1,6.853E3,8.092E3,6.83E2,4.485E3,2.653E3,3.66E2,9.2E2,3.02E3,1.2087E4,9.203E3,2.38E2,7.1E2,2.679E3,3.98E2,2.953E3,9.01E2,1.855E3,1.99E2,1.0957E4,4.29E2,6.78E2,3.393E3,6.66E2,7.98E2,2.5804E4,2.4945E4,6.7434E4,9.61E2,5.72E2,2.3313E4,3.5907E4,3.912E3,1.262E3,5.54E2,1.3054E4,2.429E3,7.533E3,3.118E3,1.22963E5,1.2777E4,5.54E3,6.22E2,1.723E4,3.0551E4,1.6029E4,2.634E3,4.33E2,5E0,3.6E1,1.1E1,3.906E3,2.947E3,7.653E3,4.39E2,4.04E2,2.79E2,1.134E3,3.351E3,1.713E3,9.4E2,3.04E2,6.2E1,2.35E2,6.85E2,2.256E3,7.64E2],"tree_param":{"num_deleted":"0","num_feature":"13","num_nodes":"119","size_leaf_vector":"1"}},{"base_weights":[-7.453183E-8,1.0646478E-2,-1.1698236E-2,3.6184132E-2,-1.8713764E-3,1.914834E-2,-2.3571106E-2,1.3829078E-2,1.3128246E-1,-1.1709172E-2,6.776514E-2,4.518547E-2,-3.390838E-2,-1.20069515E-2,-7.273692E-2,6.5594755E-2,-3.108584E-2,4.01671E-2,2.1308348E-1,3.7082958E-3,-5.1560797E-2,1.7303367E-1,2.0832648E-3,1.24112375E-1,1.6656775E-2,-8.607283E-3,-2.3775688E-1,-4.484823E-2,1.6651262E-2,-3.763034E-2,-1.7336684E-1,9.587313E-2,-6.760445E-2,8.12031E-2,-1.16037145E-1,-1.1866804E-1,1.21279135E-1,3.18493E-1,9.380076E-3,1.5120372E-1,-2.22572E-3,2.703961E-1,-5.7174016E-2,2.9235876E-1,1.13921836E-1,1.3183002E-1,-1.903531E-2,8.475211E-2,2.241343E-1,2.2820503E-2,-2.523483E-1,-2.615558E-2,3.7564582E-1,-3.0668905E-1,1.5064707E-1,-3.207729E-2,-2.425293E-1,1.3704105E-1,7.6065008E-3,9.7180856E-4,-1.7157608E-1,-3.2732657E-1,-3.3675753E-2,5.1534614E-3,1.5593437E-2,-2.513436E-2,4.4889967E-3,1.9026164E-2,-5.0309678E-3,-1.665413E-2,1.4428719E-3,7.7264444E-3,-4.1020103E-2,-2.5798855E-3,2.3007436E-2,3.4976117E-2,1.8876899E-2,-8.170419E-3,2.5229782E-2,2.2300242E-2,-2.317894E-3,4.447676E-3,-1.2584766E-3,4.272771E-2,1.9058945E-2,-3.7018885E-3,-1.27341375E-2,3.646401E-2,2.3088824E-2,1.685227E-2,-2.4464525E-2,2.7468348E-2,-3.231483E-3,-5.6413125E-4,-2.040913E-2,1.7158387E-2,2.0845681E-4,1.137113E-4,3.0378878E-2,-1.8047858E-3,6.104886E-3,-4.1138392E-2,2.341645E-2,-3.3894272E-3,4.1611012E-2,4.0822934E-2,2.3481825E-2,-4.1468207E-2,8.291849E-4,3.3696774E-2,-3.4396563E-2,-7.168488E-3,7.175471E-3,-7.5185085E-3,-3.5714388E-2,1.959266E-2,-3.9422657E-2,3.4633477E-3,-4.686763E-3,-3.2228574E-3,1.1127585E-2,2.8320974E-2,-2.4379576E-2,4.6408374E-2,-3.7561174E-2,1.1814309E-2,-2.1632781E-2],"categories":[2,4,5,1,2,3,4,5,0,2,3,5,2,1,1,1,2,2,0,0,1,2,4,5,0,1,2,5,0,3,2,2,4,1,0,2,3,0,2,3,0,2,3,4,5,1,2,4,5,0,0,0,0,1,3,0,1,2,4,2,2,2,0,3,2,1,2,0,0,1,1,2,0,1,2,3,4,5,3,0,1,0,2,3,4,5,2,0,2,0,2,0,0,0,2,3,4,5,1,4,0,0,2,1,1,1,3,0,2],"categories_nodes":[0,1,2,3,4,5,6,7,8,9,10,11,12,13,14,15,16,17,18,19,20,21,22,23,24,25,26,27,28,29,30,31,32,33,34,35,36,37,38,39,40,41,42,43,44,45,46,47,48,49,50,51,52,53,54,55,56,57,58,59,60,61,62],"categories_segments":[0,3,8,12,13,14,15,16,17,18,19,24,28,30,31,33,34,37,38,40,41,45,49,50,51,52,53,54,55,59,60,61,62,63,64,65,67,68,69,70,72,73,78,79,80,81,86,87,89,90,91,92,93,98,99,100,101,102,103,104,105,107,108],"categories_sizes":[3,5,4,1,1,1,1,1,1,1,5,4,2,1,2,1,3,1,2,1,4,4,1,1,1,1,1,1,4,1,1,1,1,1,1,2,1,1,1,2,1,5,1,1,1,5,1,2,1,1,1,1,5,1,1,1,1,1,1,1,2,1,1],"default_left":[1,1,1,1,1,1,1,1,1,1,1,1,1,1,1,1,1,1,1,1,1,1,1,1,1,1,1,1,1,1,1,1,1,1,1,1,1,1,1,1,1,1,1,1,1,1,1,1,1,1,1,1,1,1,1,1,1,1,1,1,1,1,1,0,0,0,0,0,0,0,0,0,0,0,0,0,0,0,0,0,0,0,0,0,0,0,0,0,0,0,0,0,0,0,0,0,0,0,0,0,0,0,0,0,0,0,0,0,0,0,0,0,0,0,0,0,0,0,0,0,0,0,0,0,0,0,0],"id":7,"left_children":[1,3,5,7,9,11,13,15,17,19,21,23,25,27,29,31,33,35,37,39,41,43,45,47,49,51,53,55,57,59,61,63,65,67,69,71,73,75,77,79,81,83,85,87,89,91,93,95,97,99,101,103,105,107,109,111,113,115,117,119,121,123,125,-1,-1,-1,-1,-1,-1,-1,-1,-1,-1,-1,-1,-1,-1,-1,-1,-1,-1,-1,-1,-1,-1,-1,-1,-1,-1,-1,-1,-1,-1,-1,-1,-1,-1,-1,-1,-1,-1,-1,-1,-1,-1,-1,-1,-1,-1,-1,-1,-1,-1,-1,-1,-1,-1,-1,-1,-1,-1,-1,-1,-1,-1,-1,-1],"loss_changes":[6.168644E1,8.289287E1,8.642954E1,1.8132712E2,1.19209114E2,9.06091E1,9.68842E1,1.6057239E2,1.209888E2,9.367945E1,1.4893225E2,9.906742E1,1.1136065E2,1.2984207E2,1.1462488E2,1.2940303E2,3.52746E2,9.89721E1,1.8367084E2,9.622338E1,7.687991E1,5.8341675E1,3.6349495E1,4.5967804E1,5.3591408E1,1.2953586E2,6.38743E1,1.6228944E2,8.021907E1,1.2438914E2,1.8047404E2,6.960881E1,1.228509E2,2.2844403E2,1.3871542E2,1.4837434E2,8.137296E1,2.2799011E1,6.4584236E1,5.324211E1,5.1131687E1,9.0457535E0,5.911586E1,1.2094543E1,1.08425446E2,4.3553032E1,2.8277645E1,6.01814E1,5.8581146E1,4.9362923E1,5.6114277E1,6.28899E1,3.7540207E0,6.88853E1,3.3292267E1,2.4834883E2,7.479463E1,1.6112718E2,1.0088751E2,6.8397644E1,1.7683804E2,1.5272205E2,1.22065384E2,0E0,0E0,0E0,0E0,0E0,0E0,0E0,0E0,0E0,0E0,0E0,0E0,0E0,0E0,0E0,0E0,0E0,0E0,0E0,0E0,0E0,0E0,0E0,0E0,0E0,0E0,0E0,0E0,0E0,0E0,0E0,0E0,0E0,0E0,0E0,0E0,0E0,0E0,0E0,0E0,0E0,0E0,0E0,0E0,0E0,0E0,0E0,0E0,0E0,0E0,0E0,0E0,0E0,0E0,0E0,0E0,0E0,0E0,0E0,0E0,0E0,0E0,0E0,0E0],"parents":[2147483647,0,0,1,1,2,2,3,3,4,4,5,5,6,6,7,7,8,8,9,9,10,10,11,11,12,12,13,13,14,14,15,15,16,16,17,17,18,18,19,19,20,20,21,21,22,22,23,23,24,24,25,25,26,26,27,27,28,28,29,29,30,30,31,31,32,32,33,33,34,34,35,35,36,36,37,37,38,38,39,39,40,40,41,41,42,42,43,43,44,44,45,45,46,46,47,47,48,48,49,49,50,50,51,51,52,52,53,53,54,54,55,55,56,56,57,57,58,58,59,59,60,60,61,61,62,62],"right_children":[2,4,6,8,10,12,14,16,18,20,22,24,26,28,30,32,34,36,38,40,42,44,46,48,50,52,54,56,58,60,62,64,66,68,70,72,74,76,78,80,82,84,86,88,90,92,94,96,98,100,102,104,106,108,110,112,114,116,118,120,122,124,126,-1,-1,-1,-1,-1,-1,-1,-1,-1,-1,-1,-1,-1,-1,-1,-1,-1,-1,-1,-1,-1,-1,-1,-1,-1,-1,-1,-1,-1,-1,-1,-1,-1,-1,-1,-1,-1,-1,-1,-1,-1,-1,-1,-1,-1,-1,-1,-1,-1,-1,-1,-1,-1,-1,-1,-1,-1,-1,-1,-1,-1,-1,-1,-1],"split_conditions":[1E-45,1E-45,1E-45,1E-45,1E-45,1E-45,1E-45,1E-45,1E-45,1E-45,1E-45,1E-45,1E-45,1E-45,1E-45,1E-45,1E-45,1E-45,1E-45,1E-45,1E-45,1E-45,1E-45,1E-45,1E-45,1E-45,1E-45,1E-45,1E-45,1E-45,1E-45,1E-45,1E-45,1E-45,1E-45,1E-45,1E-45,1E-45,1E-45,1E-45,1E-45,1E-45,1E-45,1E-45,1E-45,1E-45,1E-45,1E-45,1E-45,1E-45,1E-45,1E-45,1E-45,1E-45,1E-45,1E-45,1E-45,1E-45,1E-45,1E-45,1E-45,1E-45,1E-45,5.1534614E-3,1.5593437E-2,-2.513436E-2,4.4889967E-3,1.9026164E-2,-5.0309678E-3,-1.665413E-2,1.4428719E-3,7.7264444E-3,-4.1020103E-2,-2.5798855E-3,2.3007436E-2,3.4976117E-2,1.8876899E-2,-8.170419E-3,2.5229782E-2,2.2300242E-2,-2.317894E-3,4.447676E-3,-1.2584766E-3,4.272771E-2,1.9058945E-2,-3.7018885E-3,-1.27341375E-2,3.646401E-2,2.3088824E-2,1.685227E-2,-2.4464525E-2,2.7468348E-2,-3.231483E-3,-5.6413125E-4,-2.040913E-2,1.7158387E-2,2.0845681E-4,1.137113E-4,3.0378878E-2,-1.8047858E-3,6.104886E-3,-4.1138392E-2,2.341645E-2,-3.3894272E-3,4.1611012E-2,4.0822934E-2,2.3481825E-2,-4.1468207E-2,8.291849E-4,3.3696774E-2,-3.4396563E-2,-7.168488E-3,7.175471E-3,-7.5185085E-3,-3.5714388E-2,1.959266E-2,-3.9422657E-2,3.4633477E-3,-4.686763E-3,-3.2228574E-3,1.1127585E-2,2.8320974E-2,-2.4379576E-2,4.6408374E-2,-3.7561174E-2,1.1814309E-2,-2.1632781E-2],"split_indices":[4,1,1,10,7,11,9,2,2,0,1,9,0,2,0,7,9,3,0,6,9,9,11,6,0,6,2,0,0,7,7,12,2,0,7,9,11,8,12,9,3,9,1,8,2,1,9,0,8,7,8,3,1,7,1,7,1,7,5,5,0,8,2,0,0,0,0,0,0,0,0,0,0,0,0,0,0,0,0,0,0,0,0,0,0,0,0,0,0,0,0,0,0,0,0,0,0,0,0,0,0,0,0,0,0,0,0,0,0,0,0,0,0,0,0,0,0,0,0,0,0,0,0,0,0,0,0],"split_type":[1,1,1,1,1,1,1,1,1,1,1,1,1,1,1,1,1,1,1,1,1,1,1,1,1,1,1,1,1,1,1,1,1,1,1,1,1,1,1,1,1,1,1,1,1,1,1,1,1,1,1,1,1,1,1,1,1,1,1,1,1,1,1,0,0,0,0,0,0,0,0,0,0,0,0,0,0,0,0,0,0,0,0,0,0,0,0,0,0,0,0,0,0,0,0,0,0,0,0,0,0,0,0,0,0,0,0,0,0,0,0,0,0,0,0,0,0,0,0,0,0,0,0,0,0,0,0],"sum_hessian":[4.95292E5,2.59301E5,2.35991E5,8.5293E4,1.74008E5,6.5588E4,1.70403E5,6.906E4,1.6233E4,1.52469E5,2.1539E4,4.3997E4,2.1591E4,1.37956E5,3.2447E4,3.2083E4,3.6977E4,7.68E3,8.553E3,1.09938E5,4.2531E4,8.275E3,1.3264E4,1.168E4,3.2317E4,1.9208E4,2.383E3,6.4286E4,7.367E4,2.4056E4,8.391E3,2.6141E4,5.942E3,1.5926E4,2.1051E4,2.596E3,5.084E3,5.636E3,2.917E3,4.251E3,1.05687E5,7.28E2,4.1803E4,2.74E3,5.535E3,1.856E3,1.1408E4,8.383E3,3.297E3,3.1594E4,7.23E2,1.837E4,8.38E2,2.024E3,3.59E2,6.0386E4,3.9E3,5.147E3,6.8523E4,1.8675E4,5.381E3,3.991E3,4.4E3,1.504E4,1.1101E4,2.256E3,3.686E3,8.706E3,7.22E3,1.5176E4,5.875E3,1.553E3,1.043E3,2.162E3,2.922E3,4.54E3,1.096E3,2.122E3,7.95E2,3.011E3,1.24E3,1.9186E4,8.6501E4,2.44E2,4.84E2,3.2476E4,9.327E3,1.257E3,1.483E3,4.804E3,7.31E2,9.92E2,8.64E2,1.0639E4,7.69E2,4.088E3,4.295E3,8.68E2,2.429E3,1.527E4,1.6324E4,5.45E2,1.78E2,1.8055E4,3.15E2,6.79E2,1.59E2,1.507E3,5.17E2,2.61E2,9.8E1,4.3712E4,1.6674E4,1.586E3,2.314E3,4.634E3,5.13E2,4.58E4,2.2723E4,1.4355E4,4.32E3,7.37E2,4.644E3,2.29E2,3.762E3,2.403E3,1.997E3],"tree_param":{"num_deleted":"0","num_feature":"13","num_nodes":"127","size_leaf_vector":"1"}},{"base_weights":[3.8461604E-7,9.582528E-3,-1.052823E-2,-2.0315095E-3,3.371044E-2,1.7234962E-2,-2.1214303E-2,1.6411223E-1,-7.226089E-3,4.8900478E-2,-2.3662098E-2,4.0667705E-2,-3.0514713E-2,4.3003857E-2,-2.933796E-2,2.8130338E-1,1.0539761E-2,7.7957218E-3,-4.953267E-2,9.1228396E-2,1.8253291E-2,-9.70231E-2,6.774794E-2,7.521558E-2,-1.8381653E-2,-7.741225E-3,-2.1399854E-1,2.8702033E-1,-3.2084923E-2,-5.9368107E-3,-5.4810364E-2,3.3464262E-1,-2.7477312E-1,-9.034897E-2,2.7955955E-1,4.2693097E-2,-1.6660502E-2,7.9661235E-2,-7.346966E-2,1.6247404E-1,1.6901296E-2,-2.3628438E-3,1.534806E-1,-1.8966065E-1,5.379299E-3,8.588458E-2,-2.6260203E-1,9.488182E-2,-4.8122436E-2,-6.137949E-3,-3.703209E-1,-2.3537949E-2,3.381579E-1,-2.7604023E-1,1.3558042E-1,2.1740453E-1,3.8962144E-1,-2.3581661E-1,3.2921143E-2,3.517702E-2,-5.215468E-2,-9.995885E-2,-1.0345791E-2,3.8117092E-2,8.84898E-3,3.0571243E-2,-4.0849175E-2,-1.3029288E-2,1.8386913E-2,4.025942E-2,-9.1325035E-3,1.0021831E-2,1.1796438E-3,1.3844146E-3,-8.00571E-3,1.8726995E-2,-1.1919632E-2,-6.794029E-3,-2.3978954E-2,3.5245206E-2,1.3468983E-2,8.342279E-3,-1.851588E-2,3.4999799E-3,-7.1600997E-3,3.5807302E-3,3.2822836E-2,8.498032E-3,-2.148264E-2,3.7435204E-2,-1.8983271E-3,1.7525218E-2,7.424028E-4,3.1643145E-2,-4.1775163E-2,6.2891105E-3,1.8851886E-2,3.6001083E-2,-8.530712E-3,5.8131816E-4,-3.8745884E-2,-1.4650608E-2,-4.159462E-2,-3.050504E-3,3.7463076E-2,3.6746643E-2,2.1148317E-2,-3.7324138E-2,7.464263E-4,3.0339956E-2,-3.0991653E-2,2.6023477E-2,-3.909486E-2,3.9553605E-2,-1.9152518E-2,3.577093E-2,-3.1930085E-2,1.4937188E-2,-6.399838E-3,7.0416E-4,1.8496571E-2,2.656026E-2,-6.712315E-3,-7.904023E-4,-2.0746117E-2,8.011534E-3,-1.1908739E-2],"categories":[2,4,5,0,0,2,3,5,0,1,2,3,5,2,4,1,1,2,3,4,2,3,4,5,1,1,2,4,1,2,5,0,3,0,3,4,5,2,0,2,0,2,3,5,0,1,3,4,2,2,1,4,1,0,0,1,0,2,1,2,2,0,2,4,5,1,1,3,4,1,2,4,5,2,3,0,2,0,3,1,0,0,1,3,0,0,3,4,1,4,1,2,3,4,0,1,0,0,2,3,4,5,1,4,0,5,2,1,1,2,5,3,4,5,0],"categories_nodes":[0,1,2,3,4,5,6,7,8,9,10,11,12,13,14,15,16,17,18,19,20,21,22,23,24,25,26,27,28,29,30,31,32,33,34,35,36,37,38,39,40,41,42,43,44,45,46,47,48,49,50,51,52,53,54,55,56,57,58,59,60,61,62],"categories_segments":[0,3,4,8,13,15,16,20,24,25,28,29,31,33,37,38,39,40,44,48,49,50,51,52,53,54,55,56,57,58,60,61,65,66,67,69,73,75,76,77,78,79,80,81,84,85,88,90,91,94,95,96,97,102,103,104,105,106,107,108,109,111,114],"categories_sizes":[3,1,4,5,2,1,4,4,1,3,1,2,2,4,1,1,1,4,4,1,1,1,1,1,1,1,1,1,1,2,1,4,1,1,2,4,2,1,1,1,1,1,1,3,1,3,2,1,3,1,1,1,5,1,1,1,1,1,1,1,2,3,1],"default_left":[1,1,1,1,1,1,1,1,1,1,1,1,1,1,1,1,1,1,1,1,1,1,1,1,1,1,1,1,1,1,1,1,1,1,1,1,1,1,1,1,1,1,1,1,1,1,1,1,1,1,1,1,1,1,1,1,1,1,1,1,1,1,1,0,0,0,0,0,0,0,0,0,0,0,0,0,0,0,0,0,0,0,0,0,0,0,0,0,0,0,0,0,0,0,0,0,0,0,0,0,0,0,0,0,0,0,0,0,0,0,0,0,0,0,0,0,0,0,0,0,0,0,0,0,0,0,0],"id":8,"left_children":[1,3,5,7,9,11,13,15,17,19,21,23,25,27,29,31,33,35,37,39,41,43,45,47,49,51,53,55,57,59,61,63,65,67,69,71,73,75,77,79,81,83,85,87,89,91,93,95,97,99,101,103,105,107,109,111,113,115,117,119,121,123,125,-1,-1,-1,-1,-1,-1,-1,-1,-1,-1,-1,-1,-1,-1,-1,-1,-1,-1,-1,-1,-1,-1,-1,-1,-1,-1,-1,-1,-1,-1,-1,-1,-1,-1,-1,-1,-1,-1,-1,-1,-1,-1,-1,-1,-1,-1,-1,-1,-1,-1,-1,-1,-1,-1,-1,-1,-1,-1,-1,-1,-1,-1,-1,-1],"loss_changes":[4.9968575E1,7.2662315E1,7.001435E1,1.5107323E2,7.343126E1,7.3389145E1,8.889869E1,9.550891E1,1.0787316E2,8.641991E1,1.182925E2,8.975863E1,9.022197E1,3.506362E2,9.016864E1,8.937065E1,6.2395428E1,1.06907425E2,1.3755157E2,1.4815424E2,1.07731804E2,9.283403E1,4.7079304E1,6.73342E1,6.998085E1,1.0496733E2,5.1742737E1,3.2078674E1,1.9381747E2,1.4981497E2,1.4540077E2,3.1427826E1,2.061702E1,1.8337944E1,2.864782E1,9.173427E1,1.4243217E2,1.488082E2,3.449344E1,7.535434E1,1.8408112E2,8.674713E1,1.05107056E2,3.5529785E1,4.1797546E1,5.22088E1,3.6875435E1,7.170378E1,5.797384E1,7.15323E1,5.5146027E0,5.0974E1,3.037201E0,5.580562E1,2.7008678E1,7.006187E1,6.3280945E0,1.755214E2,1.2523161E2,1.7584319E2,1.7655893E2,3.5564465E2,3.5897723E2,0E0,0E0,0E0,0E0,0E0,0E0,0E0,0E0,0E0,0E0,0E0,0E0,0E0,0E0,0E0,0E0,0E0,0E0,0E0,0E0,0E0,0E0,0E0,0E0,0E0,0E0,0E0,0E0,0E0,0E0,0E0,0E0,0E0,0E0,0E0,0E0,0E0,0E0,0E0,0E0,0E0,0E0,0E0,0E0,0E0,0E0,0E0,0E0,0E0,0E0,0E0,0E0,0E0,0E0,0E0,0E0,0E0,0E0,0E0,0E0,0E0,0E0,0E0,0E0],"parents":[2147483647,0,0,1,1,2,2,3,3,4,4,5,5,6,6,7,7,8,8,9,9,10,10,11,11,12,12,13,13,14,14,15,15,16,16,17,17,18,18,19,19,20,20,21,21,22,22,23,23,24,24,25,25,26,26,27,27,28,28,29,29,30,30,31,31,32,32,33,33,34,34,35,35,36,36,37,37,38,38,39,39,40,40,41,41,42,42,43,43,44,44,45,45,46,46,47,47,48,48,49,49,50,50,51,51,52,52,53,53,54,54,55,55,56,56,57,57,58,58,59,59,60,60,61,61,62,62],"right_children":[2,4,6,8,10,12,14,16,18,20,22,24,26,28,30,32,34,36,38,40,42,44,46,48,50,52,54,56,58,60,62,64,66,68,70,72,74,76,78,80,82,84,86,88,90,92,94,96,98,100,102,104,106,108,110,112,114,116,118,120,122,124,126,-1,-1,-1,-1,-1,-1,-1,-1,-1,-1,-1,-1,-1,-1,-1,-1,-1,-1,-1,-1,-1,-1,-1,-1,-1,-1,-1,-1,-1,-1,-1,-1,-1,-1,-1,-1,-1,-1,-1,-1,-1,-1,-1,-1,-1,-1,-1,-1,-1,-1,-1,-1,-1,-1,-1,-1,-1,-1,-1,-1,-1,-1,-1,-1],"split_conditions":[1E-45,1E-45,1E-45,1E-45,1E-45,1E-45,1E-45,1E-45,1E-45,1E-45,1E-45,1E-45,1E-45,1E-45,1E-45,1E-45,1E-45,1E-45,1E-45,1E-45,1E-45,1E-45,1E-45,1E-45,1E-45,1E-45,1E-45,1E-45,1E-45,1E-45,1E-45,1E-45,1E-45,1E-45,1E-45,1E-45,1E-45,1E-45,1E-45,1E-45,1E-45,1E-45,1E-45,1E-45,1E-45,1E-45,1E-45,1E-45,1E-45,1E-45,1E-45,1E-45,1E-45,1E-45,1E-45,1E-45,1E-45,1E-45,1E-45,1E-45,1E-45,1E-45,1E-45,3.8117092E-2,8.84898E-3,3.0571243E-2,-4.0849175E-2,-1.3029288E-2,1.8386913E-2,4.025942E-2,-9.1325035E-3,1.0021831E-2,1.1796438E-3,1.3844146E-3,-8.00571E-3,1.8726995E-2,-1.1919632E-2,-6.794029E-3,-2.3978954E-2,3.5245206E-2,1.3468983E-2,8.342279E-3,-1.851588E-2,3.4999799E-3,-7.1600997E-3,3.5807302E-3,3.2822836E-2,8.498032E-3,-2.148264E-2,3.7435204E-2,-1.8983271E-3,1.7525218E-2,7.424028E-4,3.1643145E-2,-4.1775163E-2,6.2891105E-3,1.8851886E-2,3.6001083E-2,-8.530712E-3,5.8131816E-4,-3.8745884E-2,-1.4650608E-2,-4.159462E-2,-3.050504E-3,3.7463076E-2,3.6746643E-2,2.1148317E-2,-3.7324138E-2,7.464263E-4,3.0339956E-2,-3.0991653E-2,2.6023477E-2,-3.909486E-2,3.9553605E-2,-1.9152518E-2,3.577093E-2,-3.1930085E-2,1.4937188E-2,-6.399838E-3,7.0416E-4,1.8496571E-2,2.656026E-2,-6.712315E-3,-7.904023E-4,-2.0746117E-2,8.011534E-3,-1.1908739E-2],"split_indices":[4,2,1,9,1,11,0,1,1,9,5,9,0,9,7,12,5,9,0,7,7,10,9,7,0,6,2,2,12,9,2,4,4,2,1,4,0,8,11,3,1,0,8,0,3,0,0,5,0,3,1,3,1,7,1,8,4,4,5,5,4,9,11,0,0,0,0,0,0,0,0,0,0,0,0,0,0,0,0,0,0,0,0,0,0,0,0,0,0,0,0,0,0,0,0,0,0,0,0,0,0,0,0,0,0,0,0,0,0,0,0,0,0,0,0,0,0,0,0,0,0,0,0,0,0,0,0],"split_type":[1,1,1,1,1,1,1,1,1,1,1,1,1,1,1,1,1,1,1,1,1,1,1,1,1,1,1,1,1,1,1,1,1,1,1,1,1,1,1,1,1,1,1,1,1,1,1,1,1,1,1,1,1,1,1,1,1,1,1,1,1,1,1,0,0,0,0,0,0,0,0,0,0,0,0,0,0,0,0,0,0,0,0,0,0,0,0,0,0,0,0,0,0,0,0,0,0,0,0,0,0,0,0,0,0,0,0,0,0,0,0,0,0,0,0,0,0,0,0,0,0,0,0,0,0,0,0],"sum_hessian":[4.95292E5,2.59301E5,2.35991E5,1.75044E5,8.4257E4,6.5588E4,1.70403E5,5.306E3,1.69738E5,6.6619E4,1.7638E4,4.3997E4,2.1591E4,1.9135E4,1.51268E5,3.009E3,2.297E3,1.25262E5,4.4476E4,2.7977E4,3.8642E4,9.785E3,7.853E3,2.7757E4,1.624E4,1.9208E4,2.383E3,4.502E3,1.4633E4,7.884E4,7.2428E4,2.746E3,2.63E2,1.671E3,6.26E2,5.1613E4,7.3649E4,6.952E3,3.7524E4,1.4284E4,1.3693E4,3.3531E4,5.111E3,5.137E3,4.648E3,7.445E3,4.08E2,2.394E4,3.817E3,1.5695E4,5.45E2,1.837E4,8.38E2,2.024E3,3.59E2,2.684E3,1.818E3,3.539E3,1.1094E4,4.1724E4,3.7116E4,3.5937E4,3.6491E4,2.309E3,4.37E2,4.9E1,2.14E2,1.459E3,2.12E2,4.7E2,1.56E2,1.8034E4,3.3579E4,4.9724E4,2.3925E4,4.511E3,2.441E3,3.6318E4,1.206E3,1.821E3,1.2463E4,1.0302E4,3.391E3,2.1779E4,1.1752E4,3.055E3,2.056E3,4.31E2,4.706E3,2.87E2,4.361E3,3.48E3,3.965E3,8.6E1,3.22E2,1.7845E4,6.095E3,3.18E2,3.499E3,1.5219E4,4.76E2,9.3E1,4.52E2,1.8055E4,3.15E2,6.79E2,1.59E2,1.507E3,5.17E2,2.61E2,9.8E1,2.508E3,1.76E2,1.8E3,1.8E1,4.36E2,3.103E3,5.039E3,6.055E3,3.5127E4,6.597E3,1.669E3,3.5447E4,1.936E4,1.6577E4,1.992E4,1.6571E4],"tree_param":{"num_deleted":"0","num_feature":"13","num_nodes":"127","size_leaf_vector":"1"}},{"base_weights":[7.568617E-7,9.2288945E-3,-1.0112413E-2,3.808287E-2,2.6399312E-3,-5.974292E-3,-8.39625E-2,7.164466E-2,-1.3510472E-2,-1.1582705E-2,1.9336859E-2,-2.674743E-4,-3.914516E-2,-4.500093E-2,-1.5724683E-1,9.443105E-2,-1.4681868E-3,3.863183E-2,-1.0516863E-1,-2.4396153E-2,5.136656E-2,5.8192376E-2,-1.366088E-2,1.2112231E-2,-1.465245E-2,5.3471297E-2,-6.919296E-2,-3.8049303E-2,-3.2388777E-2,-1.9182242E-1,1.73869E-2,1.0453695E-1,-1.3239628E-1,4.9198065E-2,-4.1921947E-2,1.3541573E-1,-4.2306416E-2,2.0198633E-1,-2.3160039E-1,-1.5649853E-3,-5.549672E-2,1.9290623E-1,7.410054E-3,9.565678E-2,-1.3208399E-2,1.4741164E-1,-2.7918795E-2,-3.374382E-3,5.102449E-2,-2.8139094E-3,-4.607872E-2,1.282801E-1,-1.9648512E-1,-2.1649446E-2,-1.8319933E-1,4.6311032E-2,-7.0071116E-2,-2.240372E-1,-9.478677E-2,1.5381155E-2,3.981119E-3,2.367179E-2,-2.5628641E-2,2.1753814E-3,2.3341207E-2,-4.543444E-4,-1.64288E-2,1.7297527E-2,-3.95949E-2,-1.3811353E-3,-1.868175E-2,8.1857275E-3,3.9446063E-2,-3.6324646E-2,-8.741408E-3,4.1168164E-3,-7.381964E-3,-2.1671965E-3,-1.3817306E-2,2.0656202E-2,-3.2777928E-2,1.7890915E-2,-5.6776498E-3,1.3462615E-2,6.9951353E-4,-4.478007E-3,1.1922379E-2,1.963373E-2,-3.009587E-2,1.5482295E-4,-8.474841E-3,1.8611478E-3,-9.023662E-3,2.4688987E-2,3.300566E-3,2.0173509E-3,-5.6526796E-3,2.2504693E-3,-9.594447E-3,1.8536577E-2,-1.4650476E-2,1.03744926E-4,-3.2419156E-2,5.212954E-3,-8.943348E-3,-6.7489455E-3,-3.4248095E-2,-2.3009375E-2,1.1479803E-2,5.27022E-3,-1.1431417E-2,-4.919847E-3,-2.2782499E-2,2.1112114E-2,-1.889114E-2],"categories":[0,1,2,3,5,2,1,1,1,3,4,5,2,4,5,2,2,2,2,4,5,1,4,5,4,1,3,1,2,1,2,4,5,0,1,3,5,2,3,4,0,1,4,2,4,2,3,4,5,2,3,4,1,4,2,0,2,1,3,4,5,1,0,1,2,4,1,2,1,0,1,2,0,1,2,4,5,0,2,1,3,0,4,0,1,3,4,2,1,4,1,1,4,2,3,0,0,1,0,1,3,3,4],"categories_nodes":[0,1,2,3,4,5,6,7,8,9,10,11,12,13,14,15,16,17,18,19,20,21,22,23,24,25,26,27,29,31,32,33,34,35,36,37,38,39,40,41,42,43,44,45,46,47,48,49,50,51,52,53,54,55,56,57,58],"categories_segments":[0,1,5,6,7,8,9,12,15,16,17,18,21,24,25,26,27,29,33,37,40,43,45,49,50,52,54,55,57,58,61,62,63,64,65,66,67,68,69,70,71,72,77,78,79,81,83,87,88,90,91,93,95,96,97,98,101],"categories_sizes":[1,4,1,1,1,1,3,3,1,1,1,3,3,1,1,1,2,4,4,3,3,2,4,1,2,2,1,2,1,3,1,1,1,1,1,1,1,1,1,1,1,5,1,1,2,2,4,1,2,1,2,2,1,1,1,3,2],"default_left":[1,1,1,1,1,1,1,1,1,1,1,1,1,1,1,1,1,1,1,1,1,1,1,1,1,1,1,1,0,1,0,1,1,1,1,1,1,1,1,1,1,1,1,1,1,1,1,1,1,1,1,1,1,1,1,1,1,1,1,0,0,0,0,0,0,0,0,0,0,0,0,0,0,0,0,0,0,0,0,0,0,0,0,0,0,0,0,0,0,0,0,0,0,0,0,0,0,0,0,0,0,0,0,0,0,0,0,0,0,0,0,0,0,0,0],"id":9,"left_children":[1,3,5,7,9,11,13,15,17,19,21,23,25,27,29,31,33,35,37,39,41,43,45,47,49,51,53,55,-1,57,-1,59,61,63,65,67,69,71,73,75,77,79,81,83,85,87,89,91,93,95,97,99,101,103,105,107,109,111,113,-1,-1,-1,-1,-1,-1,-1,-1,-1,-1,-1,-1,-1,-1,-1,-1,-1,-1,-1,-1,-1,-1,-1,-1,-1,-1,-1,-1,-1,-1,-1,-1,-1,-1,-1,-1,-1,-1,-1,-1,-1,-1,-1,-1,-1,-1,-1,-1,-1,-1,-1,-1,-1,-1,-1,-1],"loss_changes":[4.622367E1,4.923642E1,7.22175E1,8.336715E1,5.006812E1,4.2361E1,3.579519E1,4.8596695E1,9.069544E1,9.183556E1,1.2434569E2,3.4001324E1,9.141707E1,1.5861891E1,4.985737E1,5.0992203E1,1.4210171E1,9.4759995E1,2.672645E2,6.71711E1,1.198015E2,1.1913991E2,1.2044712E2,6.1839737E1,3.285594E1,1.5049557E2,1.344294E2,2.1587196E1,0E0,1.2298233E1,0E0,6.7897995E1,4.345806E1,1.5556105E1,1.7631485E1,1.10016075E2,2.7125835E1,4.6373062E1,9.250336E1,1.6844466E2,1.11988716E2,3.251233E1,1.6176076E2,1.009256E2,6.409334E1,9.361962E1,8.068401E1,1.4018622E2,1.0309579E2,7.920724E1,8.264558E1,9.718797E1,4.676731E1,8.7542816E1,1.3450081E2,4.1653778E1,3.1467403E1,1.9477234E0,2.8372658E1,0E0,0E0,0E0,0E0,0E0,0E0,0E0,0E0,0E0,0E0,0E0,0E0,0E0,0E0,0E0,0E0,0E0,0E0,0E0,0E0,0E0,0E0,0E0,0E0,0E0,0E0,0E0,0E0,0E0,0E0,0E0,0E0,0E0,0E0,0E0,0E0,0E0,0E0,0E0,0E0,0E0,0E0,0E0,0E0,0E0,0E0,0E0,0E0,0E0,0E0,0E0,0E0,0E0,0E0,0E0,0E0],"parents":[2147483647,0,0,1,1,2,2,3,3,4,4,5,5,6,6,7,7,8,8,9,9,10,10,11,11,12,12,13,13,14,14,15,15,16,16,17,17,18,18,19,19,20,20,21,21,22,22,23,23,24,24,25,25,26,26,27,27,29,29,31,31,32,32,33,33,34,34,35,35,36,36,37,37,38,38,39,39,40,40,41,41,42,42,43,43,44,44,45,45,46,46,47,47,48,48,49,49,50,50,51,51,52,52,53,53,54,54,55,55,56,56,57,57,58,58],"right_children":[2,4,6,8,10,12,14,16,18,20,22,24,26,28,30,32,34,36,38,40,42,44,46,48,50,52,54,56,-1,58,-1,60,62,64,66,68,70,72,74,76,78,80,82,84,86,88,90,92,94,96,98,100,102,104,106,108,110,112,114,-1,-1,-1,-1,-1,-1,-1,-1,-1,-1,-1,-1,-1,-1,-1,-1,-1,-1,-1,-1,-1,-1,-1,-1,-1,-1,-1,-1,-1,-1,-1,-1,-1,-1,-1,-1,-1,-1,-1,-1,-1,-1,-1,-1,-1,-1,-1,-1,-1,-1,-1,-1,-1,-1,-1,-1],"split_conditions":[1E-45,1E-45,1E-45,1E-45,1E-45,1E-45,1E-45,1E-45,1E-45,1E-45,1E-45,1E-45,1E-45,1E-45,1E-45,1E-45,1E-45,1E-45,1E-45,1E-45,1E-45,1E-45,1E-45,1E-45,1E-45,1E-45,1E-45,1E-45,-3.2388777E-2,1E-45,1.73869E-2,1E-45,1E-45,1E-45,1E-45,1E-45,1E-45,1E-45,1E-45,1E-45,1E-45,1E-45,1E-45,1E-45,1E-45,1E-45,1E-45,1E-45,1E-45,1E-45,1E-45,1E-45,1E-45,1E-45,1E-45,1E-45,1E-45,1E-45,1E-45,1.5381155E-2,3.981119E-3,2.367179E-2,-2.5628641E-2,2.1753814E-3,2.3341207E-2,-4.543444E-4,-1.64288E-2,1.7297527E-2,-3.95949E-2,-1.3811353E-3,-1.868175E-2,8.1857275E-3,3.9446063E-2,-3.6324646E-2,-8.741408E-3,4.1168164E-3,-7.381964E-3,-2.1671965E-3,-1.3817306E-2,2.0656202E-2,-3.2777928E-2,1.7890915E-2,-5.6776498E-3,1.3462615E-2,6.9951353E-4,-4.478007E-3,1.1922379E-2,1.963373E-2,-3.009587E-2,1.5482295E-4,-8.474841E-3,1.8611478E-3,-9.023662E-3,2.4688987E-2,3.300566E-3,2.0173509E-3,-5.6526796E-3,2.2504693E-3,-9.594447E-3,1.8536577E-2,-1.4650476E-2,1.03744926E-4,-3.2419156E-2,5.212954E-3,-8.943348E-3,-6.7489455E-3,-3.4248095E-2,-2.3009375E-2,1.1479803E-2,5.27022E-3,-1.1431417E-2,-4.919847E-3,-2.2782499E-2,2.1112114E-2,-1.889114E-2],"split_indices":[12,4,9,6,5,2,4,1,11,11,2,4,9,0,2,0,9,1,1,0,0,0,9,5,1,1,7,4,0,6,0,9,10,7,2,9,1,2,2,12,6,6,9,9,3,4,1,9,0,6,9,7,0,0,1,6,5,1,0,0,0,0,0,0,0,0,0,0,0,0,0,0,0,0,0,0,0,0,0,0,0,0,0,0,0,0,0,0,0,0,0,0,0,0,0,0,0,0,0,0,0,0,0,0,0,0,0,0,0,0,0,0,0,0,0],"split_type":[1,1,1,1,1,1,1,1,1,1,1,1,1,1,1,1,1,1,1,1,1,1,1,1,1,1,1,1,0,1,0,1,1,1,1,1,1,1,1,1,1,1,1,1,1,1,1,1,1,1,1,1,1,1,1,1,1,1,1,0,0,0,0,0,0,0,0,0,0,0,0,0,0,0,0,0,0,0,0,0,0,0,0,0,0,0,0,0,0,0,0,0,0,0,0,0,0,0,0,0,0,0,0,0,0,0,0,0,0,0,0,0,0,0,0],"sum_hessian":[4.95292E5,2.58978E5,2.36314E5,4.8144E4,2.10834E5,2.23776E5,1.2538E4,2.9169E4,1.8975E4,1.13853E5,9.6981E4,1.90929E5,3.2847E4,8.187E3,4.351E3,2.2238E4,6.931E3,1.2095E4,6.88E3,9.4598E4,1.9255E4,4.4537E4,5.2444E4,1.02617E5,8.8312E4,8.046E3,2.4801E4,7.989E3,1.98E2,3.94E3,4.11E2,2.129E4,9.48E2,3.077E3,3.854E3,5.508E3,6.587E3,2.006E3,4.874E3,5.4552E4,4.0046E4,4.562E3,1.4693E4,2.921E4,1.5327E4,4.264E3,4.818E4,7.3404E4,2.9213E4,6.4148E4,2.4164E4,6.193E3,1.853E3,1.7503E4,7.298E3,2.198E3,5.791E3,2.957E3,9.83E2,1.2087E4,9.203E3,2.38E2,7.1E2,2.679E3,3.98E2,2.953E3,9.01E2,5.145E3,3.63E2,5.503E3,1.084E3,1.236E3,7.7E2,2.547E3,2.327E3,3.4279E4,2.0273E4,2.842E4,1.1626E4,4.446E3,1.16E2,4.001E3,1.0692E4,2.0291E4,8.919E3,1.2377E4,2.95E3,3.845E3,4.19E2,3.1729E4,1.6451E4,5.8578E4,1.4826E4,2.46E3,2.6753E4,4.4923E4,1.9225E4,1.0173E4,1.3991E4,5.128E3,1.065E3,7.28E2,1.125E3,8.381E3,9.122E3,4.228E3,3.07E3,4.36E2,1.762E3,1.534E3,4.257E3,6.3E1,2.894E3,2.31E2,7.52E2],"tree_param":{"num_deleted":"0","num_feature":"13","num_nodes":"115","size_leaf_vector":"1"}},{"base_weights":[3.7348218E-7,8.3058905E-3,-9.101692E-3,3.4274302E-2,2.3758619E-3,-5.3771515E-3,-7.557089E-2,6.448108E-2,-1.2161514E-2,-3.143996E-3,3.843897E-2,-2.406813E-4,-3.5232875E-2,-4.050695E-2,-1.41524E-1,8.498872E-2,-1.3201192E-3,3.476516E-2,-9.46514E-2,-1.1123572E-2,3.6167406E-2,2.7426875E-1,2.1716908E-2,3.1412346E-3,-4.5731936E-2,-1.3822031E-2,-1.4234719E-1,-8.010356E-3,-9.611437E-2,-1.7264666E-1,1.5652427E-2,9.408416E-2,-1.1915872E-1,4.57589E-2,-4.2456646E-2,1.2187013E-1,-3.8078804E-2,1.8181142E-1,-2.084496E-1,7.238078E-3,-3.4354787E-2,9.3296774E-2,-6.236427E-2,2.8629306E-1,-3.236348E-2,6.8502694E-2,-4.629406E-2,-8.706209E-3,2.2982022E-2,-2.6055736E-2,-2.6431045E-1,6.543584E-2,-6.1111555E-2,-8.5356146E-2,-2.7804437E-1,2.2130302E-1,-4.2972982E-2,-1.3433844E-1,1.8056908E-1,-2.0164284E-1,-8.5305855E-2,1.3843166E-2,3.583051E-3,2.1314515E-2,-2.3069384E-2,9.07907E-3,-1.5200696E-2,3.062398E-4,-1.5582772E-2,1.5568112E-2,-3.5646293E-2,-1.2430449E-3,-1.6815295E-2,7.3678154E-3,3.5506573E-2,-3.2693606E-2,-7.867645E-3,6.473498E-3,-2.8141066E-3,-2.9790008E-3,-3.0620841E-2,1.6705716E-2,3.6012281E-3,2.5767718E-2,-1.5825203E-2,3.159626E-2,2.1825906E-2,2.8560222E-3,1.562317E-2,4.11017E-3,-2.5738522E-2,-2.2198702E-4,-1.5436261E-2,8.303943E-3,1.1938738E-3,4.5485734E-3,-1.2165075E-2,-3.5412546E-2,-2.1013966E-2,1.6957866E-2,-3.4961596E-3,-1.4677036E-2,-6.97798E-4,-6.3549625E-3,-3.8913343E-2,-1.3296604E-2,-3.289592E-2,8.261788E-3,2.43805E-2,9.398114E-3,-9.143533E-3,-6.871022E-3,-2.5373532E-2,2.8253917E-2,-3.7896182E-2,-4.435549E-3,-2.0505035E-2,1.901E-2,-1.7004536E-2],"categories":[0,1,2,3,5,2,1,1,1,3,4,5,2,4,5,2,2,0,2,3,4,5,4,1,1,4,1,3,0,1,2,4,5,0,1,3,5,2,3,4,0,4,0,4,5,0,0,1,4,2,3,0,2,3,4,5,0,1,3,4,5,1,4,1,4,2,4,1,2,1,2,3,5,0,1,2,3,5,2,2,3,4,5,0,0,2,1,2,3,0,3,0,1,3,0,1,2,3,5,0,1,2,3,4,0,2,0,1,3,3,4],"categories_nodes":[0,1,2,3,4,5,6,7,8,9,10,11,12,13,14,15,16,17,18,19,20,21,22,23,24,25,26,27,28,29,31,32,33,34,35,36,37,38,39,40,41,42,43,45,46,47,48,49,50,51,52,53,54,55,56,57,58,59,60],"categories_segments":[0,1,5,6,7,8,9,12,15,16,17,22,23,24,26,27,28,29,33,37,40,41,42,45,46,47,49,51,56,57,58,61,62,63,65,66,67,68,69,73,74,78,79,83,84,85,86,89,91,92,94,95,96,99,100,104,105,106,109],"categories_sizes":[1,4,1,1,1,1,3,3,1,1,5,1,1,2,1,1,1,4,4,3,1,1,3,1,1,2,2,5,1,1,3,1,1,2,1,1,1,1,4,1,4,1,4,1,1,1,3,2,1,2,1,1,3,1,4,1,1,3,2],"default_left":[1,1,1,1,1,1,1,1,1,1,1,1,1,1,1,1,1,1,1,1,1,1,1,1,1,1,1,1,1,1,0,1,1,1,1,1,1,1,1,1,1,1,1,1,0,1,1,1,1,1,1,1,1,1,1,1,1,1,1,1,1,0,0,0,0,0,0,0,0,0,0,0,0,0,0,0,0,0,0,0,0,0,0,0,0,0,0,0,0,0,0,0,0,0,0,0,0,0,0,0,0,0,0,0,0,0,0,0,0,0,0,0,0,0,0,0,0,0,0],"id":10,"left_children":[1,3,5,7,9,11,13,15,17,19,21,23,25,27,29,31,33,35,37,39,41,43,45,47,49,51,53,55,57,59,-1,61,63,65,67,69,71,73,75,77,79,81,83,85,-1,87,89,91,93,95,97,99,101,103,105,107,109,111,113,115,117,-1,-1,-1,-1,-1,-1,-1,-1,-1,-1,-1,-1,-1,-1,-1,-1,-1,-1,-1,-1,-1,-1,-1,-1,-1,-1,-1,-1,-1,-1,-1,-1,-1,-1,-1,-1,-1,-1,-1,-1,-1,-1,-1,-1,-1,-1,-1,-1,-1,-1,-1,-1,-1,-1,-1,-1,-1,-1],"loss_changes":[3.7442917E1,3.988098E1,5.8503433E1,6.753265E1,4.1969616E1,3.431687E1,2.8991653E1,3.93629E1,7.345894E1,5.7357998E1,1.1036246E2,2.9374264E1,7.5331894E1,1.4795368E1,4.0396408E1,4.130481E1,1.342692E1,7.675462E1,2.1652084E2,6.483661E1,1.7367897E2,1.3414566E1,8.3163345E1,4.1775288E1,5.6815224E1,1.0261483E2,4.2294106E1,4.145144E1,3.1963686E1,9.96357E0,0E0,5.499829E1,3.5222473E1,2.8806095E1,1.9094486E1,8.915208E1,2.1976715E1,3.757409E1,7.493407E1,1.7269856E2,8.326002E1,8.25146E1,3.4755228E2,3.5987244E0,0E0,5.4253227E1,1.9652373E2,1.0512968E2,4.406739E1,8.290798E1,5.233673E0,1.06977905E2,7.950992E1,2.5512054E1,1.1907845E1,2.1144104E0,2.9782705E1,2.077879E1,2.1046402E1,1.576271E0,2.2996677E1,0E0,0E0,0E0,0E0,0E0,0E0,0E0,0E0,0E0,0E0,0E0,0E0,0E0,0E0,0E0,0E0,0E0,0E0,0E0,0E0,0E0,0E0,0E0,0E0,0E0,0E0,0E0,0E0,0E0,0E0,0E0,0E0,0E0,0E0,0E0,0E0,0E0,0E0,0E0,0E0,0E0,0E0,0E0,0E0,0E0,0E0,0E0,0E0,0E0,0E0,0E0,0E0,0E0,0E0,0E0,0E0,0E0,0E0],"parents":[2147483647,0,0,1,1,2,2,3,3,4,4,5,5,6,6,7,7,8,8,9,9,10,10,11,11,12,12,13,13,14,14,15,15,16,16,17,17,18,18,19,19,20,20,21,21,22,22,23,23,24,24,25,25,26,26,27,27,28,28,29,29,31,31,32,32,33,33,34,34,35,35,36,36,37,37,38,38,39,39,40,40,41,41,42,42,43,43,45,45,46,46,47,47,48,48,49,49,50,50,51,51,52,52,53,53,54,54,55,55,56,56,57,57,58,58,59,59,60,60],"right_children":[2,4,6,8,10,12,14,16,18,20,22,24,26,28,30,32,34,36,38,40,42,44,46,48,50,52,54,56,58,60,-1,62,64,66,68,70,72,74,76,78,80,82,84,86,-1,88,90,92,94,96,98,100,102,104,106,108,110,112,114,116,118,-1,-1,-1,-1,-1,-1,-1,-1,-1,-1,-1,-1,-1,-1,-1,-1,-1,-1,-1,-1,-1,-1,-1,-1,-1,-1,-1,-1,-1,-1,-1,-1,-1,-1,-1,-1,-1,-1,-1,-1,-1,-1,-1,-1,-1,-1,-1,-1,-1,-1,-1,-1,-1,-1,-1,-1,-1,-1],"split_conditions":[1E-45,1E-45,1E-45,1E-45,1E-45,1E-45,1E-45,1E-45,1E-45,1E-45,1E-45,1E-45,1E-45,1E-45,1E-45,1E-45,1E-45,1E-45,1E-45,1E-45,1E-45,1E-45,1E-45,1E-45,1E-45,1E-45,1E-45,1E-45,1E-45,1E-45,1.5652427E-2,1E-45,1E-45,1E-45,1E-45,1E-45,1E-45,1E-45,1E-45,1E-45,1E-45,1E-45,1E-45,1E-45,-3.236348E-2,1E-45,1E-45,1E-45,1E-45,1E-45,1E-45,1E-45,1E-45,1E-45,1E-45,1E-45,1E-45,1E-45,1E-45,1E-45,1E-45,1.3843166E-2,3.583051E-3,2.1314515E-2,-2.3069384E-2,9.07907E-3,-1.5200696E-2,3.062398E-4,-1.5582772E-2,1.5568112E-2,-3.5646293E-2,-1.2430449E-3,-1.6815295E-2,7.3678154E-3,3.5506573E-2,-3.2693606E-2,-7.867645E-3,6.473498E-3,-2.8141066E-3,-2.9790008E-3,-3.0620841E-2,1.6705716E-2,3.6012281E-3,2.5767718E-2,-1.5825203E-2,3.159626E-2,2.1825906E-2,2.8560222E-3,1.562317E-2,4.11017E-3,-2.5738522E-2,-2.2198702E-4,-1.5436261E-2,8.303943E-3,1.1938738E-3,4.5485734E-3,-1.2165075E-2,-3.5412546E-2,-2.1013966E-2,1.6957866E-2,-3.4961596E-3,-1.4677036E-2,-6.97798E-4,-6.3549625E-3,-3.8913343E-2,-1.3296604E-2,-3.289592E-2,8.261788E-3,2.43805E-2,9.398114E-3,-9.143533E-3,-6.871022E-3,-2.5373532E-2,2.8253917E-2,-3.7896182E-2,-4.435549E-3,-2.0505035E-2,1.901E-2,-1.7004536E-2],"split_indices":[12,4,9,6,7,2,4,1,11,11,4,4,11,0,2,0,4,1,1,0,7,9,1,2,7,9,0,4,5,6,0,9,10,1,0,9,1,2,2,1,5,1,9,1,0,2,10,11,0,1,2,0,7,4,4,3,1,4,1,1,0,0,0,0,0,0,0,0,0,0,0,0,0,0,0,0,0,0,0,0,0,0,0,0,0,0,0,0,0,0,0,0,0,0,0,0,0,0,0,0,0,0,0,0,0,0,0,0,0,0,0,0,0,0,0,0,0,0,0],"split_type":[1,1,1,1,1,1,1,1,1,1,1,1,1,1,1,1,1,1,1,1,1,1,1,1,1,1,1,1,1,1,0,1,1,1,1,1,1,1,1,1,1,1,1,1,0,1,1,1,1,1,1,1,1,1,1,1,1,1,1,1,1,0,0,0,0,0,0,0,0,0,0,0,0,0,0,0,0,0,0,0,0,0,0,0,0,0,0,0,0,0,0,0,0,0,0,0,0,0,0,0,0,0,0,0,0,0,0,0,0,0,0,0,0,0,0,0,0,0,0],"sum_hessian":[4.95292E5,2.58978E5,2.36314E5,4.8144E4,2.10834E5,2.23776E5,1.2538E4,2.9169E4,1.8975E4,1.82848E5,2.7986E4,1.90929E5,3.2847E4,8.187E3,4.351E3,2.2238E4,6.931E3,1.2095E4,6.88E3,1.51996E5,3.0852E4,1.852E3,2.6134E4,1.77718E5,1.3211E4,2.7376E4,5.471E3,5.168E3,3.019E3,3.94E3,4.11E2,2.129E4,9.48E2,3.232E3,3.699E3,5.508E3,6.587E3,2.006E3,4.874E3,8.4896E4,6.71E4,1.9529E4,1.1323E4,1.816E3,3.6E1,1.5483E4,1.0651E4,1.11274E5,6.6444E4,1.2121E4,1.09E3,1.023E4,1.7146E4,3.854E3,1.617E3,6.83E2,4.485E3,2.653E3,3.66E2,2.957E3,9.83E2,1.2087E4,9.203E3,2.38E2,7.1E2,2.633E3,5.99E2,2.64E3,1.059E3,5.145E3,3.63E2,5.503E3,1.084E3,1.236E3,7.7E2,2.547E3,2.327E3,3.2339E4,5.2557E4,6.5993E4,1.107E3,8.536E3,1.0993E4,2.61E3,8.713E3,1.262E3,5.54E2,1.064E4,4.843E3,7.533E3,3.118E3,1.06531E5,4.743E3,1.0319E4,5.6125E4,6.933E3,5.188E3,4.08E2,6.82E2,5.021E3,5.209E3,6.639E3,1.0507E4,3.597E3,2.57E2,4.21E2,1.196E3,9.6E1,5.87E2,1.172E3,3.313E3,1.713E3,9.4E2,3.1E2,5.6E1,6.3E1,2.894E3,2.31E2,7.52E2],"tree_param":{"num_deleted":"0","num_feature":"13","num_nodes":"119","size_leaf_vector":"1"}},{"base_weights":[-7.423398E-8,7.612782E-3,-8.364887E-3,1.7471211E-2,-1.5128774E-2,1.6674586E-2,-1.8002605E-2,4.1606314E-2,-2.2040675E-3,-3.3038553E-2,2.643836E-2,3.705791E-2,-2.8899606E-2,-2.2227298E-3,-3.8514793E-2,8.234256E-2,1.9859126E-2,3.3080522E-2,-3.486431E-2,5.5076957E-2,-5.0542984E-2,1.7221947E-1,-1.3190214E-2,6.706405E-2,-1.0368349E-2,1.6912131E-3,-1.88575E-1,1.6565446E-2,-4.0339023E-2,-3.8622804E-3,-9.875344E-2,5.248332E-3,1.4675424E-1,6.659203E-2,-1.7499294E-2,6.99969E-2,-1.6912788E-2,-5.833528E-2,1.22882746E-1,1.0806536E-1,-1.2756936E-1,1.9573773E-1,-5.4626826E-2,2.078358E-1,3.479404E-2,2.617165E-2,-7.801337E-2,8.4834255E-2,-4.4382706E-2,-1.6951293E-2,3.5013822E-1,-1.2607599E-2,2.190724E-1,-2.2168767E-1,3.4446873E-2,3.0730534E-2,-1.4079298E-1,-2.0294528E-2,-2.2452222E-1,1.4027728E-2,-1.3043381E-1,4.8062135E-2,-1.2253855E-1,-1.3907899E-2,4.4604624E-3,2.6817566E-2,8.519181E-3,1.3388251E-2,-1.8563233E-5,-5.3474745E-3,6.007778E-3,1.01748E-2,-2.095615E-3,3.254971E-3,-1.4821457E-2,-5.7420874E-4,-9.958923E-3,1.9177206E-2,-3.782874E-3,2.0241594E-2,1.5067514E-3,-2.3256207E-2,9.477428E-3,3.1067846E-2,-2.7078409E-2,-8.630862E-3,-3.1538587E-3,2.8100917E-2,1.7441517E-2,1.0311844E-2,-2.1742431E-2,8.725413E-3,-1.3152242E-2,-2.102339E-2,3.6833298E-3,5.5871075E-3,1.6960986E-2,3.3008862E-2,-7.850042E-3,-1.6577424E-4,-2.1543149E-2,3.651658E-2,-9.836685E-3,1.5297374E-3,-1.2989896E-2,3.4619894E-2,-2.7052492E-2,-1.6700657E-2,-3.5287052E-2,3.508506E-4,1.0459307E-2,-1.6848954E-3,-3.1484395E-2,-3.5237793E-3,1.8144978E-2,-2.6920175E-2,-1.5503353E-4,2.7202463E-3,-1.2156039E-2,-6.494745E-3,-3.1819653E-2,2.943633E-2,-1.350079E-2,-1.0395E-2,-2.2096748E-2],"categories":[2,4,5,1,4,0,2,3,5,0,2,3,0,2,5,1,4,1,2,4,5,2,0,1,3,0,1,0,3,0,2,2,0,3,2,2,0,0,1,2,3,5,0,2,3,4,5,1,1,0,0,1,1,3,1,2,2,3,4,0,0,1,4,1,2,3,4,5,0,2,3,1,2,3,1,3,4,5,0,1,3,4,1,4,0,2,1,4,1,1,1,2,3,4,0,1,4,0,0,0,0,2,0,2,1,3,2,1],"categories_nodes":[0,1,2,3,4,5,6,7,8,9,10,11,12,13,14,15,16,17,18,19,20,21,22,23,24,25,26,27,28,29,30,31,32,33,34,35,36,37,38,39,40,41,42,43,44,45,46,47,48,49,50,51,52,53,55,56,57,58,59,60,61,62],"categories_segments":[0,3,5,9,12,13,15,17,21,22,25,26,27,29,30,31,32,34,35,36,37,42,47,48,49,50,51,52,53,54,56,59,60,63,68,69,70,71,74,78,82,83,84,85,86,88,89,90,91,94,96,97,98,99,100,101,102,103,104,105,106,107],"categories_sizes":[3,2,4,3,1,2,2,4,1,3,1,1,2,1,1,1,2,1,1,1,5,5,1,1,1,1,1,1,1,2,3,1,3,5,1,1,1,3,4,4,1,1,1,1,2,1,1,1,3,2,1,1,1,1,1,1,1,1,1,1,1,1],"default_left":[1,1,1,1,1,1,1,1,1,1,1,1,1,1,1,1,1,1,1,1,1,1,1,1,1,1,1,1,1,1,1,1,1,1,1,1,1,1,1,1,1,1,1,1,1,1,1,1,1,1,1,1,1,1,0,1,1,1,1,1,1,1,1,0,0,0,0,0,0,0,0,0,0,0,0,0,0,0,0,0,0,0,0,0,0,0,0,0,0,0,0,0,0,0,0,0,0,0,0,0,0,0,0,0,0,0,0,0,0,0,0,0,0,0,0,0,0,0,0,0,0,0,0,0,0],"id":11,"left_children":[1,3,5,7,9,11,13,15,17,19,21,23,25,27,29,31,33,35,37,39,41,43,45,47,49,51,53,55,57,59,61,63,65,67,69,71,73,75,77,79,81,83,85,87,89,91,93,95,97,99,101,103,105,107,-1,109,111,113,115,117,119,121,123,-1,-1,-1,-1,-1,-1,-1,-1,-1,-1,-1,-1,-1,-1,-1,-1,-1,-1,-1,-1,-1,-1,-1,-1,-1,-1,-1,-1,-1,-1,-1,-1,-1,-1,-1,-1,-1,-1,-1,-1,-1,-1,-1,-1,-1,-1,-1,-1,-1,-1,-1,-1,-1,-1,-1,-1,-1,-1,-1,-1,-1,-1],"loss_changes":[3.154038E1,5.813474E1,5.6950684E1,8.589745E1,5.8377556E1,6.0930202E1,5.5156246E1,7.196611E1,1.1484044E2,8.4531586E1,1.3641689E2,6.449463E1,9.901119E1,6.897383E1,1.546608E2,1.4040135E2,9.2469284E1,8.840777E1,1.9161403E2,8.792031E1,4.5995567E1,2.4695755E1,4.7376858E1,5.497661E1,4.1686348E1,5.288104E1,5.7599342E1,1.4380577E2,1.17396576E2,1.0650854E2,9.4489624E1,7.3115906E1,1.1512204E2,1.0573209E2,8.215247E1,7.957709E1,1.321552E2,9.774121E1,7.4218185E1,6.177751E1,4.7714764E1,4.00864E1,3.289618E1,9.752548E0,1.7944393E1,1.11293945E2,1.0653114E2,5.8774567E1,4.880507E1,5.2358414E1,2.159008E0,5.2249084E1,6.54465E1,2.1955688E1,0E0,1.190062E2,1.14933395E2,8.646853E1,3.1091858E1,7.362185E1,7.1602936E1,1.7016568E2,4.2580475E1,0E0,0E0,0E0,0E0,0E0,0E0,0E0,0E0,0E0,0E0,0E0,0E0,0E0,0E0,0E0,0E0,0E0,0E0,0E0,0E0,0E0,0E0,0E0,0E0,0E0,0E0,0E0,0E0,0E0,0E0,0E0,0E0,0E0,0E0,0E0,0E0,0E0,0E0,0E0,0E0,0E0,0E0,0E0,0E0,0E0,0E0,0E0,0E0,0E0,0E0,0E0,0E0,0E0,0E0,0E0,0E0,0E0,0E0,0E0,0E0,0E0,0E0],"parents":[2147483647,0,0,1,1,2,2,3,3,4,4,5,5,6,6,7,7,8,8,9,9,10,10,11,11,12,12,13,13,14,14,15,15,16,16,17,17,18,18,19,19,20,20,21,21,22,22,23,23,24,24,25,25,26,26,27,27,28,28,29,29,30,30,31,31,32,32,33,33,34,34,35,35,36,36,37,37,38,38,39,39,40,40,41,41,42,42,43,43,44,44,45,45,46,46,47,47,48,48,49,49,50,50,51,51,52,52,53,53,55,55,56,56,57,57,58,58,59,59,60,60,61,61,62,62],"right_children":[2,4,6,8,10,12,14,16,18,20,22,24,26,28,30,32,34,36,38,40,42,44,46,48,50,52,54,56,58,60,62,64,66,68,70,72,74,76,78,80,82,84,86,88,90,92,94,96,98,100,102,104,106,108,-1,110,112,114,116,118,120,122,124,-1,-1,-1,-1,-1,-1,-1,-1,-1,-1,-1,-1,-1,-1,-1,-1,-1,-1,-1,-1,-1,-1,-1,-1,-1,-1,-1,-1,-1,-1,-1,-1,-1,-1,-1,-1,-1,-1,-1,-1,-1,-1,-1,-1,-1,-1,-1,-1,-1,-1,-1,-1,-1,-1,-1,-1,-1,-1,-1,-1,-1,-1],"split_conditions":[1E-45,1E-45,1E-45,1E-45,1E-45,1E-45,1E-45,1E-45,1E-45,1E-45,1E-45,1E-45,1E-45,1E-45,1E-45,1E-45,1E-45,1E-45,1E-45,1E-45,1E-45,1E-45,1E-45,1E-45,1E-45,1E-45,1E-45,1E-45,1E-45,1E-45,1E-45,1E-45,1E-45,1E-45,1E-45,1E-45,1E-45,1E-45,1E-45,1E-45,1E-45,1E-45,1E-45,1E-45,1E-45,1E-45,1E-45,1E-45,1E-45,1E-45,1E-45,1E-45,1E-45,1E-45,3.4446873E-2,1E-45,1E-45,1E-45,1E-45,1E-45,1E-45,1E-45,1E-45,-1.3907899E-2,4.4604624E-3,2.6817566E-2,8.519181E-3,1.3388251E-2,-1.8563233E-5,-5.3474745E-3,6.007778E-3,1.01748E-2,-2.095615E-3,3.254971E-3,-1.4821457E-2,-5.7420874E-4,-9.958923E-3,1.9177206E-2,-3.782874E-3,2.0241594E-2,1.5067514E-3,-2.3256207E-2,9.477428E-3,3.1067846E-2,-2.7078409E-2,-8.630862E-3,-3.1538587E-3,2.8100917E-2,1.7441517E-2,1.0311844E-2,-2.1742431E-2,8.725413E-3,-1.3152242E-2,-2.102339E-2,3.6833298E-3,5.5871075E-3,1.6960986E-2,3.3008862E-2,-7.850042E-3,-1.6577424E-4,-2.1543149E-2,3.651658E-2,-9.836685E-3,1.5297374E-3,-1.2989896E-2,3.4619894E-2,-2.7052492E-2,-1.6700657E-2,-3.5287052E-2,3.508506E-4,1.0459307E-2,-1.6848954E-3,-3.1484395E-2,-3.5237793E-3,1.8144978E-2,-2.6920175E-2,-1.5503353E-4,2.7202463E-3,-1.2156039E-2,-6.494745E-3,-3.1819653E-2,2.943633E-2,-1.350079E-2,-1.0395E-2,-2.2096748E-2],"split_indices":[4,1,1,9,2,9,9,4,2,0,3,11,0,2,4,2,0,7,10,5,9,1,5,7,3,8,12,12,0,0,0,8,0,1,2,5,1,0,1,9,2,1,12,12,0,0,10,5,0,0,0,7,2,11,0,8,6,3,10,2,1,7,12,0,0,0,0,0,0,0,0,0,0,0,0,0,0,0,0,0,0,0,0,0,0,0,0,0,0,0,0,0,0,0,0,0,0,0,0,0,0,0,0,0,0,0,0,0,0,0,0,0,0,0,0,0,0,0,0,0,0,0,0,0,0],"split_type":[1,1,1,1,1,1,1,1,1,1,1,1,1,1,1,1,1,1,1,1,1,1,1,1,1,1,1,1,1,1,1,1,1,1,1,1,1,1,1,1,1,1,1,1,1,1,1,1,1,1,1,1,1,1,0,1,1,1,1,1,1,1,1,0,0,0,0,0,0,0,0,0,0,0,0,0,0,0,0,0,0,0,0,0,0,0,0,0,0,0,0,0,0,0,0,0,0,0,0,0,0,0,0,0,0,0,0,0,0,0,0,0,0,0,0,0,0,0,0,0,0,0,0,0,0],"sum_hessian":[4.95292E5,2.59301E5,2.35991E5,1.80887E5,7.8414E4,6.5588E4,1.70403E5,8.1236E4,9.9651E4,5.4802E4,2.3612E4,4.5319E4,2.0269E4,9.6312E4,7.4091E4,2.8273E4,5.2963E4,4.7901E4,5.175E4,9.082E3,4.572E4,5.046E3,1.8566E4,2.7757E4,1.7562E4,1.7011E4,3.258E3,6.4513E4,3.1799E4,4.7035E4,2.7056E4,1.287E4,1.5403E4,2.3529E4,2.9434E4,2.7554E4,2.0347E4,4.5048E4,6.702E3,7.04E3,2.042E3,7.45E2,4.4975E4,4.007E3,1.039E3,1.1552E4,7.014E3,2.394E4,3.817E3,1.7248E4,3.14E2,1.5962E4,1.049E3,3.068E3,1.9E2,5.9186E4,5.327E3,2.8679E4,3.12E3,4.1211E4,5.824E3,3.772E3,2.3284E4,2.757E3,1.0113E4,5.181E3,1.0222E4,1.1719E4,1.181E4,2.0109E4,9.325E3,2.0424E4,7.13E3,1.478E4,5.567E3,1.9803E4,2.5245E4,4.691E3,2.011E3,3.494E3,3.546E3,1.387E3,6.55E2,5.98E2,1.47E2,1.8958E4,2.6017E4,1.254E3,2.753E3,8.18E2,2.21E2,8.327E3,3.225E3,3.26E3,3.754E3,1.7845E4,6.095E3,3.18E2,3.499E3,1.6015E4,1.233E3,3.04E2,1E1,1.2895E4,3.067E3,8.33E2,2.16E2,2.167E3,9.01E2,4.3248E4,1.5938E4,3.112E3,2.215E3,2.6702E4,1.977E3,2.599E3,5.21E2,3.7562E4,3.649E3,4.319E3,1.505E3,1.608E3,2.164E3,1.9587E4,3.697E3],"tree_param":{"num_deleted":"0","num_feature":"13","num_nodes":"125","size_leaf_vector":"1"}},{"base_weights":[-9.524778E-8,7.6994402E-3,-8.438062E-3,2.9325325E-2,2.761048E-3,-2.9745702E-2,5.820366E-4,-1.3169162E-2,5.9319153E-2,1.2017558E-2,-1.4144463E-2,9.887476E-4,-5.9052717E-2,1.2622999E-2,-2.2236384E-2,7.322701E-2,-6.3968726E-2,2.1152254E-2,1.5996687E-1,1.4822083E-3,8.821922E-2,2.7840469E-2,-4.903675E-2,2.3052718E-1,-1.4509537E-2,-6.240346E-3,-1.1626218E-1,6.8703294E-3,1.7867707E-1,5.1810898E-2,-3.1653397E-2,1.1583472E-1,-8.204629E-2,1.2496869E-1,-1.2861858E-1,3.741627E-2,-7.5271755E-2,1.7701365E-1,-2.7974507E-1,2.20083E-2,-3.342061E-2,1.3730292E-1,-3.1379465E-2,6.380237E-2,-2.2361076E-2,-9.533514E-2,1.2090781E-2,4.2197764E-1,-2.498632E-1,2.0258309E-4,-1.7655742E-1,-8.5107796E-2,6.4503506E-2,7.512033E-2,-1.3792925E-1,2.0129258E-2,-2.7247809E-2,2.8366125E-1,4.7660574E-2,3.4352332E-1,-6.655805E-2,-2.6406303E-2,-2.2987108E-1,1.6058812E-2,7.488961E-3,-2.1700973E-2,3.0025833E-3,1.8073825E-2,-3.280583E-2,6.1724116E-3,-1.9236488E-2,4.50606E-3,-1.0456238E-2,3.0465843E-3,-1.5448344E-2,2.2810547E-2,1.5722234E-4,-9.818648E-3,-2.91399E-2,1.0666173E-3,8.092458E-3,-6.93785E-3,3.6957264E-3,2.2694467E-2,3.9055129E-3,2.0148559E-2,-1.6352566E-2,1.83324E-2,3.2190394E-3,1.7879222E-3,-9.442207E-3,-1.3194755E-2,-2.09392E-3,8.857142E-3,-3.8080045E-3,5.3121317E-2,3.917015E-2,-6.6668927E-3,-3.1851467E-2,-4.2273505E-3,7.1674073E-3,3.674546E-2,-2.5221318E-2,-1.9887001E-3,-1.8173512E-2,8.555367E-3,-2.670834E-2,3.9763942E-2,-3.6454298E-2,-9.345225E-3,-1.7750716E-2,4.357066E-3,-1.3090213E-3,-6.82637E-4,-9.210232E-3,-3.8601168E-2,3.314461E-2,3.9259728E-2,-3.5572748E-3,3.762334E-2,6.5735364E-3,-1.4601642E-2,6.7877406E-3,-4.195923E-3,3.7935588E-3,-3.5562273E-2,4.242915E-2],"categories":[0,1,2,3,5,0,2,2,4,0,1,3,4,2,5,3,4,2,1,0,3,0,2,3,4,5,0,3,1,0,1,2,4,0,1,3,4,2,2,3,1,2,1,2,2,0,1,3,2,1,2,4,5,1,1,2,4,5,0,1,3,4,0,1,0,2,1,3,4,1,0,2,0,1,3,4,5,2,3,2,3,5,2,2,0,3,4,0,1,2,4,5,3,0,0,1,2,5,1,5,0,2,0,4,3,0,4,0,1,4,0,1,1,0],"categories_nodes":[0,1,2,3,4,5,6,7,8,9,10,11,12,13,14,15,16,17,18,19,20,21,22,23,24,25,26,27,28,29,30,31,32,33,34,35,36,37,38,39,40,41,42,43,44,45,46,47,48,49,50,51,52,53,54,55,56,57,58,59,60,61,62],"categories_segments":[0,1,5,6,7,9,13,15,17,18,19,21,26,28,29,31,33,37,38,40,42,43,44,45,46,48,49,53,54,58,61,62,63,64,65,66,67,69,70,71,72,73,77,79,82,83,84,87,92,93,94,98,100,101,102,104,105,107,108,110,111,112,113],"categories_sizes":[1,4,1,1,2,4,2,2,1,1,2,5,2,1,2,2,4,1,2,2,1,1,1,1,2,1,4,1,4,3,1,1,1,1,1,1,2,1,1,1,1,4,2,3,1,1,3,5,1,1,4,2,1,1,2,1,2,1,2,1,1,1,1],"default_left":[1,1,1,1,1,1,1,1,1,1,1,1,1,1,1,1,1,1,1,1,1,1,1,1,1,1,1,1,1,1,1,1,1,1,1,1,1,1,1,1,1,1,1,1,1,1,1,1,1,1,1,1,1,1,1,1,1,1,1,1,1,1,1,0,0,0,0,0,0,0,0,0,0,0,0,0,0,0,0,0,0,0,0,0,0,0,0,0,0,0,0,0,0,0,0,0,0,0,0,0,0,0,0,0,0,0,0,0,0,0,0,0,0,0,0,0,0,0,0,0,0,0,0,0,0,0,0],"id":12,"left_children":[1,3,5,7,9,11,13,15,17,19,21,23,25,27,29,31,33,35,37,39,41,43,45,47,49,51,53,55,57,59,61,63,65,67,69,71,73,75,77,79,81,83,85,87,89,91,93,95,97,99,101,103,105,107,109,111,113,115,117,119,121,123,125,-1,-1,-1,-1,-1,-1,-1,-1,-1,-1,-1,-1,-1,-1,-1,-1,-1,-1,-1,-1,-1,-1,-1,-1,-1,-1,-1,-1,-1,-1,-1,-1,-1,-1,-1,-1,-1,-1,-1,-1,-1,-1,-1,-1,-1,-1,-1,-1,-1,-1,-1,-1,-1,-1,-1,-1,-1,-1,-1,-1,-1,-1,-1,-1],"loss_changes":[3.2178467E1,2.7658125E1,4.5419052E1,6.1365074E1,3.2992905E1,6.3308205E1,4.5618248E1,8.744011E1,1.084166E2,1.09374054E2,1.0928226E2,1.2205241E2,1.0870205E2,1.0381772E2,3.9992043E1,4.881456E1,1.5326265E2,3.2096874E1,5.8215927E1,8.575029E1,9.714679E1,6.1126724E1,1.1529967E2,1.9968243E2,7.66216E1,1.0439025E2,7.162381E1,4.75193E1,5.0039696E1,2.2346451E2,5.2912533E1,1.0595924E1,2.4041157E1,8.08824E1,1.1343718E2,1.9011034E1,2.4746386E1,6.696686E1,5.8499146E-1,5.036341E1,1.1217062E2,1.0332489E2,1.48232E2,7.4528915E1,4.0981037E1,6.3140717E1,6.737896E1,4.924713E0,7.763653E0,8.9453735E1,1.1018938E2,5.5751152E1,6.886615E1,2.4928723E2,2.7292816E1,5.8907715E1,3.893474E1,6.476836E1,4.652453E1,1.6948792E1,4.9189934E1,4.9605522E1,1.0807869E2,0E0,0E0,0E0,0E0,0E0,0E0,0E0,0E0,0E0,0E0,0E0,0E0,0E0,0E0,0E0,0E0,0E0,0E0,0E0,0E0,0E0,0E0,0E0,0E0,0E0,0E0,0E0,0E0,0E0,0E0,0E0,0E0,0E0,0E0,0E0,0E0,0E0,0E0,0E0,0E0,0E0,0E0,0E0,0E0,0E0,0E0,0E0,0E0,0E0,0E0,0E0,0E0,0E0,0E0,0E0,0E0,0E0,0E0,0E0,0E0,0E0,0E0,0E0,0E0],"parents":[2147483647,0,0,1,1,2,2,3,3,4,4,5,5,6,6,7,7,8,8,9,9,10,10,11,11,12,12,13,13,14,14,15,15,16,16,17,17,18,18,19,19,20,20,21,21,22,22,23,23,24,24,25,25,26,26,27,27,28,28,29,29,30,30,31,31,32,32,33,33,34,34,35,35,36,36,37,37,38,38,39,39,40,40,41,41,42,42,43,43,44,44,45,45,46,46,47,47,48,48,49,49,50,50,51,51,52,52,53,53,54,54,55,55,56,56,57,57,58,58,59,59,60,60,61,61,62,62],"right_children":[2,4,6,8,10,12,14,16,18,20,22,24,26,28,30,32,34,36,38,40,42,44,46,48,50,52,54,56,58,60,62,64,66,68,70,72,74,76,78,80,82,84,86,88,90,92,94,96,98,100,102,104,106,108,110,112,114,116,118,120,122,124,126,-1,-1,-1,-1,-1,-1,-1,-1,-1,-1,-1,-1,-1,-1,-1,-1,-1,-1,-1,-1,-1,-1,-1,-1,-1,-1,-1,-1,-1,-1,-1,-1,-1,-1,-1,-1,-1,-1,-1,-1,-1,-1,-1,-1,-1,-1,-1,-1,-1,-1,-1,-1,-1,-1,-1,-1,-1,-1,-1,-1,-1,-1,-1,-1],"split_conditions":[1E-45,1E-45,1E-45,1E-45,1E-45,1E-45,1E-45,1E-45,1E-45,1E-45,1E-45,1E-45,1E-45,1E-45,1E-45,1E-45,1E-45,1E-45,1E-45,1E-45,1E-45,1E-45,1E-45,1E-45,1E-45,1E-45,1E-45,1E-45,1E-45,1E-45,1E-45,1E-45,1E-45,1E-45,1E-45,1E-45,1E-45,1E-45,1E-45,1E-45,1E-45,1E-45,1E-45,1E-45,1E-45,1E-45,1E-45,1E-45,1E-45,1E-45,1E-45,1E-45,1E-45,1E-45,1E-45,1E-45,1E-45,1E-45,1E-45,1E-45,1E-45,1E-45,1E-45,1.6058812E-2,7.488961E-3,-2.1700973E-2,3.0025833E-3,1.8073825E-2,-3.280583E-2,6.1724116E-3,-1.9236488E-2,4.50606E-3,-1.0456238E-2,3.0465843E-3,-1.5448344E-2,2.2810547E-2,1.5722234E-4,-9.818648E-3,-2.91399E-2,1.0666173E-3,8.092458E-3,-6.93785E-3,3.6957264E-3,2.2694467E-2,3.9055129E-3,2.0148559E-2,-1.6352566E-2,1.83324E-2,3.2190394E-3,1.7879222E-3,-9.442207E-3,-1.3194755E-2,-2.09392E-3,8.857142E-3,-3.8080045E-3,5.3121317E-2,3.917015E-2,-6.6668927E-3,-3.1851467E-2,-4.2273505E-3,7.1674073E-3,3.674546E-2,-2.5221318E-2,-1.9887001E-3,-1.8173512E-2,8.555367E-3,-2.670834E-2,3.9763942E-2,-3.6454298E-2,-9.345225E-3,-1.7750716E-2,4.357066E-3,-1.3090213E-3,-6.82637E-4,-9.210232E-3,-3.8601168E-2,3.314461E-2,3.9259728E-2,-3.5572748E-3,3.762334E-2,6.5735364E-3,-1.4601642E-2,6.7877406E-3,-4.195923E-3,3.7935588E-3,-3.5562273E-2,4.242915E-2],"split_indices":[12,4,8,2,0,4,4,0,6,2,1,9,1,6,9,1,1,1,0,1,12,6,6,2,0,2,9,1,1,0,0,3,5,7,7,7,0,12,1,10,2,1,4,9,1,11,9,1,0,2,1,9,9,2,4,0,4,11,0,2,7,6,2,0,0,0,0,0,0,0,0,0,0,0,0,0,0,0,0,0,0,0,0,0,0,0,0,0,0,0,0,0,0,0,0,0,0,0,0,0,0,0,0,0,0,0,0,0,0,0,0,0,0,0,0,0,0,0,0,0,0,0,0,0,0,0,0],"split_type":[1,1,1,1,1,1,1,1,1,1,1,1,1,1,1,1,1,1,1,1,1,1,1,1,1,1,1,1,1,1,1,1,1,1,1,1,1,1,1,1,1,1,1,1,1,1,1,1,1,1,1,1,1,1,1,1,1,1,1,1,1,1,1,0,0,0,0,0,0,0,0,0,0,0,0,0,0,0,0,0,0,0,0,0,0,0,0,0,0,0,0,0,0,0,0,0,0,0,0,0,0,0,0,0,0,0,0,0,0,0,0,0,0,0,0,0,0,0,0,0,0,0,0,0,0,0,0],"sum_hessian":[4.95292E5,2.58978E5,2.36314E5,4.8144E4,2.10834E5,7.0284E4,1.6603E5,1.9921E4,2.8223E4,1.36238E5,7.4596E4,3.4307E4,3.5977E4,1.08681E5,5.7349E4,7.376E3,1.2545E4,2.0464E4,7.759E3,1.19691E5,1.6547E4,3.3857E4,4.0739E4,2.169E3,3.2138E4,1.8708E4,1.7269E4,1.05043E5,