{"learner":{"attributes":{"best_iteration":"26","best_score":"0.6961685268317952","scikit_learn":"{\"_estimator_type\": \"classifier\"}"},"feature_names":["engage_delta","catch_delta","range_delta","tankiness_delta","dpm_delta","synergy_delta","counter_delta"],"feature_types":["float","float","float","float","float","float","float"],"gradient_booster":{"model":{"cats":{"enc":[],"feature_segments":[],"sorted_idx":[]},"gbtree_model_param":{"num_parallel_tree":"1","num_trees":"77"},"iteration_indptr":[0,1,2,3,4,5,6,7,8,9,10,11,12,13,14,15,16,17,18,19,20,21,22,23,24,25,26,27,28,29,30,31,32,33,34,35,36,37,38,39,40,41,42,43,44,45,46,47,48,49,50,51,52,53,54,55,56,57,58,59,60,61,62,63,64,65,66,67,68,69,70,71,72,73,74,75,76,77],"tree_info":[0,0,0,0,0,0,0,0,0,0,0,0,0,0,0,0,0,0,0,0,0,0,0,0,0,0,0,0,0,0,0,0,0,0,0,0,0,0,0,0,0,0,0,0,0,0,0,0,0,0,0,0,0,0,0,0,0,0,0,0,0,0,0,0,0,0,0,0,0,0,0,0,0,0,0,0,0],"trees":[{"base_weights":[-6.791471E-2,2.846498E-1,-3.32908E-1,4.2866975E-1,-1.7896561E-2,-3.7605193E-2,-2.161734E-1,5.7172394E-1,3.048016E-3,-3.8034725E-1,1.6296519E-2,1.0777957E-2,4.7025625E-2,-3.0132877E-2,-9.931648E-3],"categories":[],"categories_nodes":[],"categories_segments":[],"categories_sizes":[],"default_left":[0,0,0,0,0,0,0,0,0,0,0,0,0,0,0],"id":0,"left_children":[1,3,5,7,-1,-1,9,11,-1,13,-1,-1,-1,-1,-1],"loss_changes":[1.2135814E1,5.5099254E0,3.854786E0,2.3769598E0,0E0,0E0,5.724758E0,4.6274195E0,0E0,1.9490223E0,0E0,0E0,0E0,0E0,0E0],"parents":[2147483647,0,0,1,1,2,2,3,3,6,6,7,7,9,9],"right_children":[2,4,6,8,-1,-1,10,12,-1,14,-1,-1,-1,-1,-1],"split_conditions":[-1.8732396E-1,1.0384616E0,1.4696907E-2,-3.6900657E-1,-1.7896561E-2,-3.7605193E-2,1.5384616E-1,-6.1944586E-1,3.048016E-3,-2.9141036E-1,1.6296519E-2,1.0777957E-2,4.7025625E-2,-3.0132877E-2,-9.931648E-3],"split_indices":[3,2,3,3,0,0,2,3,0,5,0,0,0,0,0],"split_type":[0,0,0,0,0,0,0,0,0,0,0,0,0,0,0],"sum_hessian":[1.27881615E2,5.484202E1,7.30396E1,4.5369305E1,9.4727125E0,1.3461223E1,5.9578373E1,3.2157364E1,1.3211941E1,4.6366432E1,1.3211941E1,1.8696142E1,1.3461223E1,1.720045E1,2.9165981E1],"tree_param":{"num_deleted":"0","num_feature":"7","num_nodes":"15","size_leaf_vector":"1"}},{"base_weights":[2.032997E-2,-1.8834655E-1,1.4925462E-1,1.7042492E-1,-5.432896E-1,2.3548654E-1,-2.3611873E-2,2.4979612E-2,-3.199876E-2,-9.523251E-3,-6.971304E-1,-2.227523E-2,4.9546388E-1,2.5415588E-3,-5.286372E-3,-3.8645748E-2,-2.3427488E-2,-1.959682E-2,2.5680298E-2,6.191714E-3,3.2715052E-2],"categories":[],"categories_nodes":[],"categories_segments":[],"categories_sizes":[],"default_left":[0,0,0,0,0,0,0,0,0,0,0,0,0,0,0,0,0,0,0,0,0],"id":1,"left_children":[1,3,5,7,9,11,-1,-1,13,-1,15,17,19,-1,-1,-1,-1,-1,-1,-1,-1],"loss_changes":[3.5947835E0,6.5959573E0,4.748667E0,1.9245571E0,1.2181239E0,4.9385605E0,0E0,0E0,1.2823376E-1,0E0,2.2359848E-2,8.702818E0,2.570139E0,0E0,0E0,0E0,0E0,0E0,0E0,0E0,0E0],"parents":[2147483647,0,0,1,1,2,2,3,3,4,4,5,5,8,8,10,10,11,11,12,12],"right_children":[2,4,6,8,10,12,-1,-1,14,-1,16,18,20,-1,-1,-1,-1,-1,-1,-1,-1],"split_conditions":[-2.5957054E-1,-6.9021595E-1,1.229007E0,-2.3232977E-1,-3.846154E-1,7.6923077E-3,-2.3611873E-2,2.4979612E-2,7.6923077E-3,-9.523251E-3,-1.5103085E-1,2.2359757E-1,1.460985E-1,2.5415588E-3,-5.286372E-3,-3.8645748E-2,-2.3427488E-2,-1.959682E-2,2.5680298E-2,6.191714E-3,3.2715052E-2],"split_indices":[5,5,5,4,2,2,0,0,2,0,4,4,5,0,0,0,0,0,0,0,0],"split_type":[0,0,0,0,0,0,0,0,0,0,0,0,0,0,0,0,0,0,0,0,0],"sum_hessian":[1.3157256E2,5.0069508E1,8.150305E1,2.5158997E1,2.491051E1,7.2531715E1,8.971334E0,8.467716E0,1.669128E1,8.46456E0,1.644595E1,3.6880165E1,3.565155E1,8.218502E0,8.472779E0,8.222403E0,8.223548E0,2.1929304E1,1.4950861E1,1.3212858E1,2.2438692E1],"tree_param":{"num_deleted":"0","num_feature":"7","num_nodes":"21","size_leaf_vector":"1"}},{"base_weights":[-4.8526786E-2,2.0512551E-2,-1.1471305E-1,-3.850068E-1,-4.6185763E-3,-4.2779744E-2,-1.8381745E-1,1.0396451E-1,-2.0597516E-2,1.0642772E-2,-2.5331903E-2,1.3490949E-3,2.1121046E-2],"categories":[],"categories_nodes":[],"categories_segments":[],"categories_sizes":[],"default_left":[0,0,0,0,0,0,0,0,0,0,0,0,0],"id":2,"left_children":[1,-1,3,5,7,-1,9,11,-1,-1,-1,-1,-1],"loss_changes":[4.3151603E0,0E0,3.505348E0,3.4264245E0,4.0300927E0,0E0,3.8820877E0,1.7672313E0,0E0,0E0,0E0,0E0,0E0],"parents":[2147483647,0,0,2,2,3,3,4,4,6,6,7,7],"right_children":[2,-1,4,6,8,-1,10,12,-1,-1,-1,-1,-1],"split_conditions":[-8.70223E-1,2.0512551E-2,-2.5957054E-1,-1E0,9.1290045E-1,-4.2779744E-2,-5.8902556E-1,6.219053E-1,-2.0597516E-2,1.0642772E-2,-2.5331903E-2,1.3490949E-3,2.1121046E-2],"split_indices":[5,0,5,1,5,0,5,5,0,0,0,0,0],"split_type":[0,0,0,0,0,0,0,0,0,0,0,0,0],"sum_hessian":[1.3206232E2,1.5206812E1,1.1685551E2,3.309838E1,8.375713E1,8.208811E0,2.4889568E1,6.7570724E1,1.6186405E1,1.1707598E1,1.3181971E1,5.634567E1,1.1225056E1],"tree_param":{"num_deleted":"0","num_feature":"7","num_nodes":"13","size_leaf_vector":"1"}},{"base_weights":[-5.854199E-2,3.6806512E-1,-2.607301E-1,-1.0544746E-2,6.423166E-1,-3.375797E-1,2.2248952E-2,4.865801E-2,4.1595292E-1,-4.3592265E-1,4.2014485E-3,4.1233567E-3,3.6145464E-2,-2.4315078E-2,-6.3654287E-3],"categories":[],"categories_nodes":[],"categories_segments":[],"categories_sizes":[],"default_left":[0,0,0,0,0,0,0,0,0,0,0,0,0,0,0],"id":3,"left_children":[1,3,5,-1,7,9,-1,-1,11,13,-1,-1,-1,-1,-1],"loss_changes":[1.1828051E1,7.3129935E0,5.393558E0,0E0,2.2661924E0,3.591833E0,0E0,0E0,2.3541634E0,1.6021404E0,0E0,0E0,0E0,0E0,0E0],"parents":[2147483647,0,0,1,1,2,2,4,4,5,5,8,8,9,9],"right_children":[2,4,6,-1,8,10,-1,-1,12,14,-1,-1,-1,-1,-1],"split_conditions":[-3.6900657E-1,-3.833335E-1,8.733589E-1,-1.0544746E-2,7.2733276E-2,7.088981E-1,2.2248952E-2,4.865801E-2,-7.500829E-2,4.1992447E-1,4.2014485E-3,4.1233567E-3,3.6145464E-2,-2.4315078E-2,-6.3654287E-3],"split_indices":[3,6,6,0,6,5,0,0,5,6,0,0,0,0,0],"split_type":[0,0,0,0,0,0,0,0,0,0,0,0,0,0,0],"sum_hessian":[1.3501648E2,4.3150536E1,9.1865944E1,1.3718007E1,2.9432528E1,8.364116E1,8.224784E0,9.478195E0,1.9954332E1,6.796154E1,1.5679616E1,1.09689665E1,8.985366E0,5.3025036E1,1.4936508E1],"tree_param":{"num_deleted":"0","num_feature":"7","num_nodes":"15","size_leaf_vector":"1"}},{"base_weights":[5.3946525E-2,1.1137743E-1,-1.9186147E-2,4.7660388E-2,4.0635567E-2,2.8084213E-1,-1.12437226E-1,3.8202714E-2,6.444197E-3,1.1309457E-2,-1.3298766E-2],"categories":[],"categories_nodes":[],"categories_segments":[],"categories_sizes":[],"default_left":[0,0,0,0,0,0,0,0,0,0,0],"id":4,"left_children":[1,3,-1,5,-1,7,9,-1,-1,-1,-1],"loss_changes":[3.570087E0,5.6620426E0,0E0,4.1680293E0,0E0,3.3566089E0,4.051728E0,0E0,0E0,0E0,0E0],"parents":[2147483647,0,0,1,1,3,3,5,5,6,6],"right_children":[2,4,-1,6,-1,8,10,-1,-1,-1,-1],"split_conditions":[9.1290045E-1,6.851463E-1,-1.9186147E-2,-2.198357E-1,4.0635567E-2,-1.0769231E-1,-5.153615E-1,3.8202714E-2,6.444197E-3,1.1309457E-2,-1.3298766E-2],"split_indices":[5,5,0,3,0,2,5,0,0,0,0],"split_type":[0,0,0,0,0,0,0,0,0,0,0],"sum_hessian":[1.3197365E2,1.1804378E2,1.3929875E1,1.0980226E2,8.241513E0,4.4391693E1,6.541057E1,8.481189E0,3.5910503E1,2.1146736E1,4.4263836E1],"tree_param":{"num_deleted":"0","num_feature":"7","num_nodes":"11","size_leaf_vector":"1"}},{"base_weights":[6.296428E-2,6.483076E-3,3.457524E-2,-1.8902825E-1,1.1517094E-1,-7.438475E-2,-2.8993951E-2,2.1534355E-1,-2.0461506E-1,-1.1436283E-2,7.612694E-3,-1.3758276E-2,1.5764581E-2,-4.4161435E-3,-1.3922834E-2],"categories":[],"categories_nodes":[],"categories_segments":[],"categories_sizes":[],"default_left":[0,0,0,0,0,0,0,0,0,0,0,0,0,0,0],"id":5,"left_children":[1,3,-1,5,7,9,-1,11,13,-1,-1,-1,-1,-1,-1],"loss_changes":[5.1233425E0,2.693241E0,0E0,2.1711843E0,2.6522987E0,1.5057675E0,0E0,3.890411E0,1.7360157E-1,0E0,0E0,0E0,0E0,0E0,0E0],"parents":[2147483647,0,0,1,1,3,3,4,4,5,5,7,7,8,8],"right_children":[2,4,-1,6,8,10,-1,12,14,-1,-1,-1,-1,-1,-1],"split_conditions":[1.1021549E0,-3.0526745E-1,3.457524E-2,-4.475862E-1,6.0647804E-1,1.5663575E-1,-2.8993951E-2,-1E0,0E0,-1.1436283E-2,7.612694E-3,-1.3758276E-2,1.5764581E-2,-4.4161435E-3,-1.3922834E-2],"split_indices":[6,6,0,6,6,4,0,1,1,0,0,0,0,0,0],"split_type":[0,0,0,0,0,0,0,0,0,0,0,0,0,0,0],"sum_hessian":[1.3419771E2,1.2471799E2,9.479718E0,4.4296608E1,8.042139E1,3.58452E1,8.451406E0,6.148719E1,1.8934195E1,2.0896946E1,1.4948255E1,1.1446006E1,5.0041183E1,9.462676E0,9.471518E0],"tree_param":{"num_deleted":"0","num_feature":"7","num_nodes":"15","size_leaf_vector":"1"}},{"base_weights":[-1.6119732E-2,3.375808E-1,-2.956729E-1,-1.2501316E-2,4.77099E-1,-4.6017244E-2,-1.3615377E-1,1.5858074E-3,6.3120025E-1,-2.4217597E-1,8.812973E-3,1.9450536E-2,5.1789917E-2,1.0179974E-2,-1.8465234E-2],"categories":[],"categories_nodes":[],"categories_segments":[],"categories_sizes":[],"default_left":[0,0,0,0,0,0,0,0,0,0,0,0,0,0,0],"id":6,"left_children":[1,3,5,-1,7,-1,9,-1,11,13,-1,-1,-1,-1,-1],"loss_changes":[1.2902333E1,4.9760103E0,7.7917733E0,0E0,3.201024E0,0E0,2.1094131E0,0E0,3.1177053E0,3.2347164E0,0E0,0E0,0E0,0E0,0E0],"parents":[2147483647,0,0,1,1,2,2,4,4,6,6,8,8,9,9],"right_children":[2,4,6,-1,8,-1,10,-1,12,14,-1,-1,-1,-1,-1],"split_conditions":[-1.8732396E-1,-1.0377398E0,1.4696907E-2,-1.2501316E-2,0E0,-4.6017244E-2,2E0,1.5858074E-3,5.538807E-1,0E0,8.812973E-3,1.9450536E-2,5.1789917E-2,1.0179974E-2,-1.8465234E-2],"split_indices":[3,3,3,0,0,0,0,0,4,0,0,0,0,0,0],"split_type":[0,0,0,0,0,0,0,0,0,0,0,0,0,0,0],"sum_hessian":[1.2847781E2,5.6625565E1,7.185224E1,1.0467825E1,4.615774E1,1.264935E1,5.9202892E1,1.2218612E1,3.393913E1,4.4774353E1,1.4428537E1,2.4454536E1,9.484592E0,1.0935264E1,3.3839092E1],"tree_param":{"num_deleted":"0","num_feature":"7","num_nodes":"15","size_leaf_vector":"1"}},{"base_weights":[7.1232766E-2,-2.6732473E-2,7.212875E-1,1.9318534E-1,-3.10967E-1,2.1062233E-2,4.3271795E-2,4.427534E-1,-9.67646E-2,-5.7983947E-1,7.2001055E-2,1.1900278E-2,4.45719E-2,-3.5867143E-2,8.020168E-3,-1.7875046E-2,-4.7720768E-2,1.5695449E-2,-1.1179558E-2],"categories":[],"categories_nodes":[],"categories_segments":[],"categories_sizes":[],"default_left":[0,0,0,0,0,0,0,0,0,0,0,0,0,0,0,0,0,0,0],"id":7,"left_children":[1,3,5,7,9,-1,-1,11,13,15,17,-1,-1,-1,-1,-1,-1,-1,-1],"loss_changes":[8.736135E0,7.5558767E0,5.625162E-1,4.979719E0,5.467479E0,0E0,0E0,3.288772E0,5.883904E0,2.312767E0,1.9098296E0,0E0,0E0,0E0,0E0,0E0,0E0,0E0,0E0],"parents":[2147483647,0,0,1,1,2,2,3,3,4,4,7,7,8,8,9,9,10,10],"right_children":[2,4,6,8,10,-1,-1,12,14,16,18,-1,-1,-1,-1,-1,-1,-1,-1],"split_conditions":[8.733589E-1,1.2955748E-1,-7.0245385E-2,3.846154E-1,6.912688E-1,2.1062233E-2,4.3271795E-2,3.1429264E-1,5.769231E-1,2.1314038E-1,-4.6923077E-1,1.1900278E-2,4.45719E-2,-3.5867143E-2,8.020168E-3,-1.7875046E-2,-4.7720768E-2,1.5695449E-2,-1.1179558E-2],"split_indices":[6,3,3,2,3,0,0,6,2,6,2,0,0,0,0,0,0,0,0],"split_type":[0,0,0,0,0,0,0,0,0,0,0,0,0,0,0,0,0,0,0],"sum_hessian":[1.3587932E2,1.1891704E2,1.6962286E1,6.722447E1,5.1692562E1,8.485649E0,8.476637E0,3.5844826E1,3.1379646E1,3.0068289E1,2.1624275E1,2.7126135E1,8.718691E0,8.460495E0,2.2919151E1,2.1862371E1,8.205916E0,1.1680461E1,9.943814E0],"tree_param":{"num_deleted":"0","num_feature":"7","num_nodes":"19","size_leaf_vector":"1"}},{"base_weights":[5.690809E-2,3.9370355E-1,-3.1994928E-2,5.38258E-1,5.2495426E-3,-4.0608165E-1,6.1053824E-2,1.015894E-2,3.8245015E-2,-1.4876684E-3,-3.9298754E-2,-1.8237663E-2,1.6048346E-1,3.3895686E-2,1.6738587E-3],"categories":[],"categories_nodes":[],"categories_segments":[],"categories_sizes":[],"default_left":[0,0,0,0,0,0,0,0,0,0,0,0,0,0,0],"id":8,"left_children":[1,3,5,7,-1,9,11,-1,-1,-1,-1,-1,13,-1,-1],"loss_changes":[4.0052824E0,1.0789809E0,3.729211E0,1.4341941E0,0E0,3.39847E0,3.9014623E0,0E0,0E0,0E0,0E0,0E0,4.9502945E0,0E0,0E0],"parents":[2147483647,0,0,1,1,2,2,3,3,5,5,6,6,12,12],"right_children":[2,4,6,8,-1,10,12,-1,-1,-1,-1,-1,14,-1,-1],"split_conditions":[-6.975422E-1,3.3440927E-1,-3.6140418E-1,-1.0184766E0,5.2495426E-3,-5.1232564E-1,-6.356155E-1,1.015894E-2,3.8245015E-2,-1.4876684E-3,-3.9298754E-2,-1.8237663E-2,-3.550995E-1,3.3895686E-2,1.6738587E-3],"split_indices":[5,4,5,5,0,5,4,0,0,0,0,0,4,0,0],"split_type":[0,0,0,0,0,0,0,0,0,0,0,0,0,0,0],"sum_hessian":[1.3234674E2,2.6923338E1,1.054234E2,1.720312E1,9.720219E0,2.0329184E1,8.5094215E1,8.727807E0,8.475311E0,1.1424993E1,8.904192E0,1.4915973E1,7.0178246E1,1.1937842E1,5.8240402E1],"tree_param":{"num_deleted":"0","num_feature":"7","num_nodes":"15","size_leaf_vector":"1"}},{"base_weights":[-1.6015174E-2,2.4781322E-1,-1.9819942E-1,-1.0374361E-2,3.3891603E-1,-4.153992E-2,-3.8633678E-2,-7.457927E-3,5.617261E-1,3.736414E-2,-1.7336147E-1,2.7214915E-2,-2.6586048E-2,4.5701835E-2,1.5695186E-2,-3.0920925E-2,-3.8099937E-5],"categories":[],"categories_nodes":[],"categories_segments":[],"categories_sizes":[],"default_left":[0,0,0,0,0,0,0,0,0,0,0,0,0,0,0,0,0],"id":9,"left_children":[1,3,5,-1,7,-1,9,11,13,-1,15,-1,-1,-1,-1,-1,-1],"loss_changes":[6.3968554E0,2.3946726E0,8.55631E0,0E0,3.5484142E0,0E0,7.4097533E0,6.51621E0,2.2880669E0,0E0,4.7244663E0,0E0,0E0,0E0,0E0,0E0,0E0],"parents":[2147483647,0,0,1,1,2,2,4,4,6,6,7,7,8,8,10,10],"right_children":[2,4,6,-1,8,-1,10,12,14,-1,16,-1,-1,-1,-1,-1,-1],"split_conditions":[-1.8732396E-1,-1.0377398E0,1.4696907E-2,-1.0374361E-2,-2.3854469E-1,-4.153992E-2,1.3553235E-1,-7.4481475E-1,-7.210791E-1,3.736414E-2,-5.3027755E-1,2.7214915E-2,-2.6586048E-2,4.5701835E-2,1.5695186E-2,-3.0920925E-2,-3.8099937E-5],"split_indices":[3,3,3,0,5,0,3,5,3,0,4,0,0,0,0,0,0],"split_type":[0,0,0,0,0,0,0,0,0,0,0,0,0,0,0,0,0],"sum_hessian":[1.3106467E2,5.338927E1,7.76754E1,8.465098E0,4.492417E1,1.3831194E1,6.3844208E1,1.7964153E1,2.6960018E1,8.212477E0,5.563173E1,8.741655E0,9.222498E0,8.49022E0,1.8469799E1,1.3893172E1,4.173856E1],"tree_param":{"num_deleted":"0","num_feature":"7","num_nodes":"17","size_leaf_vector":"1"}},{"base_weights":[-2.6705753E-2,-1.191171E-1,3.1388503E-2,1.080255E-1,-2.91102E-1,-2.3598947E-2,3.0984187E-1,-4.1782442E-2,-1.5520303E-1,4.5006853E-2,4.876353E-3,-4.3257918E-5,-2.9339993E-2],"categories":[],"categories_nodes":[],"categories_segments":[],"categories_sizes":[],"default_left":[0,0,0,0,0,0,0,0,0,0,0,0,0],"id":10,"left_children":[1,3,-1,5,7,-1,9,-1,11,-1,-1,-1,-1],"loss_changes":[8.428956E0,4.5555186E0,0E0,6.3819966E0,5.2270784E0,0E0,5.0532174E0,0E0,3.979507E0,0E0,0E0,0E0,0E0],"parents":[2147483647,0,0,1,1,3,3,4,4,6,6,8,8],"right_children":[2,4,-1,6,8,-1,10,-1,12,-1,-1,-1,-1],"split_conditions":[8.733589E-1,-1.8732396E-1,3.1388503E-2,-5.089655E-1,1.4696907E-2,-2.3598947E-2,-6.967918E-2,-4.1782442E-2,3.2778585E-1,4.5006853E-2,4.876353E-3,-4.3257918E-5,-2.9339993E-2],"split_indices":[6,3,0,6,3,0,6,0,6,0,0,0,0],"split_type":[0,0,0,0,0,0,0,0,0,0,0,0,0],"sum_hessian":[1.2927834E2,1.1480856E2,1.4469777E1,4.96315E1,6.517706E1,1.1978725E1,3.7652775E1,1.10669365E1,5.4110123E1,8.229435E0,2.942334E1,4.145026E1,1.2659865E1],"tree_param":{"num_deleted":"0","num_feature":"7","num_nodes":"13","size_leaf_vector":"1"}},{"base_weights":[4.9169487E-3,-8.2530476E-2,3.1372882E-2,-4.7882754E-1,1.9319594E-2,-1.0871456E-2,-3.4770012E-2,3.2952152E-2,-5.7593703E-2,-1.2646858E-2,5.321242E-3],"categories":[],"categories_nodes":[],"categories_segments":[],"categories_sizes":[],"default_left":[0,0,0,0,0,0,0,0,0,0,0],"id":11,"left_children":[1,3,-1,5,7,-1,-1,-1,9,-1,-1],"loss_changes":[7.911197E0,4.886366E0,0E0,1.4230328E0,5.1235056E0,0E0,0E0,0E0,3.205585E0,0E0,0E0],"parents":[2147483647,0,0,1,1,3,3,4,4,8,8],"right_children":[2,4,-1,6,8,-1,-1,-1,10,-1,-1],"split_conditions":[8.733589E-1,-6.356155E-1,3.1372882E-2,-9.4426024E-1,-4.6187374E-1,-1.0871456E-2,-3.4770012E-2,3.2952152E-2,1.8088588E-1,-1.2646858E-2,5.321242E-3],"split_indices":[6,4,0,4,4,0,0,0,4,0,0],"split_type":[0,0,0,0,0,0,0,0,0,0,0],"sum_hessian":[1.3479588E2,1.1983169E2,1.4964206E1,2.3743763E1,9.608792E1,1.3118229E1,1.0625535E1,8.932153E0,8.715577E1,3.870441E1,4.845136E1],"tree_param":{"num_deleted":"0","num_feature":"7","num_nodes":"11","size_leaf_vector":"1"}},{"base_weights":[1.3804991E-2,-8.8011414E-2,3.8076352E-2,1.7050716E-1,-2.7626148E-1,-1.156919E-2,2.9989275E-1,-5.7725295E-2,-8.2638735E-1,8.940236E-4,2.2931011E-2,-2.9403495E-2,3.9242194E-3,-4.832071E-2,-2.3586351E-2],"categories":[],"categories_nodes":[],"categories_segments":[],"categories_sizes":[],"default_left":[0,0,0,0,0,0,0,0,0,0,0,0,0,0,0],"id":12,"left_children":[1,3,-1,5,7,-1,9,11,13,-1,-1,-1,-1,-1,-1],"loss_changes":[1.1203403E1,6.023536E0,0E0,2.8940592E0,8.5411625E0,0E0,2.115691E0,4.22792E0,8.032236E-1,0E0,0E0,0E0,0E0,0E0,0E0],"parents":[2147483647,0,0,1,1,3,3,4,4,6,6,7,7,8,8],"right_children":[2,4,-1,6,8,-1,10,12,14,-1,-1,-1,-1,-1,-1],"split_conditions":[8.733589E-1,-1.8732396E-1,3.8076352E-2,-6.3587624E-1,2.2971722E-1,-1.156919E-2,-3.4823328E-1,1.4696907E-2,4.9431396E-1,8.940236E-4,2.2931011E-2,-2.9403495E-2,3.9242194E-3,-4.832071E-2,-2.3586351E-2],"split_indices":[6,3,0,6,6,0,5,3,3,0,0,0,0,0,0],"split_type":[0,0,0,0,0,0,0,0,0,0,0,0,0,0,0],"sum_hessian":[1.3651317E2,1.2180471E2,1.4708462E1,5.1363247E1,7.044147E1,1.1965593E1,3.9397655E1,5.120524E1,1.9236227E1,1.6199162E1,2.3198492E1,9.521052E0,4.1684185E1,1.0574737E1,8.66149E0],"tree_param":{"num_deleted":"0","num_feature":"7","num_nodes":"15","size_leaf_vector":"1"}},{"base_weights":[2.0202093E-2,-2.7466001E-2,2.6437221E-2,2.1683347E-1,-1.6755727E-1,-1.2038412E-1,6.9247967E-1,-2.4385723E-1,1.3944967E-2,9.174375E-3,-2.6059572E-2,4.26792E-2,1.7610101E-2,-5.747402E-3,-3.5774626E-2],"categories":[],"categories_nodes":[],"categories_segments":[],"categories_sizes":[],"default_left":[0,0,0,0,0,0,0,0,0,0,0,0,0,0,0],"id":13,"left_children":[1,3,-1,5,7,9,11,13,-1,-1,-1,-1,-1,-1,-1],"loss_changes":[3.3949533E0,4.18776E0,0E0,7.2440987E0,2.8203952E0,3.7924929E0,9.339266E-1,4.1325827E0,0E0,0E0,0E0,0E0,0E0,0E0,0E0],"parents":[2147483647,0,0,1,1,3,3,4,4,5,5,6,6,7,7],"right_children":[2,4,-1,6,8,10,12,14,-1,-1,-1,-1,-1,-1,-1],"split_conditions":[3E0,-1.5384616E-1,2.6437221E-2,1.9311883E-1,4.7153586E-1,-3.550995E-1,6.057006E-1,1.2955748E-1,1.3944967E-2,9.174375E-3,-2.6059572E-2,4.26792E-2,1.7610101E-2,-5.747402E-3,-3.5774626E-2],"split_indices":[0,2,0,4,3,4,3,3,0,0,0,0,0,0,0],"split_type":[0,0,0,0,0,0,0,0,0,0,0,0,0,0,0],"sum_hessian":[1.2994292E2,1.2030086E2,9.642055E0,4.3644024E1,7.665684E1,2.5975294E1,1.7668728E1,6.6234886E1,1.0421951E1,1.5352513E1,1.0622782E1,9.4575615E0,8.211167E0,5.459298E1,1.1641904E1],"tree_param":{"num_deleted":"0","num_feature":"7","num_nodes":"15","size_leaf_vector":"1"}},{"base_weights":[-1.8814579E-2,-7.191422E-2,2.855127E-2,2.1143869E-2,-2.4731271E-1,-1.4828539E-1,4.4192532E-1,-2.7040422E-2,-5.8317572E-2,6.4597265E-3,-1.5014028E-2,6.201997E-4,3.7500143E-2,1.171424E-2,-1.6978173E-2],"categories":[],"categories_nodes":[],"categories_segments":[],"categories_sizes":[],"default_left":[0,0,0,0,0,0,0,0,0,0,0,0,0,0,0],"id":14,"left_children":[1,3,-1,5,7,9,11,-1,13,-1,-1,-1,-1,-1,-1],"loss_changes":[4.5404196E0,2.0571742E0,0E0,5.9869595E0,2.6656837E0,2.9658408E0,3.6540656E0,0E0,2.7632143E0,0E0,0E0,0E0,0E0,0E0,0E0],"parents":[2147483647,0,0,1,1,3,3,4,4,5,5,6,6,8,8],"right_children":[2,4,-1,6,8,10,12,-1,14,-1,-1,-1,-1,-1,-1],"split_conditions":[1.1021549E0,3.3718896E-1,2.855127E-2,-4.345204E-2,6.050289E-1,-6.771505E-1,-1.1155459E-1,-2.7040422E-2,1E0,6.4597265E-3,-1.5014028E-2,6.201997E-4,3.7500143E-2,1.171424E-2,-1.6978173E-2],"split_indices":[6,5,0,5,5,5,6,0,0,0,0,0,0,0,0],"split_type":[0,0,0,0,0,0,0,0,0,0,0,0,0,0,0],"sum_hessian":[1.3441914E2,1.24714615E2,9.704533E0,8.2058E1,4.2656616E1,5.8963657E1,2.3094347E1,1.4872958E1,2.7783657E1,2.2133389E1,3.6830265E1,1.0925897E1,1.2168449E1,1.3870056E1,1.39136E1],"tree_param":{"num_deleted":"0","num_feature":"7","num_nodes":"15","size_leaf_vector":"1"}},{"base_weights":[2.3433043E-2,2.7312753E-1,-8.4829725E-2,9.864563E-2,2.7555194E-2,-4.2649361E-1,9.460706E-3,3.52044E-1,-1.7880842E-2,-3.0606557E-3,-3.490205E-2,-3.1408495E-1,1.5209608E-1,-1.5209677E-3,3.208372E-2,-3.225189E-4,-3.6210224E-2,-7.1519194E-4,2.223393E-2],"categories":[],"categories_nodes":[],"categories_segments":[],"categories_sizes":[],"default_left":[0,0,0,0,0,0,0,0,0,0,0,0,0,0,0,0,0,0,0],"id":15,"left_children":[1,3,5,7,-1,9,11,13,-1,-1,-1,15,17,-1,-1,-1,-1,-1,-1],"loss_changes":[3.6548293E0,2.1689303E0,3.0476053E0,3.4586432E0,0E0,2.2806897E0,3.5098603E0,2.3585293E0,0E0,0E0,0E0,3.250253E0,2.8326573E0,0E0,0E0,0E0,0E0,0E0,0E0],"parents":[2147483647,0,0,1,1,2,2,3,3,5,5,6,6,7,7,11,11,12,12],"right_children":[2,4,6,8,-1,10,12,14,-1,-1,-1,16,18,-1,-1,-1,-1,-1,-1],"split_conditions":[-3.7146202E-1,3.5375708E-1,-6.431862E-1,-1.3645002E-2,2.7555194E-2,-9.4426024E-1,-3.58832E-1,-5.709151E-1,-1.7880842E-2,-3.0606557E-3,-3.490205E-2,-5.9751934E-1,4.8610458E-1,-1.5209677E-3,3.208372E-2,-3.225189E-4,-3.6210224E-2,-7.1519194E-4,2.223393E-2],"split_indices":[3,6,4,6,0,4,6,6,0,0,0,6,3,0,0,0,0,0,0],"split_type":[0,0,0,0,0,0,0,0,0,0,0,0,0,0,0,0,0,0,0],"sum_hessian":[1.3334364E2,3.9868694E1,9.3474945E1,2.642119E1,1.3447502E1,1.9455227E1,7.401972E1,1.7446533E1,8.974658E0,9.620656E0,9.834571E0,2.2279715E1,5.1740005E1,8.46992E0,8.976613E0,1.3907457E1,8.372257E0,3.4611965E1,1.7128038E1],"tree_param":{"num_deleted":"0","num_feature":"7","num_nodes":"19","size_leaf_vector":"1"}},{"base_weights":[-1.9748023E-2,1.9538683E-1,-1.5291743E-1,3.1776223E-2,7.837282E-2,-3.1799443E-2,-4.0115684E-2,-2.8049659E-2,2.5137606E-1,-1.2642361E-1,2.6049588E-2,-1.5356865E-3,2.421329E-2,-2.295294E-2,1.9488103E-3],"categories":[],"categories_nodes":[],"categories_segments":[],"categories_sizes":[],"default_left":[0,0,0,0,0,0,0,0,0,0,0,0,0,0,0],"id":16,"left_children":[1,3,5,-1,7,-1,9,-1,11,13,-1,-1,-1,-1,-1],"loss_changes":[3.9526896E0,2.9101357E0,4.991932E0,0E0,5.232139E0,0E0,3.7112944E0,0E0,2.6592543E0,3.8314228E0,0E0,0E0,0E0,0E0,0E0],"parents":[2147483647,0,0,1,1,2,2,4,4,6,6,8,8,9,9],"right_children":[2,4,6,-1,8,-1,10,-1,12,14,-1,-1,-1,-1,-1],"split_conditions":[-1.8732396E-1,-6.975422E-1,1.4696907E-2,3.1776223E-2,-3.8227803E-1,-3.1799443E-2,8.339262E-1,-2.8049659E-2,-6.1944586E-1,-3.3844805E-1,2.6049588E-2,-1.5356865E-3,2.421329E-2,-2.295294E-2,1.9488103E-3],"split_indices":[3,5,3,0,5,0,6,0,3,5,0,0,0,0,0],"split_type":[0,0,0,0,0,0,0,0,0,0,0,0,0,0,0],"sum_hessian":[1.3592485E2,5.1790394E1,8.413445E1,9.22118E0,4.2569214E1,1.4049796E1,7.008466E1,8.193068E0,3.4376144E1,6.187407E1,8.210588E0,1.6949863E1,1.7426281E1,1.9024323E1,4.2849747E1],"tree_param":{"num_deleted":"0","num_feature":"7","num_nodes":"15","size_leaf_vector":"1"}},{"base_weights":[2.0739583E-2,2.0760132E-1,-1.1034085E-1,3.5684627E-2,-9.16389E-2,-1.9619447E-1,1.823783E-2,-2.8350687E-2,1.4297551E-1,-4.116201E-1,-1.7546952E-2,-1.5401016E-2,2.6066178E-2,-4.513549E-3,-3.70234E-2,1.7319018E-2,-1.07123805E-2],"categories":[],"categories_nodes":[],"categories_segments":[],"categories_sizes":[],"default_left":[0,0,0,0,0,0,0,0,0,0,0,0,0,0,0,0,0],"id":17,"left_children":[1,3,5,-1,7,9,-1,-1,11,13,15,-1,-1,-1,-1,-1,-1],"loss_changes":[3.3440647E0,9.3351555E0,3.5096247E0,0E0,4.5586915E0,2.6555083E0,0E0,0E0,5.277469E0,3.6321168E0,3.2304611E0,0E0,0E0,0E0,0E0,0E0,0E0],"parents":[2147483647,0,0,1,1,2,2,4,4,5,5,8,8,9,9,10,10],"right_children":[2,4,6,-1,8,10,-1,-1,12,14,16,-1,-1,-1,-1,-1,-1],"split_conditions":[-1.8877368E-1,1.15384616E-1,7.650593E-1,3.5684627E-2,0E0,3.377442E-1,1.823783E-2,-2.8350687E-2,5.769231E-1,-1.5332387E-1,6.267818E-1,-1.5401016E-2,2.6066178E-2,-4.513549E-3,-3.70234E-2,1.7319018E-2,-1.07123805E-2],"split_indices":[3,2,6,0,0,3,0,0,2,6,3,0,0,0,0,0,0],"split_type":[0,0,0,0,0,0,0,0,0,0,0,0,0,0,0,0,0],"sum_hessian":[1.3459114E2,5.5248234E1,7.93429E1,1.8916195E1,3.633204E1,6.8188324E1,1.1154578E1,1.09442625E1,2.5387777E1,3.0321024E1,3.78673E1,1.1933167E1,1.345461E1,1.714122E1,1.3179805E1,1.3090294E1,2.4777004E1],"tree_param":{"num_deleted":"0","num_feature":"7","num_nodes":"17","size_leaf_vector":"1"}},{"base_weights":[-2.421593E-3,-4.9293526E-2,2.870329E-2,1.2748085E-2,-3.396998E-2,-8.197332E-2,4.035964E-1,4.928201E-3,-1.2355474E-2,2.9919328E-2,5.9505813E-3],"categories":[],"categories_nodes":[],"categories_segments":[],"categories_sizes":[],"default_left":[0,0,0,0,0,0,0,0,0,0,0],"id":18,"left_children":[1,3,-1,5,-1,7,9,-1,-1,-1,-1],"loss_changes":[3.7984486E0,5.136444E0,0E0,4.2354465E0,0E0,3.1341584E0,1.3545167E0,0E0,0E0,0E0,0E0],"parents":[2147483647,0,0,1,1,3,3,5,5,6,6],"right_children":[2,4,-1,6,-1,8,10,-1,-1,-1,-1],"split_conditions":[3E0,1.0412405E0,2.870329E-2,4.4917458E-1,-3.396998E-2,-2.954182E-1,6.153297E-2,4.928201E-3,-1.2355474E-2,2.9919328E-2,5.9505813E-3],"split_indices":[0,3,0,3,0,3,5,0,0,0,0],"split_type":[0,0,0,0,0,0,0,0,0,0,0],"sum_hessian":[1.3032588E2,1.2191143E2,8.414448E0,1.12510765E2,9.40066E0,9.11991E1,2.1311672E1,4.5040966E1,4.6158127E1,1.0897107E1,1.0414565E1],"tree_param":{"num_deleted":"0","num_feature":"7","num_nodes":"11","size_leaf_vector":"1"}},{"base_weights":[9.267614E-2,1.3323559E-1,-1.9792879E-2,7.1891695E-2,3.215725E-2,1.3679889E-1,-1.855001E-2,4.2493804E-4,1.5631067E-2],"categories":[],"categories_nodes":[],"categories_segments":[],"categories_sizes":[],"default_left":[0,0,0,0,0,0,0,0,0],"id":19,"left_children":[1,3,-1,5,-1,7,-1,-1,-1],"loss_changes":[2.7877898E0,4.079792E0,0E0,3.4180458E0,0E0,2.4513988E0,0E0,0E0,0E0],"parents":[2147483647,0,0,1,1,3,3,5,5],"right_children":[2,4,-1,6,-1,8,-1,-1,-1],"split_conditions":[1.2385675E0,7.7501976E-1,-1.9792879E-2,4.84991E-1,3.215725E-2,-7.500829E-2,-1.855001E-2,4.2493804E-4,1.5631067E-2],"split_indices":[5,5,0,5,0,5,0,0,0],"split_type":[0,0,0,0,0,0,0,0,0],"sum_hessian":[1.3024997E2,1.2139541E2,8.85457E0,1.102299E2,1.1165509E1,9.7372826E1,1.2857066E1,5.949174E1,3.788109E1],"tree_param":{"num_deleted":"0","num_feature":"7","num_nodes":"9","size_leaf_vector":"1"}},{"base_weights":[-2.0089822E-2,3.0821392E-1,-2.043053E-1,5.0214547E-1,-1.0107201E-2,1.9786585E-2,-2.9161674E-1,3.868553E-2,3.0341735E-1,2.2589602E-2,-1.1802209E-2,-3.83969E-2,-1.8551145E-1,-1.6433188E-3,2.3018803E-2,-2.555829E-2,8.101651E-4],"categories":[],"categories_nodes":[],"categories_segments":[],"categories_sizes":[],"default_left":[0,0,0,0,0,0,0,0,0,0,0,0,0,0,0,0,0],"id":20,"left_children":[1,3,5,7,-1,9,11,-1,13,-1,-1,-1,15,-1,-1,-1,-1],"loss_changes":[8.073751E0,4.976425E0,1.6776419E0,1.9945984E0,0E0,3.2188776E0,3.2716465E0,0E0,1.4842875E0,0E0,0E0,0E0,3.8125963E0,0E0,0E0,0E0,0E0],"parents":[2147483647,0,0,1,1,2,2,3,3,5,5,6,6,8,8,12,12],"right_children":[2,4,6,8,-1,10,12,-1,14,-1,-1,-1,16,-1,-1,-1,-1],"split_conditions":[-2.954182E-1,3.3718896E-1,-4.03636E-1,-1.3645002E-2,-1.0107201E-2,1.5353672E-1,-2.0894292E-1,3.868553E-2,3.336155E-1,2.2589602E-2,-1.1802209E-2,-3.83969E-2,-5.2558005E-1,-1.6433188E-3,2.3018803E-2,-2.555829E-2,8.101651E-4],"split_indices":[3,5,6,6,0,3,6,0,6,0,0,0,5,0,0,0,0],"split_type":[0,0,0,0,0,0,0,0,0,0,0,0,0,0,0,0,0],"sum_hessian":[1.3145638E2,4.7007607E1,8.444877E1,3.431976E1,1.268785E1,2.3894629E1,6.0554142E1,1.1953879E1,2.236588E1,8.560428E0,1.5334202E1,9.069373E0,5.1484768E1,8.210603E0,1.4155276E1,1.80245E1,3.346027E1],"tree_param":{"num_deleted":"0","num_feature":"7","num_nodes":"17","size_leaf_vector":"1"}},{"base_weights":[-1.2173747E-2,-1.2689222E-1,2.5514507E-1,-3.9753845E-1,1.3775265E-1,3.2303296E-2,6.1122093E-2,-2.087935E-1,-3.8793467E-2,2.5651952E-2,-4.9635362E-2,-1.2832893E-2,2.1947214E-2,-1.4350796E-3,-3.0926397E-2,-2.077973E-2,1.2579894E-2],"categories":[],"categories_nodes":[],"categories_segments":[],"categories_sizes":[],"default_left":[0,0,0,0,0,0,0,0,0,0,0,0,0,0,0,0,0],"id":21,"left_children":[1,3,5,7,9,-1,11,13,-1,-1,15,-1,-1,-1,-1,-1,-1],"loss_changes":[3.9335008E0,6.4781256E0,3.1810338E0,3.4186068E0,3.543593E0,0E0,3.8683968E0,2.5577962E0,0E0,0E0,4.150425E0,0E0,0E0,0E0,0E0,0E0,0E0],"parents":[2147483647,0,0,1,1,2,2,3,3,4,4,6,6,7,7,10,10],"right_children":[2,4,6,8,10,-1,12,14,-1,-1,16,-1,-1,-1,-1,-1,-1],"split_conditions":[3.4594932E-1,6.6366434E-2,-3.550995E-1,-2.3024158E-1,3.3440927E-1,3.2303296E-2,1E0,3.1655617E-3,-3.8793467E-2,2.5651952E-2,0E0,-1.2832893E-2,2.1947214E-2,-1.4350796E-3,-3.0926397E-2,-2.077973E-2,1.2579894E-2],"split_indices":[6,4,4,4,4,0,0,6,0,0,1,0,0,0,0,0,0],"split_type":[0,0,0,0,0,0,0,0,0,0,0,0,0,0,0,0,0],"sum_hessian":[1.2621167E2,8.86803E1,3.7531372E1,4.359477E1,4.5085526E1,1.0861202E1,2.667017E1,3.1255442E1,1.2339328E1,1.3607567E1,3.1477957E1,1.4802708E1,1.1867462E1,2.3124245E1,8.131197E0,1.389919E1,1.7578768E1],"tree_param":{"num_deleted":"0","num_feature":"7","num_nodes":"17","size_leaf_vector":"1"}},{"base_weights":[-2.564549E-2,1.3285159E-2,-2.4964955E-2,-3.9425902E-2,2.4154145E-2,1.6304085E-1,-1.4385208E-1,-3.3553592E-3,2.9611519E-2,-1.5971914E-2,3.393208E-3],"categories":[],"categories_nodes":[],"categories_segments":[],"categories_sizes":[],"default_left":[0,0,0,0,0,0,0,0,0,0,0],"id":22,"left_children":[1,3,-1,5,-1,7,9,-1,-1,-1,-1],"loss_changes":[2.5617952E0,3.2263396E0,0E0,2.3704267E0,0E0,4.220772E0,3.1378484E0,0E0,0E0,0E0,0E0],"parents":[2147483647,0,0,1,1,3,3,5,5,6,6],"right_children":[2,4,-1,6,-1,8,10,-1,-1,-1,-1],"split_conditions":[1.2806519E0,7.7501976E-1,-2.4964955E-2,-3.067041E-1,2.4154145E-2,-5.3469265E-1,3.377442E-1,-3.3553592E-3,2.9611519E-2,-1.5971914E-2,3.393208E-3],"split_indices":[5,5,0,3,0,3,3,0,0,0,0],"split_type":[0,0,0,0,0,0,0,0,0,0,0],"sum_hessian":[1.2902025E2,1.20685005E2,8.335242E0,1.10005615E2,1.0679388E1,3.7240517E1,7.27651E1,2.5344322E1,1.1896195E1,3.789385E1,3.487125E1],"tree_param":{"num_deleted":"0","num_feature":"7","num_nodes":"11","size_leaf_vector":"1"}},{"base_weights":[1.6472574E-2,5.5601306E-2,-2.3425216E-2,-7.0150206E-3,3.7526393E-1,-2.7188838E-1,5.736535E-2,2.505556E-2,6.982417E-3,4.2587286E-3,-3.122918E-2,2.576517E-2,-2.4013845E-3],"categories":[],"categories_nodes":[],"categories_segments":[],"categories_sizes":[],"default_left":[0,0,0,0,0,0,0,0,0,0,0,0,0],"id":23,"left_children":[1,3,-1,5,7,9,11,-1,-1,-1,-1,-1,-1],"loss_changes":[2.7532253E0,2.5407312E0,0E0,1.8404777E0,6.617825E-1,3.053636E0,4.643645E0,0E0,0E0,0E0,0E0,0E0,0E0],"parents":[2147483647,0,0,1,1,3,3,4,4,5,5,6,6],"right_children":[2,4,-1,6,8,10,12,-1,-1,-1,-1,-1,-1],"split_conditions":[1.1923077E0,6.1538464E-1,-2.3425216E-2,-6.173212E-1,-6.585488E-2,-9.4426024E-1,-3.550995E-1,2.505556E-2,6.982417E-3,4.2587286E-3,-3.122918E-2,2.576517E-2,-2.4013845E-3],"split_indices":[2,2,0,4,4,4,4,0,0,0,0,0,0],"split_type":[0,0,0,0,0,0,0,0,0,0,0,0,0],"sum_hessian":[1.344856E2,1.25802864E2,8.682738E0,1.0601453E2,1.978834E1,2.009923E1,8.591529E1,1.0900348E1,8.887992E0,1.0838044E1,9.261185E0,1.4827802E1,7.1087494E1],"tree_param":{"num_deleted":"0","num_feature":"7","num_nodes":"13","size_leaf_vector":"1"}},{"base_weights":[-4.8651993E-2,2.2130466E-1,-2.5431323E-1,-1.3090775E-2,3.6911467E-1,-4.5649156E-2,-1.1681949E-1,3.3192832E-2,1.9966239E-1,-2.3402572E-1,2.3689562E-2,-7.379122E-3,1.8652637E-2,-5.2872635E-3,-2.897313E-2],"categories":[],"categories_nodes":[],"categories_segments":[],"categories_sizes":[],"default_left":[0,0,0,0,0,0,0,0,0,0,0,0,0,0,0],"id":24,"left_children":[1,3,5,-1,7,-1,9,-1,11,13,-1,-1,-1,-1,-1],"loss_changes":[7.641417E0,4.5029597E0,7.5607204E0,0E0,2.5028644E0,0E0,4.9560914E0,0E0,2.3225403E0,2.5619946E0,0E0,0E0,0E0,0E0,0E0],"parents":[2147483647,0,0,1,1,2,2,4,4,6,6,8,8,9,9],"right_children":[2,4,6,-1,8,-1,10,-1,12,14,-1,-1,-1,-1,-1],"split_conditions":[-1.8732396E-1,-5.089655E-1,1.4696907E-2,-1.3090775E-2,9.323892E-2,-4.5649156E-2,7.151996E-1,3.3192832E-2,4.0563774E-1,2.1314038E-1,2.3689562E-2,-7.379122E-3,1.8652637E-2,-5.2872635E-3,-2.897313E-2],"split_indices":[3,6,3,0,6,0,6,0,6,6,0,0,0,0,0],"split_type":[0,0,0,0,0,0,0,0,0,0,0,0,0,0,0],"sum_hessian":[1.3562082E2,5.861071E1,7.70101E1,1.3184067E1,4.5426643E1,1.1437974E1,6.557213E1,1.4168273E1,3.125837E1,5.567183E1,9.900302E0,1.1184251E1,2.0074118E1,4.318824E1,1.2483588E1],"tree_param":{"num_deleted":"0","num_feature":"7","num_nodes":"15","size_leaf_vector":"1"}},{"base_weights":[1.2529346E-2,-6.101165E-2,2.834933E-2,-1.1694373E-2,-2.7207108E-2,-7.283515E-2,2.4357589E-2,-2.2410195E-2,1.0266194E-4],"categories":[],"categories_nodes":[],"categories_segments":[],"categories_sizes":[],"default_left":[0,0,0,0,0,0,0,0,0],"id":25,"left_children":[1,3,-1,5,-1,7,-1,-1,-1],"loss_changes":[5.8992143E0,3.0807137E0,0E0,3.6473038E0,0E0,3.0530274E0,0E0,0E0,0E0],"parents":[2147483647,0,0,1,1,3,3,5,5],"right_children":[2,4,-1,6,-1,8,-1,-1,-1],"split_conditions":[8.733589E-1,1.229007E0,2.834933E-2,7.543214E-1,-2.7207108E-2,-8.009211E-1,2.4357589E-2,-2.2410195E-2,1.0266194E-4],"split_indices":[6,5,0,5,0,6,0,0,0],"split_type":[0,0,0,0,0,0,0,0,0],"sum_hessian":[1.3417575E2,1.20095955E2,1.4079793E1,1.105707E2,9.525248E0,9.9891136E1,1.0679566E1,1.482932E1,8.506182E1],"tree_param":{"num_deleted":"0","num_feature":"7","num_nodes":"9","size_leaf_vector":"1"}},{"base_weights":[-7.014558E-2,3.3476937E-1,-1.3579755E-1,3.2154176E-2,-1.485077E-3,-4.5707712E-1,-1.091364E-2,-2.0731744E-1,-3.8820226E-2,-2.8623743E-2,5.9660777E-2,-2.580989E-2,1.2767632E-2,6.6119214E-3,-2.1114072E-2],"categories":[],"categories_nodes":[],"categories_segments":[],"categories_sizes":[],"default_left":[0,0,0,0,0,0,0,0,0,0,0,0,0,0,0],"id":26,"left_children":[1,3,5,-1,-1,7,9,11,-1,-1,13,-1,-1,-1,-1],"loss_changes":[3.6571102E0,2.4769342E0,4.714129E0,0E0,0E0,2.8496022E0,3.6489646E0,3.5632963E0,0E0,0E0,3.2484956E0,0E0,0E0,0E0,0E0],"parents":[2147483647,0,0,1,1,2,2,5,5,6,6,7,7,10,10],"right_children":[2,4,6,-1,-1,8,10,12,-1,-1,14,-1,-1,-1,-1],"split_conditions":[-8.70223E-1,0E0,-2.732517E-1,3.2154176E-2,-1.485077E-3,-4.9535257E-1,-1E0,1E0,-3.8820226E-2,-2.8623743E-2,9.038324E-1,-2.580989E-2,1.2767632E-2,6.6119214E-3,-2.1114072E-2],"split_indices":[5,1,5,0,0,5,0,0,0,0,4,0,0,0,0],"split_type":[0,0,0,0,0,0,0,0,0,0,0,0,0,0,0],"sum_hessian":[1.3486073E2,1.8243433E1,1.16617294E2,8.908199E0,9.335233E0,3.1897346E1,8.471995E1,1.992473E1,1.1972616E1,8.149097E0,7.6570854E1,1.1549457E1,8.375274E0,6.6690834E1,9.880016E0],"tree_param":{"num_deleted":"0","num_feature":"7","num_nodes":"15","size_leaf_vector":"1"}},{"base_weights":[-2.2127142E-2,4.0919814E-2,-3.1575534E-2,-3.088059E-1,1.2443486E-1,1.133993E-3,-2.8174473E-2,3.303666E-2,5.542066E-3,-4.4419724E-3,3.6810867E-2],"categories":[],"categories_nodes":[],"categories_segments":[],"categories_sizes":[],"default_left":[0,0,0,0,0,0,0,0,0,0,0],"id":27,"left_children":[1,3,-1,5,7,-1,-1,-1,9,-1,-1],"loss_changes":[5.479429E0,3.6147072E0,0E0,2.3187327E0,6.830375E0,0E0,0E0,0E0,6.556281E0,0E0,0E0],"parents":[2147483647,0,0,1,1,3,3,4,4,8,8],"right_children":[2,4,-1,6,8,-1,-1,-1,10,-1,-1],"split_conditions":[1.0384616E0,-6.173212E-1,-3.1575534E-2,-9.669309E-1,-3.550995E-1,1.133993E-3,-2.8174473E-2,3.303666E-2,6.615385E-1,-4.4419724E-3,3.6810867E-2],"split_indices":[2,4,0,4,4,0,0,0,2,0,0],"split_type":[0,0,0,0,0,0,0,0,0,0,0],"sum_hessian":[1.3231133E2,1.2144452E2,1.0866804E1,2.2890629E1,9.8553894E1,1.1078607E1,1.1812021E1,1.599094E1,8.256295E1,7.392905E1,8.6339E0],"tree_param":{"num_deleted":"0","num_feature":"7","num_nodes":"11","size_leaf_vector":"1"}},{"base_weights":[1.22238295E-2,1.8195467E-1,-1.0635095E-1,5.5587053E-1,-7.846743E-2,-3.0549927E-2,1.4541835E-3,3.9965134E-2,9.918979E-3,-1.7411174E-2,9.670502E-2,-1.4804868E-1,3.9888114E-1,2.6935054E-2,-1.0959541E-2,-7.9295057E-4,-1.9566903E-2,3.397063E-3,3.4450017E-2],"categories":[],"categories_nodes":[],"categories_segments":[],"categories_sizes":[],"default_left":[0,0,0,0,0,0,0,0,0,0,0,0,0,0,0,0,0,0,0],"id":28,"left_children":[1,3,5,7,9,-1,11,-1,-1,-1,13,15,17,-1,-1,-1,-1,-1,-1],"loss_changes":[2.7894914E0,5.5919247E0,4.7783327E0,2.2004666E0,1.7950332E0,0E0,4.1662955E0,0E0,0E0,0E0,3.6301877E0,1.7824278E0,2.0322738E0,0E0,0E0,0E0,0E0,0E0,0E0],"parents":[2147483647,0,0,1,1,2,2,3,3,4,4,6,6,10,10,11,11,12,12],"right_children":[2,4,6,8,10,-1,12,-1,-1,-1,14,16,18,-1,-1,-1,-1,-1,-1],"split_conditions":[-1.8732396E-1,1.923077E-1,1.4696907E-2,1.8934585E-2,-2.21086E-1,-3.0549927E-2,7.692308E-2,3.9965134E-2,9.918979E-3,-1.7411174E-2,1.9246225E-1,-3.1538463E-1,1.7213154E-1,2.6935054E-2,-1.0959541E-2,-7.9295057E-4,-1.9566903E-2,3.397063E-3,3.4450017E-2],"split_indices":[3,2,3,5,5,0,2,0,0,0,5,2,5,0,0,0,0,0,0],"split_type":[0,0,0,0,0,0,0,0,0,0,0,0,0,0,0,0,0,0,0],"sum_hessian":[1.3664128E2,5.5978203E1,8.066308E1,2.251562E1,3.3462585E1,1.2536766E1,6.812631E1,1.1385439E1,1.1130179E1,1.214556E1,2.1317024E1,4.9959995E1,1.8166317E1,8.424368E0,1.2892655E1,3.4238216E1,1.5721776E1,9.783603E0,8.382715E0],"tree_param":{"num_deleted":"0","num_feature":"7","num_nodes":"19","size_leaf_vector":"1"}},{"base_weights":[6.450338E-2,7.3072466E-4,2.4071991E-2,1.24704085E-1,-1.7044792E-1,2.5149921E-2,2.7250664E-2,-2.9773874E-2,3.1834703E-2,-2.8340517E-2,6.8164915E-3,-6.3779172E-3,1.81152E-2],"categories":[],"categories_nodes":[],"categories_segments":[],"categories_sizes":[],"default_left":[0,0,0,0,0,0,0,0,0,0,0,0,0],"id":29,"left_children":[1,3,-1,5,7,-1,9,-1,11,-1,-1,-1,-1],"loss_changes":[3.7647238E0,2.4960225E0,0E0,2.7081041E0,4.6379733E0,0E0,4.241654E0,0E0,2.1380856E0,0E0,0E0,0E0,0E0],"parents":[2147483647,0,0,1,1,3,3,4,4,6,6,8,8],"right_children":[2,4,-1,6,8,-1,10,-1,12,-1,-1,-1,-1],"split_conditions":[8.733589E-1,1.2955748E-1,2.4071991E-2,-6.9021595E-1,3.8459554E-1,2.5149921E-2,-3.9747444E-1,-2.9773874E-2,2E0,-2.8340517E-2,6.8164915E-3,-6.3779172E-3,1.81152E-2],"split_indices":[6,3,0,5,3,0,5,0,0,0,0,0,0],"split_type":[0,0,0,0,0,0,0,0,0,0,0,0,0],"sum_hessian":[1.3111275E2,1.1561553E2,1.5497218E1,6.721074E1,4.8404793E1,1.2056439E1,5.5154297E1,1.4090651E1,3.431414E1,8.032642E0,4.7121655E1,2.3697515E1,1.0616625E1],"tree_param":{"num_deleted":"0","num_feature":"7","num_nodes":"13","size_leaf_vector":"1"}},{"base_weights":[-3.1522024E-2,-1.1557234E-1,1.9311893E-1,-4.0553337E-1,-3.1977724E-2,4.9704213E-2,2.3108987E-2,-2.1853333E-3,-3.772387E-2,1.7664135E-2,-1.3494115E-1,2.7408677E-1,-1.7583368E-2,-2.3963215E-2,1.4456995E-3,2.2106802E-2,2.3178929E-3],"categories":[],"categories_nodes":[],"categories_segments":[],"categories_sizes":[],"default_left":[0,0,0,0,0,0,0,0,0,0,0,0,0,0,0,0,0],"id":30,"left_children":[1,3,5,7,9,11,-1,-1,-1,-1,13,15,-1,-1,-1,-1,-1],"loss_changes":[2.4988687E0,2.3158655E0,1.5169419E0,3.0071688E0,3.2232146E0,2.521329E0,0E0,0E0,0E0,0E0,3.8042269E0,7.3414755E-1,0E0,0E0,0E0,0E0,0E0],"parents":[2147483647,0,0,1,1,2,2,3,3,4,4,5,5,10,10,11,11],"right_children":[2,4,6,8,10,12,-1,-1,-1,-1,14,16,-1,-1,-1,-1,-1],"split_conditions":[4.1038668E-1,-5.7638556E-1,4.1672942E-1,-8.603016E-1,-2.3024158E-1,-1.2705854E-1,2.3108987E-2,-2.1853333E-3,-3.772387E-2,1.7664135E-2,1.4250034E-1,-9.977522E-2,-1.7583368E-2,-2.3963215E-2,1.4456995E-3,2.2106802E-2,2.3178929E-3],"split_indices":[6,4,3,4,4,3,0,0,0,0,4,4,0,0,0,0,0],"split_type":[0,0,0,0,0,0,0,0,0,0,0,0,0,0,0,0,0],"sum_hessian":[1.3016524E2,9.507723E1,3.5088005E1,2.0414644E1,7.466259E1,2.447075E1,1.0617253E1,1.1290308E1,9.124336E0,1.4533916E1,6.0128674E1,1.6222767E1,8.247983E0,1.7816366E1,4.231231E1,8.094248E0,8.12852E0],"tree_param":{"num_deleted":"0","num_feature":"7","num_nodes":"17","size_leaf_vector":"1"}},{"base_weights":[1.2341504E-2,-2.696932E-1,1.6054922E-1,-2.3140326E-2,-1.3691221E-1,2.9747272E-2,6.0552604E-2,-2.5542239E-3,-1.9594317E-2,-1.599353E-1,3.7744373E-1,-9.250625E-3,9.276936E-3,-2.2797981E-2,3.4376031E-3,3.0189676E-2,4.9574734E-3],"categories":[],"categories_nodes":[],"categories_segments":[],"categories_sizes":[],"default_left":[0,0,0,0,0,0,0,0,0,0,0,0,0,0,0,0,0],"id":31,"left_children":[1,3,5,-1,7,-1,9,11,-1,13,15,-1,-1,-1,-1,-1,-1],"loss_changes":[5.5946865E0,1.2916794E0,4.0952005E0,0E0,1.1340184E0,0E0,5.1921744E0,8.6843103E-1,0E0,3.361558E0,2.1180797E0,0E0,0E0,0E0,0E0,0E0,0E0],"parents":[2147483647,0,0,1,1,2,2,4,4,6,6,7,7,9,9,10,10],"right_children":[2,4,6,-1,8,-1,10,12,-1,14,16,-1,-1,-1,-1,-1,-1],"split_conditions":[-3.58832E-1,1.3757573E-1,-8.70223E-1,-2.3140326E-2,-5.9751934E-1,2.9747272E-2,8.1657186E-2,6.219053E-1,-1.9594317E-2,2.2426829E-1,1.7397808E-1,-9.250625E-3,9.276936E-3,-2.2797981E-2,3.4376031E-3,3.0189676E-2,4.9574734E-3],"split_indices":[6,5,5,0,6,0,5,5,0,6,6,0,0,0,0,0,0],"split_type":[0,0,0,0,0,0,0,0,0,0,0,0,0,0,0,0,0],"sum_hessian":[1.3180919E2,4.5122597E1,8.668659E1,1.5880592E1,2.9242004E1,1.4239336E1,7.244726E1,2.0426693E1,8.815311E0,4.301405E1,2.9433207E1,1.0368315E1,1.0058377E1,1.7528164E1,2.5485888E1,1.425334E1,1.5179867E1],"tree_param":{"num_deleted":"0","num_feature":"7","num_nodes":"17","size_leaf_vector":"1"}},{"base_weights":[4.7556948E-2,1.0330503E-1,-2.9874653E-1,1.903029E-2,3.4926016E-2,-1.8138599E-3,-2.6531568E-2,9.715598E-2,-3.0178664E-2,1.1512744E-2,-1.2994201E-2],"categories":[],"categories_nodes":[],"categories_segments":[],"categories_sizes":[],"default_left":[0,0,0,0,0,0,0,0,0,0,0],"id":32,"left_children":[1,3,5,7,-1,-1,-1,9,-1,-1,-1],"loss_changes":[2.7086656E0,6.4563103E0,1.3216803E0,5.592543E0,0E0,0E0,0E0,5.390585E0,0E0,0E0,0E0],"parents":[2147483647,0,0,1,1,2,2,3,3,7,7],"right_children":[2,4,6,8,-1,-1,-1,10,-1,-1,-1],"split_conditions":[8.076923E-1,5.769231E-1,-7.8701174E-1,4.2307693E-1,3.4926016E-2,-1.8138599E-3,-2.6531568E-2,6.057006E-1,-3.0178664E-2,1.1512744E-2,-1.2994201E-2],"split_indices":[2,2,3,2,0,0,0,3,0,0,0],"split_type":[0,0,0,0,0,0,0,0,0,0,0],"sum_hessian":[1.3770493E2,1.19215294E2,1.8489635E1,1.0622793E2,1.2987366E1,9.905089E0,8.584546E0,9.574929E1,1.047864E1,6.888376E1,2.6865528E1],"tree_param":{"num_deleted":"0","num_feature":"7","num_nodes":"11","size_leaf_vector":"1"}},{"base_weights":[1.3155228E-1,-8.131567E-2,2.7021328E-1,-2.0493598E-1,1.1553031E-2,5.3870283E-2,5.725716E-1,-5.5056322E-2,-3.059451E-2,2.9479451E-2,-8.87247E-2,4.3006543E-2,8.963861E-3,-1.8026764E-2,9.167065E-3,-1.0027814E-2,1.4669949E-2],"categories":[],"categories_nodes":[],"categories_segments":[],"categories_sizes":[],"default_left":[0,0,0,0,0,0,0,0,0,0,0,0,0,0,0,0,0],"id":33,"left_children":[1,3,5,7,-1,9,11,13,-1,-1,15,-1,-1,-1,-1,-1,-1],"loss_changes":[3.6646492E0,2.047671E0,4.872722E0,2.3934426E0,0E0,3.7122514E0,3.8875666E0,2.3957503E0,0E0,0E0,1.8950303E0,0E0,0E0,0E0,0E0,0E0,0E0],"parents":[2147483647,0,0,1,1,2,2,3,3,5,5,6,6,7,7,10,10],"right_children":[2,4,6,8,-1,10,12,14,-1,-1,16,-1,-1,-1,-1,-1,-1],"split_conditions":[-2.4478549E-1,6.219053E-1,-4.345204E-2,3.7115967E-1,1.1553031E-2,-2.2891123E-2,3.3718896E-1,-2.5957054E-1,-3.059451E-2,2.9479451E-2,8.733589E-1,4.3006543E-2,8.963861E-3,-1.8026764E-2,9.167065E-3,-1.0027814E-2,1.4669949E-2],"split_indices":[6,5,5,5,0,6,5,5,0,0,6,0,0,0,0,0,0],"split_type":[0,0,0,0,0,0,0,0,0,0,0,0,0,0,0,0,0],"sum_hessian":[1.22411606E2,4.8448524E1,7.396307E1,3.542057E1,1.3027956E1,4.380089E1,3.0162184E1,2.7337265E1,8.083304E0,8.059003E0,3.574189E1,1.5202715E1,1.4959469E1,1.1590186E1,1.5747079E1,2.763099E1,8.110901E0],"tree_param":{"num_deleted":"0","num_feature":"7","num_nodes":"17","size_leaf_vector":"1"}},{"base_weights":[-4.355372E-2,-3.4648684E-1,3.0558947E-2,-1.0598516E-1,-3.6307298E-2,2.9086974E-1,-1.0651318E-1,-2.2697456E-2,1.2738786E-2,-5.2136354E-2,3.3870395E-2,-5.2857023E-2,4.5015972E-2,8.641331E-3,-1.8044941E-2,2.2516415E-2,-1.5149977E-3],"categories":[],"categories_nodes":[],"categories_segments":[],"categories_sizes":[],"default_left":[0,0,0,0,0,0,0,0,0,0,0,0,0,0,0,0,0],"id":34,"left_children":[1,3,5,7,-1,9,11,-1,-1,13,-1,-1,15,-1,-1,-1,-1],"loss_changes":[2.9104786E0,2.5205674E0,3.7666235E0,2.598929E0,0E0,5.3869653E0,1.0725708E1,0E0,0E0,1.7210054E0,0E0,0E0,2.065473E0,0E0,0E0,0E0,0E0],"parents":[2147483647,0,0,1,1,2,2,3,3,5,5,6,6,9,9,12,12],"right_children":[2,4,6,8,-1,10,12,-1,-1,14,-1,-1,16,-1,-1,-1,-1],"split_conditions":[-1E0,3.5607928E-1,-2.7930772E-1,-2.3232977E-1,-3.6307298E-2,-6.173212E-1,-1.5103085E-1,-2.2697456E-2,1.2738786E-2,-8.9478457E-1,3.3870395E-2,-5.2857023E-2,-8.843517E-1,8.641331E-3,-1.8044941E-2,2.2516415E-2,-1.5149977E-3],"split_indices":[1,4,4,4,0,4,4,0,0,4,0,0,5,0,0,0,0],"split_type":[0,0,0,0,0,0,0,0,0,0,0,0,0,0,0,0,0],"sum_hessian":[1.2816428E2,2.4469769E1,1.0369451E2,1.6422369E1,8.0473995E0,3.538106E1,6.831345E1,8.075375E0,8.346994E0,2.0142487E1,1.5238574E1,8.031464E0,6.0281986E1,1.2028162E1,8.114326E0,8.32997E0,5.195202E1],"tree_param":{"num_deleted":"0","num_feature":"7","num_nodes":"17","size_leaf_vector":"1"}},{"base_weights":[3.2381196E-2,-3.2433197E-1,9.823775E-2,-3.0653283E-3,-2.3253523E-2,1.5364367E-1,-1.8811874E-2,7.036199E-2,4.366321E-1,1.9227613E-2,-2.099054E-3,3.9244995E-2,-9.542174E-3],"categories":[],"categories_nodes":[],"categories_segments":[],"categories_sizes":[],"default_left":[0,0,0,0,0,0,0,0,0,0,0,0,0],"id":35,"left_children":[1,3,5,-1,-1,7,-1,9,11,-1,-1,-1,-1],"loss_changes":[3.017371E0,8.491392E-1,3.0419648E0,0E0,0E0,2.2777505E0,0E0,3.0060022E0,5.7746353E0,0E0,0E0,0E0,0E0],"parents":[2147483647,0,0,1,1,2,2,5,5,7,7,8,8],"right_children":[2,4,6,-1,-1,8,-1,10,12,-1,-1,-1,-1],"split_conditions":[-6.923077E-1,-1.0384616E0,1.0384616E0,-3.0653283E-3,-2.3253523E-2,6.050289E-1,-1.8811874E-2,-6.975422E-1,1.1762528E0,1.9227613E-2,-2.099054E-3,3.9244995E-2,-9.542174E-3],"split_indices":[2,2,2,0,0,5,0,5,5,0,0,0,0],"split_type":[0,0,0,0,0,0,0,0,0,0,0,0,0],"sum_hessian":[1.2608675E2,1.9038666E1,1.0704808E2,8.079338E0,1.0959327E1,9.695049E1,1.009759E1,7.5870834E1,2.1079657E1,1.8602497E1,5.7268333E1,1.28158045E1,8.263853E0],"tree_param":{"num_deleted":"0","num_feature":"7","num_nodes":"13","size_leaf_vector":"1"}},{"base_weights":[-1.7492628E-2,1.16461776E-1,-2.1951848E-1,2.0781659E-2,3.4064308E-2,-5.562423E-1,-3.643561E-2,2.6972046E-1,-2.3753841E-1,-1.4092524E-2,-3.553322E-2,-2.1203456E-2,1.7306629E-1,3.2214427E-3,3.3870287E-2,-3.1395175E-3,-2.5746437E-2,-5.5125686E-3,1.6016481E-2],"categories":[],"categories_nodes":[],"categories_segments":[],"categories_sizes":[],"default_left":[0,0,0,0,0,0,0,0,0,0,0,0,0,0,0,0,0,0,0],"id":36,"left_children":[1,3,5,7,-1,9,11,13,15,-1,-1,-1,17,-1,-1,-1,-1,-1,-1],"loss_changes":[3.5750418E0,4.6048822E0,3.2248802E0,4.5477953E0,0E0,7.163601E-1,3.1284335E0,3.208071E0,1.8004626E0,0E0,0E0,0E0,1.2078328E0,0E0,0E0,0E0,0E0,0E0,0E0],"parents":[2147483647,0,0,1,1,2,2,3,3,5,5,6,6,7,7,8,8,12,12],"right_children":[2,4,6,8,-1,10,12,14,16,-1,-1,-1,18,-1,-1,-1,-1,-1,-1],"split_conditions":[1.9223562E-1,1.4696907E-2,4.9171147E-1,3.3846155E-1,3.4064308E-2,-1.9812614E-1,-7.2307694E-1,4.739633E-1,3.3440927E-1,-1.4092524E-2,-3.553322E-2,-2.1203456E-2,-1.9812614E-1,3.2214427E-3,3.3870287E-2,-3.1395175E-3,-2.5746437E-2,-5.5125686E-3,1.6016481E-2],"split_indices":[3,3,3,2,0,4,2,4,4,0,0,0,4,0,0,0,0,0,0],"split_type":[0,0,0,0,0,0,0,0,0,0,0,0,0,0,0,0,0,0,0],"sum_hessian":[1.3015968E2,7.852004E1,5.1639637E1,6.8724976E1,9.795067E0,1.747029E1,3.4169346E1,3.4975517E1,3.3749462E1,8.711864E0,8.758425E0,1.1094491E1,2.3074856E1,2.4959173E1,1.0016342E1,2.2527115E1,1.1222348E1,8.544519E0,1.4530336E1],"tree_param":{"num_deleted":"0","num_feature":"7","num_nodes":"19","size_leaf_vector":"1"}},{"base_weights":[-1.2993076E-2,-1.5531713E-1,1.972161E-1,1.6198833E-1,-3.187449E-1,3.7496617E-1,-1.023322E-1,2.9175479E-2,-1.0752279E-1,-5.7989115E-1,-3.8331583E-2,5.5172336E-1,-1.3171255E-3,-1.7651988E-2,5.3641046E-3,5.869355E-3,-1.4907914E-2,-3.473224E-2,-1.3783626E-2,-1.9251851E-2,1.1328824E-2,1.459711E-2,4.0303662E-2],"categories":[],"categories_nodes":[],"categories_segments":[],"categories_sizes":[],"default_left":[0,0,0,0,0,0,0,0,0,0,0,0,0,0,0,0,0,0,0,0,0,0,0],"id":37,"left_children":[1,3,5,7,9,11,13,-1,15,17,19,21,-1,-1,-1,-1,-1,-1,-1,-1,-1,-1,-1],"loss_changes":[3.9553545E0,4.1369796E0,2.881731E0,3.453057E0,3.8103108E0,2.4177365E0,1.2619207E0,0E0,9.2004186E-1,1.0096073E0,2.8190687E0,1.4629011E0,0E0,0E0,0E0,0E0,0E0,0E0,0E0,0E0,0E0,0E0,0E0],"parents":[2147483647,0,0,1,1,2,2,3,3,4,4,5,5,6,6,8,8,9,9,10,10,11,11],"right_children":[2,4,6,8,10,12,14,-1,16,18,20,22,-1,-1,-1,-1,-1,-1,-1,-1,-1,-1,-1],"split_conditions":[1.460985E-1,-6.771505E-1,2.542078E-1,-1.9812614E-1,1.9195342E-1,8.4222615E-1,6.827917E-1,2.9175479E-2,-2.4544163E-1,2.632592E-1,-3.6140418E-1,1.8088588E-1,-1.3171255E-3,-1.7651988E-2,5.3641046E-3,5.869355E-3,-1.4907914E-2,-3.473224E-2,-1.3783626E-2,-1.9251851E-2,1.1328824E-2,1.459711E-2,4.0303662E-2],"split_indices":[5,5,3,4,6,5,3,0,3,3,5,4,0,0,0,0,0,0,0,0,0,0,0],"split_type":[0,0,0,0,0,0,0,0,0,0,0,0,0,0,0,0,0,0,0,0,0,0,0],"sum_hessian":[1.3018346E2,7.778174E1,5.2401714E1,2.6445301E1,5.1336437E1,3.2728848E1,1.9672867E1,9.317626E0,1.7127674E1,2.6028425E1,2.5308014E1,2.2492886E1,1.0235963E1,8.377603E0,1.1295264E1,8.308462E0,8.819212E0,1.577665E1,1.0251775E1,1.066868E1,1.4639334E1,1.3666662E1,8.826224E0],"tree_param":{"num_deleted":"0","num_feature":"7","num_nodes":"23","size_leaf_vector":"1"}},{"base_weights":[-3.694152E-2,-1.7537081E-1,1.8162084E-1,1.1786637E-1,-4.523114E-1,3.2561204E-1,-6.4953663E-3,-1.9806944E-2,2.2560269E-2,-3.3989917E-2,-2.739633E-1,1.6886601E-1,2.7725589E-2,-1.3054334E-2,4.2692483E-3,1.7958146E-2,-2.9340448E-2,1.575882E-2,-1.8213546E-3],"categories":[],"categories_nodes":[],"categories_segments":[],"categories_sizes":[],"default_left":[0,0,0,0,0,0,0,0,0,0,0,0,0,0,0,0,0,0,0],"id":38,"left_children":[1,3,5,7,9,11,-1,13,-1,-1,15,17,-1,-1,-1,-1,-1,-1,-1],"loss_changes":[3.8935804E0,6.4406476E0,2.3452778E0,1.9497695E0,1.7583551E0,1.3355398E0,0E0,8.5606706E-1,0E0,0E0,6.2115154E0,8.1163484E-1,0E0,0E0,0E0,0E0,0E0,0E0,0E0],"parents":[2147483647,0,0,1,1,2,2,3,3,4,4,5,5,7,7,10,10,11,11],"right_children":[2,4,6,8,10,12,-1,14,-1,-1,16,18,-1,-1,-1,-1,-1,-1,-1],"split_conditions":[2.5255588E-1,-3.550995E-1,8.8108015E-1,1E0,-1.5103085E-1,1E0,-6.4953663E-3,-5.129851E-1,2.2560269E-2,-3.3989917E-2,-1.8094284E-2,5.297896E-1,2.7725589E-2,-1.3054334E-2,4.2692483E-3,1.7958146E-2,-2.9340448E-2,1.575882E-2,-1.8213546E-3],"split_indices":[4,4,4,1,4,0,0,6,0,0,4,4,0,0,0,0,0,0,0],"split_type":[0,0,0,0,0,0,0,0,0,0,0,0,0,0,0,0,0,0,0],"sum_hessian":[1.2663756E2,7.765278E1,4.898477E1,3.7995663E1,3.965712E1,3.3757492E1,1.5227283E1,2.8198883E1,9.796778E0,1.4569688E1,2.5087433E1,2.2192112E1,1.1565378E1,8.013726E0,2.0185158E1,8.690263E0,1.639717E1,1.1992604E1,1.0199509E1],"tree_param":{"num_deleted":"0","num_feature":"7","num_nodes":"19","size_leaf_vector":"1"}},{"base_weights":[1.2382321E-2,-4.1010335E-2,2.0222254E-2,2.4063678E-2,-2.2811653E-2,-3.363858E-2,2.3360223E-2,1.6679035E-2,-5.9965663E-3],"categories":[],"categories_nodes":[],"categories_segments":[],"categories_sizes":[],"default_left":[0,0,0,0,0,0,0,0,0],"id":39,"left_children":[1,3,-1,5,-1,7,-1,-1,-1],"loss_changes":[2.8699126E0,3.3148139E0,0E0,2.7616012E0,0E0,3.3444934E0,0E0,0E0,0E0],"parents":[2147483647,0,0,1,1,3,3,5,5],"right_children":[2,4,-1,6,-1,8,-1,-1,-1],"split_conditions":[8.733589E-1,6.0647804E-1,2.0222254E-2,4.1992447E-1,-2.2811653E-2,-5.3487223E-1,2.3360223E-2,1.6679035E-2,-5.9965663E-3],"split_indices":[6,6,0,6,0,5,0,0,0],"split_type":[0,0,0,0,0,0,0,0,0],"sum_hessian":[1.2703975E2,1.1342613E2,1.3613616E1,9.974056E1,1.368557E1,8.970731E1,1.0033246E1,1.6917967E1,7.278935E1],"tree_param":{"num_deleted":"0","num_feature":"7","num_nodes":"9","size_leaf_vector":"1"}},{"base_weights":[-3.1758673E-2,1.786863E-1,-1.2653095E-1,-7.876098E-3,3.5724688E-1,2.9041603E-1,-2.2750625E-1,3.4665138E-2,-6.51415E-3,2.5451925E-2,1.7268313E-3,-4.2005986E-1,-6.855005E-2,-2.6179278E-2,-1.2449302E-3,-2.7511226E-2,8.713312E-3],"categories":[],"categories_nodes":[],"categories_segments":[],"categories_sizes":[],"default_left":[0,0,0,0,0,0,0,0,0,0,0,0,0,0,0,0,0],"id":40,"left_children":[1,3,5,-1,7,9,11,-1,-1,-1,-1,13,15,-1,-1,-1,-1],"loss_changes":[2.6305952E0,2.5939722E0,3.8865857E0,0E0,5.2465687E0,1.1316082E0,2.2243643E0,0E0,0E0,0E0,0E0,1.7581286E0,5.5416327E0,0E0,0E0,0E0,0E0],"parents":[2147483647,0,0,1,1,2,2,4,4,5,5,6,6,11,11,12,12],"right_children":[2,4,6,-1,8,10,12,-1,-1,-1,-1,14,16,-1,-1,-1,-1],"split_conditions":[-3.4615386E-1,-3.4823328E-1,-7.134428E-1,-7.876098E-3,3.7467432E-1,0E0,8.1657186E-2,3.4665138E-2,-6.51415E-3,2.5451925E-2,1.7268313E-3,6.615385E-1,7.692308E-2,-2.6179278E-2,-1.2449302E-3,-2.7511226E-2,8.713312E-3],"split_indices":[2,5,5,0,5,1,5,0,0,0,0,2,2,0,0,0,0],"split_type":[0,0,0,0,0,0,0,0,0,0,0,0,0,0,0,0,0],"sum_hessian":[1.2976315E2,4.0017513E1,8.974564E1,1.3643205E1,2.6374308E1,1.7131245E1,7.2614395E1,1.4667273E1,1.1707034E1,8.054746E0,9.076499E0,3.209414E1,4.0520256E1,2.35414E1,8.55274E0,1.2926157E1,2.75941E1],"tree_param":{"num_deleted":"0","num_feature":"7","num_nodes":"17","size_leaf_vector":"1"}},{"base_weights":[-4.7532655E-2,6.955763E-2,-2.4070624E-1,-1.6467087E-1,5.100374E-1,3.0837576E-3,-4.4699993E-2,-1.335609E-2,-3.69204E-2,8.884543E-3,3.595484E-2,-1.8916614E-1,2.5488317E-2,1.3039705E-2,-1.595576E-2,1.1342248E-2,-2.4179371E-2],"categories":[],"categories_nodes":[],"categories_segments":[],"categories_sizes":[],"default_left":[0,0,0,0,0,0,0,0,0,0,0,0,0,0,0,0,0],"id":41,"left_children":[1,3,5,7,9,11,-1,13,-1,-1,-1,15,-1,-1,-1,-1,-1],"loss_changes":[2.9221528E0,8.415306E0,8.419558E0,5.003529E0,2.1616106E0,3.956485E0,0E0,4.253701E0,0E0,0E0,0E0,4.0568633E0,0E0,0E0,0E0,0E0,0E0],"parents":[2147483647,0,0,1,1,2,2,3,3,4,4,5,5,7,7,11,11],"right_children":[2,4,6,8,10,12,-1,14,-1,-1,-1,16,-1,-1,-1,-1,-1],"split_conditions":[1.923077E-1,2.9545727E-1,5.8339065E-1,8.313419E-1,-1.4899243E-1,-2.0254858E-2,-4.4699993E-2,-2.6923078E-1,-3.69204E-2,8.884543E-3,3.595484E-2,-6.673124E-1,2.5488317E-2,1.3039705E-2,-1.595576E-2,1.1342248E-2,-2.4179371E-2],"split_indices":[2,4,4,3,6,3,0,2,0,0,0,3,0,0,0,0,0],"split_type":[0,0,0,0,0,0,0,0,0,0,0,0,0,0,0,0,0],"sum_hessian":[1.2745139E2,7.9751015E1,4.770038E1,5.2473816E1,2.7277199E1,3.6234993E1,1.1465385E1,4.299631E1,9.477505E0,1.280732E1,1.4469878E1,2.7178679E1,9.056314E0,2.280683E1,2.018948E1,1.179808E1,1.5380599E1],"tree_param":{"num_deleted":"0","num_feature":"7","num_nodes":"17","size_leaf_vector":"1"}},{"base_weights":[4.2927336E-2,-2.7906945E-1,1.15165174E-1,9.015672E-3,-3.713116E-2,-1.1254933E-1,2.1816312E-1,-3.3769947E-1,6.366408E-3,4.8702723E-1,-8.724733E-2,-2.2158755E-2,-8.290131E-3,2.7610664E-3,3.0741517E-2,-1.9246396E-2,1.0299517E-2],"categories":[],"categories_nodes":[],"categories_segments":[],"categories_sizes":[],"default_left":[0,0,0,0,0,0,0,0,0,0,0,0,0,0,0,0,0],"id":42,"left_children":[1,3,5,-1,-1,7,9,11,-1,13,15,-1,-1,-1,-1,-1,-1],"loss_changes":[3.034042E0,5.8939996E0,2.5134292E0,0E0,0E0,1.9263583E0,6.0702925E0,3.0292535E-1,0E0,2.749444E0,3.5559464E0,0E0,0E0,0E0,0E0,0E0,0E0],"parents":[2147483647,0,0,1,1,2,2,5,5,6,6,7,7,9,9,10,10],"right_children":[2,4,6,-1,-1,8,10,12,-1,14,16,-1,-1,-1,-1,-1,-1],"split_conditions":[-6.173212E-1,-9.4426024E-1,-3.6929402E-1,9.015672E-3,-3.713116E-2,1E0,3.3718896E-1,1.15384616E-1,6.366408E-3,0E0,2.2359757E-1,-2.2158755E-2,-8.290131E-3,2.7610664E-3,3.0741517E-2,-1.9246396E-2,1.0299517E-2],"split_indices":[4,4,5,0,0,0,5,2,0,0,4,0,0,0,0,0,0],"split_type":[0,0,0,0,0,0,0,0,0,0,0,0,0,0,0,0,0],"sum_hessian":[1.2805664E2,2.29399E1,1.0511674E2,1.2252613E1,1.0687287E1,3.270895E1,7.240778E1,1.694756E1,1.5761389E1,3.8191624E1,3.4216164E1,8.245218E0,8.702342E0,1.1046804E1,2.714482E1,1.6519772E1,1.7696392E1],"tree_param":{"num_deleted":"0","num_feature":"7","num_nodes":"17","size_leaf_vector":"1"}},{"base_weights":[-3.2956E-2,-1.216865E-1,1.3277392E-1,-2.8864086E-1,1.1172035E-1,4.3909994E-1,-3.1598842E-1,-1.11774E-1,-5.916325E-1,3.2101443E-1,-1.3278807E-2,6.598941E-1,-3.1112616E-3,-2.3344733E-2,-3.89852E-3,4.2466596E-3,-2.5525825E-2,-3.746485E-2,-1.565267E-2,-9.314935E-3,3.0427929E-2,5.100228E-2,9.415131E-3],"categories":[],"categories_nodes":[],"categories_segments":[],"categories_sizes":[],"default_left":[0,0,0,0,0,0,0,0,0,0,0,0,0,0,0,0,0,0,0,0,0,0,0],"id":43,"left_children":[1,3,5,7,9,11,13,15,17,19,-1,21,-1,-1,-1,-1,-1,-1,-1,-1,-1,-1,-1],"loss_changes":[1.8774687E0,3.265037E0,6.271828E0,2.5406451E0,3.0014193E0,3.0479298E0,7.427546E-1,2.826984E0,6.7198324E-1,4.1006856E0,0E0,3.4521885E0,0E0,0E0,0E0,0E0,0E0,0E0,0E0,0E0,0E0,0E0,0E0],"parents":[2147483647,0,0,1,1,2,2,3,3,4,4,5,5,6,6,7,7,8,8,9,9,11,11],"right_children":[2,4,6,8,10,12,14,16,18,20,-1,22,-1,-1,-1,-1,-1,-1,-1,-1,-1,-1,-1],"split_conditions":[2.6923078E-1,2.5255588E-1,1.1693005E-1,-2.3232977E-1,9.038324E-1,8.4615386E-1,1.3583988E-2,-4.6153847E-2,-2.8535465E-2,-1.2535302E-1,-1.3278807E-2,1.00304216E-1,-3.1112616E-3,-2.3344733E-2,-3.89852E-3,4.2466596E-3,-2.5525825E-2,-3.746485E-2,-1.565267E-2,-9.314935E-3,3.0427929E-2,5.100228E-2,9.415131E-3],"split_indices":[2,4,4,4,4,2,5,2,6,5,0,6,0,0,0,0,0,0,0,0,0,0,0],"split_type":[0,0,0,0,0,0,0,0,0,0,0,0,0,0,0,0,0,0,0,0,0,0,0],"sum_hessian":[1.2557423E2,8.19595E1,4.3614723E1,4.764367E1,3.4315838E1,2.5933796E1,1.7680927E1,3.0947453E1,1.6696215E1,2.252814E1,1.1787698E1,1.783351E1,8.1002865E0,9.343191E0,8.337736E0,2.1602169E1,9.345284E0,8.177402E0,8.518814E0,8.833556E0,1.3694583E1,8.576953E0,9.2565565E0],"tree_param":{"num_deleted":"0","num_feature":"7","num_nodes":"23","size_leaf_vector":"1"}},{"base_weights":[-2.433822E-2,-6.849751E-2,2.6007026E-2,-3.7550997E-2,-1.7474322E-2,-8.818042E-2,1.5081924E-2,-1.9309903E-2,-6.073729E-4],"categories":[],"categories_nodes":[],"categories_segments":[],"categories_sizes":[],"default_left":[0,0,0,0,0,0,0,0,0],"id":44,"left_children":[1,3,-1,5,-1,7,-1,-1,-1],"loss_changes":[3.2849014E0,1.1036892E0,0E0,2.0099263E0,0E0,2.3360546E0,0E0,0E0,0E0],"parents":[2147483647,0,0,1,1,3,3,5,5],"right_children":[2,4,-1,6,-1,8,-1,-1,-1],"split_conditions":[1.0839537E0,1.0412405E0,2.6007026E-2,6.912688E-1,-1.7474322E-2,-6.356155E-1,1.5081924E-2,-1.9309903E-2,-6.073729E-4],"split_indices":[6,3,0,3,0,4,0,0,0],"split_type":[0,0,0,0,0,0,0,0,0],"sum_hessian":[1.2647218E2,1.1829727E2,8.174915E0,1.08345695E2,9.951576E0,9.558035E1,1.2765341E1,1.7265903E1,7.831445E1],"tree_param":{"num_deleted":"0","num_feature":"7","num_nodes":"9","size_leaf_vector":"1"}},{"base_weights":[-4.4730432E-2,2.1502455E-1,-1.6788355E-1,-9.972196E-4,4.132413E-2,1.4678286E-1,-3.029934E-1,-2.0923881E-1,1.725802E-2,-1.0924915E-1,3.0455453E-2,-4.18703E-1,3.7701386E-3,1.0303145E-3,-2.2636633E-2,7.358403E-3,-1.6267398E-2,-1.0321791E-2,-3.7652813E-2],"categories":[],"categories_nodes":[],"categories_segments":[],"categories_sizes":[],"default_left":[0,0,0,0,0,0,0,0,0,0,0,0,0,0,0,0,0,0,0],"id":45,"left_children":[1,3,5,7,-1,9,11,13,-1,15,-1,17,-1,-1,-1,-1,-1,-1,-1],"loss_changes":[4.13836E0,5.969644E0,3.7668068E0,2.5599189E0,0E0,3.5253465E0,2.7631793E0,1.3506472E0,0E0,1.2275786E0,0E0,3.4321947E0,0E0,0E0,0E0,0E0,0E0,0E0,0E0],"parents":[2147483647,0,0,1,1,2,2,3,3,5,5,6,6,7,7,9,9,11,11],"right_children":[2,4,6,8,-1,10,12,14,-1,16,-1,18,-1,-1,-1,-1,-1,-1,-1],"split_conditions":[-3.7146202E-1,-5.3020954E-1,-4.236002E-1,1E0,4.132413E-2,-6.373539E-1,7.4613017E-1,2.7999994E-1,1.725802E-2,-1.0099177E0,3.0455453E-2,3.0666736E-1,3.7701386E-3,1.0303145E-3,-2.2636633E-2,7.358403E-3,-1.6267398E-2,-1.0321791E-2,-3.7652813E-2],"split_indices":[3,3,6,0,0,6,3,4,0,6,0,3,0,0,0,0,0,0,0],"split_type":[0,0,0,0,0,0,0,0,0,0,0,0,0,0,0,0,0,0,0],"sum_hessian":[1.27237206E2,4.0682835E1,8.6554375E1,3.1436556E1,9.246281E0,2.5974415E1,6.057996E1,2.0343782E1,1.10927725E1,1.7697638E1,8.276776E0,4.645536E1,1.4124597E1,1.1488646E1,8.855137E0,8.492835E0,9.2048025E0,3.1533705E1,1.4921657E1],"tree_param":{"num_deleted":"0","num_feature":"7","num_nodes":"19","size_leaf_vector":"1"}},{"base_weights":[-1.5624146E-2,2.1651441E-1,-1.1826897E-1,7.143885E-2,2.7490683E-2,-1.8240485E-1,1.4830679E-2,-1.7480604E-2,3.2729912E-1,-1.11496955E-1,-2.8291304E-2,3.1911343E-2,1.0277246E-3,-9.704743E-3,6.7116977E-3],"categories":[],"categories_nodes":[],"categories_segments":[],"categories_sizes":[],"default_left":[0,0,0,0,0,0,0,0,0,0,0,0,0,0,0],"id":46,"left_children":[1,3,5,7,-1,9,-1,-1,11,13,-1,-1,-1,-1,-1],"loss_changes":[3.1461813E0,2.1179218E0,2.5992608E0,3.540951E0,0E0,2.316545E0,0E0,0E0,2.0909064E0,1.7106974E0,0E0,0E0,0E0,0E0,0E0],"parents":[2147483647,0,0,1,1,2,2,3,3,5,5,8,8,9,9],"right_children":[2,4,6,8,-1,10,-1,-1,12,14,-1,-1,-1,-1,-1],"split_conditions":[-3.6900657E-1,4.36579E-1,8.733589E-1,-1.6081493E-1,2.7490683E-2,5.850394E-1,1.4830679E-2,-1.7480604E-2,3.5607928E-1,6.912688E-1,-2.8291304E-2,3.1911343E-2,1.0277246E-3,-9.704743E-3,6.7116977E-3],"split_indices":[3,6,6,4,0,6,0,0,4,3,0,0,0,0,0],"split_type":[0,0,0,0,0,0,0,0,0,0,0,0,0,0,0],"sum_hessian":[1.2996349E2,3.9506767E1,9.045672E1,2.918146E1,1.0325308E1,7.929908E1,1.1157633E1,1.0521391E1,1.8660069E1,6.889558E1,1.0403509E1,8.120068E0,1.0540001E1,5.0330643E1,1.856493E1],"tree_param":{"num_deleted":"0","num_feature":"7","num_nodes":"15","size_leaf_vector":"1"}},{"base_weights":[1.746099E-2,-2.7143058E-1,8.6242944E-2,1.2964938E-3,-2.093626E-2,3.921697E-1,-1.958069E-2,3.676486E-2,1.052981E-1,2.2969853E-2,-8.531365E-2,7.133444E-3,2.2848218E-3,-1.1137683E-2,6.4831534E-3],"categories":[],"categories_nodes":[],"categories_segments":[],"categories_sizes":[],"default_left":[0,0,0,0,0,0,0,0,0,0,0,0,0,0,0],"id":47,"left_children":[1,3,5,-1,-1,7,9,-1,11,-1,13,-1,-1,-1,-1],"loss_changes":[2.6876018E0,1.360982E0,3.5381877E0,0E0,0E0,3.049696E0,2.7766683E0,0E0,3.8086697E-2,0E0,2.5105195E0,0E0,0E0,0E0,0E0],"parents":[2147483647,0,0,1,1,2,2,5,5,6,6,8,8,10,10],"right_children":[2,4,6,-1,-1,8,10,-1,12,-1,14,-1,-1,-1,-1],"split_conditions":[-6.373539E-1,-1.078063E0,-4.453234E-1,1.2964938E-3,-2.093626E-2,7.453089E-2,-4.757762E-1,3.676486E-2,-8.546764E-1,2.2969853E-2,4.0144175E-1,7.133444E-3,2.2848218E-3,-1.1137683E-2,6.4831534E-3],"split_indices":[6,6,3,0,0,6,6,0,3,0,3,0,0,0,0],"split_type":[0,0,0,0,0,0,0,0,0,0,0,0,0,0,0],"sum_hessian":[1.3307762E2,2.5024748E1,1.08052864E2,9.492923E0,1.5531825E1,2.7075142E1,8.097772E1,1.0762886E1,1.6312256E1,8.548326E0,7.24294E1,8.068362E0,8.243893E0,4.3119328E1,2.931007E1],"tree_param":{"num_deleted":"0","num_feature":"7","num_nodes":"15","size_leaf_vector":"1"}},{"base_weights":[-9.5265644E-4,3.2038838E-2,-1.7525235E-2,-3.2541223E-2,3.53315E-1,-1.1391267E-1,2.471034E-1,1.4488891E-3,2.7164398E-2,-9.792712E-3,1.1942369E-2,2.6097044E-2,-4.262759E-3],"categories":[],"categories_nodes":[],"categories_segments":[],"categories_sizes":[],"default_left":[0,0,0,0,0,0,0,0,0,0,0,0,0],"id":48,"left_children":[1,3,-1,5,7,9,11,-1,-1,-1,-1,-1,-1],"loss_changes":[1.6491759E0,2.5770447E0,0E0,2.3917806E0,1.4819932E0,2.8605683E0,2.512362E0,0E0,0E0,0E0,0E0,0E0,0E0],"parents":[2147483647,0,0,1,1,3,3,4,4,5,5,6,6],"right_children":[2,4,-1,6,8,10,12,-1,-1,-1,-1,-1,-1],"split_conditions":[1.1538461E0,6.1538464E-1,-1.7525235E-2,6.3104665E-1,-1.6305926E-1,6.1166173E-1,-7.6923077E-3,1.4488891E-3,2.7164398E-2,-9.792712E-3,1.1942369E-2,2.6097044E-2,-4.262759E-3],"split_indices":[2,2,0,4,4,5,2,0,0,0,0,0,0],"split_type":[0,0,0,0,0,0,0,0,0,0,0,0,0],"sum_hessian":[1.3263535E2,1.2265256E2,9.98279E0,1.0287271E2,1.9779842E1,8.014472E1,2.2727991E1,8.567908E0,1.1211934E1,6.4153015E1,1.599171E1,1.1562781E1,1.1165209E1],"tree_param":{"num_deleted":"0","num_feature":"7","num_nodes":"13","size_leaf_vector":"1"}},{"base_weights":[-6.5733075E-2,-1.6449708E-2,-2.9859943E-2,2.4308372E-2,-6.0266715E-2,-2.3717856E-1,3.196738E-2,-1.7392036E-2,9.033366E-3,-6.4511234E-3,1.1944326E-2],"categories":[],"categories_nodes":[],"categories_segments":[],"categories_sizes":[],"default_left":[0,0,0,0,0,0,0,0,0,0,0],"id":49,"left_children":[1,3,-1,-1,5,7,9,-1,-1,-1,-1],"loss_changes":[3.729813E0,2.9228232E0,0E0,0E0,1.8895438E0,2.321386E0,2.9095325E0,0E0,0E0,0E0,0E0],"parents":[2147483647,0,0,1,1,4,4,5,5,6,6],"right_children":[2,4,-1,-1,6,8,10,-1,-1,-1,-1],"split_conditions":[1.229007E0,-1.0857542E0,-2.9859943E-2,2.4308372E-2,-3.0526745E-1,2E0,-4.345204E-2,-1.7392036E-2,9.033366E-3,-6.4511234E-3,1.1944326E-2],"split_indices":[5,5,0,0,6,0,5,0,0,0,0],"split_type":[0,0,0,0,0,0,0,0,0,0,0],"sum_hessian":[1.3246901E2,1.2285021E2,9.618793E0,8.514864E0,1.1433535E2,3.8643246E1,7.56921E1,2.9642431E1,9.000814E0,4.3172695E1,3.251941E1],"tree_param":{"num_deleted":"0","num_feature":"7","num_nodes":"11","size_leaf_vector":"1"}},{"base_weights":[-8.754003E-3,-6.740673E-2,1.9587519E-2,1.4701198E-2,-1.0038661E-1,-2.85968E-2,-2.9388608E-2,1.659959E-2,-5.834699E-3],"categories":[],"categories_nodes":[],"categories_segments":[],"categories_sizes":[],"default_left":[0,0,0,0,0,0,0,0,0],"id":50,"left_children":[1,3,-1,-1,5,-1,7,-1,-1],"loss_changes":[3.2913666E0,1.4831308E0,0E0,0E0,3.849821E0,0E0,3.4858441E0,0E0,0E0],"parents":[2147483647,0,0,1,1,4,4,6,6],"right_children":[2,4,-1,-1,6,-1,8,-1,-1],"split_conditions":[8.733589E-1,-1.1505078E0,1.9587519E-2,1.4701198E-2,-7.851029E-1,-2.85968E-2,-4.3936014E-1,1.659959E-2,-5.834699E-3],"split_indices":[6,6,0,0,6,0,6,0,0],"split_type":[0,0,0,0,0,0,0,0,0],"sum_hessian":[1.2995143E2,1.1492739E2,1.5024048E1,8.5072565E0,1.0642013E2,1.21411085E1,9.427902E1,1.8164982E1,7.6114044E1],"tree_param":{"num_deleted":"0","num_feature":"7","num_nodes":"9","size_leaf_vector":"1"}},{"base_weights":[1.8579641E-2,2.3466916E-1,-5.43141E-2,4.0879998E-1,-7.7192173E-3,1.27740055E-2,-1.0487985E-1,1.9199094E-3,3.0944038E-2,-2.8016058E-1,3.4303185E-2,-3.4242515E-2,-2.1074312E-3,1.4915508E-2,-8.413499E-3],"categories":[],"categories_nodes":[],"categories_segments":[],"categories_sizes":[],"default_left":[0,0,0,0,0,0,0,0,0,0,0,0,0,0,0],"id":51,"left_children":[1,3,5,7,-1,-1,9,-1,-1,11,13,-1,-1,-1,-1],"loss_changes":[2.1090736E0,2.4104748E0,1.680739E0,2.1487603E0,0E0,0E0,2.145894E0,0E0,0E0,4.0596156E0,3.0484767E0,0E0,0E0,0E0,0E0],"parents":[2147483647,0,0,1,1,2,2,3,3,6,6,9,9,10,10],"right_children":[2,4,6,8,-1,-1,10,-1,-1,12,14,-1,-1,-1,-1],"split_conditions":[-4.6153846E-1,3.7467432E-1,-8.603016E-1,-1.7024885E-1,-7.7192173E-3,1.27740055E-2,-1.4855465E-1,1.9199094E-3,3.0944038E-2,-1.5103085E-1,-8.01927E-2,-3.4242515E-2,-2.1074312E-3,1.4915508E-2,-8.413499E-3],"split_indices":[2,5,4,4,0,0,5,0,0,4,4,0,0,0,0],"split_type":[0,0,0,0,0,0,0,0,0,0,0,0,0,0,0],"sum_hessian":[1.3208688E2,3.2758064E1,9.932883E1,2.2781725E1,9.976338E0,1.2762234E1,8.65666E1,9.653782E0,1.3127944E1,3.7866444E1,4.870015E1,1.2335611E1,2.553083E1,2.0724758E1,2.7975393E1],"tree_param":{"num_deleted":"0","num_feature":"7","num_nodes":"15","size_leaf_vector":"1"}},{"base_weights":[7.18485E-2,3.2857582E-2,2.3770183E-2,1.4196211E-2,-7.908441E-3,-2.277116E-1,5.4634664E-2,4.4171703E-3,-2.4637314E-2,1.9533418E-2,1.7487693E-4],"categories":[],"categories_nodes":[],"categories_segments":[],"categories_sizes":[],"default_left":[0,0,0,0,0,0,0,0,0,0,0],"id":52,"left_children":[1,3,-1,-1,5,7,9,-1,-1,-1,-1],"loss_changes":[2.1704917E0,1.3156574E0,0E0,0E0,1.4567585E0,2.2802494E0,1.5139571E0,0E0,0E0,0E0,0E0],"parents":[2147483647,0,0,1,1,4,4,5,5,6,6],"right_children":[2,4,-1,-1,6,8,10,-1,-1,-1,-1],"split_conditions":[3E0,-8.70223E-1,2.3770183E-2,1.4196211E-2,-3.7435636E-1,7.6923077E-3,-1.8597366E-1,4.4171703E-3,-2.4637314E-2,1.9533418E-2,1.7487693E-4],"split_indices":[0,5,0,0,5,2,5,0,0,0,0],"split_type":[0,0,0,0,0,0,0,0,0,0,0],"sum_hessian":[1.2850435E2,1.18878586E2,9.625757E0,1.4815694E1,1.0406289E2,2.2466202E1,8.159669E1,1.108944E1,1.1376761E1,9.217649E0,7.237904E1],"tree_param":{"num_deleted":"0","num_feature":"7","num_nodes":"11","size_leaf_vector":"1"}},{"base_weights":[-9.4123505E-2,-1.4283545E-1,2.51805E-2,-2.8101754E-1,4.8411496E-2,-9.40876E-2,-5.8903533E-1,2.3432033E-1,-1.8609671E-1,-1.48630515E-2,1.11154765E-2,-1.38162775E-2,-3.290514E-2,4.2934967E-3,1.9140106E-2,-1.624756E-2,-9.670953E-4],"categories":[],"categories_nodes":[],"categories_segments":[],"categories_sizes":[],"default_left":[0,0,0,0,0,0,0,0,0,0,0,0,0,0,0,0,0],"id":53,"left_children":[1,3,-1,5,7,9,11,13,15,-1,-1,-1,-1,-1,-1,-1,-1],"loss_changes":[4.128419E0,3.2778301E0,0E0,4.0818152E0,2.3396173E0,3.4349535E0,6.7087173E-1,6.9815016E-1,6.2086093E-1,0E0,0E0,0E0,0E0,0E0,0E0,0E0,0E0],"parents":[2147483647,0,0,1,1,3,3,4,4,5,5,6,6,7,7,8,8],"right_children":[2,4,-1,6,8,10,12,14,16,-1,-1,-1,-1,-1,-1,-1,-1],"split_conditions":[3E0,1.9311883E-1,2.51805E-2,-2.2594865E-1,7.308415E-1,-5.4239535E-1,-4.3246564E-1,1.1453384E-2,0E0,-1.48630515E-2,1.11154765E-2,-1.38162775E-2,-3.290514E-2,4.2934967E-3,1.9140106E-2,-1.624756E-2,-9.670953E-4],"split_indices":[0,4,0,4,4,4,3,3,1,0,0,0,0,0,0,0,0],"split_type":[0,0,0,0,0,0,0,0,0,0,0,0,0,0,0,0,0],"sum_hessian":[1.3123344E2,1.2251903E2,8.714421E0,7.0854774E1,5.166425E1,4.490704E1,2.5947735E1,2.8818714E1,2.2845535E1,2.689651E1,1.801053E1,8.033884E0,1.791385E1,1.6578228E1,1.2240486E1,1.1097563E1,1.17479725E1],"tree_param":{"num_deleted":"0","num_feature":"7","num_nodes":"17","size_leaf_vector":"1"}},{"base_weights":[2.6347175E-2,-2.435494E-1,9.142126E-2,-3.0373715E-2,-1.231099E-2,1.0784715E-2,3.7507904E-1,1.56054115E-2,-1.7091807E-2,6.85488E-2,-1.1517285E-2,3.5242602E-2,-8.437226E-3,1.8768355E-2,-4.537931E-3],"categories":[],"categories_nodes":[],"categories_segments":[],"categories_sizes":[],"default_left":[0,0,0,0,0,0,0,0,0,0,0,0,0,0,0],"id":54,"left_children":[1,3,5,-1,7,9,11,-1,-1,13,-1,-1,-1,-1,-1],"loss_changes":[2.3090641E0,2.3670514E0,2.41219E0,0E0,2.2005072E0,1.2457329E0,4.9707327E0,0E0,0E0,3.7803125E0,0E0,0E0,0E0,0E0,0E0],"parents":[2147483647,0,0,1,1,2,2,4,4,5,5,6,6,9,9],"right_children":[2,4,6,-1,8,10,12,-1,-1,14,-1,-1,-1,-1,-1],"split_conditions":[-6.373539E-1,-4.797041E-1,1E0,-3.0373715E-2,3.43525E-1,6.344317E-1,-1.0769231E-1,1.56054115E-2,-1.7091807E-2,-3.846154E-2,-1.1517285E-2,3.5242602E-2,-8.437226E-3,1.8768355E-2,-4.537931E-3],"split_indices":[6,3,1,0,3,3,2,0,0,2,0,0,0,0,0],"split_type":[0,0,0,0,0,0,0,0,0,0,0,0,0,0,0],"sum_hessian":[1.2920345E2,2.4567286E1,1.04636154E2,8.321108E0,1.6246178E1,8.2283195E1,2.2352957E1,8.2321615E0,8.014017E0,6.7705444E1,1.4577754E1,1.3143425E1,9.209533E0,2.2084375E1,4.5621067E1],"tree_param":{"num_deleted":"0","num_feature":"7","num_nodes":"15","size_leaf_vector":"1"}},{"base_weights":[-2.480307E-2,-4.108427E-1,8.47243E-2,-5.0128716E-1,-9.44622E-3,1.8310463E-1,-2.1693629E-1,-1.2867398E-2,-3.0956602E-2,4.2166103E-2,5.058116E-1,7.3520496E-4,-1.8339537E-2,2.6297648E-2,-9.111472E-3,7.1984543E-3,3.8734596E-2],"categories":[],"categories_nodes":[],"categories_segments":[],"categories_sizes":[],"default_left":[0,0,0,0,0,0,0,0,0,0,0,0,0,0,0,0,0],"id":55,"left_children":[1,3,5,7,-1,9,11,-1,-1,13,15,-1,-1,-1,-1,-1,-1],"loss_changes":[5.416047E0,4.3732977E-1,3.0066059E0,5.0155973E-1,0E0,3.4320078E0,1.011711E0,0E0,0E0,6.675493E0,2.4464726E0,0E0,0E0,0E0,0E0,0E0,0E0],"parents":[2147483647,0,0,1,1,2,2,3,3,5,5,6,6,9,9,10,10],"right_children":[2,4,6,8,-1,10,12,-1,-1,14,16,-1,-1,-1,-1,-1,-1],"split_conditions":[-5.8174205E-1,-8.009211E-1,3.3718896E-1,-1.078063E0,-9.44622E-3,-6.868496E-2,-8.01927E-2,-1.2867398E-2,-3.0956602E-2,-3.652951E-1,-1.832749E-1,7.3520496E-4,-1.8339537E-2,2.6297648E-2,-9.111472E-3,7.1984543E-3,3.8734596E-2],"split_indices":[6,6,5,6,0,5,4,0,0,4,4,0,0,0,0,0,0],"split_type":[0,0,0,0,0,0,0,0,0,0,0,0,0,0,0,0,0],"sum_hessian":[1.26270485E2,2.7299557E1,9.897093E1,1.8117508E1,9.182049E0,7.49278E1,2.4043133E1,8.489874E0,9.627635E0,5.293828E1,2.198952E1,1.06326275E1,1.3410505E1,1.6160183E1,3.6778095E1,1.1108554E1,1.0880965E1],"tree_param":{"num_deleted":"0","num_feature":"7","num_nodes":"17","size_leaf_vector":"1"}},{"base_weights":[-4.9238086E-2,-3.143935E-1,1.2643967E-2,-2.4205563E-3,-2.957728E-2,5.211299E-1,-9.452694E-2,3.5961196E-2,1.0630765E-2,-2.2569042E-2,-3.3856938E-3,-2.519602E-3,1.5797539E-2],"categories":[],"categories_nodes":[],"categories_segments":[],"categories_sizes":[],"default_left":[0,0,0,0,0,0,0,0,0,0,0,0,0],"id":56,"left_children":[1,3,5,-1,-1,7,9,-1,-1,-1,11,-1,-1],"loss_changes":[2.1143448E0,1.9801145E0,5.784315E0,0E0,0E0,1.152122E0,3.077532E0,0E0,0E0,0E0,1.2412964E0,0E0,0E0],"parents":[2147483647,0,0,1,1,2,2,5,5,6,6,10,10],"right_children":[2,4,6,-1,-1,8,10,-1,-1,-1,12,-1,-1],"split_conditions":[-6.173212E-1,-9.120116E-1,-3.550995E-1,-2.4205563E-3,-2.957728E-2,3.0605733E-2,-1.5103085E-1,3.5961196E-2,1.0630765E-2,-2.2569042E-2,8.182861E-1,-2.519602E-3,1.5797539E-2],"split_indices":[4,4,4,0,0,5,4,0,0,0,6,0,0],"split_type":[0,0,0,0,0,0,0,0,0,0,0,0,0],"sum_hessian":[1.2761552E2,2.3375301E1,1.0424021E2,1.3353764E1,1.0021538E1,1.7473305E1,8.676691E1,8.717285E0,8.756019E0,1.5795255E1,7.097166E1,6.2560287E1,8.411368E0],"tree_param":{"num_deleted":"0","num_feature":"7","num_nodes":"13","size_leaf_vector":"1"}},{"base_weights":[-4.6008334E-2,-9.500518E-2,2.0170072E-1,-5.644116E-2,-2.3864036E-2,-1.3582654E-3,2.4213977E-2,-1.1230867E-1,1.8721087E-2,-4.7231358E-4,-2.1958953E-2],"categories":[],"categories_nodes":[],"categories_segments":[],"categories_sizes":[],"default_left":[0,0,0,0,0,0,0,0,0,0,0],"id":57,"left_children":[1,3,5,7,-1,-1,-1,9,-1,-1,-1],"loss_changes":[1.5619295E0,1.6681575E0,1.5512934E0,2.5510988E0,0E0,0E0,0E0,3.2100625E0,0E0,0E0,0E0],"parents":[2147483647,0,0,1,1,2,2,3,3,7,7],"right_children":[2,4,6,8,-1,-1,-1,10,-1,-1,-1],"split_conditions":[7.4613017E-1,6.057006E-1,3.41849E-1,4.1207567E-1,-2.3864036E-2,-1.3582654E-3,2.4213977E-2,1.04035035E-1,1.8721087E-2,-4.7231358E-4,-2.1958953E-2],"split_indices":[3,3,4,3,0,0,0,3,0,0,0],"split_type":[0,0,0,0,0,0,0,0,0,0,0],"sum_hessian":[1.26113106E2,1.0580195E2,2.031116E1,9.778531E1,8.016638E0,1.2213748E1,8.09741E0,8.774423E1,1.0041074E1,6.888238E1,1.886186E1],"tree_param":{"num_deleted":"0","num_feature":"7","num_nodes":"11","size_leaf_vector":"1"}},{"base_weights":[-4.184172E-2,-9.161126E-2,1.6291576E-2,2.6445767E-2,-2.537586E-1,-1.1641062E-1,3.0251747E-1,-4.620064E-1,2.037906E-3,-1.1451916E-3,-2.1174481E-2,2.8610593E-2,-2.9564614E-3,-1.1843262E-2,-3.2651857E-2,2.4549672E-2,-1.742371E-2],"categories":[],"categories_nodes":[],"categories_segments":[],"categories_sizes":[],"default_left":[0,0,0,0,0,0,0,0,0,0,0,0,0,0,0,0,0],"id":58,"left_children":[1,3,-1,5,7,9,11,13,15,-1,-1,-1,-1,-1,-1,-1,-1],"loss_changes":[2.4889681E0,2.181086E0,0E0,2.663257E0,2.5552914E0,1.359457E0,2.6035016E0,1.1140599E0,4.546348E0,0E0,0E0,0E0,0E0,0E0,0E0,0E0,0E0],"parents":[2147483647,0,0,1,1,3,3,4,4,5,5,6,6,7,7,8,8],"right_children":[2,4,-1,6,8,10,12,14,16,-1,-1,-1,-1,-1,-1,-1,-1],"split_conditions":[8.733589E-1,2.5423572E-3,1.6291576E-2,-3.291147E-1,4.1992447E-1,-4.757762E-1,1E0,2.4478461E-1,6.0647804E-1,-1.1451916E-3,-2.1174481E-2,2.8610593E-2,-2.9564614E-3,-1.1843262E-2,-3.2651857E-2,2.4549672E-2,-1.742371E-2],"split_indices":[6,6,0,6,6,6,0,6,6,0,0,0,0,0,0,0,0],"split_type":[0,0,0,0,0,0,0,0,0,0,0,0,0,0,0,0,0],"sum_hessian":[1.2626827E2,1.1258809E2,1.3680178E1,6.563624E1,4.695185E1,4.36351E1,2.2001139E1,2.5437033E1,2.1514818E1,3.5032974E1,8.602127E0,1.1623768E1,1.0377371E1,1.4423061E1,1.101397E1,8.812771E0,1.2702048E1],"tree_param":{"num_deleted":"0","num_feature":"7","num_nodes":"17","size_leaf_vector":"1"}},{"base_weights":[4.6087066E-3,-2.8562465E-1,7.617887E-2,-3.1868245E-2,-8.1035525E-2,3.7940565E-1,1.8602414E-2,6.871507E-3,-1.594922E-2,1.14132E-2,2.2285977E-2,1.7654642E-1,-1.435259E-1,-4.5123533E-3,2.5333315E-2,5.639638E-3,-2.7345937E-2],"categories":[],"categories_nodes":[],"categories_segments":[],"categories_sizes":[],"default_left":[0,0,0,0,0,0,0,0,0,0,0,0,0,0,0,0,0],"id":59,"left_children":[1,3,5,-1,7,9,11,-1,-1,-1,-1,13,15,-1,-1,-1,-1],"loss_changes":[2.8111084E0,2.089035E0,1.8873866E0,0E0,1.1449412E0,1.0753894E-1,2.3874905E0,0E0,0E0,0E0,0E0,4.6988707E0,5.3764353E0,0E0,0E0,0E0,0E0],"parents":[2147483647,0,0,1,1,2,2,4,4,5,5,6,6,11,11,12,12],"right_children":[2,4,6,-1,8,10,12,-1,-1,-1,-1,14,16,-1,-1,-1,-1],"split_conditions":[-6.373539E-1,-4.797041E-1,-7.8701174E-1,-3.1868245E-2,-9.5113987E-1,2.7056154E-2,-5.61782E-2,6.871507E-3,-1.594922E-2,1.14132E-2,2.2285977E-2,7.692308E-2,1.8461539E-1,-4.5123533E-3,2.5333315E-2,5.639638E-3,-2.7345937E-2],"split_indices":[6,3,3,0,6,4,4,0,0,0,0,2,2,0,0,0,0],"split_type":[0,0,0,0,0,0,0,0,0,0,0,0,0,0,0,0,0],"sum_hessian":[1.3328381E2,2.5773905E1,1.0750991E2,8.055041E0,1.7718863E1,1.6264296E1,9.124561E1,9.652496E0,8.066367E0,8.078615E0,8.18568E0,4.6174183E1,4.5071426E1,2.6755383E1,1.94188E1,2.8587273E1,1.6484156E1],"tree_param":{"num_deleted":"0","num_feature":"7","num_nodes":"17","size_leaf_vector":"1"}},{"base_weights":[6.944756E-2,2.598508E-1,-3.722711E-2,6.3029337E-1,2.5119122E-2,-4.7337714E-1,1.0853288E-1,1.738735E-2,3.9343126E-2,2.2936071E-1,-1.5295727E-2,-6.231442E-3,-3.4553997E-2,-8.789038E-3,2.0264766E-1,-1.36994375E-2,3.20309E-2,2.096386E-2,-2.5091257E-3],"categories":[],"categories_nodes":[],"categories_segments":[],"categories_sizes":[],"default_left":[0,0,0,0,0,0,0,0,0,0,0,0,0,0,0,0,0,0,0],"id":60,"left_children":[1,3,5,7,9,11,13,-1,-1,15,-1,-1,-1,-1,17,-1,-1,-1,-1],"loss_changes":[2.6063254E0,3.9867985E0,5.316007E0,6.4644E-1,2.1635783E0,1.7633796E0,1.7851658E0,0E0,0E0,4.6674623E0,0E0,0E0,0E0,0E0,3.0157106E0,0E0,0E0,0E0,0E0],"parents":[2147483647,0,0,1,1,2,2,3,3,4,4,5,5,6,6,9,9,14,14],"right_children":[2,4,6,8,10,12,14,-1,-1,16,-1,-1,-1,-1,18,-1,-1,-1,-1],"split_conditions":[-3.0244207E-1,1.923077E-1,1.4696907E-2,4.6464074E-2,3.41849E-1,-7.6923077E-3,-6.923077E-1,1.738735E-2,3.9343126E-2,-2.3745589E-1,-1.5295727E-2,-6.231442E-3,-3.4553997E-2,-8.789038E-3,-8.01927E-2,-1.36994375E-2,3.20309E-2,2.096386E-2,-2.5091257E-3],"split_indices":[3,2,3,4,4,2,2,0,0,4,0,0,0,0,4,0,0,0,0],"split_type":[0,0,0,0,0,0,0,0,0,0,0,0,0,0,0,0,0,0,0],"sum_hessian":[1.2684334E2,4.503127E1,8.1812065E1,1.6812849E1,2.821842E1,1.992973E1,6.1882336E1,8.640599E0,8.17225E0,1.8038712E1,1.0179709E1,9.288241E0,1.0641487E1,1.4720026E1,4.716231E1,8.540893E0,9.497818E0,2.3827414E1,2.3334896E1],"tree_param":{"num_deleted":"0","num_feature":"7","num_nodes":"19","size_leaf_vector":"1"}},{"base_weights":[5.242387E-2,2.3210953E-1,-8.011659E-2,3.0524818E-2,1.0641079E-1,-3.3094347E-1,1.1056529E-1,3.3546814E-1,-1.5723078E-2,-1.2929027E-1,-3.5299443E-2,-1.5838971E-2,2.4098054E-1,-7.4889828E-3,2.7595298E-2,-1.9752063E-2,4.322822E-3,1.6469504E-3,2.3861641E-2],"categories":[],"categories_nodes":[],"categories_segments":[],"categories_sizes":[],"default_left":[0,0,0,0,0,0,0,0,0,0,0,0,0,0,0,0,0,0,0],"id":61,"left_children":[1,3,5,-1,7,9,11,13,-1,15,-1,-1,17,-1,-1,-1,-1,-1,-1],"loss_changes":[3.1535048E0,2.8688962E0,3.6953337E0,0E0,4.582667E0,2.7154608E0,2.6585665E0,3.7707329E0,0E0,1.5588031E0,0E0,0E0,1.8890743E0,0E0,0E0,0E0,0E0,0E0,0E0],"parents":[2147483647,0,0,1,1,2,2,4,4,5,5,6,6,7,7,9,9,12,12],"right_children":[2,4,6,-1,8,10,12,14,-1,16,-1,-1,18,-1,-1,-1,-1,-1,-1],"split_conditions":[-1.8732396E-1,-4.461198E-1,-2.514705E-1,3.0524818E-2,3.5375708E-1,4.4512787E-1,-6.173212E-1,-5.089655E-1,-1.5723078E-2,-4.9725127E-1,-3.5299443E-2,-1.5838971E-2,4.544835E-1,-7.4889828E-3,2.7595298E-2,-1.9752063E-2,4.322822E-3,1.6469504E-3,2.3861641E-2],"split_indices":[3,4,6,0,6,4,4,6,0,4,0,0,6,0,0,0,0,0,0],"split_type":[0,0,0,0,0,0,0,0,0,0,0,0,0,0,0,0,0,0,0],"sum_hessian":[1.3063248E2,5.5134785E1,7.5497696E1,1.18207445E1,4.331404E1,3.2288784E1,4.3208908E1,2.865153E1,1.4662512E1,2.2680796E1,9.607988E0,9.401465E0,3.3807446E1,9.762906E0,1.8888622E1,9.4179125E0,1.3262883E1,1.9688591E1,1.41188545E1],"tree_param":{"num_deleted":"0","num_feature":"7","num_nodes":"19","size_leaf_vector":"1"}},{"base_weights":[1.6821466E-2,2.0132841E-1,-7.7992216E-2,-1.3696043E-2,3.949466E-1,-3.3647454E-1,1.8506488E-2,1.951295E-1,3.1262267E-2,-2.4042347E-2,-9.711069E-3,3.0127972E-2,-1.2188243E-1,1.445794E-2,1.7787026E-3,-2.910256E-2,2.8546595E-3],"categories":[],"categories_nodes":[],"categories_segments":[],"categories_sizes":[],"default_left":[0,0,0,0,0,0,0,0,0,0,0,0,0,0,0,0,0],"id":62,"left_children":[1,3,5,-1,7,9,11,13,-1,-1,-1,-1,15,-1,-1,-1,-1],"loss_changes":[2.2639914E0,4.299708E0,2.1417398E0,0E0,1.5881901E0,4.2381978E-1,5.600427E0,3.364122E-1,0E0,0E0,0E0,0E0,4.7912045E0,0E0,0E0,0E0,0E0],"parents":[2147483647,0,0,1,1,2,2,4,4,5,5,6,6,7,7,12,12],"right_children":[2,4,6,-1,8,10,12,14,-1,-1,-1,-1,16,-1,-1,-1,-1],"split_conditions":[-3.1795597E-1,-5.089655E-1,1.4696907E-2,-1.3696043E-2,1E0,-1.9654505E-1,2.0004238E-1,4.6428633E-1,3.1262267E-2,-2.4042347E-2,-9.711069E-3,3.0127972E-2,3.8459554E-1,1.445794E-2,1.7787026E-3,-2.910256E-2,2.8546595E-3],"split_indices":[3,6,3,0,0,6,3,6,0,0,0,0,3,0,0,0,0],"split_type":[0,0,0,0,0,0,0,0,0,0,0,0,0,0,0,0,0],"sum_hessian":[1.2751934E2,4.290433E1,8.461501E1,1.1969128E1,3.0935204E1,2.232588E1,6.2289135E1,1.8745611E1,1.2189591E1,8.295418E0,1.4030461E1,1.08213215E1,5.146781E1,1.039381E1,8.351801E0,1.3195592E1,3.827222E1],"tree_param":{"num_deleted":"0","num_feature":"7","num_nodes":"17","size_leaf_vector":"1"}},{"base_weights":[-1.6261397E-2,-6.5937094E-2,2.9361935E-2,2.2010788E-2,-1.2335199E-1,-3.338096E-2,-5.0652817E-2,2.978263E-3,-1.4357657E-2],"categories":[],"categories_nodes":[],"categories_segments":[],"categories_sizes":[],"default_left":[0,0,0,0,0,0,0,0,0],"id":63,"left_children":[1,3,-1,-1,5,-1,7,-1,-1],"loss_changes":[4.0697465E0,3.6873312E0,0E0,0E0,4.553585E0,0E0,2.8286238E0,0E0,0E0],"parents":[2147483647,0,0,1,1,4,4,6,6],"right_children":[2,4,-1,-1,6,-1,8,-1,-1],"split_conditions":[1.1021549E0,-9.4426024E-1,2.9361935E-2,2.2010788E-2,-6.173212E-1,-3.338096E-2,3.4262574E-1,2.978263E-3,-1.4357657E-2],"split_indices":[6,4,0,0,4,0,5,0,0],"split_type":[0,0,0,0,0,0,0,0,0],"sum_hessian":[1.2570996E2,1.1748816E2,8.221803E0,1.0720624E1,1.0676753E2,1.0820776E1,9.5946754E1,6.6786095E1,2.9160667E1],"tree_param":{"num_deleted":"0","num_feature":"7","num_nodes":"9","size_leaf_vector":"1"}},{"base_weights":[-5.346176E-2,-6.6462085E-3,-2.0058572E-2,-1.9931933E-2,4.7746927E-2,4.8726365E-1,-6.1816193E-2,4.4777792E-2,-1.0387928E-3,-9.245856E-3,6.200659E-3],"categories":[],"categories_nodes":[],"categories_segments":[],"categories_sizes":[],"default_left":[0,0,0,0,0,0,0,0,0,0,0],"id":64,"left_children":[1,3,-1,-1,5,7,9,-1,-1,-1,-1],"loss_changes":[2.1686013E0,2.5499694E0,0E0,0E0,4.8265595E0,4.7447023E0,2.1260958E0,0E0,0E0,0E0,0E0],"parents":[2147483647,0,0,1,1,4,4,5,5,6,6],"right_children":[2,4,-1,-1,6,8,10,-1,-1,-1,-1],"split_conditions":[8.5384613E-1,-9.1078806E-1,-2.0058572E-2,-1.9931933E-2,-4.3936014E-1,1.04035035E-1,4.1992447E-1,4.4777792E-2,-1.0387928E-3,-9.245856E-3,6.200659E-3],"split_indices":[2,6,0,0,6,3,6,0,0,0,0],"split_type":[0,0,0,0,0,0,0,0,0,0,0],"sum_hessian":[1.23461945E2,1.1058742E2,1.2874527E1,1.1982894E1,9.860452E1,1.898762E1,7.9616905E1,9.481896E0,9.505722E0,4.69498E1,3.2667103E1],"tree_param":{"num_deleted":"0","num_feature":"7","num_nodes":"11","size_leaf_vector":"1"}},{"base_weights":[1.6258016E-2,7.686441E-2,-1.997895E-2,-2.0552127E-1,1.5116817E-1,3.9921035E-3,-2.0369397E-2,3.125845E-2,2.5335513E-2,-2.3755116E-2,4.7592707E-3],"categories":[],"categories_nodes":[],"categories_segments":[],"categories_sizes":[],"default_left":[0,0,0,0,0,0,0,0,0,0,0],"id":65,"left_children":[1,3,-1,5,7,-1,-1,-1,9,-1,-1],"loss_changes":[3.418347E0,2.3870683E0,0E0,1.6076409E0,5.757474E0,0E0,0E0,0E0,2.9779177E0,0E0,0E0],"parents":[2147483647,0,0,1,1,3,3,4,4,8,8],"right_children":[2,4,-1,6,8,-1,-1,-1,10,-1,-1],"split_conditions":[8.5384613E-1,-6.173212E-1,-1.997895E-2,-1.4855465E-1,-2.7930772E-1,3.9921035E-3,-2.0369397E-2,3.125845E-2,-1.5103085E-1,-2.3755116E-2,4.7592707E-3],"split_indices":[2,4,0,5,4,0,0,0,4,0,0],"split_type":[0,0,0,0,0,0,0,0,0,0,0],"sum_hessian":[1.2576389E2,1.1128503E2,1.4478869E1,2.2814465E1,8.8470566E1,1.0291127E1,1.2523337E1,1.658659E1,7.188397E1,8.283503E0,6.360047E1],"tree_param":{"num_deleted":"0","num_feature":"7","num_nodes":"11","size_leaf_vector":"1"}},{"base_weights":[1.8014683E-3,6.0880832E-2,-3.5726017E-1,-4.802636E-3,2.4829628E-2,-2.9188048E-2,-1.0354284E-3,5.2383754E-2,-1.976401E-2,2.1833414E-2,-1.0954925E-3],"categories":[],"categories_nodes":[],"categories_segments":[],"categories_sizes":[],"default_left":[0,0,0,0,0,0,0,0,0,0,0],"id":66,"left_children":[1,3,5,7,-1,-1,-1,9,-1,-1,-1],"loss_changes":[2.731318E0,3.3903189E0,1.5893672E0,2.3455005E0,0E0,0E0,0E0,2.7166436E0,0E0,0E0,0E0],"parents":[2147483647,0,0,1,1,2,2,3,3,7,7],"right_children":[2,4,6,8,-1,-1,-1,10,-1,-1,-1],"split_conditions":[8.076923E-1,8.733589E-1,2.4478461E-1,6.0647804E-1,2.4829628E-2,-2.9188048E-2,-1.0354284E-3,-6.9021595E-1,-1.976401E-2,2.1833414E-2,-1.0954925E-3],"split_indices":[2,6,6,6,0,0,0,5,0,0,0],"split_type":[0,0,0,0,0,0,0,0,0,0,0],"sum_hessian":[1.2673067E2,1.0953793E2,1.7192732E1,9.6888695E1,1.2649235E1,9.161464E0,8.031269E0,8.592419E1,1.0964511E1,1.2548724E1,7.3375465E1],"tree_param":{"num_deleted":"0","num_feature":"7","num_nodes":"11","size_leaf_vector":"1"}},{"base_weights":[6.3973265E-3,6.142558E-2,-2.1668682E-2,3.6186358E-1,-6.254608E-2,5.939835E-1,-6.2183593E-4,-1.5531541E-1,1.8520993E-1,1.5604481E-2,3.747925E-2,1.3034474E-2,-1.7981414E-2,3.1967238E-2,-6.546681E-3],"categories":[],"categories_nodes":[],"categories_segments":[],"categories_sizes":[],"default_left":[0,0,0,0,0,0,0,0,0,0,0,0,0,0,0],"id":67,"left_children":[1,3,-1,5,7,9,-1,11,13,-1,-1,-1,-1,-1,-1],"loss_changes":[3.263943E0,4.252945E0,0E0,2.9091048E0,1.8963261E0,8.298836E-1,0E0,5.9513545E0,3.7130127E0,0E0,0E0,0E0,0E0,0E0,0E0],"parents":[2147483647,0,0,1,1,3,3,4,4,5,5,7,7,8,8],"right_children":[2,4,-1,6,8,10,-1,12,14,-1,-1,-1,-1,-1,-1],"split_conditions":[8.5384613E-1,-3.1795597E-1,-2.1668682E-2,2.702671E-1,4.3031263E-1,-6.1944586E-1,-6.2183593E-4,-4.6923077E-1,1.5353672E-1,1.5604481E-2,3.747925E-2,1.3034474E-2,-1.7981414E-2,3.1967238E-2,-6.546681E-3],"split_indices":[2,3,0,4,5,3,0,2,3,0,0,0,0,0,0],"split_type":[0,0,0,0,0,0,0,0,0,0,0,0,0,0,0],"sum_hessian":[1.2498298E2,1.12578224E2,1.2404757E1,3.2324E1,8.025423E1,1.9606558E1,1.2717442E1,5.866203E1,2.1592197E1,9.680879E0,9.925678E0,2.0105375E1,3.8556652E1,8.124307E0,1.346789E1],"tree_param":{"num_deleted":"0","num_feature":"7","num_nodes":"15","size_leaf_vector":"1"}},{"base_weights":[1.9936098E-2,3.9946118E-1,-6.785546E-2,2.9918225E-2,-5.8065366E-4,-4.2411596E-1,2.4114452E-2,-3.7692103E-3,-3.2380074E-2,1.7173067E-2,-4.8796497E-2,-6.6370857E-3,7.4602133E-3],"categories":[],"categories_nodes":[],"categories_segments":[],"categories_sizes":[],"default_left":[0,0,0,0,0,0,0,0,0,0,0,0,0],"id":68,"left_children":[1,3,5,-1,-1,7,9,-1,-1,-1,11,-1,-1],"loss_changes":[4.4370837E0,2.4397168E0,3.560207E0,0E0,0E0,1.9672236E0,2.1805518E0,0E0,0E0,0E0,1.4098171E0,0E0,0E0],"parents":[2147483647,0,0,1,1,2,2,5,5,6,6,10,10],"right_children":[2,4,6,-1,-1,8,10,-1,-1,-1,12,-1,-1],"split_conditions":[-6.771505E-1,2.702671E-1,-3.1223908E-1,2.9918225E-2,-5.8065366E-4,-4.8758438E-1,-7.4329877E-1,-3.7692103E-3,-3.2380074E-2,1.7173067E-2,5.3044564E-1,-6.6370857E-3,7.4602133E-3],"split_indices":[5,4,5,0,0,5,3,0,0,0,3,0,0],"split_type":[0,0,0,0,0,0,0,0,0,0,0,0,0],"sum_hessian":[1.3135587E2,2.4009987E1,1.0734588E2,1.491448E1,9.095506E0,2.128469E1,8.606119E1,9.802584E0,1.1482106E1,1.446455E1,7.1596634E1,4.977543E1,2.1821207E1],"tree_param":{"num_deleted":"0","num_feature":"7","num_nodes":"13","size_leaf_vector":"1"}},{"base_weights":[9.2113495E-2,5.575477E-2,2.444535E-2,8.517079E-2,-1.4782553E-2,3.2951806E-2,2.6757449E-2,6.5695005E-3,-4.659512E-3],"categories":[],"categories_nodes":[],"categories_segments":[],"categories_sizes":[],"default_left":[0,0,0,0,0,0,0,0,0],"id":69,"left_children":[1,3,-1,5,-1,7,-1,-1,-1],"loss_changes":[2.0402522E0,1.3743957E0,0E0,2.8971603E0,0E0,1.4955524E0,0E0,0E0,0E0],"parents":[2147483647,0,0,1,1,3,3,5,5],"right_children":[2,4,-1,6,-1,8,-1,-1,-1],"split_conditions":[3E0,1.1923077E0,2.444535E-2,7.692308E-1,-1.4782553E-2,1E0,2.6757449E-2,6.5695005E-3,-4.659512E-3],"split_indices":[0,2,0,2,0,0,0,0,0],"split_type":[0,0,0,0,0,0,0,0,0],"sum_hessian":[1.3221593E2,1.2288773E2,9.328201E0,1.1454574E2,8.341997E0,1.0433964E2,1.0206094E1,5.767684E1,4.66628E1],"tree_param":{"num_deleted":"0","num_feature":"7","num_nodes":"9","size_leaf_vector":"1"}},{"base_weights":[7.12578E-2,-3.9603475E-2,2.4319275E-1,-4.001857E-1,1.2253839E-1,4.2814207E-1,-5.223895E-2,-7.924712E-3,-2.7919201E-2,2.5654674E-1,-1.6445547E-2,5.3559923E-1,5.747081E-3,-3.0136587E-2,2.0963918E-2,-3.510189E-3,1.8052159E-2,1.4483479E-2,3.8252886E-2],"categories":[],"categories_nodes":[],"categories_segments":[],"categories_sizes":[],"default_left":[0,0,0,0,0,0,0,0,0,0,0,0,0,0,0,0,0,0,0],"id":70,"left_children":[1,3,5,7,9,11,13,-1,-1,15,-1,17,-1,-1,-1,-1,-1,-1,-1],"loss_changes":[2.4089074E0,4.5736275E0,2.7262185E0,9.843378E-1,3.5140486E0,9.390416E-1,6.120179E0,0E0,0E0,1.8257108E0,0E0,1.158649E0,0E0,0E0,0E0,0E0,0E0,0E0,0E0],"parents":[2147483647,0,0,1,1,2,2,3,3,4,4,5,5,6,6,9,9,11,11],"right_children":[2,4,6,8,10,12,14,-1,-1,16,-1,18,-1,-1,-1,-1,-1,-1,-1],"split_conditions":[1.9311883E-1,-3.291147E-1,1.8461539E-1,-7.443672E-1,-5.61782E-2,9.33196E-1,5.769231E-1,-7.924712E-3,-2.7919201E-2,-8.082103E-1,-1.6445547E-2,5.8339065E-1,5.747081E-3,-3.0136587E-2,2.0963918E-2,-3.510189E-3,1.8052159E-2,1.4483479E-2,3.8252886E-2],"split_indices":[4,6,2,6,4,4,2,0,0,4,0,4,0,0,0,0,0,0,0],"split_type":[0,0,0,0,0,0,0,0,0,0,0,0,0,0,0,0,0,0,0],"sum_hessian":[1.2487404E2,7.638908E1,4.8484962E1,2.3239456E1,5.3149624E1,2.9541727E1,1.8943235E1,1.1406233E1,1.1833223E1,4.175019E1,1.1399431E1,2.130966E1,8.232066E0,8.551613E0,1.0391623E1,1.1685534E1,3.006466E1,1.2849732E1,8.4599285E0],"tree_param":{"num_deleted":"0","num_feature":"7","num_nodes":"19","size_leaf_vector":"1"}},{"base_weights":[5.101063E-3,-2.999608E-2,2.0553079E-2,1.0779605E-1,-1.62099E-1,-1.84748E-2,3.7341985E-1,-4.0346685E-1,2.2282843E-2,1.7839197E-2,-7.6985974E-3,3.0780086E-2,4.4971504E-3,-9.425129E-3,-2.8648864E-2,2.302472E-2,-7.065734E-3],"categories":[],"categories_nodes":[],"categories_segments":[],"categories_sizes":[],"default_left":[0,0,0,0,0,0,0,0,0,0,0,0,0,0,0,0,0],"id":71,"left_children":[1,3,-1,5,7,9,11,13,15,-1,-1,-1,-1,-1,-1,-1,-1],"loss_changes":[1.9186274E0,2.1524231E0,0E0,1.9525206E0,2.6916466E0,2.384004E0,1.3979352E0,9.687896E-1,2.9000282E0,0E0,0E0,0E0,0E0,0E0,0E0,0E0,0E0],"parents":[2147483647,0,0,1,1,3,3,4,4,5,5,6,6,7,7,8,8],"right_children":[2,4,-1,6,8,10,12,14,16,-1,-1,-1,-1,-1,-1,-1,-1],"split_conditions":[3E0,-2.055881E-3,2.0553079E-2,-3.0526745E-1,4.1038668E-1,0E0,-1.0769231E-1,1.8461539E-1,5.850394E-1,1.7839197E-2,-7.6985974E-3,3.0780086E-2,4.4971504E-3,-9.425129E-3,-2.8648864E-2,2.302472E-2,-7.065734E-3],"split_indices":[0,6,0,6,6,0,2,2,6,0,0,0,0,0,0,0,0],"split_type":[0,0,0,0,0,0,0,0,0,0,0,0,0,0,0,0,0],"sum_hessian":[1.2481457E2,1.1628725E2,8.527325E0,5.7008057E1,5.927919E1,3.9270363E1,1.7737692E1,2.5157791E1,3.4121403E1,1.0069991E1,2.920037E1,8.154182E0,9.58351E0,1.3630567E1,1.1527225E1,8.706161E0,2.5415241E1],"tree_param":{"num_deleted":"0","num_feature":"7","num_nodes":"17","size_leaf_vector":"1"}},{"base_weights":[4.569069E-4,3.895113E-2,-1.8864151E-2,-2.1424433E-2,2.0857565E-2,9.228774E-2,-2.2397846E-1,-1.2928938E-2,8.824568E-3,9.1168955E-3,-2.1723414E-2],"categories":[],"categories_nodes":[],"categories_segments":[],"categories_sizes":[],"default_left":[0,0,0,0,0,0,0,0,0,0,0],"id":72,"left_children":[1,3,-1,5,-1,7,9,-1,-1,-1,-1],"loss_changes":[2.0685117E0,2.9912176E0,0E0,2.4913883E0,0E0,2.4757895E0,3.9443512E0,0E0,0E0,0E0,0E0],"parents":[2147483647,0,0,1,1,3,3,5,5,6,6],"right_children":[2,4,-1,6,-1,8,10,-1,-1,-1,-1],"split_conditions":[1.0384616E0,6.1538464E-1,-1.8864151E-2,2.4478461E-1,2.0857565E-2,-7.307692E-1,-2.6923078E-1,-1.2928938E-2,8.824568E-3,9.1168955E-3,-2.1723414E-2],"split_indices":[2,2,0,6,0,2,2,0,0,0,0],"split_type":[0,0,0,0,0,0,0,0,0,0,0],"sum_hessian":[1.3192316E2,1.2119773E2,1.0725433E1,1.0626928E2,1.4928449E1,6.840926E1,3.786002E1,1.3701424E1,5.4707836E1,1.3792084E1,2.4067936E1],"tree_param":{"num_deleted":"0","num_feature":"7","num_nodes":"11","size_leaf_vector":"1"}},{"base_weights":[1.4726053E-3,-1.8616823E-2,3.506792E-2,2.4891269E-1,-2.7045155E-2,-1.7022233E-2,3.3316724E-2,-3.004486E-1,1.1714619E-1,9.500143E-3,-1.0726388E-2,-2.950385E-3,-3.9413296E-2,8.862783E-3,-1.0998851E-2],"categories":[],"categories_nodes":[],"categories_segments":[],"categories_sizes":[],"default_left":[0,0,0,0,0,0,0,0,0,0,0,0,0,0,0],"id":73,"left_children":[1,-1,3,5,7,9,-1,11,13,-1,-1,-1,-1,-1,-1],"loss_changes":[1.6873006E0,0E0,1.5555655E0,3.226822E0,3.6329873E0,8.6064786E-1,0E0,4.0057764E0,1.5530326E0,0E0,0E0,0E0,0E0,0E0,0E0],"parents":[2147483647,0,0,2,2,3,3,4,4,5,5,7,7,8,8],"right_children":[2,-1,4,6,8,10,-1,12,14,-1,-1,-1,-1,-1,-1],"split_conditions":[-1.0377398E0,-1.8616823E-2,-4.797041E-1,-6.1944586E-1,1.4696907E-2,-8.1572753E-1,3.3316724E-2,-1.21451035E-1,7.5885755E-1,9.500143E-3,-1.0726388E-2,-2.950385E-3,-3.9413296E-2,8.862783E-3,-1.0998851E-2],"split_indices":[3,0,3,3,3,3,0,3,4,0,0,0,0,0,0],"split_type":[0,0,0,0,0,0,0,0,0,0,0,0,0,0,0],"sum_hessian":[1.2447861E2,8.872009E0,1.156066E2,2.534402E1,9.026258E1,1.6654816E1,8.689205E0,3.079259E1,5.946999E1,8.193499E0,8.461318E0,2.2114803E1,8.677787E0,4.9829018E1,9.640972E0],"tree_param":{"num_deleted":"0","num_feature":"7","num_nodes":"15","size_leaf_vector":"1"}},{"base_weights":[-6.2947564E-2,-2.1068176E-2,-2.9391281E-2,2.0739174E-1,-8.187022E-2,-2.1694432E-4,1.6839597E-2,1.3192669E-2,-2.077999E-1,-6.4037573E-3,1.0802602E-2,-3.329906E-2,-6.8538747E-4],"categories":[],"categories_nodes":[],"categories_segments":[],"categories_sizes":[],"default_left":[0,0,0,0,0,0,0,0,0,0,0,0,0],"id":74,"left_children":[1,-1,3,5,7,-1,-1,9,11,-1,-1,-1,-1],"loss_changes":[1.5935521E0,0E0,1.453034E0,6.789741E-1,1.1438128E0,0E0,0E0,1.8148532E0,3.9540005E0,0E0,0E0,0E0,0E0],"parents":[2147483647,0,0,2,2,3,3,4,4,7,7,8,8],"right_children":[2,-1,4,6,8,-1,-1,10,12,-1,-1,-1,-1],"split_conditions":[-1E0,-2.1068176E-2,-4.6153846E-1,-6.923077E-1,2.1314038E-1,-2.1694432E-4,1.6839597E-2,-2.3166461E-1,4.1992447E-1,-6.4037573E-3,1.0802602E-2,-3.329906E-2,-6.8538747E-4],"split_indices":[2,0,2,2,6,0,0,6,6,0,0,0,0],"split_type":[0,0,0,0,0,0,0,0,0,0,0,0,0],"sum_hessian":[1.2348625E2,8.918833E0,1.1456742E2,2.0249685E1,9.431773E1,8.80446E0,1.1445226E1,5.4255848E1,4.0061886E1,3.232463E1,2.1931215E1,1.0431348E1,2.963054E1],"tree_param":{"num_deleted":"0","num_feature":"7","num_nodes":"13","size_leaf_vector":"1"}},{"base_weights":[6.132601E-2,1.1406165E-1,-1.5562373E-2,1.2841549E-2,3.3406556E-1,9.8271325E-2,-2.1806806E-2,2.9910633E-2,2.2254737E-1,-7.299487E-3,1.1123244E-2,-6.720174E-3,2.2491708E-2],"categories":[],"categories_nodes":[],"categories_segments":[],"categories_sizes":[],"default_left":[0,0,0,0,0,0,0,0,0,0,0,0,0],"id":75,"left_children":[1,3,-1,5,7,9,-1,-1,11,-1,-1,-1,-1],"loss_changes":[2.6823664E0,2.5237079E0,0E0,3.2502317E0,1.0594289E0,2.4015865E0,0E0,0E0,2.6438317E0,0E0,0E0,0E0,0E0],"parents":[2147483647,0,0,1,1,3,3,4,4,5,5,8,8],"right_children":[2,4,-1,6,8,10,-1,-1,12,-1,-1,-1,-1],"split_conditions":[9.038324E-1,1.9311883E-1,-1.5562373E-2,7.622386E-1,-6.10778E-1,-3.3443704E-1,-2.1806806E-2,2.9910633E-2,1.1453384E-2,-7.299487E-3,1.1123244E-2,-6.720174E-3,2.2491708E-2],"split_indices":[4,4,0,3,3,3,0,0,3,0,0,0,0],"split_type":[0,0,0,0,0,0,0,0,0,0,0,0,0],"sum_hessian":[1.269529E2,1.12521866E2,1.4431037E1,7.7790245E1,3.473162E1,6.662848E1,1.1161766E1,8.112053E0,2.6619568E1,2.3455408E1,4.3173073E1,1.1130986E1,1.5488581E1],"tree_param":{"num_deleted":"0","num_feature":"7","num_nodes":"13","size_leaf_vector":"1"}},{"base_weights":[4.781866E-2,1.7511044E-1,-1.8035427E-1,1.9821761E-2,1.2550418E-1,-3.09517E-1,1.7192492E-2,-2.49712E-2,2.5121617E-1,-3.150182E-2,-1.684328E-1,1.0302508E-2,-2.3447853E-2,2.4993144E-2,3.2501783E-5,1.2715487E-3,-2.1770492E-2],"categories":[],"categories_nodes":[],"categories_segments":[],"categories_sizes":[],"default_left":[0,0,0,0,0,0,0,0,0,0,0,0,0,0,0,0,0],"id":76,"left_children":[1,3,5,-1,7,9,-1,11,13,-1,15,-1,-1,-1,-1,-1,-1],"loss_changes":[3.759974E0,9.588194E-1,3.3871903E0,0E0,1.338341E0,1.821296E0,0E0,3.9119787E0,2.6947567E0,0E0,1.6625081E0,0E0,0E0,0E0,0E0,0E0,0E0],"parents":[2147483647,0,0,1,1,2,2,4,4,5,5,7,7,8,8,10,10],"right_children":[2,4,6,-1,8,10,-1,12,14,-1,16,-1,-1,-1,-1,-1,-1],"split_conditions":[2.542078E-1,-7.2835857E-1,6.5175295E-1,1.9821761E-2,-9.977522E-2,4.8610458E-1,1.7192492E-2,-3.550995E-1,9.323892E-2,-3.150182E-2,9.168559E-1,1.0302508E-2,-2.3447853E-2,2.4993144E-2,3.2501783E-5,1.2715487E-3,-2.1770492E-2],"split_indices":[3,6,6,0,4,3,0,4,6,0,3,0,0,0,0,0,0],"split_type":[0,0,0,0,0,0,0,0,0,0,0,0,0,0,0,0,0],"sum_hessian":[1.2736809E2,8.19069E1,4.546119E1,1.2488823E1,6.9418076E1,3.7108833E1,8.352358E0,3.1961727E1,3.7456345E1,9.39966E0,2.7709173E1,2.1446726E1,1.0515E1,1.7167435E1,2.0288912E1,1.7191307E1,1.0517867E1],"tree_param":{"num_deleted":"0","num_feature":"7","num_nodes":"17","size_leaf_vector":"1"}}]},"name":"gbtree"},"learner_model_param":{"base_score":"[4.7320262E-1]","boost_from_average":"1","num_class":"0","num_feature":"7","num_target":"1"},"objective":{"name":"binary:logistic","reg_loss_param":{"scale_pos_weight":"1"}}},"version":[3,2,0]}